784 100 100 26 
0.783242 0.346318 0.324166 -0.471088 -0.280866 -0.235081 -0.690546 -0.683131 -0.637408 0.988802 -0.0987058 -0.305065 0.915774 -0.897681 -0.918984 0.317027 0.794065 0.252121 0.502445 0.0259048 0.780355 0.255385 0.885425 -0.788264 -0.456547 -0.700365 -0.306261 0.362054 -0.573604 0.283921 0.509921 -0.790362 -0.369761 -0.165913 -0.26145 0.349373 0.599006 0.0480041 0.666241 0.961598 0.0368064 -0.432465 -0.343467 -0.0474192 -0.330145 -0.262451 -0.730392 -0.53608 0.98967 0.772053 0.489825 0.770025 0.0274386 0.37525 0.981762 0.570892 0.674885 -0.3245 -0.0670547 -0.898719 0.959421 -0.557134 -0.689081 -0.41034 0.276953 0.0494692 0.939033 -0.124041 -0.902527 0.605274 -0.162443 0.13428 -0.827191 0.494089 -0.91314 -0.157336 -0.768362 -0.643531 0.306585 -0.778692 -0.871478 -0.20359 0.991333 0.155961 -0.82834 0.973095 -0.273148 0.846544 -0.351405 0.659798 0.947825 -0.391984 -0.897336 -0.741255 0.197676 0.379617 0.308214 0.136709 -0.744424 0.405687 -0.258017 0.0931325 -0.460033 -0.0852076 -0.412778 -0.373173 0.757457 -0.181141 -0.016704 0.0640412 0.0401668 0.111818 0.860451 0.0314997 -0.732221 -0.96789 0.0045942 -0.00536921 0.878655 0.653189 -0.345572 0.82648 -0.738795 -0.242908 -0.914775 0.458882 -0.863291 0.393438 -0.404409 -0.607715 -0.200874 0.337574 0.485418 0.339092 -0.747634 -0.92736 0.96592 -0.990177 -0.108501 -0.0507843 0.0738642 0.931666 -0.938966 -0.065685 -0.0368347 -0.671188 -0.0335746 0.967759 0.323443 -0.15492 0.620949 0.977871 -0.32844 0.882154 -0.265036 -0.243215 0.341036 -0.128327 -0.849777 0.936626 0.263959 -0.0506512 0.2742 -0.250623 -0.711559 0.526567 -0.177984 -0.745639 0.53639 0.713515 0.203577 -0.389746 0.645181 0.26461 0.544569 -0.391654 0.593422 -0.489006 -0.423895 -0.0831348 0.356074 -0.802946 -0.105264 -0.972366 -0.920792 0.6297 -0.215581 0.420244 -0.498627 -0.0653577 0.35687 0.765332 0.883991 -0.36893 -0.485291 -0.827568 -0.842363 0.336725 -0.573207 0.694026 0.05024 0.63037 -0.69572 -0.304579 -0.10502 0.848849 0.303767 -0.511598 -0.640157 0.879872 0.405267 0.715917 -0.923074 -0.699996 0.743551 -0.843866 0.929704 -0.47203 0.576378 -0.568923 0.462613 -0.0667524 -0.803591 0.346604 0.564318 -0.288882 0.519036 0.721955 -0.952157 0.945829 0.415981 0.0980831 0.576199 0.720262 0.793504 -0.528822 0.56911 0.0972702 -0.0404198 0.928953 -0.0228578 -0.635153 0.64487 0.0540681 -0.335149 0.388421 0.210202 -0.405445 0.916392 -0.21342 0.025632 0.379004 0.719827 0.222041 -0.274392 0.284145 0.933159 -0.755356 0.00610023 0.981002 -0.809527 -0.577918 0.0790856 0.766671 -0.857657 -0.127411 -0.76215 0.711453 0.969859 0.19743 0.640407 -0.0529984 0.562277 0.285277 -0.99893 -0.772872 -0.326302 0.211272 -0.178317 -0.40991 0.997851 0.847315 0.969094 0.717679 0.069356 -0.305298 0.00182384 0.00251546 -0.060654 -0.992076 -0.0164821 0.129819 -0.569994 -0.937397 -0.10351 -0.427651 -0.0648073 0.13434 -0.716198 -0.0949478 -0.6683 0.924214 0.852055 0.894046 0.209548 0.853156 -0.878826 0.883189 0.0643953 -0.0571431 -0.526736 0.0622466 -0.209828 -0.557632 -0.220075 0.859528 0.137048 0.781793 -0.137957 -0.923584 0.789672 0.845561 0.206245 -0.780323 0.908165 -0.897275 -0.208032 -0.156643 0.237064 0.0758302 0.748409 0.568834 3.92349e-05 0.599953 0.46288 -0.790718 0.453587 0.584054 -0.907291 -0.482005 -0.47304 -0.434021 0.580229 0.317083 0.00835042 -0.639843 0.17661 -0.854665 -0.858106 -0.961347 -0.778164 0.931578 0.884214 0.428071 -0.848745 0.792379 0.530796 -0.0567173 -0.364395 -0.23214 -0.980887 -0.615849 -0.663306 0.0191523 0.984607 0.799574 0.228677 0.43827 0.383623 0.321386 0.956178 0.910538 0.887369 0.536403 0.226889 -0.104281 0.896606 -0.595769 0.0411401 -0.961534 -0.557115 0.262976 0.970024 -0.672796 -0.308992 -0.878766 -0.880525 -0.778157 0.0645752 -0.244815 -0.0102971 0.0836907 0.139365 0.326397 -0.897157 0.123969 0.125984 0.33152 -0.437967 -0.490402 -0.352249 -0.482171 -0.57916 -0.460743 -0.968799 0.652541 0.428725 0.952868 -0.947749 -0.523262 0.98874 -0.515343 0.742733 0.978146 -0.178912 -0.569771 -0.909087 -0.0563174 -0.346999 0.143711 0.696691 0.642767 -0.783927 -0.170259 -0.0311628 -0.667823 0.955816 -0.906213 0.661764 -0.478261 -0.395387 -0.681575 0.0407141 -0.0238303 -0.145182 0.0801304 -0.328384 -0.706818 0.0474271 -0.27243 -0.232777 0.0205368 0.22224 -0.489868 -0.00307725 -0.972704 -0.0580713 0.0663664 -0.0197364 0.594098 -0.770717 -0.321345 0.242227 -0.547718 0.521346 -0.794491 -0.203448 0.473894 -0.700333 -0.558926 0.997653 -0.0915861 -0.234907 0.0384864 0.928688 0.621818 -0.869285 -0.400059 0.914349 0.177825 0.327853 -0.310589 -0.783628 -0.446315 0.128281 0.212978 -0.422934 -0.872141 -0.711838 0.571685 0.737931 -0.486459 -0.750369 -0.0197713 -0.0385661 0.763059 0.174453 0.756345 0.265078 0.472051 -0.817158 0.239231 -0.618801 -0.042661 -0.719629 -0.686011 -0.416374 -0.589796 -0.0943001 -0.501677 0.595227 -0.775279 0.203944 0.802478 -0.246186 -0.602808 -0.000386597 0.376327 -0.482745 0.307656 -0.0638429 -0.77138 0.837583 0.220952 0.212578 -0.215887 -0.0172685 -0.612775 -0.453619 -0.803753 0.862961 -0.264877 0.387446 -0.776229 0.690156 0.7264 -0.44002 -0.725609 -0.860993 0.466427 -0.218815 0.737725 0.699951 0.894929 0.515834 -0.475415 -0.646095 -0.416731 0.848614 -0.139369 0.82785 -0.220882 0.121382 0.668786 -0.974606 -0.729357 -0.512961 -0.0276888 -0.281046 0.00375239 0.197743 -0.439166 0.791952 -0.35127 -0.15475 0.440613 -0.596348 0.367806 0.794047 -0.538402 -0.167748 -0.480028 -0.75024 -0.454147 -0.534058 0.784617 0.0255042 -0.203304 -0.658377 -0.0918677 0.68157 -0.787373 0.750719 -0.208205 0.871229 0.763955 0.0821502 -0.680031 -0.220866 0.807661 0.397295 1.02213 -0.621927 0.161812 -0.392417 0.201662 -0.414554 0.050887 -0.388032 -0.684682 0.488266 0.351822 -0.169065 0.767566 0.940131 0.323879 0.550805 -0.0722646 -0.851742 0.881935 0.875231 0.754373 -0.865884 0.644232 -0.437932 -0.9767 0.439192 0.652879 -0.597128 -0.803525 0.478577 0.765433 -0.838778 0.85796 -0.0856679 -0.181438 0.0874168 0.491157 0.85678 0.599697 0.831826 0.34971 -0.0416458 -0.32585 0.131717 -0.0792025 0.960265 -0.310938 0.936006 -0.921067 -0.412936 0.825332 0.849937 -0.352379 0.420346 -0.473369 -0.283633 -0.11777 -0.849978 0.0969524 -0.0108378 0.603162 -0.106874 0.19377 0.537337 0.779478 -0.959563 -0.390921 0.31303 0.847068 -0.798081 0.156294 0.284072 0.198253 0.813032 -0.677491 -0.74715 0.755919 0.0291818 -0.936987 0.823905 0.610607 0.821516 0.720392 -0.718938 0.250187 -0.841441 -0.0710306 -0.902224 -0.674923 -0.850877 0.150142 -1.00172 0.0313752 -0.636738 0.53182 -0.191248 -0.62444 -0.823566 -0.870007 -0.763029 -0.575327 0.277201 0.437255 0.563431 0.0840964 0.797114 0.789402 -0.177718 -0.206348 0.725613 -0.418695 -0.664815 0.581921 -0.673654 -0.260831 -0.164701 -0.558708 0.773798 -0.083844 -0.159517 0.886045 -0.89688 -0.147833 -0.0846364 -0.558565 -0.577474 0.720856 -0.12497 -0.444115 0.831414 0.110915 -0.108286 0.103602 -0.465933 -0.444623 -0.811937 -0.6869 -0.73393 -0.05488 0.135054 -0.961213 0.559078 0.540159 0.622282 0.92146 -0.74533 -0.530803 -0.573629 0.993118 0.385429 0.289634 0.845458 0.463163 -0.936325 -0.167518 0.895568 -0.4967 -0.429843 -0.228739 0.00746138 -0.688859 0.858556 -1.04026 0.506804 -0.587619 -0.456121 0.696587 -0.292335 -0.196372 -0.389223 0.866104 -0.0582363 -0.775969 0.361962 -0.527464 -0.794779 0.572633 -0.0401865 -0.436811 0.578775 -0.641013 0.778154 0.482072 0.770594 0.880684 -0.767273 0.704227 -0.640263 -0.241898 -0.47569 0.445665 0.148997 -0.609743 0.443742 -0.343421 -0.210162 0.958655 -0.660548 0.489345 -0.251241 0.0282517 0.329133 0.627406 0.189305 -0.29715 -0.862411 0.364969 -0.724693 0.0581512 0.86433 0.793785 0.277657 0.627673 0.293096 0.227405 0.517149 0.50165 0.000335986 0.886412 -0.697316 0.487464 0.353488 0.464003 0.894843 -0.242269 -0.847268 -0.361583 -0.241262 -0.535466 -0.911208 0.557782 0.41734 0.43193 0.164329 -0.386356 -0.870396 0.286212 0.950768 -0.632445 -0.623235 0.801632 -0.807752 0.767221 0.433249 0.537533 -0.00254015 -0.0519899 0.0356676 0.959775 -0.187434 0.353703 0.413127 -0.850488 -0.220839 0.357459 -0.0994624 -0.0796729 1.04123 0.671903 0.341925 -0.947207 0.189936 -0.257648 0.573634 -0.615322 0.43246 0.706293 0.642936 0.37259 -0.967499 1.00237 0.233562 -0.725596 0.743377 -0.366032 0.777458 -0.326313 0.590954 -0.34177 -0.337699 -0.54875 -0.878543 -0.863596 -0.462803 -0.0787208 0.426242 0.462677 0.793144 0.397814 0.145906 0.224651 0.526145 -0.66491 -0.979559 0.0860242 -0.266478 0.457801 -0.215713 -0.663575 -0.188215 -0.101631 -0.672152 -0.947682 0.105032 -0.941862 -0.275011 -0.117503 -0.230695 -0.721705 0.649391 0.394485 -0.358989 0.745556 0.536231 0.259036 -0.309517 -0.0384121 -0.222613 -0.470132 -0.632572 0.894087 0.773966 0.889988 -0.763362 0.778406 -0.00335625 -0.0894111 0.23955 0.786366 0.208606 -0.890517 -0.3903 0.555576 -0.853289 0.689641 0.63013 -0.156991 -0.432752 -0.609734 0.131693 -0.796057 0.813367 0.82716 0.957077 0.370553 0.0945855 -0.358597 -0.671986 0.829336 0.158827 -0.309036 0.677159 -0.0954311 -0.432028 0.946488 -0.331516 0.558526 -0.0945507 0.918076 0.301772 -0.920901 -0.990971 0.854 0.689473 -0.816519 0.616625 0.325407 0.00966708 -0.816482 0.697671 -0.887189 -0.592406 0.539549 0.939029 -0.637995 -0.118659 -0.0123633 0.0074073 0.0225583 -0.171253 -0.812579 0.903322 -0.438927 0.0689455 -0.518848 -0.521565 0.747017 -1.01152 0.340134 0.665878 0.356513 0.472043 0.66466 0.263397 0.153222 0.85905 -0.114103 -0.504853 -0.166996 0.0481274 -0.76157 -0.0412623 0.481649 0.724616 -0.119756 0.856156 -0.384756 0.890932 -0.14606 0.813351 -0.301495 0.0270473 0.693641 0.257204 -0.916173 -0.799885 0.764231 0.84752 -0.784814 0.0814402 0.509255 0.587995 -0.455025 0.184746 -0.146667 0.69776 0.00976202 0.740054 -0.82433 0.834443 -0.177969 -0.630822 -0.198977 -0.695789 -0.917484 0.693513 -0.848355 -0.301403 0.587899 0.00647422 -0.495328 -0.692604 -0.97533 -0.790154 0.569162 -0.871699 -0.60583 0.315562 0.965194 -0.377853 -0.608646 0.451611 -0.797747 -0.0661401 -0.347865 0.0489657 -0.371117 0.687452 -0.208928 -0.194616 0.522787 0.610822 0.155867 -0.665915 0.928459 0.262541 -0.9765 -0.935701 0.968013 0.604082 0.0647365 -0.524832 0.909377 0.0988532 -0.313778 0.475079 0.212308 0.0790461 -0.304718 0.178248 0.706211 0.177774 -0.34272 0.901904 -0.887546 0.300191 -0.0456838 -0.283565 -0.0328489 0.743779 0.549449 -0.501342 0.346509 -0.280774 -0.1754 0.277758 0.990995 -0.141926 0.334809 0.944914 -0.543871 -0.59168 -0.566094 -0.635865 0.503774 0.121878 0.840356 -0.282944 -0.798255 -0.371524 0.896952 0.907829 0.800711 -0.459757 0.799336 0.924102 0.856634 -0.247497 -0.351409 -0.187858 -0.50613 -0.787675 0.30372 0.856531 -0.0703985 -0.872106 0.118837 -0.0793209 -0.0247584 -0.536495 -0.11717 0.432851 -0.136148 0.316205 0.792187 -0.630946 -0.561879 0.634083 0.0871172 -0.355502 -0.740686 -0.0192564 -0.458185 -0.940009 0.533993 -0.653274 0.973726 0.369784 0.103124 -0.369332 -0.821213 0.600444 -0.16077 0.482672 0.455042 0.764536 0.60983 -0.419668 -0.309932 -0.413288 0.0300647 0.567356 -0.983245 0.898201 -0.115919 0.811699 -0.734551 0.321474 0.443264 0.348663 0.961837 0.703743 -0.666503 -0.49361 0.764097 0.859185 -0.153352 0.73676 0.226653 0.954061 -0.632015 0.40522 0.556758 0.206163 -0.116656 0.00947122 -0.0248487 -0.50538 0.586039 0.660444 0.0854082 -0.377479 0.223545 0.0996114 -0.480304 -0.881973 -0.0879779 -0.216906 0.433313 -0.641468 -0.865368 0.395706 -0.935288 -0.532876 0.905097 0.828265 -0.675958 -0.247875 0.562164 0.553879 -0.294527 0.92969 -0.0421899 -0.742101 0.138762 0.843589 0.27052 -0.886596 -0.65681 -0.144189 0.769755 0.428694 0.47717 0.00160462 -0.470464 0.995792 0.111656 0.442086 -0.218713 -0.446477 0.80056 -0.0841519 0.941961 0.862497 0.382773 0.842546 0.688487 0.709211 -0.406095 0.253348 0.261569 0.298686 0.187253 -0.78023 0.560525 -0.673357 -0.935053 -0.168352 -0.561911 -0.591882 0.686714 -0.789254 0.836621 0.164329 0.214099 -0.636904 0.160754 -0.675365 0.80785 0.941862 -0.133601 0.608129 -0.142308 -0.18861 0.471902 -0.75725 -0.344765 0.160035 0.947853 0.24919 -0.586801 0.211798 -0.451034 0.601731 0.431774 -0.890123 0.925698 0.496555 -0.0587126 -0.636238 0.90445 -0.373378 -0.428561 0.740682 0.78573 0.786391 -0.891619 -0.0491918 -0.889013 0.914341 -0.107346 -0.0178048 0.522839 0.749995 0.795407 -0.00489369 0.99062 -0.549187 -0.846048 0.941467 0.699791 -0.432842 0.15331 -0.751326 -0.828307 -0.412863 -0.644219 -0.909589 -0.917707 0.297988 -0.542266 0.982757 0.923822 0.0306498 0.726924 0.715097 -0.182043 0.834317 -0.334512 -0.0724226 0.747943 0.558152 0.910503 0.270935 0.308517 0.697163 -0.73456 0.299445 -0.84356 -0.580384 0.2405 0.856224 -0.0140045 -0.606825 -0.894958 0.152331 -0.0206571 -0.536958 0.245219 0.0611002 0.760532 0.70183 0.0479588 0.681849 -0.267696 -0.223705 0.400255 0.550754 -0.390521 -0.934263 -0.521136 -0.642042 0.62132 -0.611009 0.62898 -0.0675728 -0.905148 0.893748 -0.767818 -0.748873 -0.68763 0.475477 -0.892366 0.297176 0.867494 -0.78663 -0.544887 -0.148268 -0.327284 0.695404 0.904496 -0.559221 0.397302 -0.0442973 -0.878094 -0.869914 0.732029 0.521154 0.681113 -0.659477 0.589353 -0.841828 -0.304793 0.212442 -0.452853 -0.672526 -0.855435 -0.358056 -0.779646 -0.629741 -0.106841 -0.466479 0.848677 0.00279106 0.831447 0.71664 0.212483 -0.718648 -0.436933 0.888468 0.97645 -0.528052 -0.675948 0.372744 0.430021 -0.553708 0.503634 0.160683 0.969422 0.18364 0.50595 0.55611 0.342038 -0.801995 -0.232397 0.888722 -0.474907 -0.0861935 -0.469017 -0.253325 0.280211 0.424359 0.279996 0.157544 -0.583599 0.114437 -0.148963 0.63568 0.38909 0.411861 0.528758 0.371328 0.903608 0.847472 -0.265688 0.322143 -0.705491 -0.753401 -0.520116 -0.728053 0.427829 0.981063 0.82081 -0.228467 -0.799811 -0.405662 -0.3388 -0.290676 0.500447 0.182095 0.457892 -0.216349 -0.38664 -0.27686 0.940245 0.0378902 0.832959 -0.190529 -0.318728 0.222173 -0.810197 -0.803395 -0.414303 -0.907754 -0.939417 0.337484 0.41368 -0.662481 0.578273 0.884448 -0.389286 0.0188628 0.864446 -0.578922 0.790371 -0.963574 -0.0155134 -0.545032 -0.315849 -0.495399 0.650058 -0.821004 0.29793 -0.739826 -0.100603 0.211509 0.285952 -0.281677 0.994573 0.964357 0.970007 -0.798879 -0.81687 -0.430796 -0.713372 -0.789221 0.907452 0.695252 -0.451241 0.490744 0.581467 0.148051 -0.485732 0.441692 0.578912 -0.682557 0.475577 -0.426364 -0.247658 -0.783975 0.0821399 -0.609923 -0.615707 -0.63196 -0.352573 0.297709 0.58376 0.939146 -0.961802 0.588287 0.887677 -0.99559 0.777451 -0.897516 -0.446896 -0.923658 -0.732806 -0.526144 0.753201 -0.159682 0.974938 0.346273 0.991506 -0.518741 -0.213445 0.555109 -0.21228 -0.7381 -0.873213 0.565262 -0.524062 0.212165 0.937699 -0.134458 0.610683 -0.414898 -0.840945 0.162435 -0.476791 -0.826078 -0.24855 -0.571575 -0.808237 -0.494185 -0.465644 -0.237162 -0.432977 -0.188967 0.251127 -0.679824 0.597939 0.206859 0.673583 0.587762 0.722302 -0.541928 0.144204 -0.525914 -0.298042 0.253485 -0.961355 0.190592 -0.539881 0.953226 -0.943659 -0.986525 -0.503777 -0.777218 0.188512 0.0623763 -0.5858 0.904426 0.488538 -0.392433 -0.596688 0.981387 0.344253 -0.019719 -0.222023 -0.401867 0.321772 -0.598199 0.828686 -0.00706435 0.984096 0.501424 0.449422 0.12337 0.979456 -0.827775 -0.621102 0.990819 0.361748 -0.174013 0.960723 0.443868 -0.152516 -0.529098 0.624825 -0.967965 0.534971 -0.977056 0.926806 0.0161858 -0.372588 -0.671133 -0.0101075 0.98571 0.335854 0.757766 -0.438873 -0.35463 -0.815733 -0.602561 0.62362 -0.818289 0.869095 0.08336 0.284721 0.895738 0.260387 0.675876 0.865727 -0.390787 -0.492075 0.814775 -0.973138 0.371246 -0.711413 0.682956 0.380392 0.822832 0.685364 0.308998 -0.146142 -0.697103 0.641223 0.84762 -0.700769 -0.0477182 0.641419 -0.117854 0.605298 0.809568 0.319613 0.245769 0.988224 0.189657 -0.660165 0.268773 0.0214006 0.583557 -0.0502729 -0.101133 -0.754693 0.450561 -0.273567 -0.784369 -0.208943 -0.0125585 0.864659 -0.822287 -0.176846 0.565146 0.482832 0.655483 0.841305 0.131786 0.490479 -0.816548 -0.899945 0.123509 0.0532812 0.705297 -0.0515634 -0.711641 -0.0858642 -0.0538692 0.510751 0.276445 -0.769972 -0.440799 -0.157499 0.15011 0.458606 0.0725336 -0.391263 -0.800753 0.271487 0.418302 0.168182 0.129507 0.601337 0.964514 -0.283517 0.11707 0.612098 -0.448897 -0.809119 0.0959336 -0.26413 -0.72006 -0.770795 0.784027 0.985991 0.160143 -0.911009 -0.0568735 -0.888063 0.503579 -0.822591 -0.690707 -0.828343 0.00550765 0.461508 0.62344 -0.911084 -0.912317 0.80201 0.437006 0.501319 -0.0564461 -0.464867 0.0967522 -0.0587148 0.20403 -0.823376 -0.382275 0.757573 -0.631068 0.675161 -0.520408 -0.343532 0.889224 -0.777504 -0.370644 0.0515951 -0.637507 0.563185 0.149057 1.01189 0.767623 0.460224 -0.856258 -0.124112 -0.062085 0.803348 -0.0808168 0.0253289 0.590323 -0.741721 -0.468118 -0.428507 -0.206391 0.652036 0.520731 1.00138 0.81551 -0.916816 0.749733 -0.902549 0.763567 -0.738833 -0.139867 0.635916 -0.444921 0.485946 -0.282707 -0.127583 0.0586611 0.855644 -0.131831 -0.193283 0.307925 0.0671301 0.569729 -0.763175 -0.125649 -0.481976 0.279886 -0.55699 -0.175517 0.816949 -0.00582905 0.621362 0.453972 -0.505128 0.684896 0.253832 -0.389737 0.383077 0.424482 -0.627287 0.619206 -0.67568 1.05466 -0.875962 0.758624 -0.329817 -0.0153923 -0.182418 -0.480228 0.858234 0.650225 0.83776 -0.095872 0.198134 -0.871059 0.744527 0.676958 0.363914 -0.838447 -0.416836 0.161065 0.166473 -0.813149 -0.362609 0.693299 0.829643 0.945329 -0.703256 0.196288 0.34247 -0.344488 -0.169665 0.598881 -0.35126 0.00719414 0.342281 0.325589 0.986371 -0.873762 0.85242 0.847755 0.704402 0.679396 -0.247178 -0.0635401 0.774853 -0.504366 -0.287494 0.150802 -0.351424 0.276897 -0.6324 0.817449 0.495859 -0.0207128 0.516358 0.325434 -0.142652 0.812276 -0.461474 -0.800198 -0.530452 0.379472 0.792224 0.133446 -0.651687 0.14602 -0.630886 -0.661657 0.280037 -0.683614 -0.830333 0.0361223 0.991135 -0.0542703 0.945035 0.763888 0.406622 -0.346887 -0.0901101 -0.938703 0.965194 0.244892 0.899755 0.469381 -0.797111 0.401957 -0.241402 0.101316 0.219098 0.298256 0.303996 0.694345 -0.345551 0.135504 -0.193701 0.0282926 -0.753068 0.254412 0.35859 0.520064 0.583272 0.548163 -0.478047 0.545814 -0.563005 -0.534369 0.312795 0.845362 0.116976 -0.752392 0.919286 0.0675516 0.455552 0.818979 -0.490448 0.681976 0.192233 0.270242 -0.215058 -0.572382 -0.498669 -0.913616 -0.881448 0.239051 0.193094 -0.0658114 -0.733364 0.440067 -0.819526 0.613531 -0.0212196 0.744877 0.121072 0.490885 0.262981 0.569824 0.969061 -0.441172 0.425873 0.0979701 -0.233301 0.347727 -0.83231 -0.778858 0.143347 -0.32783 0.902338 -0.647615 0.931919 -0.312191 -0.217519 -0.504043 -0.237595 -0.101029 0.72397 0.966372 0.775579 -0.99027 0.368577 -0.998373 0.625279 -0.626718 0.737453 -0.246753 0.863064 -0.00774562 -0.677108 0.823078 0.559192 0.7463 -0.0709571 -0.674107 0.0788597 0.0972795 -0.476534 -0.774804 0.768316 -0.548805 -0.422335 0.705323 0.128136 0.361102 -0.788672 0.926209 -0.743365 0.95049 0.883041 -0.918987 0.96029 0.289654 -0.914913 0.585966 0.668878 0.82339 -0.68278 0.541858 -0.183293 -0.340766 0.35585 -0.628946 -0.587618 -0.691767 -0.306019 0.484489 0.381155 0.253379 0.70471 0.154082 0.700443 -0.711844 -0.138751 -0.163906 0.64568 0.0649338 -0.250537 0.904338 0.0301217 -0.367679 1.00739 -0.0206647 0.84889 -0.934886 -0.426893 0.58033 0.897865 -0.105577 0.10528 -0.309639 0.576637 -0.535115 0.142266 0.97213 -0.27483 0.781312 0.44659 -0.879539 0.0241731 0.16058 0.278693 -0.270942 0.438247 -0.840362 0.564022 0.0950931 0.204894 -0.686029 -0.00794165 -0.777434 -0.0628737 -0.0304674 0.192897 -0.135654 0.0252348 0.755879 -0.570912 -0.077966 -0.402432 0.55733 0.584807 -0.802471 -0.972664 -0.291365 -0.842329 -0.222878 -0.509826 0.593592 -0.0940194 0.510816 -0.25543 -0.803166 -0.751348 -0.817102 -0.673476 0.813654 0.259283 0.534839 -0.871049 -0.747705 0.755308 0.0716367 0.21754 -0.0559544 0.921693 -0.728714 -0.300309 -0.600629 0.219744 0.342929 0.989346 -0.177408 0.540878 0.945527 0.528825 0.698962 -0.273867 -0.963161 0.288065 0.65335 0.529524 -0.972529 0.852129 0.799077 -0.789733 -0.837072 0.590503 0.486979 0.694298 0.727407 0.717609 0.457972 -0.200982 -0.043868 -0.591121 -0.261578 0.216098 0.111511 0.121332 -0.608345 -0.535672 0.075556 0.150152 0.989598 0.068101 -0.26669 0.692169 0.790906 -0.252868 -0.0257836 0.469736 -0.727727 0.0488087 0.305093 -0.965644 0.222451 0.468408 0.640641 -0.298016 0.167852 0.36054 -0.560609 -0.367049 -0.834555 0.395279 0.038529 -0.112032 -0.38848 -0.860823 -0.966051 0.00720153 -0.39859 0.0811851 -0.772617 -0.40832 -0.861923 -0.060723 -0.678675 0.894664 0.700572 0.220179 0.390601 0.973376 -0.737963 -0.322291 -0.974906 0.483738 -0.868777 0.674178 -0.819759 0.308708 0.0258166 -0.372575 0.941814 0.173022 -0.976585 -0.0447697 -0.935999 -0.386977 0.134246 -0.921249 0.646017 0.735564 0.168094 0.846697 -0.666382 0.302584 -0.16408 -0.371548 0.239171 -0.467114 0.861215 -0.378285 -0.493665 -0.867166 0.285703 -0.487502 0.630219 0.452223 -0.804858 0.794861 -0.235048 0.205125 -0.575775 -0.319781 -0.60882 -0.555264 0.672453 -0.555677 0.0977903 -0.201781 -0.473539 -0.263239 -0.463862 0.706795 -0.395634 -0.134097 0.0147519 0.430742 0.475265 -0.747415 0.965504 0.334515 -0.126025 -0.527762 0.460279 -0.831094 0.00302301 0.0688123 0.601331 0.19863 -0.138755 -0.656891 -0.582364 0.282448 0.025719 -0.186876 0.727594 -0.307098 0.274933 -0.191412 0.494143 0.814096 0.534904 -0.969017 0.520836 -0.865636 -0.103098 -0.466706 0.565642 -0.62867 -0.212237 0.527377 0.708716 0.661143 -0.997515 0.167848 0.829377 0.00414211 -0.764848 0.430503 -0.795252 0.0967371 0.775264 -0.378493 -0.618932 -0.199704 0.434168 -0.892653 0.492807 -0.291208 -0.0852966 -0.0127165 -0.477113 -0.550864 0.0183007 -0.958593 -0.416372 0.915986 -0.42008 -0.85099 -0.713184 0.367648 0.678719 0.995191 0.0260602 0.682042 0.16415 -0.140275 -0.312197 0.399732 -0.708 -0.107945 -0.503036 -0.932295 0.513801 -0.12385 -0.131057 -0.052227 -0.0156341 -0.640154 0.656355 0.899111 0.348013 -0.820661 -0.651641 -0.634465 -0.775615 -0.0707158 -0.718789 -0.19583 0.0812865 -0.432393 -0.828349 -0.239176 -0.437404 0.201044 -0.557075 0.726751 -0.938868 0.130728 0.126714 -0.646949 -0.977358 0.623748 -0.580486 0.535886 -0.499078 0.286333 -0.516344 0.485039 0.646292 -0.859916 0.384189 -0.00656597 -0.680333 0.732541 0.359067 -0.456192 -0.335417 0.639792 0.347837 0.74584 -0.792877 0.519472 -0.493262 -0.230233 -0.279442 -0.0503662 -0.503488 -0.218404 -0.919638 0.62323 0.134912 -0.896994 0.246974 0.554186 0.638972 0.747663 -0.159569 -0.876922 0.23269 -0.513189 -0.737238 -0.383153 0.48023 -0.417567 -0.650616 -0.160675 0.126207 0.0139428 -0.520784 -0.525926 -0.240219 -0.313709 0.993587 0.26662 0.456057 -0.285876 -0.783876 0.952502 0.49574 -0.703514 0.575772 -0.369675 -0.600414 -0.17726 -0.815576 -0.961622 -0.429581 0.0248551 -0.838869 0.803109 0.511746 -0.576312 -0.580042 -0.0081639 0.00611713 -0.230655 0.831161 -0.867649 0.783287 -0.689738 -0.393575 -0.456932 -0.00340778 -0.399988 0.809623 -0.547374 0.314156 -0.97422 -0.594868 -0.190103 -0.677869 0.98099 0.440211 -0.278345 -0.196242 0.624649 -0.23992 0.374178 -0.3505 -0.0790136 0.177287 -0.838922 0.34464 0.597243 0.153037 -0.649245 -0.633412 -0.0159241 -0.516894 -0.850191 0.29437 0.0894806 -0.307057 -0.709078 0.689543 -0.497499 -0.256438 0.00369907 -0.471818 0.148742 0.813571 -0.149671 0.129747 0.253817 0.572004 0.93349 -0.121537 -0.667963 0.307668 0.527965 0.253156 -0.515044 0.689041 -0.402325 -0.91776 -0.158038 -0.0516133 -0.550949 0.826032 0.431538 -0.401339 0.120386 -0.478991 0.291606 0.411305 -0.789434 0.79409 -0.845143 0.214314 -0.677713 0.303598 0.0278613 0.172636 -0.566605 -0.718322 -0.255372 -0.63318 0.160108 0.0766766 0.674488 -0.311907 -0.670331 -0.840509 -0.622869 -0.0726993 -0.75836 0.219101 0.875687 -0.309468 0.0451332 0.307263 0.28909 -0.83448 0.828203 -0.419307 0.576827 -0.961231 -0.625203 0.731683 0.253026 -0.302915 0.0352806 -0.719094 0.869721 0.468643 -0.437426 -0.385639 0.835479 0.722683 0.691037 0.5099 -0.589181 -0.979299 0.669361 -0.212036 -0.0519936 0.911002 -0.992935 -0.176306 -0.398572 0.0521985 -0.869126 0.890516 0.217718 0.959077 -0.528792 -0.205455 0.997846 -0.153995 -0.473773 0.250881 0.54309 0.561508 0.531776 0.412811 0.0301184 -0.90565 -0.972829 -0.134451 0.817065 0.718209 -0.624533 -0.772117 0.738914 -0.955172 0.0158475 -0.313079 0.95583 0.0229128 0.510614 -0.442742 -0.924889 0.641488 -0.552226 0.292829 0.600565 -0.0810179 -0.912627 0.598412 0.764988 -0.386399 -0.150707 0.308078 -0.824891 -0.618931 -0.279111 0.205227 -0.524581 -0.25194 -0.929224 -0.707516 -0.533731 -0.553757 -0.479633 -0.794817 -0.508929 0.536214 -0.107896 -0.553099 -0.440873 -0.597282 0.00415908 -0.365761 -0.955794 0.451933 0.927067 0.644772 -0.629085 -0.985559 0.243183 -0.864097 -0.371958 -0.907524 0.44398 -0.196849 -0.526455 -0.835131 -0.991622 -0.0510365 -0.087071 -0.920846 0.241447 0.379198 -0.474603 0.761814 0.584381 0.0164681 0.298028 -0.523516 0.463369 0.857156 -0.120797 -0.532472 -0.508606 -0.0765912 0.919461 -0.581538 -0.43182 -0.709624 -0.567097 0.811364 -0.573721 0.0609443 0.90384 0.87026 0.864095 -0.622616 -0.964871 0.872473 0.326348 -0.0519423 0.951626 -0.432205 -0.672745 -0.522977 -0.670391 0.911636 0.493491 0.627637 -0.61188 -0.0431396 0.484793 0.267323 0.424389 0.976187 -0.809268 0.34385 -0.605352 -0.241088 0.634226 -0.172449 -0.429724 -0.939494 0.888495 -0.525885 0.930765 0.75259 -0.1485 0.965894 0.625063 -0.822153 -0.0860486 0.576689 -0.254358 0.241207 -0.946287 0.075251 0.152843 0.547204 -0.297112 0.540963 -0.495936 -0.812319 -0.191714 0.928453 -0.836132 -0.000982115 0.272303 -0.441484 0.75793 -0.0934707 0.386067 -0.671794 -0.0329652 0.274562 -0.197679 -0.1022 0.0271524 0.653821 -0.136306 -0.347785 0.831669 0.777645 -0.771095 -0.422689 0.018852 -0.717383 0.652562 -0.828305 0.829821 -0.64455 0.712658 -0.666115 -0.456869 -0.479056 -0.737662 -0.293002 0.519962 0.534641 0.265515 0.277892 -0.55883 -0.348418 0.606098 0.408205 0.926144 -0.59158 -0.693995 -0.0467037 -0.937759 0.169699 0.605512 0.89391 -0.0526559 0.834416 -0.528779 0.966196 -0.882967 -0.876218 -0.862109 0.946854 -0.520767 0.850549 -0.71926 0.0223634 -0.628507 -0.456922 0.729362 0.891455 -0.922281 -0.00512358 0.169347 -0.481111 0.646458 -0.224555 0.927095 0.572602 0.183865 -0.7669 -0.474102 0.246106 0.402799 -0.86859 0.140015 -0.649857 0.965826 0.611236 -0.683661 -0.917141 0.735018 -0.54577 -0.970286 -0.785749 -0.695221 -0.689547 0.236614 -0.323728 -0.146469 -0.0340236 -0.432272 -0.0687499 0.960853 0.737075 0.45014 0.607311 -0.48748 0.377234 0.179913 0.696385 0.610334 0.705811 -0.0575086 0.0131332 0.83722 -0.917493 0.363276 0.803046 0.693743 0.679615 0.885905 0.428761 -0.866154 0.915619 0.643012 -0.561375 -0.773928 -0.120373 0.114897 0.0796032 0.845603 0.682625 -0.989147 0.806456 0.4197 0.460993 0.413767 0.93222 -0.161773 -0.406321 0.628605 -0.551439 -0.70051 -0.428903 0.461695 -0.86329 -0.346396 -0.175029 0.939757 -0.652653 -0.495414 0.825662 0.776108 -0.361568 0.741281 0.41912 0.0770569 0.967353 -0.701253 -0.808046 0.0469562 -0.85565 0.874579 0.0578095 0.950806 0.294278 -0.481198 0.364573 0.226498 0.357029 0.958252 -0.144897 0.805591 -0.742258 0.4262 0.267286 -0.605547 -0.920196 -0.907743 -0.665791 -0.57285 -0.403157 -0.840129 -0.796742 0.235275 0.901152 0.622378 -0.687668 0.868505 0.921125 -0.495714 -0.0845384 -0.934524 -0.621136 0.973271 -0.983718 0.673142 -0.507927 0.380855 -0.10036 0.849103 0.339107 0.754744 0.654694 0.59685 0.180944 -0.0780207 0.991302 0.260748 0.0142358 -0.674488 0.687898 0.611079 -0.514617 0.891156 -0.153646 -0.613465 0.513535 0.158686 -0.744959 0.43466 0.662972 0.170503 0.500136 -0.958164 0.143774 0.516418 0.714978 0.635847 -0.102727 -0.385381 0.48495 -0.76362 -0.630637 0.139644 0.83323 0.550306 -0.938377 0.824532 -0.188946 0.0758589 -0.849956 -0.501048 -0.313062 -0.364573 -0.609877 0.533287 0.0216056 0.903616 -0.308016 0.277003 0.338052 -0.645064 -0.552494 -0.161567 -0.603022 0.591432 -0.645046 -0.888174 0.22713 0.252129 -0.273614 -0.287968 0.488513 0.0957437 0.85172 0.321749 -0.353879 0.913334 0.146272 0.457264 -0.0107921 0.296315 0.956189 0.67614 0.931889 -0.65347 0.209499 -0.0462551 -0.750153 0.901269 -0.76929 0.588108 -0.743622 -0.321785 -0.573798 -0.346736 -0.7305 -0.218642 -0.235138 0.496875 -0.966432 0.491297 -0.791245 0.522075 -0.412844 -0.939605 -0.156005 0.233072 0.973781 0.989847 -0.309637 -0.0370261 0.286343 -0.353624 -0.360887 0.218108 -0.00785941 0.848405 -0.828212 0.242211 0.749941 -0.597536 -0.169666 -0.993725 0.0807465 0.256967 -0.340549 0.350126 -0.96168 0.424348 -0.153126 -0.928362 -0.0843359 0.0555983 0.593874 0.502668 0.115967 -0.562283 -0.264429 0.0897867 -0.572218 0.425793 -0.947244 0.714117 -0.927767 -0.308126 -0.0677817 0.0645735 -0.459026 0.103955 -0.693127 -0.709702 0.506593 0.13751 -0.704354 -0.413308 -0.606657 -0.0442244 0.937816 -0.570087 -0.624398 -0.217017 -0.495609 0.295221 0.843099 -0.897664 -0.201411 -0.0418206 -0.464498 0.533585 -0.955825 -0.040659 -0.0379431 -0.903397 -0.322957 0.0308411 -0.207607 0.608403 -0.903122 0.331771 -0.285773 -0.596493 0.623799 -0.779404 0.543929 0.921922 -0.191162 0.934117 -0.126958 -0.256033 -0.632699 0.255654 0.529348 -0.127795 -0.454109 0.370637 -0.0321066 0.351599 -0.67461 0.508813 -0.116448 -0.623717 -0.531391 0.844117 -0.528608 0.147404 -0.118997 0.25799 -0.24221 -0.0233503 -0.405239 0.471455 0.375814 -0.793987 0.69245 -0.0822481 -0.873759 -0.503332 -0.147871 0.00238914 0.243392 0.220621 -0.743219 -0.22334 -0.907046 -0.19136 -0.858311 0.0545003 -0.84344 -0.529916 -0.432237 0.0345693 -0.153401 0.0390241 -0.119179 0.312169 -0.8174 0.759818 -0.428219 -0.061614 -0.269515 0.160477 -0.589593 -0.89221 0.379076 -0.896276 0.0219587 0.504378 -0.397152 0.878426 -0.492909 0.841627 0.100224 -0.227882 -0.39346 0.206079 0.604123 -0.262091 -0.745079 0.73645 0.227679 -0.182018 -0.233578 -0.933307 0.860985 0.634244 0.361566 -0.948231 0.403258 0.948522 -0.0102149 -0.889845 0.107101 0.357801 -0.762265 -0.507565 0.492819 0.267409 -1.00548 -0.912116 0.151456 -0.50479 0.948352 -0.748433 0.274999 -0.428252 0.446461 -0.163786 0.298378 0.688597 -0.418988 -0.43005 -0.468842 0.326251 -0.401914 -0.619163 -0.0283077 1.01314 -0.599728 -0.617157 0.947989 0.412265 -0.48751 0.108056 -0.225956 -0.21454 0.594738 -0.734735 -0.91491 0.601977 -0.628903 0.207483 -0.923772 -0.736795 0.451705 0.35755 -0.163081 -0.116422 -0.782318 -0.845313 -0.410379 -0.207235 -0.312131 0.113796 -0.869494 0.296465 0.44731 0.101614 0.305087 0.894958 0.500625 0.24295 0.294076 -0.961421 -0.664724 -0.928728 -0.188946 0.901063 -0.647809 -0.141036 0.485824 -0.300586 -0.927385 0.560553 -0.0268276 0.513547 -0.0847939 0.858265 -0.601215 0.12272 0.983011 -0.0349864 0.926893 -0.305014 -0.957857 -0.982174 1.00757 0.490324 0.139083 0.288787 0.390173 -0.393544 -0.463678 -0.288703 -0.323782 -0.161781 -0.197309 0.542438 -0.238761 0.144471 -0.626976 -0.771789 0.859249 -0.640373 0.777104 -0.142108 0.877603 -0.263588 -0.302176 -0.71858 0.882264 -0.308421 0.273624 0.765992 0.364477 0.351022 0.79901 0.334799 -0.133931 -0.0648704 -0.326729 -0.684119 0.622807 0.171907 -0.0153254 -0.727245 -0.945668 0.807604 0.708733 -0.186748 -0.0276917 -0.925106 0.0911863 -0.153939 -0.540497 -0.0813087 0.758639 -0.640559 0.687707 -0.584479 -0.369965 0.521499 0.150897 0.842831 0.267871 -0.480051 0.190428 0.0641569 0.900107 -0.936797 -1.01059 -0.46966 -0.642541 0.580241 0.763738 0.402748 0.846048 0.820826 0.193544 0.582991 -0.321952 -0.849195 0.681827 0.742627 0.0415217 -0.877164 -0.341465 -0.252827 -0.486353 -0.653608 0.201218 0.154285 0.857292 -0.699298 -0.00259166 0.0788336 -0.179594 -0.793938 -0.8196 -0.270208 -0.828823 -0.850741 0.291021 -0.421318 0.680977 -0.0735186 0.934547 0.542439 -0.178101 0.207379 0.0956322 0.463237 0.303074 -0.174958 0.254574 -0.580057 -0.00901058 0.959105 0.129048 0.508698 -0.747076 -0.664932 -0.350638 0.996046 -0.351451 0.630276 0.0255229 0.479145 0.837934 0.278077 -0.779024 -0.948024 0.385084 0.521797 -0.385045 0.20401 -0.429454 -0.527612 -0.266641 0.362806 0.7401 0.952242 0.0119293 0.0856039 -0.310286 -0.780463 0.462223 0.734126 -0.969974 -0.422326 0.235965 -0.751375 -0.0507232 0.868807 -0.796626 0.602396 0.674759 0.333178 0.114074 0.336406 -0.376769 0.367044 0.527546 0.863492 -0.150858 -0.931886 0.0851834 0.408152 -0.308574 0.811489 -0.215124 -0.604939 0.740026 0.733343 0.490612 -0.503687 0.991579 0.0196131 -0.813181 -0.978329 0.676265 0.388208 -0.686502 -0.498367 0.34506 -0.455761 -0.844578 -0.14965 0.911307 0.346819 -0.748231 -0.414754 -0.239424 0.630953 -0.564276 0.511105 0.723022 0.496775 -0.0155209 -0.549944 0.256058 0.749279 -0.0547522 0.0221912 0.500668 -0.722163 0.442492 0.474475 0.31193 0.664142 0.559075 0.012664 0.106563 0.669161 0.56452 -0.486569 -0.713151 0.755445 0.243451 -0.605181 -0.0491443 0.525632 -0.229496 0.544721 0.255947 0.197144 -0.0238647 -0.0681535 -0.255209 0.978262 0.42155 0.934532 0.784625 -0.659477 -0.108091 0.359105 -0.222808 -0.695359 -0.19968 -0.845612 -1.03427 -0.637555 0.220943 0.181586 -0.906264 -0.324238 0.524909 -0.514554 -0.749883 -0.141599 -0.171107 0.271265 -0.611271 0.628106 -0.360165 0.551302 -0.0442609 0.819523 -0.326837 0.501741 0.849788 -0.932428 0.465045 0.612013 -0.575664 -0.59048 -0.274947 0.160939 -0.163529 0.595555 0.241892 -0.263506 0.888526 -0.618293 0.911185 0.986521 0.137223 0.578736 -0.569616 0.378961 -0.520381 0.333795 -0.324135 -0.237208 -0.274593 0.38119 -0.605914 0.577637 0.181289 0.090812 0.14578 -0.00396327 0.382117 -0.404177 -0.619129 0.669947 -0.0531291 0.0650751 -0.0655464 -1.00487 -0.455564 -0.918662 -0.0168793 -0.620105 -0.479609 -0.329104 -0.739576 0.558796 -0.586338 -0.413853 0.0428354 -0.264532 0.859992 0.494201 0.460865 -0.28364 -0.169012 0.915561 -0.745357 -0.753018 -0.134056 0.53152 0.0613163 1.01913 -0.787894 0.42903 0.483408 0.283474 -0.505164 -0.604717 0.333189 -0.0147441 -0.528922 -0.789007 0.294261 0.0519083 0.14424 0.538745 -0.460371 0.413535 -0.825825 0.536829 -0.751378 -0.901802 0.0879073 0.544727 -0.371311 -0.910916 0.343663 0.0158554 -0.637996 -0.729088 -0.535246 0.427215 -0.920826 -0.285323 -0.0924642 0.769504 -0.943574 0.366456 -0.753446 0.357016 -0.708637 -0.427706 0.534165 0.743184 0.423115 -0.37462 0.320094 1.06128 -1.04064 0.425409 0.55938 -0.865907 0.524485 -0.340727 0.681941 -0.745554 -0.24457 -0.0665752 0.301034 0.161682 0.190809 0.695127 -0.751155 0.341097 -0.62175 0.338061 0.0916596 -0.632279 -0.298145 0.185364 0.928392 0.0584572 0.713488 0.361263 -0.386485 0.0964897 1.0241 -0.749824 0.145461 0.889685 0.85153 -0.255529 1.02424 0.15336 0.233171 0.530963 0.642745 0.882265 -0.45046 -0.313708 -0.0852504 0.702508 -0.582759 0.433048 -0.00136104 -0.223885 -0.216361 -0.8689 0.0748887 0.621566 0.272516 -0.226264 -0.270379 -0.0396699 -1.06863 0.448175 -0.948343 0.927755 0.850849 0.0618145 0.82719 0.60313 0.644832 0.926285 0.00618708 -0.193392 0.402492 -0.687196 -0.188249 0.904028 0.243311 0.789711 0.402396 0.425098 0.148421 -0.467517 -0.932015 -1.02767 -0.192092 0.265324 0.570001 -0.961487 0.849222 -0.734309 0.0275425 0.9773 0.85117 0.134969 0.853506 0.649406 -0.738681 0.224671 0.21238 -0.911792 0.386963 -0.855093 0.0714273 -0.15113 -0.579137 0.757613 -0.355933 0.678482 0.560425 -0.798384 0.0928585 -0.207186 -0.17774 0.111707 -0.107559 0.614124 -0.658219 -0.691325 0.296914 -0.783111 -0.429157 -0.388096 -0.822589 -0.630096 0.730971 0.943925 1.25949 -1.0206 0.602037 0.319732 -1.07341 -0.0348545 0.411493 0.0477242 0.759398 0.86014 -0.0346012 -0.489409 0.499731 -0.667535 -0.438479 -0.632169 0.234242 0.4005 0.536958 0.910133 -0.137057 1.06395 -0.712151 -0.482173 -0.896935 -0.0474338 0.0929453 -0.819113 0.1853 -0.0965819 -0.74794 0.217092 0.0243635 0.839366 -0.622224 -0.134505 -0.176221 0.766655 -0.743842 -0.552607 0.606956 0.0407445 -0.132369 0.0890269 0.497047 0.428767 0.427179 -0.372545 -0.251478 -0.0139515 -0.237172 0.767415 -0.396374 -0.0290376 -0.794463 -0.0516632 0.688931 0.233722 0.304172 -0.0630713 -0.840203 0.560762 -1.01298 0.131073 0.448986 -0.605682 -0.92238 -0.70821 -0.926851 -0.748618 -0.207202 0.265386 0.21441 0.848844 -0.319111 -0.311533 0.482543 -0.749953 0.341919 -0.722077 0.204669 -0.904956 -0.966376 -0.931499 0.175782 -0.727548 0.0993861 -0.201882 0.610673 -0.65858 0.970374 0.712174 0.961364 0.708909 -0.186951 0.170206 -0.837194 0.0334626 0.585087 -0.827889 0.288812 -0.589238 0.786014 -0.520259 -0.885132 -0.580835 0.145752 0.596631 -0.3846 -0.495465 -0.985844 0.68487 -0.370639 -0.991169 0.724363 0.604347 -0.594993 -0.174292 -0.601608 0.859777 0.173195 -0.826927 0.614524 0.100699 0.998742 -0.496392 -0.649136 -1.03472 0.274074 0.90871 -0.663657 -0.556339 -0.525962 -0.874789 -0.218352 -0.390374 -0.381614 0.921212 -0.450955 0.173213 -0.688392 -0.440086 -0.141966 -0.0265604 -0.295141 -0.306265 -0.446842 -0.071617 0.535964 0.0337291 -0.119743 -0.270694 0.0736976 -0.530415 0.681244 0.109176 -0.117874 -0.988248 0.210693 -0.787207 1.01597 0.560149 -0.54733 -0.559336 0.725768 0.265382 0.157615 -0.628339 0.101474 0.629885 0.614157 0.209406 -0.827771 -0.407034 -0.612277 -0.165715 0.512535 -0.0418323 0.62168 -0.0322358 0.890034 -0.406216 0.783482 0.157784 0.148737 0.353411 -0.763527 0.889222 0.540541 0.423817 -0.743441 0.407095 0.0112291 -0.393158 0.861829 -0.395223 0.92683 0.121313 0.0884402 -0.0665134 -0.148343 -0.260122 -0.635643 -0.104064 0.289195 -0.266999 0.706788 -0.355383 0.699072 0.414977 0.793896 0.531831 1.07447 0.3866 -0.42613 -0.024954 -0.118327 -0.0987489 -0.0653182 -0.637379 -0.611792 0.00535004 0.785659 0.494129 0.669476 0.762123 -0.898054 0.485535 -0.477511 0.152375 -0.518655 0.211329 0.973494 -0.0484315 0.932872 0.230656 0.672735 0.645037 -0.895157 0.34472 -0.0328527 0.883027 -0.156918 0.0533101 0.460934 0.541118 -0.972718 -0.791308 -0.520703 0.134819 -0.355644 -0.146793 -1.09199 -0.641353 -0.824997 0.681828 0.981786 -0.762687 0.209102 -0.478319 0.532145 0.607112 0.532192 0.532678 -0.340947 0.657588 -0.322607 -0.617321 0.106303 -0.21379 0.783302 -0.976448 -0.388658 -0.32244 0.138919 0.993798 -0.615645 0.254025 -0.941822 -0.237387 -0.84785 -0.258905 0.596856 -0.721248 0.205522 0.770228 1.01246 0.101819 -0.869555 0.153723 0.746228 0.528165 -0.102189 0.337898 -0.00737851 0.676697 -0.05251 0.737404 1.08519 -0.892704 -0.306514 0.652447 -0.737573 0.124338 -0.668221 0.539192 0.116151 -0.388773 -0.271222 0.256019 0.583001 -0.112372 -0.868812 0.0125825 0.0930686 0.172018 -0.0797711 0.118889 -0.543338 0.0111838 -0.743753 -0.939025 -0.351665 0.276167 0.347098 0.71249 -0.168114 -0.699969 0.267125 -0.211368 -0.534451 0.658249 -0.468667 -0.234684 -0.294061 -0.039513 -0.806564 0.813812 0.829259 -0.117862 0.123735 0.298742 0.779686 0.244945 -0.498937 -0.0370493 -0.53735 0.348553 -0.904505 0.0560026 -0.539281 -0.543158 -0.154971 -0.048214 0.56262 -0.673974 -0.419077 -0.658513 -0.322071 0.719093 0.243538 0.0954447 0.359609 0.788178 0.803829 -0.79284 -0.24663 -0.987197 -1.01103 -0.436536 -0.0648739 0.0275777 0.7918 -0.221777 -0.679078 -0.79162 0.849626 -0.100451 0.50823 0.753744 0.798313 0.985572 -0.764377 -0.28421 -0.0226703 0.895703 0.109697 0.520652 -0.74474 0.646841 0.334947 0.460493 -0.186704 -0.212177 0.291009 -0.383144 -0.06285 1.12107 -0.400997 -0.0172767 -0.263965 0.482104 -0.962191 -0.632066 -0.790129 -0.49607 -0.349931 -1.05534 0.375256 -0.874715 -0.978518 0.120721 -0.858594 -0.848855 0.65137 -0.000913454 -0.852973 -0.222496 -0.473894 -0.52061 -0.563684 0.878742 0.928581 0.279259 -0.379868 0.324284 0.761255 0.546057 0.250653 -0.627595 -0.412122 0.736853 0.837331 -0.368316 -1.0007 -0.749086 0.109867 -0.41785 -0.55476 -0.487358 -0.242317 -0.655929 0.566068 -0.094359 -0.274686 0.303016 0.928754 -0.137725 -0.891864 -0.248525 0.307549 -0.426454 -0.573414 0.247303 0.84191 0.111813 -0.49465 0.474047 -0.247199 0.682627 1.00754 0.320944 0.397624 0.788621 1.07211 0.566149 -1.00868 0.186307 -0.884238 -0.631594 0.751633 -0.204774 -0.34924 0.352419 0.695694 0.251283 -0.224867 0.814151 -0.976223 -0.216712 -0.663997 0.359504 0.321047 -0.191584 -0.323917 0.219779 1.04269 0.132134 -0.201238 -0.534936 -0.153829 -0.362299 0.878478 -0.758252 -0.465013 1.03596 0.666137 -0.322271 0.127074 0.865257 0.145255 -0.201453 -0.406261 0.630979 -0.845134 -0.482335 -0.121851 -0.231898 -0.778675 -0.14671 0.89255 -0.480576 -0.648995 0.0662435 0.096553 -0.132429 -0.614119 0.124258 -1.00485 0.208642 0.730796 -0.20363 0.938489 0.68221 0.0994075 -0.433157 0.547247 -0.320667 -0.0159492 -0.292204 -0.285035 0.776114 0.46853 0.303474 0.196522 0.742179 0.766241 -0.965167 -0.273102 -0.961958 -0.0858061 -0.610995 -0.488533 0.304297 0.73441 0.747847 -0.875139 -0.814035 -0.137639 -0.538375 0.329753 -0.423041 0.0602444 0.172554 -0.754789 -0.806883 0.719938 0.677324 0.0904785 -0.419638 -0.553314 0.73892 -0.582168 0.912335 0.252796 0.748742 0.515177 0.0110571 0.752527 -0.796827 0.10037 -0.422214 -0.363113 0.748789 0.863569 -0.909632 0.487627 -0.839035 -0.856521 -0.707219 -0.677445 0.420454 -0.160798 0.448038 -0.22801 0.197266 0.800677 -0.65413 -0.0678564 -0.514796 -6.25452e-05 0.286218 -0.573961 0.382411 0.228221 0.840973 0.0803855 -0.0270669 -0.262051 -0.253423 0.112253 0.722796 0.339371 0.507843 0.379573 0.395866 0.686927 -0.15841 0.457505 0.748808 0.368907 0.735186 0.257231 -0.893613 0.0105753 0.942187 0.30032 -0.246848 -0.670425 -0.697919 0.415355 0.236951 0.786945 0.943854 -0.341441 -0.122854 0.538157 0.564094 0.684533 -0.708396 -0.577693 -0.526253 -0.912827 0.827484 0.754409 0.576717 0.200186 0.4023 -0.402876 -0.356624 0.191245 0.846458 -0.59268 -0.406681 -0.806339 0.526326 -0.518097 0.672588 -0.71149 0.047637 0.939384 0.741017 -0.900557 0.524922 0.688663 -0.226034 -0.514489 0.149714 -0.519286 -0.961254 0.528024 -0.214065 -0.459471 0.529271 -0.226203 -0.460583 0.126068 0.894245 0.915417 0.670681 -0.335133 0.150124 0.555587 -0.0284081 0.569019 0.541348 -0.348444 -0.791849 0.0753821 -0.0849113 0.0215417 0.028506 -0.425787 0.145393 -0.182165 -0.671304 0.904201 0.119197 0.542845 -0.859651 0.330887 0.0321085 0.137531 0.826261 -0.384316 0.91716 -0.841156 0.914273 0.906516 -1.01446 0.471593 -0.649158 0.106629 -0.188004 0.275118 -0.20356 -0.517946 -1.00611 -0.169673 0.480121 0.0227565 0.79899 -0.459549 0.458763 -0.284619 0.217174 0.879731 -0.325959 -0.643561 0.421355 -0.153411 0.654819 -0.322756 -1.00314 0.273975 0.256135 0.829301 0.410005 -0.0997841 0.710342 0.387946 -0.86486 -0.965066 -0.42609 -0.256776 0.530954 0.298891 0.164206 0.671937 -0.841094 -0.241676 -0.420497 -0.925252 0.444258 -0.738708 -0.164264 -0.412145 -0.830228 0.522029 0.155178 0.549147 -0.549429 -0.44563 -0.902287 -0.539171 0.813475 0.183707 -0.679131 0.297552 0.891149 1.00717 -0.417624 -0.963286 -1.04384 0.27951 0.0615246 0.653062 -0.475933 -0.837485 0.162089 -0.219822 -0.0428817 0.832618 -0.375977 -0.793412 0.858829 0.715165 -0.0921535 -1.059 0.0893772 1.0585 0.625014 0.401708 -0.483329 0.878778 0.958761 -0.630692 -0.0669231 -0.751143 0.41558 0.210757 -0.837502 -0.7865 0.118119 -0.713508 0.43888 0.884353 1.11619 1.05918 -0.775217 0.242801 -0.392187 0.0126067 -0.101918 0.301607 0.356452 -0.241452 -0.0152897 -0.821509 -0.231226 -0.778 -0.955444 -0.621289 0.512683 -0.554432 -0.860688 0.516247 -0.142047 0.0895667 0.758353 -0.751982 -0.878463 -0.811498 -0.556167 0.0317658 -0.551858 0.760129 0.0752853 -0.841207 0.853567 0.0627993 0.29649 -0.563695 -0.747383 -1.0586 0.967592 0.470731 -0.200861 0.0916581 0.646052 0.522047 0.131843 0.789852 0.986754 -0.205795 -0.674429 -1.03969 -0.724751 0.120993 0.0764504 -1.05713 0.504121 0.06741 -0.985432 0.888185 -0.882796 -0.712619 0.845902 0.224542 -0.557005 0.660528 -0.860123 0.701563 -0.916175 -0.559257 0.859503 -0.896995 0.853405 -0.472888 -0.0101824 0.57267 -0.941853 -0.831272 0.219076 0.907138 -0.196514 0.803163 0.908919 0.00720441 -0.187542 0.181987 0.188728 -0.813324 -0.800127 0.326385 -0.921465 -0.596918 0.437192 0.974268 0.309351 1.45888 0.496811 0.787746 0.791139 0.750454 -0.859548 0.374912 0.857064 1.04189 -1.03106 0.0769417 0.441751 -0.885841 0.0876213 -0.178067 -0.997697 0.862894 -0.459338 -1.17841 -0.0392284 0.549827 -0.0841666 -0.980322 0.591784 0.205395 0.291541 0.821099 0.67921 -0.0871877 0.758105 0.0155188 -0.31251 0.54783 -0.327889 -0.565738 0.0736354 -0.304855 1.03254 -0.196276 -0.146981 1.03441 0.674325 -0.688253 -0.815981 -0.446331 0.330683 -0.951321 -0.553261 0.946908 -1.01017 0.426356 0.355496 0.132857 0.53291 0.0307155 -0.621506 -0.260564 -0.140972 0.939864 0.453633 -0.504184 0.0371881 -0.815347 0.870908 0.658722 -0.376834 -0.0992873 -0.439419 -0.413483 0.742175 0.441471 -0.625475 0.486167 0.559399 -0.457316 -0.850364 -0.0387935 -0.463415 -0.482048 -0.178396 -0.4608 0.956766 -0.863834 0.561052 0.453862 0.139774 -0.775601 -0.773548 -1.12837 -0.927738 0.765418 -0.320781 0.0695429 0.910839 -0.319501 -0.218654 -0.476336 0.515486 0.336394 -0.0324545 0.874353 -0.394895 0.588694 -0.210636 -0.614624 0.993205 -0.170961 0.399821 -0.4156 0.425012 -0.581586 0.0323651 0.451444 -0.570415 -0.139544 -0.204794 0.567459 -0.0209088 -0.00922123 0.545345 0.165851 -0.322673 -0.86432 -0.820021 -0.305579 -0.245539 -0.0267383 0.199247 -0.543763 -0.697455 -0.782057 0.579774 0.0734795 0.62313 -0.45786 0.322304 0.613875 0.393369 -0.443802 -0.696894 -0.0891276 -0.320788 0.450106 -0.599653 -0.00145816 -0.614881 0.260659 -0.550371 0.435979 -0.738564 -0.956276 -0.41618 0.171139 -0.859273 -0.176505 0.859342 -0.0415227 0.757026 0.0551188 0.232931 -0.987456 0.330337 -0.131851 -0.0711368 -0.0736675 0.330637 -0.714728 -0.355224 -0.273788 -0.0799163 -0.00661074 0.472438 0.630198 -0.54032 -0.975524 -0.305569 -0.207899 0.308416 0.107214 -0.800017 0.565191 0.388473 -0.238339 -0.19322 0.455908 0.504276 -0.226151 -0.577208 0.215634 0.719528 0.696796 0.494299 0.040868 -0.468005 -0.617749 -0.896189 0.680605 -0.264237 -0.166181 -0.493632 0.81955 0.744668 -0.725735 0.278229 -0.641103 -0.823401 0.873438 0.18491 0.582008 0.0823897 0.402083 0.0571763 -0.585498 -0.846135 -0.925275 0.849235 0.671773 -0.311118 -0.638032 -0.126017 -0.401697 0.903377 -0.699093 0.612367 -0.616966 -0.274036 0.603585 -0.808613 0.423422 -0.466303 -0.389726 -0.0445359 -0.611595 -0.175548 -0.675304 -0.367944 -0.0820161 -0.717782 0.726591 -0.453433 0.136815 0.115756 0.642176 0.80156 0.143132 0.778426 0.678947 -0.457366 -0.386801 -0.972898 0.534246 0.0965661 -0.933102 0.835286 -0.289882 -0.622236 -0.365127 -0.722503 -0.465427 0.980375 -0.296594 0.190295 -0.0840387 0.100511 0.875093 0.233094 0.747447 -0.119204 0.46512 0.475838 0.432506 -0.248556 -0.482199 0.114358 -0.357177 0.725874 -0.171889 -0.582943 -0.698932 0.443346 -0.535304 -0.843136 -0.444198 -0.335277 0.884519 0.219371 0.157029 -0.458389 0.460894 0.453363 -0.473455 -0.650687 -0.483698 0.500441 0.241511 -0.424907 -0.445643 0.124613 0.498378 -0.973413 -0.330043 -0.173952 -0.00645959 0.191683 -0.842279 0.449808 -0.151737 -0.031028 0.904157 0.291324 -0.561855 -0.623621 0.372964 -0.0270503 0.137828 0.2263 -0.831534 -1.02701 0.797908 0.497963 0.576628 -0.760357 0.928432 -0.870324 0.646937 0.249101 -0.383065 -0.713098 -0.624343 -0.636982 -0.709361 -0.043954 0.309408 0.137801 -0.959205 0.432043 -0.412259 0.0533132 -0.673355 -0.345316 -1.04042 -0.259704 0.00401225 0.552711 0.709271 -0.813321 -0.23882 0.688749 -0.705271 -0.349599 0.321452 0.797822 -0.0705608 0.204421 1.00626 -0.40057 -0.534958 -0.371665 -0.0676868 -0.164694 -0.101403 0.123424 0.799123 -0.802411 -0.792271 0.813348 0.563344 -0.148939 -0.239201 0.915272 0.682345 -0.084622 -0.398741 -0.351576 -0.476446 -0.651048 -0.154702 0.380313 -0.926502 0.128987 -0.979553 0.531287 -0.0746443 -0.0658108 -0.204359 -0.106681 0.812486 0.277086 0.515708 -0.697679 -0.866056 -0.46148 0.353927 0.948241 -0.399838 0.696243 0.645743 -0.7081 -0.361036 -0.671919 -0.819353 -0.858836 0.429153 -0.148331 -0.0920814 0.790979 0.137226 0.602296 0.124778 0.238032 -0.111434 0.104051 -0.312345 0.762206 -0.655852 0.470665 -0.384019 0.873452 -0.292246 -0.87284 -0.736613 -0.170205 -0.285866 0.641996 -0.284695 0.437652 0.374033 -0.621961 0.816068 -0.870553 -0.240872 1.02664 -0.639414 -0.967025 -0.448452 0.174072 0.865902 0.82361 -0.230758 0.136706 -0.0166331 0.584822 -0.604892 0.615724 0.37829 -0.277206 0.043228 0.902961 -0.432156 0.835551 -0.971361 -0.223716 -0.297381 -0.211877 -0.458178 0.330074 -0.773923 0.823459 0.885033 1.00136 0.885703 -0.467006 0.825322 -0.820689 -0.447122 -0.42418 0.200138 -0.513417 -0.771669 -0.849788 0.826445 0.242186 0.705797 -0.811842 -0.0929005 0.0245937 -0.140526 -0.945065 -0.0458398 0.441639 0.852428 0.121452 -0.781222 -0.38155 0.894811 -0.295443 -0.722872 -0.832142 -0.478441 0.904523 -0.836986 -0.52122 -0.66158 1.07479 -0.38949 -0.0278468 -0.565172 0.959423 0.598376 -0.282319 -0.830107 0.197593 0.980215 0.742802 0.390676 -0.15397 -0.263148 -0.825903 -0.103453 0.744181 0.767835 -0.269203 -0.136088 0.866709 0.443961 -0.258855 -0.481662 0.517054 -0.25909 0.121368 0.383794 -0.139395 0.611733 0.748967 -0.158909 -0.764416 -0.300195 0.31731 -0.701022 -0.727988 -0.974825 -0.519426 0.575767 -1.03454 -1.07043 -0.109998 -0.154187 -0.135908 0.0580865 0.76019 -0.40754 -0.385231 -0.33431 0.345646 -0.384695 -0.919141 -0.994569 0.197725 0.618474 -0.0648629 -0.822164 0.0128375 0.714314 0.790217 -0.220956 -0.402408 -0.982442 0.398727 0.906393 -0.59557 0.71334 0.8709 -0.350483 0.180595 0.903285 -0.209591 -1.00912 -0.152622 0.50405 0.173308 -0.348691 -0.879054 0.86886 0.328698 0.548822 -0.633051 0.370016 0.604283 0.598954 0.00645208 -0.557464 0.902951 -0.983708 -0.747727 0.667515 -0.164621 -0.103154 0.805834 -0.718047 -0.245315 -0.930146 0.962908 -0.451509 -0.161498 0.135277 -0.482194 0.394244 0.227331 0.352473 0.0390736 -0.5602 0.850408 0.144601 -0.742088 0.168884 -0.309867 -0.285685 -0.5094 -0.664232 -0.706466 0.562639 -0.254648 -0.852768 0.625214 -0.00227581 0.782989 -0.654116 0.834728 0.463949 -0.395462 -0.574318 0.513402 -0.401833 0.0887781 -0.703962 0.724702 0.533961 0.721755 0.0110514 -0.256449 -0.290098 0.40414 -0.220993 0.863112 0.658544 0.861717 -0.438276 -0.62432 -0.621867 -0.118567 -0.439075 0.827603 0.709591 -0.178139 0.470232 -0.324781 -0.357825 0.886991 -0.508896 -0.738941 -0.587084 -0.0318325 0.699169 0.0245714 -1.02139 -0.992243 -0.235753 0.467278 0.756721 0.86383 -0.646272 -0.557788 0.158889 0.0118832 -0.637341 -0.184767 -0.104426 -0.0433359 0.189736 0.237296 0.890173 0.925161 0.156089 0.56307 -0.200613 -0.475617 -0.697281 0.472348 -0.608066 -0.221537 0.655507 -0.12048 0.750124 0.466788 0.883053 0.83079 0.371872 -0.355785 0.29619 0.276487 -0.637055 0.674605 0.720982 0.580839 -0.387819 -0.904171 -0.675852 0.570405 0.101105 0.535177 -0.154583 -0.111514 0.432262 0.988557 -0.531591 -0.688304 -0.428381 -0.213044 0.793824 -0.0319245 0.573417 0.429533 0.854099 0.335191 -0.193233 0.66853 0.0791738 -0.667805 -0.704894 -0.674048 0.489214 -0.408145 -0.97891 0.176261 -0.819519 -0.360948 0.265202 -0.473653 -0.774954 -0.725451 -0.916481 0.0424198 0.185605 0.611434 0.048823 0.667778 0.884855 0.60782 -0.562168 0.718007 -0.399882 -0.977092 0.203502 -0.529759 0.340554 -0.96463 -0.870254 -0.527347 -0.674395 -0.565547 -0.181328 0.770689 0.0711522 -0.165942 -0.0866702 0.269524 0.469898 -0.872952 0.838606 0.70356 -0.573486 0.910102 -0.271256 0.636549 0.511164 0.74833 0.275973 0.452414 0.372665 0.723194 0.209475 -0.993369 0.744963 -0.648702 -0.537249 0.0361557 -0.619792 -0.3677 0.502497 -0.321244 0.0669688 -0.662798 -0.56125 -0.854508 0.160647 0.421546 0.424934 -0.36948 0.550777 0.276037 -0.686254 1.00323 0.217622 0.0799727 0.540466 -0.291515 -0.162834 -0.0978241 -0.821458 -0.820635 -0.363915 0.322464 -0.811037 -0.612786 0.675478 -0.319671 0.45358 -0.94258 0.303905 -0.0279284 -0.285476 -0.633198 0.305617 0.151814 -0.506766 -0.571932 -0.421313 0.952906 0.0570258 -0.908357 0.196035 0.372072 -0.91086 -0.632696 -0.552448 0.688032 0.0792878 0.270318 -0.414513 0.238012 0.417238 0.220616 -0.42826 0.666078 0.601374 -0.750907 -0.670687 0.0667364 -0.702419 0.661913 -0.960003 0.0154831 -0.964751 0.336553 -0.774762 -0.4445 0.772616 -0.24054 -0.499682 -0.166358 -0.130518 0.689034 -0.783069 -0.0503428 -0.943151 -0.333493 -0.36045 0.132711 0.935329 0.223046 -0.669439 0.410216 -0.55532 -0.0543497 0.0543681 -0.951498 0.151545 0.419081 0.115672 0.493019 0.0908774 0.155056 -0.482846 0.118674 -0.509832 -0.282787 0.673974 -0.734013 0.469712 -0.82564 0.0999262 -0.661193 0.859866 0.316438 0.287263 0.918274 0.984069 0.926329 0.0523091 0.916192 0.150004 0.426023 0.317538 0.593439 -0.64074 -0.610196 0.644313 0.561567 0.854436 -0.243059 0.0541887 -0.150462 0.915061 0.572687 -0.995071 -0.591636 -0.730768 0.677222 -0.29317 0.765943 0.848522 0.773291 -0.909362 0.709768 0.0879986 0.399883 0.630309 0.0706431 0.316842 -0.320366 -0.0134518 -0.532791 -0.896069 -0.696798 -0.936388 -0.52761 -0.3087 0.707297 -0.965659 -0.50131 -0.534084 0.0890933 0.386793 -0.618565 -0.33839 0.391475 -0.21087 -0.0480581 0.0689851 0.463244 -0.282321 -0.0814237 0.236449 -0.178576 -0.370131 -0.674169 -0.787259 -0.741939 0.395871 0.530407 -0.0622176 -0.618569 0.998581 0.0416336 -0.315363 -0.937806 0.51402 0.375923 0.769482 0.548352 0.87424 -0.764089 -0.362544 0.261405 -0.382832 0.299101 -0.347492 0.406599 -0.748958 0.721872 -0.130099 -0.0312785 -0.359458 -0.893709 0.790149 0.270184 -0.567878 -0.997112 0.528204 0.828003 0.533295 -0.534038 -0.790575 0.531877 0.507584 -0.10594 0.594101 0.0216034 -0.730017 0.363548 -0.430032 -0.855405 0.599389 0.207395 0.405948 -0.783281 -0.49348 -0.941126 0.623691 -0.242437 0.780745 -0.507229 0.726284 -0.578714 -0.4006 0.51643 0.691283 0.0315225 0.519611 0.219711 -0.140483 0.0526132 0.685547 0.0689415 -0.41551 0.19334 0.96301 -0.821441 -0.785144 -0.767018 0.542121 -0.215197 -0.622421 0.141503 0.992235 0.78358 0.358194 -0.501244 0.842461 -0.0185298 0.256318 0.623205 0.47458 -0.0173977 -0.955508 -0.92602 -0.500968 0.735963 0.105502 -0.98165 -0.0443253 0.965019 0.0709632 -0.35866 0.0339604 0.655453 0.834589 -0.00303823 0.834013 -0.950559 0.229946 0.376124 -0.165743 0.607525 -0.482373 -0.173507 0.391105 0.87582 0.325248 0.233566 -0.142709 -0.418434 -0.143229 -0.66813 0.564169 -0.0987371 -0.59415 -0.936799 -0.362774 0.511352 -0.918449 0.592901 0.476371 0.152514 -0.765759 -0.489669 -0.192033 -0.93117 0.507293 -0.35802 -0.881729 -0.262761 -0.981896 -0.0474722 -0.655236 -0.46427 0.77902 0.735869 -0.588449 0.104269 -0.0305653 0.268842 0.685835 0.826206 0.600712 0.250004 -0.272531 -0.993438 0.313204 0.364695 0.517914 0.394755 -0.042404 -0.00571506 -0.452731 0.191837 0.504616 0.355236 0.260666 0.0119096 0.997215 0.378937 0.749149 -0.984681 -0.668535 -0.906087 -0.448951 -0.889515 0.829782 -0.0373998 0.214754 -0.200784 -0.770356 -0.102732 -0.379908 0.831515 -0.846975 0.355169 0.833766 0.460695 -0.282299 0.35514 -0.135646 0.677535 -0.650238 0.409078 -0.133656 0.86055 -0.240791 -0.874495 -0.127361 -0.24828 0.503909 -0.383644 -0.227242 0.832294 -0.289244 0.325639 0.949092 -0.457706 -0.709961 0.163417 0.342162 -0.478961 -0.934475 0.964724 -0.652709 -0.789235 0.309676 -0.809458 0.667478 -0.962025 0.547165 -0.468705 0.710369 0.898699 0.941206 -0.414838 0.750457 -0.290887 -0.292505 -0.379243 0.462777 -0.787808 0.241534 -0.76777 -0.950305 0.947221 0.564424 1.00018 -0.515042 0.848777 0.162506 0.825822 -0.637237 0.222079 0.791954 -0.282807 0.440404 0.109006 -0.0933191 0.110253 0.143995 -0.546786 0.657575 -0.150839 -0.650004 0.598312 0.436851 -0.901183 -0.69666 -0.86246 -0.279283 0.764186 -0.649846 0.956934 0.997448 -0.599916 0.905234 0.557288 -0.598269 -0.607654 0.409807 0.562866 -0.780048 0.781153 -0.207548 -0.986879 -0.511125 -0.773044 0.120663 0.40451 0.32909 -0.772609 0.834246 -0.0418934 0.158505 -0.823424 -0.41222 -0.484778 -0.684194 -0.145098 -0.273894 0.0320705 -0.400209 0.0764332 -0.0398062 -0.338009 0.417112 -0.0969985 -0.692479 0.781146 0.207131 0.62914 0.406107 0.436703 0.377305 -0.802879 0.497628 0.892869 -0.533066 -0.361875 0.299212 0.820613 -0.0670939 0.105872 -0.268807 -1.00223 0.274249 0.40746 -0.468599 0.637676 -0.699573 0.29557 -0.360085 -0.0361822 -0.671936 0.716879 0.558951 0.869541 -0.39789 0.851781 0.620346 0.824954 0.503721 -0.0387209 0.351847 -0.138088 0.289832 -0.136587 -0.254724 0.586433 0.551419 -0.969056 0.36224 -0.629744 0.155989 -0.80187 -0.574913 -0.444212 0.554964 -0.0130194 -0.821854 0.798967 -0.745114 -0.22482 -0.298163 -0.431528 -0.476347 -0.70351 -0.586684 0.0403214 -0.87667 1.00342 -0.145549 0.511596 -0.00797911 -0.818641 -0.567029 -0.772511 0.0721107 0.126614 1.00915 -0.466155 0.206636 0.300322 -0.000582843 -0.51698 0.426047 0.318309 -0.0371769 0.0248841 -0.7043 0.150409 -0.286299 -0.642346 0.973274 0.332825 0.213843 -0.591135 0.808534 0.506468 0.551696 0.827428 0.428415 -0.663085 0.465004 -0.455223 -0.488364 0.865449 -0.161827 0.404246 -0.0238999 -0.276747 -0.833908 -0.63573 0.88783 -0.0751056 -0.173881 0.302895 -0.541586 0.810041 -0.605521 -0.18664 0.0657074 0.00199298 0.259932 -0.20905 -0.352249 -0.291893 0.432076 -0.720056 -0.968282 -0.164723 -0.81428 0.691991 -0.0450975 0.788571 -0.77378 0.851332 0.824749 0.217268 0.156102 0.260787 1.01927 0.0571903 0.708883 0.940346 -0.687268 -0.708668 0.228156 -0.795421 -0.579416 0.622765 0.0980364 0.0696467 -0.269042 -0.705948 0.946081 0.441949 -0.187631 0.314632 0.9962 -0.196906 -1.02921 0.948119 -0.77636 0.221307 0.818231 -0.402711 -0.0238754 0.725224 0.742143 -0.870519 -0.283922 0.410402 0.343309 -0.853876 0.566308 0.659547 -0.404883 -0.451463 1.10091 -0.546049 -0.77647 0.163887 0.789043 0.0723745 0.213909 0.622066 -0.564972 -0.904171 -0.275307 0.85164 -0.464828 -0.386123 1.00994 -0.0555064 -0.965319 0.557463 0.696584 -0.0454511 0.556571 0.349308 0.153005 -0.979359 0.107823 -0.475035 -0.653684 -0.49533 -0.843336 -0.367947 -0.0616147 -0.791733 0.490471 0.52798 0.109259 -0.0851005 -0.408868 -0.591449 -0.295781 -0.228696 -0.507486 0.57158 -0.210517 0.145551 -0.388314 -0.459391 -0.318506 -0.037333 -0.305788 -0.864309 0.558093 0.8769 0.558528 -0.25381 0.540579 -0.213524 0.339804 -0.687261 0.45966 0.730157 -0.270664 0.141376 1.21299 -1.13975 -0.328665 0.0767133 -0.0634644 -0.130074 0.768665 0.219302 0.983002 -0.664356 -0.248817 -0.566503 0.516388 -0.206449 -0.0045642 1.0543 0.331536 0.530295 -0.41728 -0.157482 0.489044 0.95291 0.359232 0.225799 -0.022665 0.197188 0.639045 -0.790205 -0.319881 -0.705157 0.0717417 -0.437458 -0.573902 0.402876 -0.771689 0.696902 -0.407743 0.535519 -0.121757 0.802433 0.841603 0.551108 -0.375741 0.498123 -1.21554 0.526222 0.456494 0.431384 -0.217102 0.145133 -1.12817 -0.971238 0.274622 0.862563 0.474091 -1.13022 -0.0504602 -0.103772 -0.670408 -0.975796 0.49034 0.395106 -0.145532 -0.893412 -0.0565822 0.0271016 0.425892 0.417708 -0.683413 -0.678702 0.381824 -0.588522 0.700931 0.638319 -1.06255 0.572876 0.251632 0.433556 0.152209 -0.680064 0.0612851 0.169468 0.0391114 -0.868028 0.829497 -0.245901 -0.100113 -0.561231 0.486183 0.186037 -0.639882 -0.311286 -0.999414 0.265746 -0.166612 0.538204 -0.608793 -0.37691 -0.959675 0.171539 0.620779 0.143697 0.515845 -0.32781 0.0961752 0.517183 -0.215041 -1.1025 0.373928 -0.894633 -0.647206 0.852254 0.629978 -0.332266 -1.0469 0.184778 -0.00277718 -0.0229179 0.665932 -0.857225 1.09974 1.08719 -0.209365 -0.800835 0.825742 -0.833699 0.679569 0.363894 -0.339967 0.662782 -0.456505 0.72369 0.0830795 1.0283 0.257015 -0.302153 1.04995 0.588415 -0.238108 -0.588851 -0.768947 -0.177992 -0.324646 0.646323 -0.0457518 -0.224462 -0.205108 1.03534 0.528769 -1.51856 0.83456 0.634971 1.07755 -0.0521067 0.750283 0.243456 -0.0985219 0.0784693 -0.294379 0.825164 0.127987 0.566984 0.485778 0.102354 0.298887 0.103758 -0.0544663 0.285798 -0.665885 0.580024 0.608555 -0.678467 -0.803522 0.618794 -0.891306 -0.0986918 -0.414925 -0.0126619 0.12191 -0.733588 0.486927 -0.157383 1.34984 -0.48002 -0.435359 1.395 -0.487635 0.373283 0.727807 0.0807828 0.122164 -0.183596 -1.07863 0.118419 0.760563 0.647114 1.03142 0.42266 -0.898564 -0.385366 0.241111 0.674485 0.237136 0.0146317 0.427728 0.597955 -0.920869 -1.08919 -0.21709 -1.1783 -0.374244 0.473945 0.400757 -0.274199 -1.10984 0.245598 -0.140702 0.303347 -0.143437 1.00774 1.08881 0.943419 -0.640206 -0.799228 0.603582 0.0444477 -0.628026 -0.660632 0.274572 -0.779365 0.12323 -0.588353 -0.780159 -0.909098 0.839004 1.03764 1.57726 -0.655877 -0.259472 -0.652088 -0.241063 -0.434663 1.03347 0.576387 -0.435026 -0.682815 0.291084 0.0913515 -0.217314 0.375186 -0.107036 -0.193487 0.809454 0.625015 0.0530539 -0.661377 -0.873739 -0.117785 -0.0503243 -1.1005 0.355912 -0.588484 -0.615057 -0.471079 -0.661599 0.0932555 -1.23419 -0.548194 -0.162441 -0.92084 -0.474597 0.452747 -0.619396 0.745347 0.496459 -0.251525 0.94779 -0.131471 -0.604085 0.130104 0.379311 -0.0040488 1.27757 -1.2527 0.266325 0.410448 0.189121 0.334818 -0.291812 0.672848 0.18837 -0.815336 -1.25963 0.890772 -0.373162 -0.592663 -0.109116 0.119875 -0.986612 1.29861 0.354705 -0.202196 0.903126 0.866115 -0.461516 0.761528 -0.696092 -0.90218 -0.714555 0.803268 0.55238 -0.429754 0.272655 0.771365 -0.30153 -1.10955 0.154534 -0.24749 0.505269 0.126615 -0.663589 -0.408967 -0.248815 -1.03833 0.28408 1.08251 0.0465064 -0.27236 -0.786946 -0.394009 -0.13227 0.764611 0.497802 -0.755007 0.551607 -0.829124 1.52025 -0.154885 0.139834 1.43647 -0.104198 0.854818 -0.0834948 0.312132 0.0853657 0.938328 0.687685 0.698589 -1.09546 -0.49639 -0.384772 -1.29584 0.74315 0.780124 -1.06115 0.845811 0.726383 -0.569006 -0.197834 -0.962128 0.499289 0.878925 -1.03845 0.631182 -1.18445 -0.558568 0.0853903 1.09874 -0.210681 0.688234 0.421682 0.0105676 0.319551 1.04226 0.554688 -1.01269 0.770931 0.333311 -0.955023 1.26061 0.16437 -0.454562 1.3201 -0.0417542 -0.185499 -0.466835 0.885975 -0.588804 0.120225 -0.715738 -0.359418 -0.425301 -1.31721 -0.235372 -0.657435 -0.42132 0.736704 0.844077 0.685921 -0.340439 1.02155 0.759895 1.03989 0.753136 0.485663 1.02582 -1.4134 -0.86051 -0.308889 0.176907 0.065273 -0.306911 1.48168 0.405446 -0.865802 -0.121327 0.89138 0.0404293 0.593183 -0.789099 0.351847 1.09482 -0.580585 0.0820162 0.635755 -0.056004 1.18449 -0.982909 -0.324531 0.0523722 -0.437188 -0.243084 -0.208301 -0.613414 -0.418444 -0.678403 1.87689 -0.506181 0.61857 0.729229 1.18248 -0.66921 1.07772 0.343755 0.194432 -0.182534 -0.135108 -0.618714 0.577825 0.519957 -0.515187 -0.679714 1.05953 0.390752 0.53058 -0.134175 -0.320126 0.296502 0.0798179 0.52419 -0.2074 1.07451 -0.719424 0.801073 -1.10678 -0.120846 -1.02156 -0.573467 0.795212 0.164513 -0.614252 0.152994 0.41533 -0.43514 0.867467 -0.831032 0.338498 -0.522042 -0.306408 0.0332791 -0.0455621 0.294888 0.513819 -1.51543 -0.0725497 0.676112 0.587852 0.542436 -0.571936 -0.414171 -0.110356 0.223443 -1.27467 -0.0367879 0.405646 -0.129196 -0.107275 0.533386 -0.504227 -0.191114 -0.0623847 0.761894 0.705779 -0.0993545 0.750369 0.994967 0.168731 -1.03234 -1.02147 0.532673 0.825995 -1.07256 0.664728 0.597502 -1.23304 -0.710961 0.105402 1.11734 1.3391 0.202089 -0.309148 -0.124028 -0.840225 -0.364067 -0.176929 0.649753 0.897516 -0.338068 0.358032 0.556337 0.0171717 -0.807321 -0.127418 0.176115 0.202947 -0.027206 0.560664 -0.744214 1.22575 0.762171 -0.707367 0.74154 0.47751 -0.257872 0.0162341 0.665008 1.12935 0.413949 1.06833 0.755671 -0.724702 -0.715431 0.28788 -0.143074 0.153575 0.246004 -0.144093 -0.207503 -0.750153 -0.426311 -0.650649 0.335062 -0.313227 0.516564 -0.877004 0.29399 -0.524169 0.0587193 -0.591468 -0.678222 0.0306969 -0.755778 -1.17006 -0.241343 -0.813032 -0.204014 -0.437121 -0.853405 -1.27848 -0.398175 1.61875 -0.528709 0.231265 -0.527981 0.706351 -0.260935 -0.263807 -0.50102 -0.202037 -0.265782 -0.512127 0.0491886 -1.37892 -0.460841 -0.0291229 -0.378376 -0.0420728 0.560903 0.032134 0.820316 0.577506 0.263956 0.591199 -0.703896 0.217372 0.969966 0.50248 -2.11814 -1.09307 -0.376349 -0.370792 -1.31097 0.967715 1.02786 -0.929423 0.0661709 1.41592 0.602006 1.13956 -0.00491735 -0.776804 -0.817429 -1.17919 -1.12724 0.850638 -0.136326 -0.181847 -0.904382 -0.536718 0.664059 0.228376 -0.581847 -0.99238 0.260239 -0.318351 0.664069 0.663339 -1.41419 0.848411 0.677345 -0.612678 -0.727917 0.198613 0.332393 1.00332 0.540835 0.496631 0.557517 0.25619 -0.172316 -1.03635 0.217433 0.61241 -0.796181 0.616345 -0.0982365 0.391347 -0.747352 0.573048 0.994645 0.411777 -0.107968 -0.681079 0.669623 0.595692 -0.779802 0.656242 -0.543884 -0.0764822 0.633031 -0.663955 0.0654954 -0.0294933 1.09861 0.1421 -0.411962 0.687471 -0.386509 -1.17111 0.288837 1.62292 -0.693914 -0.255985 0.404024 -0.130148 0.313019 0.343896 -0.831921 -0.578397 -0.771985 0.839401 -0.961968 -0.198446 0.167885 -0.46879 -0.286197 -0.238415 0.478827 -0.435379 1.06563 -0.13122 1.49307 -0.723608 -0.712811 0.596912 1.06614 0.770552 -0.575385 -0.827974 -0.644302 -0.276215 -1.36183 0.476418 1.54411 -0.233889 0.277179 -0.175592 -0.430012 0.638035 -0.1803 0.108758 0.450468 0.352784 -1.37955 0.769376 -0.0620767 -0.173318 -0.982109 0.300631 0.566335 0.475898 0.102964 -0.0382466 1.38302 0.163595 0.161685 1.58478 -1.26716 -0.501779 1.46022 -1.22735 0.809527 -0.61022 -0.385019 0.430476 0.325438 -0.0446382 0.340825 -0.524624 -1.06926 -1.17298 -0.106395 -0.722978 0.157083 0.967234 -1.38773 -0.42883 1.06664 -0.50218 0.685016 -0.445165 0.944221 -0.50703 -1.18036 0.767281 -0.622859 0.0902687 -0.0248406 0.0716243 0.697751 -1.24838 0.204331 -0.156579 -0.315274 -0.514355 -1.50177 -0.729969 0.397601 0.175789 -0.252349 -0.380376 0.443042 -1.04799 -0.237504 -0.371994 1.71118 -0.0555542 0.519524 0.0636862 -0.636237 0.451687 -0.898017 -0.732323 -0.257015 -0.00464989 0.777709 -0.750392 0.673937 -0.613646 0.964431 -0.0522282 1.20254 -0.478783 -1.11774 -1.05098 0.386294 -0.328227 -1.66142 -0.741061 0.731641 0.208836 -1.24392 1.22325 1.59184 -1.07777 -1.36803 0.797235 0.503527 0.413281 -0.19994 -0.556939 0.434079 0.605946 -0.731848 -0.303957 -0.189713 -0.439843 -0.163192 0.494719 0.176038 -0.651308 0.433614 -0.955917 0.576361 -0.085887 -0.433681 2.31838 -0.544893 -0.566009 -0.596013 -1.16578 0.0718807 -0.0386756 -1.31709 -0.377962 -0.213672 -0.208155 0.46252 -0.438303 -1.42233 -1.18639 -0.730847 0.73367 0.232126 0.961309 -0.721347 -0.00264422 0.980196 0.685991 -0.886005 -1.32307 0.987449 0.622746 -1.19956 0.072554 0.355528 -0.396225 -0.761649 -0.501828 0.537537 -1.9174 0.182669 -0.55584 -0.367118 0.558491 -0.970263 -0.989311 -0.783904 -0.453395 -0.336585 -0.0715663 -0.945429 0.123294 0.493828 0.252382 1.13881 0.197788 -0.234148 -1.40624 -0.733761 0.651776 -1.12942 -0.705473 -1.02627 0.0182648 -0.216713 -0.692332 0.0659586 0.239937 0.254472 -0.0666499 1.27583 -1.04206 0.108321 -0.419768 0.560215 -0.234487 -1.67164 0.699339 -1.12171 -0.158918 -1.58983 0.450325 0.462778 -0.867329 -1.37742 0.617544 0.896256 -0.15379 0.697005 0.0528372 0.710333 -0.0319631 -0.077309 0.939415 -1.48307 -0.103749 -0.816053 -0.89969 0.864353 -0.0295875 1.23206 -0.298368 0.857405 -0.0809436 0.495037 0.946269 -0.639094 -1.868 0.585474 -1.22859 0.899767 1.40598 0.2722 -0.612816 -0.715006 -0.67976 0.377763 -0.432645 -0.11569 -0.152473 -0.221508 -0.0546824 0.586387 -0.127622 -0.24189 -0.498735 -0.0142632 -0.0571724 -0.598914 0.449038 1.09552 1.53473 -0.94204 0.336481 -0.664134 -0.817219 -0.172367 0.232418 -1.00045 -1.8421 1.14001 0.605618 -0.74643 1.25823 0.169569 0.306866 -0.865275 0.9489 -0.88703 -0.702759 -0.473945 0.175877 1.44331 -1.23978 2.17961 -1.14756 -0.361346 -1.31895 -0.59389 0.836742 -1.2707 -0.701891 -0.103399 0.393369 -0.0885146 -0.892633 -0.462608 -0.520785 0.395902 0.47067 0.0166561 0.129477 -0.310661 0.872608 -0.0299953 0.480471 -0.910557 0.754415 -1.58887 -0.281597 -0.558745 0.413814 0.0660786 -1.37129 -0.92086 -0.867556 -1.19712 -1.62761 -0.619862 0.718686 1.53733 0.838565 0.473138 0.601641 -0.297059 1.03385 0.410789 -0.0182989 0.772524 -0.024198 0.886495 -1.11369 1.79054 1.19574 0.666868 1.02359 -0.898125 -1.2145 0.137131 -1.80935 1.211 -0.0998104 0.0804833 -0.538263 -0.474287 -0.4493 -0.531 -0.291032 -1.30244 -0.686488 -1.30642 -0.881109 -0.78373 1.37699 1.10687 -1.15694 0.0512773 0.905293 0.018081 0.81287 1.57519 -0.685095 -1.45728 1.1678 0.633406 0.753743 -0.710969 -0.602914 -0.757038 -0.865442 -0.282856 -0.571454 -1.44016 0.191855 -1.03211 -0.0226069 -0.0998096 0.467761 0.967403 0.567559 -1.12457 -0.877094 0.348189 -1.2894 1.78633 -1.07928 -0.92579 -1.01276 0.124833 0.751052 -0.808044 0.111951 0.189122 0.0507634 -0.507077 0.521656 -1.33611 0.542566 0.674919 -0.0670045 -0.253382 -0.565442 -0.0489961 0.382488 -0.519974 1.33232 -1.14297 1.10543 -1.39217 -1.01776 -0.511236 0.32406 -0.320555 -0.79442 -1.49929 -1.18319 -0.372291 -0.718311 -0.770547 0.803037 0.117873 0.954257 -1.00037 -0.536792 0.266492 1.40877 0.599068 -0.769908 0.0800607 0.875442 1.59229 0.336872 1.66602 0.483249 -0.256005 0.323868 -0.956689 -0.913078 -0.494055 -1.12983 0.703061 1.42964 0.283108 0.517123 -0.198249 -0.601512 0.556419 -1.13462 -0.631895 -1.81976 -0.372088 -1.44086 0.464622 0.500293 -0.538102 -0.391091 -0.34917 -0.140427 -0.147398 -0.137998 1.73231 0.150358 -0.562474 0.426402 1.05534 0.00807465 0.451833 -0.780228 -0.901725 -2.18018 0.641395 0.520958 -1.31653 1.7894 -0.65653 0.32072 0.769477 0.0682758 0.505116 0.221563 -0.421474 -0.828934 0.780607 0.310378 0.803325 -0.150291 -0.0711933 -0.0147154 0.183272 -0.922116 -1.05979 -0.917132 -0.0818994 0.275838 -0.0463697 0.379523 0.0187997 0.0816157 0.074598 -0.933646 -0.0639505 -0.0038657 0.304919 0.334639 -0.854402 -0.0787417 -0.738769 1.28223 -1.43401 -1.04741 -0.72035 1.05652 -0.448535 -0.164098 -1.44548 0.608656 -0.525574 -0.00818158 -0.434536 0.342264 1.09576 1.23642 0.131171 0.167845 -1.10294 1.6418 0.696401 -1.01158 -0.456934 0.988306 0.259939 -0.200825 0.155801 -0.276961 0.0479315 0.506429 -1.36432 -0.206126 0.42194 -0.528079 0.920434 -0.00716775 -0.959223 -1.22881 -0.636849 0.639506 0.424467 0.184761 -0.79055 -1.01992 0.921466 -0.874617 -0.223969 0.600058 0.768245 -1.18259 -0.425784 1.46875 -0.785049 -0.34487 1.13628 -0.0526297 1.55138 0.302113 0.583567 -0.0391123 1.08834 0.32458 -0.101087 -0.711796 0.0710598 -0.884475 -1.37532 2.09528 -1.25245 -0.406433 0.134551 -0.406431 1.11504 1.05833 0.162129 0.42039 -0.305261 -0.439045 -0.00142358 -1.76589 0.954138 -0.0258742 0.549632 0.579791 0.628297 -1.38436 -0.0707141 1.30224 -0.20755 -0.456864 -0.982751 0.0946688 0.058331 0.220139 -0.630876 -0.518272 0.332738 -1.12928 0.928347 1.12284 -0.450178 0.20116 -0.250565 -0.2987 -0.744189 0.527959 0.0826396 -0.796178 -0.661351 0.855872 -0.340596 -0.481818 -0.428911 0.169457 0.101579 0.341748 -0.213642 0.859834 -0.0249566 1.61605 0.213935 0.346368 0.741713 1.06451 0.299879 -1.92325 1.19986 -0.146364 -0.528483 1.78534 -2.22107 0.155497 -0.595109 -1.25068 -0.878768 0.817971 -0.853325 -0.48255 -0.55937 -0.313297 -0.650317 0.361979 -0.197182 0.404462 -0.834559 0.157882 0.758506 0.526132 0.430317 0.235436 0.240928 1.22248 -0.0837871 0.572559 0.116726 0.735373 0.984616 -0.895965 -0.239933 -0.905198 1.28158 -0.707517 1.48863 -1.0541 -0.229045 -1.10006 0.266555 1.68691 -0.126046 -1.00877 0.910887 -0.239268 0.728441 -0.288502 -0.316323 0.334207 -0.644009 -0.262819 -0.465281 -0.0568627 0.270353 -0.605494 -0.00125187 0.0751592 0.636141 -0.458016 0.284351 0.491418 0.291715 1.37023 -0.363696 0.299346 0.562844 -0.0290575 0.670713 -0.325797 0.128387 -0.769822 1.05029 -0.574864 0.373927 0.421688 -1.22584 -0.0643963 -0.849621 0.807317 -0.131488 -1.12096 0.239877 0.770443 -0.326431 -0.849209 0.967218 0.679719 0.696802 0.157601 -0.850325 0.611867 0.46308 2.57263 -0.706648 -1.18752 -0.275404 0.446261 0.11726 -1.85687 0.305917 -0.582905 0.254615 1.0522 -1.97882 0.000832033 0.077693 0.595601 -1.39553 0.503412 -1.31761 -0.908625 0.773273 -0.468397 -1.47056 -0.80871 -0.310859 -0.968604 0.570143 -1.12584 1.87405 -0.655161 0.745788 -0.704417 0.0517503 0.615206 -0.771368 -0.51254 0.622061 0.230261 -0.585709 -0.546203 1.27554 -1.52328 1.33921 -0.512806 0.952816 -0.214173 -0.733937 0.512052 -1.90609 0.675324 -1.01237 0.209946 0.0363777 0.47382 -1.01314 0.39723 1.05024 1.09078 0.312737 0.329789 -1.11654 -0.272547 1.3371 1.13285 1.23209 -1.47708 -0.831092 -0.0442796 0.175945 0.108479 1.20436 1.36577 -0.311976 0.94894 0.688082 -0.385812 -0.194175 -1.00301 -0.380913 -1.69432 -0.297265 -0.265298 0.0694855 0.373111 -1.4018 -0.561922 0.1636 1.50437 -0.215173 -1.05158 -0.851234 0.638366 -0.181788 0.907339 0.119384 -0.848589 -1.29606 -1.4354 0.230729 1.31913 1.41277 1.75765 -0.46725 -0.15696 0.15147 0.654406 0.646048 -0.272255 0.223495 -0.631084 -1.12664 -0.332022 -1.3611 0.115981 1.06836 0.724957 0.321459 -0.266096 -1.21856 -1.36522 -0.00579938 0.700514 -0.754237 0.298279 0.317942 0.714973 0.624055 0.0212951 0.58272 0.140177 0.492457 -1.12356 -1.49562 0.588539 0.211065 -0.268896 0.873591 -0.592263 -1.28825 -0.0136799 0.949789 -1.56025 0.956993 -0.499923 0.431356 0.0961171 -0.559326 -0.494193 -0.718465 1.06588 -0.658113 -1.0859 -0.271332 -0.140507 -0.995058 0.97331 2.05293 1.1248 -0.30991 0.0376422 0.0217822 -0.944558 0.401953 0.356122 0.483678 0.163025 0.984857 0.126397 -0.658276 -0.397592 -0.286835 -0.0262029 -0.162095 0.621909 -0.353377 -0.862504 -0.461473 -0.0431428 0.498748 -1.68641 -0.218487 -0.69935 0.839782 0.254897 0.310776 0.010354 0.867242 1.45198 0.505551 -1.02751 0.643098 0.0845378 0.995454 -1.12631 0.958844 -0.320373 0.814341 -0.993091 0.730283 -0.0626882 0.923436 0.698955 -0.876728 -0.523226 -0.595891 0.599739 -0.269872 -0.258589 -0.793379 -0.669878 0.305597 0.881137 -1.15072 -0.131373 0.473081 -0.0379601 0.865485 -0.616638 -0.160655 0.425593 -0.402604 0.127173 -0.13606 -0.789412 -0.133403 -0.0295382 0.00637156 -0.616529 -0.176971 0.202091 0.557056 0.387481 -0.187093 -0.20334 -0.407398 -0.354553 0.852734 -0.117661 -1.08753 -1.04232 0.0821927 0.173959 0.708132 0.0681743 -1.14645 -0.102936 -1.02581 -1.51812 -0.985248 0.866751 -0.352588 0.120247 -0.218475 0.146412 -1.14034 -0.876724 0.0101862 -0.21817 -0.408329 0.0568728 1.02779 -0.750835 1.43172 0.54879 -0.169746 0.760726 -0.479138 -0.798854 0.217868 -0.332577 -0.0998186 1.62753 -0.381732 -0.98891 0.210463 -0.474556 -0.624556 0.359555 -0.24369 -0.166361 0.516435 -1.36336 0.849489 -0.743404 0.430049 0.115857 -0.205858 1.66969 -0.422746 -0.592984 0.569004 -0.188743 1.05549 -0.162358 1.07433 -0.232921 0.031043 -0.0987798 0.0917519 -0.0423436 -0.913788 1.75318 -0.950975 -0.577715 -0.929208 0.878461 -0.244791 -0.291599 -0.432753 -1.6837 -0.697209 0.353691 -2.61447 0.44794 0.654463 0.533706 -0.539634 0.421115 -0.649501 0.170638 -0.818954 0.958844 -0.247416 -0.395123 -0.626315 -0.578352 0.275534 0.945352 -0.538632 0.14965 -0.844127 -0.646665 -0.813363 -0.359696 0.518819 -0.822928 1.2136 -0.711791 0.565168 -0.120209 -0.0577976 0.97182 0.436307 -0.518035 -0.585755 0.489019 -1.11708 -0.00583614 -0.917661 -0.426763 -1.1153 -0.730645 -0.553612 0.0918588 0.0434005 0.618411 1.33136 -1.1657 -0.420138 -0.279412 0.519391 -0.159714 -0.0337958 1.03848 0.239078 -1.12963 -0.282358 0.0701327 -0.513865 0.368907 -0.0579597 0.973977 1.14853 -0.498202 -0.49893 -0.456266 -0.0382335 -0.297799 -0.589379 -0.0692754 0.689979 -1.2194 1.60734 -0.812862 1.24841 0.262211 1.13076 1.91987 0.97005 -1.08148 1.76276 0.0632354 1.19051 -0.228173 -0.133973 0.0541564 -0.696616 -1.14185 -0.121241 1.03856 -0.863436 1.02031 -0.0492265 -1.43418 -1.07381 0.818631 -0.664216 0.0281099 -0.625696 -0.486271 -0.0812793 0.105456 -0.75217 0.0419384 -0.0493211 0.301052 1.24178 0.955173 -0.0206658 0.585287 -0.4618 -0.00517648 -1.08181 -0.564821 0.236372 -0.70579 0.240162 1.06834 -0.101783 -0.366403 0.198556 0.185616 0.325027 -0.305383 0.692635 0.406 -0.665493 -0.681512 -0.214254 -0.478799 0.00856939 0.460035 -0.624841 0.0933155 -0.680711 1.05067 -1.20049 -0.665049 1.38116 0.0449051 1.00652 -0.885997 -0.968945 0.707735 -0.814698 0.723017 -0.580667 0.0971723 -0.187184 0.402644 1.82012 -0.452365 -0.433876 0.580745 -0.637155 -0.75957 0.385865 0.0636249 -0.324993 -1.45282 -0.753649 -0.67706 1.10253 -0.0910166 0.339812 -0.911387 -0.523912 0.209015 0.101268 -0.843373 -0.405347 -0.708596 0.105058 -0.241359 0.110032 0.400498 -0.33097 0.764116 0.328143 0.367492 0.696824 0.114855 -0.0235203 0.903903 -0.23681 0.0234644 0.700917 -0.191766 -0.0236983 0.426025 0.35613 -0.137425 -0.101296 -0.119569 0.745148 -0.637011 0.365221 -0.512482 0.870514 -0.47652 0.573381 0.322554 -0.242663 -0.630092 0.843882 -1.2287 0.726896 0.773005 0.337304 -0.357862 0.141399 1.22341 0.020518 0.717313 0.533043 0.839087 -0.299917 0.545079 0.0932025 0.570872 -1.41975 -0.206109 0.586845 0.610344 -0.481979 0.692613 0.89217 0.90629 -1.06139 0.781981 -0.482879 -0.0694587 -0.78326 -0.416857 0.764906 -0.66961 -0.82201 0.495482 1.54484 0.633745 1.44564 0.190629 0.491601 0.0636715 -0.0176027 -0.326666 0.170566 0.276859 -1.14812 -0.634913 0.39071 -0.661254 0.20421 -0.755144 0.241623 0.424861 0.816274 0.620508 0.479034 -0.974548 0.357127 -0.552092 0.760692 -1.21829 -0.493816 0.514175 -1.38135 -0.297364 0.26145 -1.35002 -0.614729 0.140927 0.44885 -1.00595 -0.377796 -0.744957 0.350056 0.87292 0.922939 0.223163 0.502608 -0.406049 1.02899 -0.732507 0.326978 -0.129983 0.459008 -0.434589 0.314275 0.437682 -0.166013 -0.482017 0.505745 -0.58837 -0.338359 -0.867323 -0.77399 -0.31337 0.390662 0.517292 0.0402363 0.806151 -0.819887 -0.684762 0.944611 -0.2854 -0.189554 -0.309472 0.210413 -0.609891 0.501936 0.706062 -0.659389 0.783351 0.576229 0.70857 -0.370608 0.598744 -0.70325 0.954753 -0.618518 0.395968 -0.939252 -0.458945 -0.533457 -0.168686 -0.175755 -0.662709 0.308049 -0.978107 -0.92994 -1.01347 0.760189 0.139045 -0.487934 0.575454 0.881011 -0.00856532 -0.106387 -0.01385 0.548891 -0.652711 -0.721955 -0.966735 0.959718 0.617773 0.671041 -0.533274 -0.205031 -0.746783 -0.82721 0.627142 0.633858 -0.86752 -0.852967 0.812047 -0.241205 0.164908 -0.425239 -0.660842 0.147064 -0.17334 -0.299225 -0.110563 0.377204 0.17984 -0.729017 0.287133 -0.52039 -0.116852 -0.940691 0.877774 0.500164 -0.70131 0.949088 0.21198 -0.444864 0.838676 0.751599 0.28931 -0.330966 0.745108 0.277327 -0.720163 -0.6304 0.066158 -1.01269 0.0452632 -0.284144 -0.411359 0.330827 0.894962 0.105861 -1.0142 -0.0592657 -0.486224 0.212576 0.47202 0.88965 0.719883 -0.435785 0.905662 0.287568 0.938063 -0.783654 0.240801 0.131719 -0.520807 0.293246 -0.24846 0.576378 0.555062 -0.533098 -0.219229 0.590225 -0.201714 -0.992853 0.707077 0.833771 -0.486662 -0.752702 0.208005 -0.703052 0.512921 0.369734 0.178877 -0.919679 -0.329104 -0.310657 0.904211 -0.548029 0.249537 0.792294 1.01251 0.137107 -0.908127 0.427024 -0.799634 -0.372306 -0.271112 -0.011303 -0.719627 -0.774123 0.630362 0.0302609 0.801268 -0.586551 0.0282068 0.461174 -0.736721 0.53292 0.713767 0.506944 0.814542 0.308403 -0.197133 -0.0199195 0.336388 0.578579 0.691373 0.27283 0.986147 -0.0620162 0.0383523 0.962002 -0.947159 0.06595 0.409058 -0.709058 0.650509 -0.903039 0.276268 0.93813 -0.694332 -0.107014 -0.0819453 -0.817859 0.318957 0.948198 0.64217 0.587539 0.436004 0.435017 0.0944081 0.302877 -0.285642 0.925523 -0.7301 -0.881293 0.513635 0.958261 0.365577 0.370275 -0.106952 -0.564588 0.358171 -0.0276677 0.494486 -0.259743 0.303645 0.167551 -0.16906 -0.485755 0.0481165 0.151435 0.389471 0.969005 0.327616 -0.268902 0.918108 -0.0265805 -0.720239 0.401957 -0.605059 0.376597 -0.301388 0.101149 0.289343 -0.0172761 0.196507 -0.279475 -0.140107 -0.425472 -0.869538 0.844795 0.00124193 0.492526 -0.203179 -0.45939 -0.759298 -0.908116 0.705566 0.0676266 -0.383851 -0.222731 -0.690863 -0.966733 -0.235072 0.591623 -0.242004 -0.304343 -0.423803 0.0560195 -0.90066 -0.0450252 -0.566394 -0.201778 -0.944607 0.720177 0.779016 0.250255 -0.634736 -0.257318 0.826949 -0.428832 -0.448356 -0.165047 -1.01126 0.409287 0.375564 -0.694367 0.513102 0.0810373 0.392231 -0.882561 0.858888 0.655615 -0.849277 -0.376526 0.238976 -0.0892453 0.319102 0.810107 0.964927 0.418476 -0.237135 -0.601816 -0.777183 -0.18175 -0.881639 0.994739 -0.929018 -0.440938 -0.276785 0.891926 0.119586 0.307175 -0.267929 0.192445 -0.208168 -0.89235 0.497954 -0.860423 0.188671 -0.109816 -0.674847 0.046985 -0.492192 -0.524103 0.729582 0.792207 0.384799 -0.0104375 0.576889 0.34973 -0.591923 -0.61791 0.749656 -0.37547 0.182768 0.865967 -0.37797 0.249521 -0.574663 0.343582 0.149217 0.555567 -0.354803 0.881286 -0.250507 0.353556 0.98892 -0.752553 0.561276 0.17759 0.137632 0.886451 -0.775425 0.683651 -0.637652 0.895034 0.475858 0.747151 -0.115375 0.0766831 0.0968808 0.292702 0.440371 -0.155205 0.917232 -0.377685 -0.288931 -0.462768 0.874415 0.136406 0.880813 0.023632 -0.308028 -0.473989 -0.0950819 0.441465 0.879566 -0.106162 0.688912 0.440842 -0.928572 -0.173456 0.327293 -0.703997 -0.489805 0.689641 -0.808963 0.986052 0.436792 0.0756616 0.0627356 -0.466327 -0.631637 -0.496893 0.378467 -0.714405 0.125422 -0.910464 -0.177174 -0.000162128 0.225942 -0.29636 -0.97653 0.917914 0.22965 -0.071612 0.35938 0.109216 0.822226 0.048292 -0.449942 0.893653 0.874836 0.877351 -0.810344 -0.614969 0.566992 -0.619307 -0.628917 0.00378391 0.456355 0.433819 0.537457 0.824718 0.936926 -0.0840761 -0.889687 0.0623484 0.00546015 -0.0668605 -0.937814 -0.768598 0.636779 -0.914344 -0.850684 -0.133571 0.0140441 0.508696 0.952091 -0.159074 -0.45139 -0.476586 -0.266702 -0.574686 -0.599881 -0.0939141 -0.184262 0.963194 0.303727 0.189171 -0.0252357 -0.241208 -0.38734 -0.486998 -0.42139 -0.443986 0.441202 -0.314481 0.613027 -0.569146 0.630077 0.667188 -0.340068 0.253459 0.769771 -0.182931 -0.866129 -0.21699 -0.674637 -0.884124 0.623335 -0.123986 -0.374216 -0.658371 0.306943 0.0542454 0.250992 -0.865517 0.0182188 -0.439419 0.309871 0.976375 0.322564 0.94068 -0.525831 0.910363 -0.479745 0.9137 -0.394105 -0.886045 -0.646501 -0.775927 0.820604 0.0110261 0.498816 0.570258 0.81683 0.621391 -0.647501 -0.861888 0.712551 0.969114 0.0271901 -0.654822 -0.67638 -0.6559 0.376041 0.579726 -0.530219 -0.620498 -0.833071 0.777033 -0.653062 0.482895 0.714556 -0.155319 0.384621 -0.790729 -0.240914 0.991815 -0.669376 0.0981277 -0.785879 -0.870275 -0.882231 0.6899 0.704759 0.934065 0.322212 -0.948741 -0.911225 0.0314143 -0.973691 0.130884 0.374775 -0.656684 0.450885 -0.23515 0.792207 0.851673 0.0576514 -0.995235 0.694471 0.31826 0.63112 0.238666 -0.657824 -0.154903 0.673575 -0.0133392 0.0229598 0.935333 -0.805618 0.136185 -0.905844 -0.636599 0.0280396 0.706665 -0.88303 -0.855199 0.926659 -0.78582 0.163803 0.889423 0.385411 -0.475961 -0.710961 -0.0956528 0.258232 -0.780051 -0.143235 -0.616875 -0.860554 -0.540743 0.841907 1.05436 0.872005 -0.735281 -0.134737 0.489109 0.304604 0.608016 0.487671 0.642737 -0.239728 0.729742 0.942879 0.824468 0.486989 -0.750987 1.0482 0.129066 -0.24918 0.0229166 0.358121 1.01138 0.685272 0.47637 0.0973354 -0.0513886 0.55095 0.756763 0.504393 0.806477 -0.653649 0.614941 0.673425 -0.793582 0.887955 -0.607768 0.89535 0.110898 -1.08052 0.357984 -0.198243 0.0691522 0.0173016 -0.356456 -0.181302 -0.594662 -0.226405 -0.38786 0.690491 0.281095 1.01237 -0.112742 0.37988 0.380394 -0.420862 -0.858779 -0.403778 0.82525 0.88107 -0.623098 0.559668 -0.830617 0.639338 0.126257 -0.636845 0.485609 0.398775 -0.976313 -0.510946 0.225848 0.906145 -0.162044 -0.40784 -0.631803 1.17928 0.164449 0.262831 -0.460463 -0.831373 -0.0843621 0.97356 -0.840306 0.89976 0.168506 0.353745 -0.914781 1.0077 -0.750746 0.900062 0.533167 -0.637219 0.30775 0.770165 -0.725065 -0.326641 -0.626169 0.826272 -1.15303 -0.548491 -0.973054 0.965009 -0.642622 0.746783 -0.59372 -0.0989243 0.345378 0.516248 0.770822 -1.17416 0.857621 -0.275692 -0.556004 -1.09352 -0.329159 0.505672 1.12886 0.130279 -0.570985 -0.412067 -0.398246 -0.361177 -0.278646 -1.05354 0.944874 0.666482 -0.489648 1.20033 -0.176039 -0.120477 -0.795845 -0.00105943 -0.186389 -0.280184 0.0680243 0.280551 0.257166 -0.525536 -0.261241 -0.457577 -0.464718 -0.370854 1.14669 -0.0262337 -0.186494 -0.450952 -0.820247 -0.569957 0.156799 0.0123226 -0.473853 -0.60642 0.562792 0.49324 -0.990918 0.876762 -0.961833 -0.315719 0.436001 0.18935 0.826812 0.183701 -0.706934 -0.680746 -1.06067 -0.120337 0.242562 -0.195634 -0.0795079 0.549186 -1.07322 0.937475 -1.12742 -0.978071 -0.88527 0.159566 -0.516727 0.0849538 -0.0348269 -0.799907 -0.875365 -1.16006 -0.430878 0.490279 0.33777 -0.98607 -0.0459541 1.53438 0.244978 -0.6659 0.00468501 -0.139176 0.704529 0.350613 0.189104 0.910377 -0.331989 -0.708129 -0.211812 1.15072 -1.32299 1.03327 1.20168 -0.367272 0.785709 -0.422045 0.443663 -0.790011 0.065942 -0.555598 -0.586313 0.00327785 0.305308 -0.0158753 0.0148237 -0.984377 1.04267 -0.646089 0.325539 0.141406 -0.656059 -0.0705804 0.867004 -0.935015 1.18949 0.714709 -0.833576 -0.331691 0.427319 0.347872 0.58506 0.187541 0.304241 0.926358 1.34474 0.0429666 0.909471 0.707404 0.00560555 -0.603602 -0.715281 0.76944 -0.138158 0.591492 -0.45829 0.420771 0.34417 -0.813105 0.499081 -0.0142833 -0.263679 -0.520379 -0.475692 0.40615 -0.555037 -0.202108 -1.39837 -0.0963121 -0.451901 0.563507 0.919861 -1.68551 -0.136646 -0.301964 0.646334 -0.561154 0.129686 -0.128233 -1.35474 0.960054 -0.263864 -0.689652 0.0274292 0.0982398 -0.4085 -0.943683 -0.073182 0.108003 -1.24746 -0.263216 -0.456199 0.0971475 0.719011 -0.633832 -0.102802 -0.235983 -0.69068 0.473957 -1.05269 0.0262928 -1.04518 -1.02135 -0.304931 -0.0566191 -0.222539 -0.6138 1.02169 1.03481 -1.06322 1.96512 0.131403 0.867099 0.109071 0.608733 -0.552205 -0.281999 0.89761 0.328277 -0.1847 -1.30706 -0.76086 -0.0250892 1.49433 1.11462 -0.874111 -1.3498 0.54218 0.28776 -0.871918 0.0386773 0.821173 -0.447578 0.0865847 -0.297678 0.51294 1.68756 0.568765 0.749073 1.02956 -0.882708 0.100461 -0.0281226 0.848233 1.21973 1.14919 1.29651 0.938034 0.10014 -0.0172407 -1.04706 0.0949617 1.0035 -0.280024 0.286662 -0.671785 -0.739359 -0.6474 0.839365 0.110669 -0.24887 -0.626172 0.548645 -0.546705 -0.379231 -0.581804 1.7075 0.655656 0.230514 0.168645 0.970183 -0.752708 -1.46972 0.533615 0.520478 1.23996 -0.623776 -0.0895801 -0.0525788 0.48656 -0.578584 -0.48775 -0.14763 0.0768372 -0.365176 -0.304477 -0.964284 0.328867 -0.401177 -1.30231 -0.627934 -0.66771 -0.214291 -0.121231 -1.24476 0.60868 -1.25894 0.0808409 1.054 -0.45052 -0.414149 -0.505458 0.147997 -1.11272 -0.832167 -0.184634 -0.612102 -0.0623742 1.42159 -1.3354 0.96736 -0.2941 0.121347 -0.228743 0.527452 0.554478 1.78067 0.552766 0.434398 -0.669794 0.265078 -0.873693 -1.23506 0.451517 0.107738 -0.192129 0.484541 1.04219 -0.521953 -0.260671 -0.518319 -0.337301 0.562848 0.791816 -0.389702 0.0740904 0.221567 -0.89381 0.601169 -0.759568 -0.602438 -0.628952 -1.98118 0.4481 0.122352 2.039 0.634004 -0.641931 0.469942 0.465464 -2.18807 0.17076 1.86017 0.821838 -0.135063 -1.56009 -0.130805 -0.0165421 0.482057 0.469364 -1.09137 0.309707 -0.568207 -0.787545 0.965292 0.945919 2.33879 0.802058 0.0795589 0.510412 0.755275 -1.32346 -0.295277 0.819477 0.0959776 0.820184 0.288058 0.855495 0.0977928 -0.35069 0.9354 1.04601 -1.06491 -0.326482 -0.408301 -1.37028 0.0229645 -1.0156 -0.66224 -0.552774 -1.42768 0.225482 -1.05856 0.337344 -0.785374 0.853828 -1.41604 -0.75953 0.983766 -0.855661 0.547931 -0.600295 -0.296315 -1.14432 -0.655977 -0.871324 -0.680873 -0.995845 1.89066 -0.230946 0.989462 -1.24052 0.773364 1.16472 -0.656555 -0.921293 2.04265 0.235889 -0.113977 -0.927485 -1.31381 -0.562542 -0.575899 0.386247 1.10039 0.842961 -1.06278 0.0131097 0.10295 0.700395 0.386299 -0.485777 0.997939 1.59953 -0.72634 -1.84227 1.34102 1.12516 -0.156534 0.548438 0.265289 0.976726 -1.28281 -0.450114 1.44609 1.76704 0.483532 0.277375 0.18541 -0.612816 -1.83334 0.445791 1.75047 1.50421 0.437677 -0.972765 0.0880363 -1.33282 -0.053229 -0.673967 0.0482541 0.627735 -0.297869 1.16071 1.80957 -0.727845 2.27135 1.77386 1.78164 -0.515465 0.334518 -0.927635 1.11125 -0.67181 -0.22224 0.476804 -1.11434 0.724816 0.828579 -0.0679318 1.19875 0.69505 -0.395868 0.0207575 -0.340258 -0.335634 -1.37292 -1.18307 -0.354521 -0.364185 -0.814305 -0.505443 -0.820846 -0.612736 -0.0608121 0.253338 -1.46453 -0.167566 -0.188574 -1.38019 0.168164 1.066 0.133736 -0.349249 -0.773013 -0.765262 -0.719753 -0.334337 1.92609 -1.73062 1.73652 -1.11021 0.44512 0.726467 -0.296234 0.715949 0.080822 -0.573656 -0.0511316 -0.700654 -1.8443 -0.186744 -0.32831 0.404247 1.61357 -0.87241 0.198072 -0.490812 1.14057 1.42366 -0.384894 0.982424 0.666255 1.63523 -0.698671 -2.65937 0.449651 1.89128 -0.27325 -0.406011 -0.378722 -0.0806139 -1.75442 0.876523 1.86218 1.21663 1.41761 0.822115 -0.50845 -0.359161 -0.149101 -0.61488 1.00863 -0.367609 1.33269 -1.27435 -0.188676 -0.698469 -0.554455 -0.280046 -0.965277 -0.44047 -0.769073 0.532821 0.79207 0.500229 1.17404 0.990942 1.74924 0.265195 0.598757 -1.62479 0.91718 -0.749647 0.320038 -0.109458 -0.77157 -0.346406 -0.732154 -0.310452 -0.941121 -0.356544 0.434438 -0.199409 -0.500113 -0.0671516 -0.312757 -0.215145 -0.426435 -0.95762 0.399594 1.00814 -0.783024 -0.968127 -1.01319 0.958025 -0.885509 -0.797673 0.340393 -1.48821 -1.2683 1.06333 -0.530272 -0.210763 -1.24059 -0.964327 -1.20741 -0.866145 0.735438 -1.35637 0.858968 -1.84913 -0.143096 0.967579 0.630842 0.151803 1.09149 -0.32137 0.428024 -1.13077 -0.780203 -1.07141 1.53067 -0.454309 1.14251 -0.835738 0.264763 1.57433 -0.275889 1.13276 -1.21143 0.567702 -0.660143 0.686236 -0.571432 -2.24678 -0.639997 1.58094 0.208075 -0.869114 -0.0426582 -0.459804 -0.939622 0.653029 1.1894 0.478751 1.40705 0.149257 -0.722722 -0.515926 -0.159139 0.463276 0.299072 0.174355 1.30484 0.384055 0.245248 0.0368311 0.552768 -0.722314 -1.61507 0.745445 0.117417 1.36419 0.849052 -1.31677 0.516169 1.71995 -0.327861 0.0832004 0.00242805 -1.0776 0.904369 -1.37106 -0.879581 1.00818 0.444578 -0.161829 -0.426029 -0.497908 0.389943 0.774791 -0.828363 0.397343 -0.725054 -0.502677 -0.0894045 0.303878 0.26474 0.358807 0.27107 1.23339 -0.322882 -1.45612 0.278432 1.0282 -0.175329 -0.0486939 -1.44238 -0.661866 -0.837415 0.873545 0.193363 -0.247059 0.192791 0.951699 -0.481336 -0.0357781 1.32777 -2.20932 1.31579 -1.36518 -0.25436 2.02035 -0.823351 0.318339 0.621344 0.463897 0.705127 -0.591645 -0.788479 -1.75959 0.7811 -0.224316 0.14151 -0.550433 0.927822 1.81029 0.209909 0.813624 -0.669638 0.993587 0.604669 0.0164744 0.578462 -2.34789 -1.21131 0.884674 -0.186133 -0.919546 0.667827 -0.307893 -1.22146 -0.859531 1.91713 1.14089 0.714325 1.40739 0.292866 -0.399367 0.313941 -0.288563 -0.458586 0.822086 1.00084 -0.261862 -0.560956 1.10913 -0.393167 1.45902 -1.79747 0.871501 0.170826 0.0397014 1.97289 -1.25986 1.22711 2.01769 0.874726 1.27248 1.81214 -0.597554 0.179937 -0.623702 0.38971 0.95344 -0.555775 -1.49594 0.618583 0.0875548 1.41039 -0.856195 -0.817309 0.195359 -0.71125 0.548492 -0.795047 -0.619744 -0.179277 0.198022 -0.173071 0.101623 -0.314471 -0.840273 0.579847 -0.177465 -0.231442 -0.306485 -2.38061 -1.37636 -0.364634 1.49477 -0.979238 -1.2347 -0.414083 -0.510763 -1.01809 -1.2034 0.705595 -0.190382 0.082785 -0.846767 -1.72722 1.8278 1.19069 -0.735787 -0.836737 -0.793598 0.699278 -0.224775 -1.60224 -1.33774 0.55083 0.773714 -0.464558 -0.856687 0.673479 1.16409 -0.508994 0.297775 -0.340996 -0.0559339 -0.864708 1.79297 1.89577 -2.80514 -1.17443 1.53635 -0.0569645 -1.80358 1.50567 0.114646 -2.17062 -1.46675 1.19585 0.245832 0.135738 1.34614 0.0395038 -1.77329 1.72137 0.243547 0.422658 -1.75037 0.223031 1.01909 -0.508466 0.739347 -0.275208 1.53814 -0.562609 1.63688 -0.795176 1.10385 2.31318 0.0377376 -1.0658 -0.00304123 -0.141786 1.41171 1.29158 0.49127 1.98704 -0.274841 0.578617 0.0857224 -0.889992 -1.1864 -0.0733744 0.93065 0.53103 -0.582786 1.25649 -1.15378 0.0107388 -0.951132 -0.937606 0.0513766 -0.572006 -0.199521 1.20321 0.311779 -0.25707 -1.29569 -0.0209508 -0.579941 0.309014 -0.131893 -3.12496 -0.836524 0.139359 0.408239 -1.53583 -1.56268 -0.745768 1.06336 0.509771 0.0257295 0.761733 -1.24259 -0.98223 1.21425 -1.36829 3.3057 0.709294 -0.960933 -1.44689 -0.00186776 1.32729 -1.09885 -1.18683 -1.61383 0.349809 0.885817 0.470719 -0.102197 1.05841 0.922694 0.396645 0.392425 0.137033 -1.1315 -0.940843 0.913277 1.30296 -2.82327 -0.00748551 0.387672 0.212147 -0.549306 -0.234093 0.264195 -1.32048 -1.10023 -0.0220539 0.502741 0.0208934 -0.795269 -0.860997 0.738641 1.9093 -0.286477 -0.437621 -2.75037 0.0188403 -0.165074 -0.238734 0.351136 0.380686 1.44657 -0.279925 0.764082 0.148817 0.779421 1.2231 -0.00973956 -0.847477 0.574181 -1.19349 1.55885 1.17061 0.384641 -0.00445011 -1.45507 -0.976052 -0.67197 -0.317092 -1.93647 0.0270619 0.39283 -0.606667 -0.453968 2.28302 -0.345814 -0.196501 -0.827702 0.662077 -2.20004 -1.24014 -0.548668 1.56312 -0.481586 0.258473 -2.12017 0.946791 -0.534815 0.506591 0.12443 -4.01588 -0.420518 1.12105 -0.294194 -0.813787 -0.383352 -0.269556 0.175032 1.39456 1.12013 0.936251 -0.491167 -0.672989 1.5785 -2.70222 2.44721 0.340122 -0.414322 -0.733981 -0.874084 0.140747 -0.708214 -0.490742 -2.07833 -0.0353031 -0.646846 -1.49872 -1.53892 0.788534 1.39056 -0.195645 0.824629 -0.392552 -1.05381 -0.282025 -0.21723 3.00735 -1.60897 1.09435 -0.752314 -0.354162 -1.20422 -0.106786 -0.401355 -1.72048 -2.15486 -0.0131588 1.10191 -0.164734 -1.74659 -0.393467 0.837048 2.18298 0.727343 0.428818 -3.11371 2.83457 0.693665 -1.31026 1.37161 0.32285 2.0592 -0.551465 2.01919 0.951775 0.400085 2.02676 0.410947 -2.68552 -0.611476 -2.04263 1.69617 1.82057 -0.020101 -0.416166 0.43946 -0.199314 -0.204235 0.0791709 -1.02785 0.182063 -0.093526 -0.656239 0.183805 0.824931 0.602547 0.261713 -0.572694 0.5176 -1.2715 0.0634316 1.14549 1.35034 0.0051928 0.378576 -1.27527 -0.743835 -1.38918 -1.05193 -0.617856 -3.3453 -0.0939696 0.64062 -1.5829 0.032909 -1.03614 -1.15417 1.02664 1.76942 1.22213 0.60744 0.226662 -0.980555 2.14437 -1.90698 1.48766 -1.64356 -1.20694 -1.25788 -0.852421 0.548102 -0.193457 -1.92867 -1.21829 0.639856 0.634645 -0.638994 -0.0769577 1.44068 0.44201 -1.29961 -0.59811 -0.549526 -0.678566 0.0978245 -0.643786 2.55994 -1.15308 0.213782 -1.71083 -0.761687 -0.232255 -0.0476881 -0.0358716 -0.988611 -1.9456 -0.447695 -0.160415 -0.0639269 -0.899794 1.45891 2.03715 1.97582 -1.06056 -0.421366 -1.99504 2.86809 0.931439 -0.761791 1.62521 0.618546 1.24351 1.02717 1.72121 1.18724 -0.000195739 1.52241 0.335027 -1.32444 -0.249321 -2.59751 0.20239 1.14342 -0.795932 0.772518 -0.911933 -0.00620791 -0.548325 -0.662332 -1.03179 -1.11242 1.16991 -0.353259 -0.726516 2.00264 0.846972 -0.529171 0.248292 1.07715 -1.60016 -0.382004 2.29298 0.145033 -0.835693 0.400973 -1.38339 -0.196191 -0.917174 0.290768 -0.443143 -2.29069 0.770117 1.60967 -1.38163 0.69643 -0.845342 -0.0603971 1.14743 1.69657 -0.332726 0.686016 -0.634875 0.877425 1.19491 -2.09535 1.71134 -1.05553 0.00043707 -1.55846 0.260041 -0.909305 -1.10182 -0.870929 -0.543943 -0.187948 0.368597 -0.75765 0.00940901 1.06557 -1.10444 -1.07642 -0.367563 0.604823 -1.41452 1.08465 0.725694 1.97718 -0.597095 1.78874 -2.89069 -0.242508 -0.174237 0.228361 -0.771547 0.024677 -2.36561 0.116349 -0.318278 -1.44444 -0.567525 0.641556 1.15155 0.692615 -0.822015 0.964759 -0.797128 2.86319 0.271377 -0.0962019 1.03028 0.836628 1.89712 -0.645624 0.912308 1.54862 -0.827717 1.49616 -0.493788 -2.07493 -0.206694 -1.58577 1.25012 0.905751 0.0685462 -0.104566 -0.186162 -1.06124 -1.01987 -0.44695 -1.88722 -1.4476 0.260175 -0.65422 0.0398075 0.525339 0.71928 0.174156 -0.491445 1.91846 -1.81391 0.242293 2.05955 -0.345615 1.05656 -1.32314 -0.428492 -0.0215589 0.468596 -0.436747 -0.48515 -3.08238 1.28693 0.327663 -0.66386 2.55066 -0.892426 1.20966 0.916788 1.45019 0.939819 1.83723 1.29363 1.01565 1.43815 -0.0940882 0.630252 -0.768779 1.14797 -1.18264 0.0709849 -1.60233 0.298229 -0.572335 -0.293071 0.588972 -0.698332 -0.115159 -1.18728 0.969466 -0.0505669 -0.00405141 -1.84486 0.0491069 -0.961621 0.20294 -0.24025 2.0512 0.663923 0.236751 -3.05755 -0.500268 -1.17683 0.0328532 -0.851457 -0.0883198 -0.940565 -0.180725 -0.756647 0.0885962 0.0869757 0.203756 0.523898 1.77187 -0.961423 0.145514 0.281996 1.86649 -0.528325 -0.960825 1.25435 0.0668102 0.179451 -1.44541 1.41875 0.376977 0.277956 0.613243 -0.648855 -1.59615 -0.272828 -1.7067 0.675347 1.24569 -1.69534 -0.333698 0.160535 -0.936 0.37625 0.13118 -0.0179299 0.057176 1.49982 0.361389 1.59371 -0.608093 1.40036 -0.70554 -0.782072 2.31332 -0.306255 -1.02098 2.75965 0.194622 0.412703 -0.044992 1.50288 0.351035 -0.378295 -0.185158 -0.0463752 -1.88664 0.4915 -0.0706144 -1.7541 2.80493 -0.370222 -0.327008 0.616865 1.68662 -0.444779 0.880635 0.943033 -0.65379 0.38257 -1.38317 -0.307468 -2.46221 1.32852 -1.21614 1.19819 -1.60426 -0.463558 -0.681872 -1.27051 -0.182711 -0.123785 1.66469 -0.756178 0.349 -1.2693 0.442116 -1.88407 -1.40479 -0.429488 -1.50249 0.252642 1.76323 0.870811 0.295643 -2.40885 0.337377 0.483858 1.94952 0.312101 -0.73545 -2.39704 -0.53501 -1.2419 0.52106 -0.631245 -0.0457464 1.22455 0.631094 0.494417 -0.0730051 1.11239 2.74648 -0.283122 0.192869 0.964155 2.21105 1.19414 -2.20803 -0.859856 0.0822241 -1.14331 1.26664 -3.25793 -0.0699094 1.03077 -0.0673554 -0.0741186 1.65148 -1.04707 0.0704563 -0.186336 0.565225 0.0795704 -0.410669 0.215626 -1.185 0.679984 -2.05462 0.484331 -0.0948711 1.34888 -0.712436 -0.327829 1.33449 -0.0938806 -0.0732668 0.909301 -0.758081 1.40678 -1.37448 0.61824 -1.49636 1.23203 -0.479755 -0.47728 -0.349047 1.30085 0.719743 -1.05569 2.49775 -0.0549021 -0.755952 -0.489609 1.63946 1.14284 0.605167 2.1043 0.0233522 0.970194 0.480828 1.00806 -1.47395 0.815417 -0.0367658 1.55819 -0.518938 -0.23858 0.265831 -0.856128 -0.984194 0.872711 1.82808 -0.695817 0.500385 -1.79978 -0.296714 -0.583921 -0.88054 -0.199461 -2.49505 0.0480092 -0.707964 0.834252 0.453843 -1.86581 0.316665 0.482687 0.818631 -1.55876 -0.544839 -1.22794 0.232739 0.651842 1.01682 0.816039 0.629002 0.606054 -1.55908 -0.236006 -0.545926 2.06002 2.76414 0.211389 -1.54514 -0.36499 1.88602 0.146034 -1.22084 0.317575 -0.356826 0.0930343 0.279055 -3.10877 0.227775 -0.470508 0.318907 -1.06927 0.904033 -2.09239 -1.37418 1.07743 0.908602 -0.840993 -0.130457 0.693959 -0.651242 0.390504 -0.804433 1.92703 0.793859 1.20533 -1.07533 -1.08243 1.81792 -0.097994 -0.827283 0.584767 -1.48679 -0.324861 -1.10696 0.633883 -0.454315 1.48223 -0.719931 -0.223512 0.71239 0.174759 -0.380994 -1.08752 1.77102 0.206597 -1.61383 -0.776473 1.39709 -0.745592 -0.634229 2.20693 -0.275531 -1.06641 -0.147117 -0.356835 -2.48166 1.35338 1.01014 1.34459 -1.98082 -0.0256234 -0.760497 -0.494528 -0.898671 0.326135 2.41821 -0.566513 -0.54374 -1.83599 0.320861 -0.597912 -0.402386 -0.407605 -1.69362 0.411234 -0.983519 0.97035 0.129088 -0.965257 0.855985 1.17809 2.16401 -0.577455 0.147408 -0.808701 1.86237 1.03311 -0.744151 1.11718 0.00915766 -1.45517 -1.7398 -0.0652742 0.641079 1.46669 2.07214 -1.35998 -0.98078 0.0560901 -0.266601 -1.28583 -0.77047 -1.26316 -0.0924839 -0.522006 -0.551885 -2.58507 0.324133 1.1531 0.362458 -0.592373 0.144237 -0.940179 -0.92158 -0.930862 0.346802 -0.895151 -0.0750524 0.240783 0.294188 0.126754 -0.202783 0.960912 -0.603853 1.46192 -0.27475 -1.28315 0.419627 -1.01973 -0.560062 -0.693801 -1.35474 -1.1671 -0.818181 1.4972 -0.619757 0.59785 -1.22806 -0.311593 0.199003 0.123198 0.307107 -0.203776 1.54582 -0.792384 0.25701 -1.03943 1.23585 0.515613 -1.52064 2.03933 -0.223248 -0.490453 0.884183 -0.667537 -0.901143 0.787625 -0.122234 0.289056 -1.11992 1.1703 1.03823 0.0946793 -0.0407523 0.364598 1.76911 0.593589 -1.10731 -0.86352 -0.92052 -0.546222 0.011187 1.3665 -1.69893 -0.0104716 -0.564545 -0.0459269 -0.522468 0.988735 -0.299456 1.60812 1.84763 0.07938 -0.625376 0.47754 0.704822 0.581289 0.781746 0.678834 0.560188 -0.988978 -1.74334 0.511752 1.20084 -0.0756858 2.0201 -0.538663 -2.05404 -0.300388 0.552658 -1.27313 -1.0563 -1.2691 -0.814531 0.000738961 1.32928 -1.80115 1.79381 0.0521008 -0.529812 -0.299424 0.0319637 -1.83989 -0.741081 0.408314 0.740697 -1.40867 -1.51806 0.0595474 1.10997 0.997142 0.32206 1.11059 1.14844 0.194353 -0.699506 -1.55403 0.663162 0.187408 -0.661816 -0.824291 0.183907 -2.35166 -0.490674 -0.00865238 0.949777 -0.703625 0.177905 -0.543362 1.77013 1.11674 0.676568 -0.997699 1.00293 0.443045 1.04053 -0.309982 1.28727 0.757996 0.36901 1.06486 0.48097 -1.05082 1.61309 0.0429288 -0.46403 0.719536 0.708134 -1.248 0.0259604 -0.487884 0.0281496 0.454131 -1.87295 -0.369546 1.62909 1.31903 -0.113941 -0.707784 -0.822186 -1.46686 -0.565079 0.124922 -0.938472 -0.551121 -1.33089 0.666555 0.0754431 1.81663 0.31914 0.858464 0.527061 -0.425257 -0.324259 2.22884 0.612513 1.48791 -0.280161 0.845666 0.168146 -0.616424 -1.60847 0.195273 1.31125 0.0393108 0.889798 0.328075 -2.2396 0.176463 -0.908141 -0.905039 -0.718932 -1.06325 -0.403321 1.21509 1.44993 -1.39 0.398707 0.332732 0.402146 0.553639 -0.189253 0.416909 0.627391 -0.791407 0.699069 -1.29659 0.660693 -1.02745 -1.0031 0.924844 -0.47215 0.562261 0.460682 0.278293 -1.36767 -0.580167 -0.583748 0.135755 -0.424375 -0.841424 0.274119 -1.8413 -0.299056 0.528743 1.61732 -1.06608 -0.586779 -1.16478 