784 100 100 100 26 
-0.195764 0.248733 0.749316 -0.300859 -0.0527579 0.70559 0.202092 0.495691 -0.821761 0.299655 0.710606 0.951802 0.650588 0.717762 -0.138753 -0.207942 -0.442577 0.243376 0.910599 0.0927095 -0.687165 -0.976151 0.0410595 -0.993762 -0.233759 0.0829502 -0.445481 0.866324 0.198089 -0.583021 0.342081 0.626703 -0.829374 -0.457487 -0.219355 0.99371 -0.381441 -0.85508 0.737067 -0.625176 -0.241583 -0.854538 0.922378 -0.724113 0.112953 0.224559 0.349968 -0.749764 -0.651502 0.99056 0.525724 -0.835854 0.762222 -0.805665 0.130761 -0.663969 0.0416123 0.739235 0.229801 0.615804 0.750076 0.756132 0.306741 -0.502073 0.295441 -0.0355411 -0.533752 -0.711489 -0.296346 -0.299559 -0.760994 -0.0642126 0.00966993 0.486388 -0.250359 -0.500354 -0.156506 0.212448 -0.0106728 -0.844344 0.626888 0.629877 -0.733802 -0.74727 -0.931031 0.509756 -0.259211 0.993524 0.55465 -0.815501 0.94003 0.875137 -0.109587 -0.769792 0.638393 -0.640492 0.303998 0.956368 -0.863231 -0.186659 0.914738 0.821652 -0.325568 -0.981294 0.281356 0.295328 0.910566 -0.95149 -0.354087 0.618424 -0.0756205 -0.488451 -0.762256 0.293219 -0.949672 -0.695674 -0.422538 0.62972 0.803242 -0.90719 -0.915579 -0.639803 -0.0979686 0.522522 -0.301443 -0.519251 0.425364 0.746693 0.944957 -0.955823 0.171683 0.612943 0.940935 0.830636 -0.816215 0.201572 -0.0770709 -0.270011 -0.935402 -0.574227 -0.766041 -0.868295 0.587199 -0.182188 0.615707 -0.857739 0.821108 0.882229 0.91978 -0.856036 0.713586 -0.991416 0.722602 0.317103 -0.375832 0.614394 0.092612 -0.263767 -0.0437161 0.979517 -0.0781934 -0.00441182 0.2099 0.127525 -0.367742 0.590005 0.118045 -0.510504 -0.0834463 -0.157911 0.302637 -0.500814 0.0784921 -0.0729361 -0.434181 -0.352392 0.763603 0.39451 0.141755 0.828059 -0.819212 -0.748618 0.969193 -0.785162 -0.789306 -0.549427 -0.514102 -0.353453 -0.424841 -0.830839 -0.650899 -0.736509 0.762688 -0.453263 -0.0525479 0.921938 0.380398 -0.213089 -0.845545 -0.706311 0.0589143 -0.963174 0.704079 0.815513 0.506925 -0.502662 0.553569 -0.754916 0.534762 0.65748 0.527109 -0.460292 -0.21596 0.276758 -0.343723 -0.355092 0.244426 0.370646 0.217274 -0.109355 0.936419 -0.063272 -0.0959384 -0.359274 -0.399284 -0.786057 0.187471 0.611669 -0.731576 0.00822591 0.736404 -0.718933 0.752927 0.714299 0.0995978 0.0362509 0.588212 -0.305064 0.912199 0.421298 0.871152 0.83883 0.372796 0.459715 -0.494349 -0.779076 0.333288 0.543942 -0.321074 -0.167338 0.0823729 0.866819 0.0516509 -0.812645 0.783386 0.549814 0.57488 -0.560098 0.798302 -0.990265 -0.36231 -0.368113 0.870612 -0.562349 0.354128 0.555863 -0.840416 0.353714 -0.473932 0.430305 0.148375 -0.568625 0.206476 -0.342973 -0.674232 -0.38096 -0.519807 -0.135327 0.181823 0.557934 -0.0503508 0.199324 -0.0665646 0.503249 0.324765 0.76429 0.697603 -0.723268 -0.857271 -0.506294 0.32038 -0.539288 -0.175586 -0.287848 -0.724488 0.993779 0.800894 0.622093 -0.481753 -0.320171 -0.0359706 -0.727337 0.214818 -0.860805 -0.851915 -0.0359832 0.454309 0.244787 -0.729875 -0.526172 -0.147749 -0.424046 -0.125961 -0.126337 -0.852715 0.171804 -0.582015 -0.755244 0.81352 -0.579951 0.934252 -0.889106 -0.995293 0.831305 0.942239 0.688101 -0.399218 0.135037 0.496453 -0.884387 -0.860472 0.422145 -0.0201828 0.250701 -0.341031 -0.337436 0.0300402 0.263855 0.616997 0.763246 0.971003 -0.544654 -0.691736 0.0697497 -0.31168 -0.38272 0.746997 -0.409924 0.221377 0.298517 0.628589 0.245108 0.44589 0.755182 -0.122242 0.736648 0.802221 -0.14645 0.0125845 0.712542 0.805516 0.0264478 -0.869557 -0.995652 0.489889 0.811602 -0.363197 0.309888 0.355227 -0.1724 -0.152867 -0.00287738 -0.240243 0.718685 -0.103337 -0.91647 -0.563225 -0.436049 -0.88335 0.732543 -0.623351 -0.728584 0.26987 0.937936 -0.936657 -0.27517 0.094178 0.747395 -0.41179 -0.620739 0.690139 -0.834477 -0.474286 0.312786 0.7974 0.807502 -0.526681 0.81649 -0.973698 0.344407 -0.897173 0.0416556 0.690009 0.662016 0.91333 0.535272 -0.0729333 -0.0496311 -0.831829 0.425485 0.198225 -0.778395 0.312536 -0.226057 -0.984623 -0.592776 -0.976925 -0.705097 0.78166 0.533008 -0.633429 0.894757 -0.136281 0.26005 0.676118 -0.839444 -0.361324 0.896007 0.492707 -0.292935 -0.0176004 -0.312387 0.487007 -0.428979 -0.45813 -0.325417 -0.835375 -0.24095 0.0534196 -0.484506 -0.805335 -0.0328032 -0.932591 0.138546 0.763231 -0.764067 -0.97493 -0.36391 -0.484552 -0.092791 0.648754 0.399455 0.128243 -0.671403 -0.457613 0.950734 -0.128806 0.732182 0.958119 -0.468555 0.922919 -0.605523 -0.83504 -0.784647 -0.392535 -0.838501 -0.729627 0.0508598 0.944232 0.831013 -0.085399 -0.0679229 -0.377638 -0.41728 -0.772224 0.770634 0.579697 0.194179 0.512001 0.699321 0.734167 0.150685 0.197999 0.0713824 -0.897805 0.0180677 -0.160732 0.0231606 -0.56584 0.775338 -0.0268841 0.739799 -0.430996 -0.986139 0.708932 -0.458137 -0.943912 -0.612714 -0.712394 0.740454 0.896033 0.512157 0.938915 -0.302968 0.51942 0.451787 0.687336 0.641323 -0.4522 0.967127 -0.850862 -0.832727 0.916451 0.954448 0.692733 -0.984757 0.324499 0.783296 0.942925 0.269894 0.175776 0.657782 0.34991 -0.13051 -0.886938 -0.620065 -0.30994 -0.308891 -0.500783 0.256523 0.709855 -0.198146 0.47444 -0.282077 0.145505 0.553833 -0.0107274 -0.679419 0.324714 -0.783492 0.0874726 -0.841953 -0.731056 0.358168 0.96668 0.502019 -0.752199 0.345992 -0.604201 0.410452 0.612371 0.745699 0.332678 -0.149659 -0.781775 0.944004 0.324556 -0.966163 -0.479482 0.644012 -0.840097 -0.806751 0.186999 -0.578066 0.492182 -0.0244349 0.438859 0.576516 0.576212 0.313512 0.238581 0.684227 0.766739 0.267021 0.798172 0.37378 -0.880359 -0.391592 0.501985 -0.218115 -0.816714 -0.10106 0.0276841 0.518644 0.357202 0.759191 0.929033 -0.771492 -0.556643 -0.227814 0.432249 -0.82374 -0.471549 -0.333324 0.666503 0.73788 0.0782519 -0.65523 0.560277 -0.734871 -0.0999103 0.0723615 0.734071 -0.756217 -0.319481 -0.689452 0.50257 0.59101 0.797415 -0.0395643 0.220218 -0.696039 -0.504795 -0.315705 -0.877455 -0.279278 -0.236889 0.269339 -0.839461 -0.0940558 0.770093 0.934496 -0.197973 -0.673114 0.611127 -0.850349 0.995709 -0.778235 -0.235141 -0.0561254 0.467632 0.392488 -0.829388 0.968173 -0.886092 0.821507 -0.606123 0.502758 -0.79919 -0.0611123 -0.556409 -0.90162 0.0344903 -0.16624 -0.86335 0.359218 -1.00459 -0.549155 0.73366 -0.424786 0.180699 1.00283 -0.871084 -0.0933174 0.397654 -0.458104 0.520428 -0.686755 -0.820126 -0.74233 -0.693606 -0.0357829 -0.328188 -0.0602138 -0.979225 0.30198 0.649775 0.882939 -0.617556 0.0587903 -0.297393 0.722362 0.601007 0.764422 -0.677602 -0.786031 0.326815 0.131472 -0.761853 -0.966616 -0.200586 -0.497009 -0.111474 0.541177 -0.0641326 -0.533146 0.412316 0.23781 -0.0601905 0.422389 0.783107 0.808082 0.189282 -0.260209 0.44191 -0.890868 0.117094 0.136076 0.767131 0.552817 0.716698 -0.284716 0.673228 -0.721549 0.653032 0.11904 -0.489049 -0.346627 0.479817 -0.197695 0.182354 0.398084 0.672795 0.831319 -0.29956 0.396311 0.154246 -0.490516 0.320745 0.148803 0.225385 -0.69619 -0.919357 0.422357 -0.142855 0.831472 0.591981 0.093561 -0.444765 -0.836767 0.427341 0.53547 -0.136845 -0.608279 -0.901949 0.0281861 -0.504114 0.14575 0.808809 0.873418 0.781898 -0.648354 -0.00126644 -0.496938 0.740456 -0.9479 -0.313807 -0.122467 0.730089 0.30192 -0.336405 -0.628513 0.994757 0.178837 -0.699929 -0.712776 0.434278 -0.0667095 -0.21058 -0.673731 0.695091 -0.450005 0.403391 -0.619899 -0.760992 -0.631095 0.858823 -0.160311 -0.942741 -0.773848 -0.699402 0.434464 -0.386044 -0.517702 0.930098 0.782358 -0.153309 0.472804 -0.26217 0.025266 0.596063 0.0401465 0.391552 -0.743951 0.305423 0.355939 0.598571 0.167274 -0.565333 0.439701 -0.930678 0.445831 -0.685075 0.83851 -0.213319 -0.182852 0.0120871 -0.417604 0.0987374 0.863118 -0.779764 0.269921 -0.913844 0.423953 0.753313 -0.496757 0.545389 0.958005 -0.296287 0.652849 0.945152 0.815924 0.756816 0.0706285 -0.270128 0.889014 -0.648795 -0.265863 0.735302 0.823358 0.0248763 -0.572841 0.563015 -0.420763 0.208444 -0.35658 -0.0850292 -0.967383 -0.846545 -0.258537 -0.304809 -0.180312 -0.42231 0.947479 0.32857 0.43646 0.556908 0.388251 0.654743 -0.308194 -0.64646 -0.980466 0.210449 0.352497 0.604009 0.546747 -0.368428 -0.311189 0.0316998 0.526688 -0.190248 0.050548 0.296607 -0.0302313 0.189898 0.80105 -0.464658 0.38663 0.318945 -0.60049 -0.0412902 0.117999 0.711198 0.00408914 -0.243788 0.440007 -0.77383 -0.632598 0.663745 -0.525745 -0.400761 -0.482216 -0.455756 0.0775054 0.207749 0.379996 -0.775032 0.0283616 0.506526 -0.544759 -0.424107 0.564407 0.226805 0.497771 -0.28968 0.705499 -0.297985 -0.562508 0.820502 0.726448 -0.456019 -0.0726828 -0.844204 0.865409 1.02537 -0.821638 -0.469897 -0.0361289 -0.996135 0.125936 0.670916 -0.574379 -0.570917 0.904429 -0.796164 -0.574142 -0.429294 0.822774 0.624093 -0.776857 -0.592491 0.7911 0.597267 -0.61746 -0.805339 -0.607549 0.578247 -0.479913 0.893001 0.336313 -0.0220533 -0.955955 -0.776928 0.119385 0.6097 0.580455 -0.314949 -0.669033 -0.838262 -0.596259 -0.913877 0.953032 0.161001 -0.710111 -0.845999 -0.134865 0.0362597 0.762664 0.16275 0.682339 -7.83872e-05 -0.18088 -0.875914 -0.695614 0.570215 0.388739 0.63533 0.419196 0.74757 0.803813 0.583971 -0.432508 0.287899 -0.13778 0.722133 -0.170684 0.375113 -0.374014 0.308186 0.0411818 -0.303057 0.896536 -0.0924303 0.112692 0.707822 0.199532 -0.337511 -0.28036 0.161055 -0.748035 0.3336 0.912761 -0.155138 0.617547 0.711426 -0.866977 0.0493033 -0.0531683 -0.748698 0.690161 0.329518 -0.885761 0.584255 -0.864203 -0.969512 0.152934 0.0909354 -0.496914 -0.0519873 0.387734 -0.835746 -0.493505 0.250783 -0.767072 -0.530834 0.439513 -0.0539787 -0.608763 0.873554 0.705173 0.565075 0.365915 0.408165 0.428226 -0.628451 0.952301 -0.273129 0.694254 -0.208629 -0.169826 -0.387558 -0.227972 -0.485894 0.616821 -0.499363 -0.729908 -0.728641 0.910456 0.22619 -0.177129 -0.574335 0.789177 -0.0434745 0.0888257 -0.548486 -0.486138 -0.149166 0.745492 -0.438069 0.661895 -0.894466 0.761527 -0.241169 0.465396 0.443112 -0.672377 -0.79469 0.0097357 -0.10778 -0.263007 0.803615 0.482567 0.422342 -0.465122 -0.359282 0.613356 -0.0931375 -0.141721 0.580418 0.199303 -0.913592 0.0477814 0.838565 0.00299516 0.126578 0.622865 0.381859 0.00251163 -0.784759 -0.262219 -0.672107 0.278769 -0.241555 0.0719853 -0.714384 -0.362905 -0.375842 -0.387127 0.121127 0.295379 0.0236891 -0.922972 -0.795433 0.35064 0.703507 0.593794 0.08065 -0.375446 0.748568 0.104103 -0.0102844 0.552995 0.0777714 -0.0045396 -0.989023 -0.106439 -0.694881 0.307102 -0.744277 -0.939105 -0.404852 0.886937 -0.923383 0.051167 0.315782 0.283172 -0.442777 0.20767 -0.0863473 -0.855247 -0.931556 -0.531524 -0.455506 -0.195203 -0.454914 -0.867496 0.462339 0.0960143 -0.596948 -0.311856 -0.302204 -0.147749 0.0268009 0.980567 -0.793545 -0.35526 0.983227 -0.836224 -0.0968672 -0.896491 -0.035011 -0.155934 0.235028 0.61515 -0.589827 -0.338157 0.126927 -0.857308 0.398826 0.40223 -0.07856 0.209792 0.0814119 0.0739424 -0.972979 -0.245542 0.717171 -0.19738 -0.531991 0.56531 0.0703327 -0.598049 -0.527416 -0.75898 -0.794783 -0.93575 -0.617991 -0.139547 0.072556 -0.118414 0.195767 -0.133724 -0.0929226 -0.151417 0.269985 -0.0394871 0.829735 0.907379 0.28469 -0.640417 0.00690277 0.0410299 0.67817 -0.560124 -0.644991 0.108142 0.291018 -0.33107 0.125184 -0.657459 0.304565 -0.786328 -0.427563 0.381137 -0.0749166 -0.652099 -0.770554 -0.5864 -0.336753 -0.521245 -0.95361 0.816687 0.770394 -0.57993 0.200142 -0.494965 0.857686 0.194356 0.9884 -0.24795 0.688594 -0.445883 -0.398531 0.154876 -0.73879 0.374905 0.330785 -0.905823 0.689035 0.570552 0.676197 0.773764 -0.988711 -0.354128 0.846451 0.776017 0.663421 0.64364 0.254214 0.790791 -0.956897 0.616535 -0.632769 0.983959 0.895098 -0.210645 0.824597 0.489112 -0.205417 -0.72986 0.355725 -0.492953 0.0188971 -0.397503 0.59914 -0.257304 0.301559 -0.869617 -0.35237 0.175338 -0.687485 -0.868105 0.0139036 -0.106251 -0.295574 -0.458808 0.286557 0.35702 0.964571 -0.501257 -0.726696 -0.26811 0.779463 0.0521493 0.991365 0.0186279 0.553387 0.41181 -0.0561199 -0.579835 0.647966 -0.843737 0.779724 0.222973 -0.618672 -0.356189 0.860743 0.42646 0.794862 -0.531052 0.629181 -0.225265 0.678649 -0.915841 0.160263 -0.482024 0.649385 -0.584533 -0.951956 -0.746995 -0.420886 -0.126633 -0.722683 0.736148 -0.985861 -0.991541 0.205948 0.258298 0.446095 -0.47169 0.360664 0.809857 -0.850075 -0.756055 0.272095 -0.297395 0.547089 0.14629 0.184254 -0.418207 0.392118 -0.374353 -0.481637 0.696008 0.229666 -0.299746 -0.272304 0.0827238 0.590173 -0.0460801 0.837538 -0.518579 -0.584544 0.987049 -0.386696 -0.297814 -0.981268 0.36907 0.902518 -0.313535 -0.683025 -0.551527 -0.527655 -0.625197 0.45575 -0.671435 -0.402426 -0.918349 -0.00324107 -0.872221 -0.865317 0.206262 0.8193 0.34045 0.681974 0.397813 -0.210597 0.148809 0.227453 0.806942 0.809915 -0.477779 0.282877 -0.00885502 0.0715018 0.270468 -0.273187 0.56243 0.139374 0.0363897 -0.31947 -0.843763 -0.407087 0.661097 -0.977467 -0.0022488 -0.243531 -0.52773 -0.983898 -0.600645 0.336719 -0.573027 -0.264749 -0.923615 -0.2125 0.376603 0.819055 0.0459594 0.0941736 -0.145079 -0.401048 -0.377694 0.715316 0.785774 -0.584538 -0.565698 -0.927636 -0.770883 -0.915314 -0.863415 -0.662455 0.274017 -0.560662 -0.42605 0.151532 -0.863431 0.241571 -0.73177 -0.370726 -0.109897 0.261767 0.591075 -0.757592 -0.565774 -0.480329 -0.280662 -0.824483 0.30955 -0.803557 -0.704535 -0.95827 0.657576 0.434778 0.905995 0.910932 -0.144498 -0.0566015 -0.627802 -0.339293 -0.695132 0.332151 0.0433578 0.354596 0.405952 -0.167307 -0.0387853 0.223862 0.7297 0.830212 0.572057 -0.0173993 -0.995733 -0.953294 0.107741 0.30727 -0.292768 -0.409284 0.735868 0.822412 -0.195568 0.126783 0.823413 -0.670275 0.997377 0.221095 -0.545578 0.0243197 0.841101 -0.952994 -0.387747 0.805175 -0.533542 -0.867156 0.344997 0.694044 -0.661738 -0.13658 -0.299315 -0.00385696 0.407353 -0.77763 -0.343292 -0.694906 -0.790568 -0.521691 0.828584 0.609751 -0.742749 -0.767191 -0.513756 -0.796927 0.874096 -0.865882 0.52783 -0.293513 0.322956 0.231525 0.309766 -0.761854 0.679882 -0.94116 0.248053 1.00304 -0.0120419 -0.873438 -0.446116 0.328208 0.198243 -0.548884 0.259846 -0.998515 0.0743339 0.468541 0.116117 -0.043837 -0.213159 0.927962 -0.177285 0.362838 0.648416 0.0842563 0.200096 0.489414 0.578737 -0.500997 -0.780532 -0.786864 -0.509756 -0.142881 -0.145837 -0.519124 -0.432561 -0.100661 -0.0932501 -0.507685 0.52133 0.869194 0.59034 -0.57819 -0.65136 0.527765 -0.418524 0.56908 0.538195 -0.475873 0.509639 -0.0567811 0.361077 -0.392754 -0.95538 -0.827529 0.823487 0.748367 0.117591 -0.50693 -0.0877356 -0.929856 0.58948 -0.548935 -0.0923495 -0.875355 -0.676173 0.368299 -0.11852 0.269952 0.873468 -0.299565 -0.224897 0.603335 0.803041 0.725896 -0.206447 -0.92111 0.314335 -0.781095 0.940378 -0.84433 0.514126 -0.511492 -0.950397 0.239391 -0.105415 0.109908 -0.393825 0.976881 0.844535 0.0466186 0.822871 0.763984 -0.106027 0.894919 -0.382888 -0.911193 -0.0227348 0.942104 -0.517515 0.180072 -0.750462 0.29337 0.993103 -0.612494 -0.46033 0.64623 -0.321015 -0.474892 -0.889317 -0.570135 -0.786062 -0.988221 0.376917 -0.453727 0.690675 -0.540125 0.407562 -0.425484 -0.459639 -0.911262 0.677571 0.759742 -0.387258 -0.803034 -0.13464 -0.860876 -0.335722 0.0987665 0.551456 -0.663154 0.28973 -0.127424 -0.821308 -0.836796 0.385717 -0.294739 0.449831 -0.922318 0.884972 -0.770036 0.342811 -0.667236 -0.813841 0.847338 -0.744516 0.450158 0.963867 0.282704 -1.00472 -0.490402 -0.592377 -0.936521 0.487031 0.468481 0.797953 0.613961 -0.35152 0.577538 0.866642 0.329497 0.0218244 0.619748 -0.221619 0.518907 -0.682143 -0.905614 -0.202966 0.256302 -0.0657403 0.469893 0.298302 0.522411 0.400299 -0.00441775 -0.855362 -0.56332 -0.63728 0.0824344 -0.0346463 0.0315 -0.124443 0.0186832 0.684934 -0.877515 -0.32988 -0.607003 0.917633 -0.510256 0.649683 -0.0863159 -0.848504 0.178151 0.420059 0.0873826 0.213229 -0.142799 -0.224029 0.0411706 -0.40493 -0.988262 -0.284327 0.993377 -0.30285 0.225885 0.657967 0.595468 -0.86893 -0.852461 -0.985367 -0.51169 -0.182853 0.973509 -0.0205912 0.582284 0.203471 -0.597942 0.559369 -0.324782 0.536693 -0.0707049 0.381961 -0.0381479 -0.738979 0.470191 0.668952 -0.097854 0.359227 -0.862857 -0.736865 -0.00485884 0.940768 0.650062 -0.142291 -0.979922 0.583686 0.109121 0.708351 0.618968 -0.630517 -0.126797 -0.432439 0.36782 0.400465 0.0153136 -0.919307 -0.805397 0.665693 0.146431 -0.139846 -0.260288 -0.765543 -0.249646 0.112821 0.00951938 0.501384 0.979047 -0.965211 -0.267638 0.38414 0.199842 0.078754 -0.76358 -0.224269 -0.381531 0.635541 -0.963718 0.816649 0.738447 0.963068 0.655785 -0.724025 0.124112 -0.0506309 -0.804608 0.610449 0.112647 0.954052 0.348983 -0.35936 -0.687991 -0.0727224 -0.249952 0.151319 0.385522 -0.814669 -0.938552 -0.207527 -0.308593 0.341381 -0.534506 0.720792 0.989002 0.517824 0.744041 0.352652 -0.891216 0.140224 0.598857 -0.427613 -0.965041 0.135361 0.803508 -0.174754 0.854354 0.0994431 0.33161 -0.739116 0.821217 0.520996 -0.0649973 0.630628 0.794472 -0.720179 -0.85207 0.648067 -0.577403 0.661555 -0.747585 -0.0623847 0.393826 -0.140817 0.122831 0.950395 0.517183 -0.518883 -0.527216 0.0750666 0.273923 -0.345109 0.428509 0.897658 -0.439738 -0.121095 0.138844 0.827204 0.292827 -0.702047 -0.091733 -0.41914 -0.874601 -0.891552 0.569514 0.107214 0.261283 0.474624 0.615326 0.928815 0.118246 0.00485305 -0.311904 -0.100655 0.505566 -0.928015 -0.0874559 -0.181086 0.712633 0.152641 0.640764 0.760925 0.139269 0.880107 0.503896 0.464949 -0.243225 -0.797543 0.110765 -0.616232 -0.989129 -0.476211 0.904807 0.41553 -0.313913 -0.538603 0.548762 0.040461 0.546423 0.494857 -0.459901 -0.0442109 -0.783092 -0.411171 0.680423 -0.300791 0.436215 -0.0515986 -0.119966 -0.754865 0.167373 -0.57305 0.485821 -0.141572 -0.0198011 0.644799 -0.235611 0.0768055 -0.249972 -0.236769 -0.0382084 0.422042 -0.484234 -0.614881 -0.65381 -0.762262 0.251452 0.923596 -0.694765 0.0429559 -0.898237 0.80036 0.113915 0.268901 -0.539188 -0.00355621 0.759208 0.0126796 0.413873 0.281994 0.37741 -0.945975 -0.0922329 -0.0434662 -0.759772 0.494458 0.566164 0.203561 0.829287 -0.733318 -0.157153 0.0991981 0.868162 0.294789 -0.338168 -0.167748 -0.974417 -0.514517 -0.481656 -0.978166 -0.788105 0.264142 -0.489102 0.947471 -0.460841 -0.0982998 0.211779 0.258474 -0.0853287 0.921726 -0.623301 -0.0758401 0.445433 0.989413 0.750465 0.564261 -0.49936 -0.389096 0.000602291 -0.0787783 -0.447405 -0.872342 0.486802 -0.142056 0.212458 -0.243459 -0.379752 -0.535695 0.877296 -0.970601 0.557741 0.274858 0.157535 -0.258391 0.823093 0.351577 0.630658 -0.686173 -0.785088 -0.332159 -0.488691 0.397719 0.334056 0.534725 0.456043 0.841792 -0.368901 0.775471 0.797023 -0.760273 0.274049 0.906818 0.738729 -0.968632 -0.191721 0.0520422 0.17232 0.559761 -0.747718 0.44942 0.271986 -0.98603 -0.507828 -0.634061 -0.204055 0.233503 0.796971 0.661335 -0.242516 -0.646318 -0.183239 -0.729411 -0.71778 0.118129 0.471051 -0.289994 -0.0714002 0.411125 -0.0828098 -0.663785 -0.607692 0.458722 -0.820077 -0.527585 0.597593 -0.302812 -0.482415 0.678694 -0.219336 0.867554 -0.174747 0.669834 -0.00697774 0.658806 0.716465 -0.752208 -0.125525 -0.476923 0.835656 0.312652 -0.38635 -0.101634 -0.690551 -0.695224 0.373072 -0.158503 0.178072 0.949613 -0.29749 -0.132455 -0.498586 0.753887 -0.0706194 -0.845831 -0.712018 0.984783 -0.1395 -0.0102555 -0.520654 0.851505 -0.604435 0.790245 0.556861 0.265783 0.814358 0.237986 0.0336875 0.549026 0.279011 -0.200565 0.872109 -0.520234 -0.409875 0.629212 -0.0461363 0.891508 0.0888089 -0.0614924 -0.186696 0.964019 0.564522 -0.639501 0.0400076 0.184004 -0.891611 0.824072 0.768946 0.742199 -0.322595 -0.577044 0.03275 -0.598153 0.383718 -0.871235 0.718125 0.405106 0.607041 0.941581 -0.529645 0.968769 0.475787 -0.660388 0.783487 -0.734223 0.274797 -0.267824 -0.952461 0.266292 0.687589 0.718129 0.893201 0.93553 0.405691 -0.998023 0.0631999 0.240197 0.00562405 -0.844973 -0.228055 0.410407 -0.447397 -0.72888 0.917287 -0.260267 0.45866 -0.795832 -0.509345 0.229861 0.88591 -0.79164 -0.063494 -0.225842 0.27725 0.760353 0.893636 -0.235044 -0.166785 -0.190981 -0.0982173 -0.965864 -0.489406 0.629166 -0.77582 -0.368072 0.628625 -0.0830159 -0.206109 -0.713172 0.906113 -0.667416 0.268407 -0.449914 -0.887268 -0.0746055 -0.891899 0.133465 -0.725618 0.881321 -0.608124 0.744412 -0.0516969 -0.217808 0.349771 -0.271494 0.890086 0.298958 -0.830947 0.0431603 -0.898687 0.844855 0.056057 0.255249 -0.397715 -0.15345 0.381963 0.504329 -0.801573 0.727597 -0.717703 0.203899 0.470222 -0.385333 -0.152243 -0.737999 0.286599 0.695235 0.345449 -0.491034 0.63631 0.873464 -0.535414 0.258517 -0.495136 0.741333 -0.540134 0.682889 0.507802 -0.105196 0.84782 -0.849772 -0.0447412 -0.284674 -0.800459 -0.548148 -0.315947 -0.762273 0.0859598 0.912768 0.428113 0.434982 -0.554111 0.385179 -0.547342 -0.1434 -0.654818 0.423291 0.620191 -0.292308 -0.607297 -0.469644 -0.0683439 -0.406201 -0.653744 -0.291656 0.504052 0.58292 -0.403634 0.142737 0.975972 -0.719294 0.678157 0.261696 0.492289 -0.440048 0.684862 -0.861481 -0.812949 -0.207076 -0.559364 0.188833 -0.329879 0.397337 -0.622465 0.64831 -0.56994 -0.832827 -0.994228 0.449052 -0.127362 -0.116339 0.511169 0.496541 -0.636353 -0.363129 0.495357 -0.70958 0.833078 0.926162 0.824204 0.345926 0.538241 0.388647 0.674041 -0.822091 0.721226 0.977863 0.449577 0.217949 0.114392 -0.548696 -0.330059 0.764199 -0.388965 -0.418116 -0.20442 0.798588 -0.539047 -0.290542 0.777499 -0.447417 0.898082 -0.726722 0.935919 0.632432 0.492877 0.637521 -0.82197 -0.0137288 -0.753216 -0.546627 -0.503982 -0.489723 -0.432704 0.275954 -0.512491 0.713185 0.0708633 -0.702293 -0.437361 0.879887 -0.520429 -0.520036 -0.772132 -0.695346 0.502238 -0.614847 -0.543773 -0.896093 -0.501547 0.600596 -0.221035 -0.979881 0.522222 -0.296928 -0.920804 0.753062 -0.568466 -0.100375 0.287965 -0.515117 -0.141108 0.234781 0.350018 -0.712333 -0.282206 -0.930101 -0.38391 0.695932 -0.120706 -0.0720245 0.488937 0.942891 0.316279 -0.854361 0.346002 0.617791 -0.802215 -0.511098 -0.191947 0.966819 0.246601 -0.841928 0.304553 -0.477065 0.506032 -0.422858 -0.314472 0.29423 0.114264 -0.0303645 -0.325118 -0.749555 0.173753 -0.968677 -0.361899 -0.799628 0.636973 0.817448 0.224997 -0.390705 -0.878173 0.256949 0.826206 -0.524874 -0.378706 0.543305 0.496299 0.979905 -0.399065 -0.722361 -0.266145 -0.340903 -0.455067 0.199472 0.185628 0.0221733 0.446119 0.934386 0.824232 0.973286 -0.151493 0.612555 -0.30459 0.510213 0.408611 0.328108 -0.575525 -0.212059 0.52232 -0.780249 -0.182701 0.630256 0.12367 0.791815 -0.469681 0.375516 -0.0775983 -0.464067 -0.849287 -0.318633 0.705952 -0.701717 0.106696 -0.663141 -0.903852 -0.107665 -0.0833097 -0.76772 -0.237854 0.133775 0.27045 0.248179 0.369107 0.0896933 0.305095 0.834274 -0.792714 0.239778 -0.748813 -0.355003 -0.22992 0.293655 -0.478298 0.221888 -0.332724 0.800262 0.981143 -0.972186 -0.202025 0.836347 0.249601 -0.125235 0.898228 0.105187 0.696933 0.443969 -0.00896522 -0.898233 -0.475717 0.00801315 -0.226904 0.350479 0.0983182 -0.639078 -0.547033 0.0574618 -0.409416 -0.0692454 -0.39546 -0.0442509 -0.502836 -0.632024 0.735607 -0.365888 -0.897358 0.87506 -0.0904935 0.618449 -0.403544 -0.894035 -0.457777 0.214349 0.16691 0.250031 -0.731856 0.935919 -0.489811 0.987633 -0.361493 -0.544064 -0.537551 0.20273 0.550965 -0.284607 0.0887698 -0.0839907 0.751433 -0.521342 -0.701502 0.456772 -0.867517 0.204596 -0.577879 -0.097361 0.946795 0.0909969 0.608367 -0.328512 -0.199667 0.938186 -0.783151 -0.774481 0.630653 -0.421335 0.519792 -0.107572 0.261653 0.286731 -0.0086056 0.204821 -0.730991 -0.846775 0.440018 -0.791352 0.194173 0.966534 -0.820273 0.273314 0.0563203 0.0375501 -0.647703 -0.432667 0.386798 0.900383 0.304888 0.239277 -0.02183 -0.621168 0.143085 -0.420573 0.068132 0.66044 0.15426 0.595494 0.534381 0.785314 0.695519 0.981103 -0.559539 -0.119468 0.623131 -0.236002 0.689492 -0.581118 -0.0394657 0.434394 -0.514775 0.782171 -0.342835 0.534262 -0.792308 -0.213936 -0.53399 -0.321864 -0.509592 -0.783015 0.692725 -0.320442 -0.395087 0.586523 0.497226 0.0325506 -0.882133 0.894557 -0.486916 0.00241156 0.210702 0.57176 -0.402143 0.953371 0.129522 0.689981 0.203725 0.348646 -0.328089 0.865914 0.0164976 -0.450187 -0.733574 0.575977 0.336772 0.299383 0.648034 0.825003 0.245256 0.659235 0.24505 -0.906338 -0.245682 0.939293 -0.55749 0.188344 -0.947026 0.286171 -0.0751238 0.273113 0.299415 0.0265809 -0.0557763 0.522845 -0.0603763 0.194868 -0.446253 0.929613 -0.092076 -0.0608231 0.219142 -0.509015 -0.774831 -0.380742 0.100823 0.431246 -0.902934 -0.406142 -0.0594082 0.348924 -0.504835 0.76081 0.630499 -0.859114 0.950147 -0.125017 0.29483 -0.395706 0.831597 0.83009 0.637188 0.701791 0.0678683 -0.541057 0.416759 -0.377229 -0.54268 0.723664 -0.537877 -0.513641 -0.521858 -0.0247942 0.459192 -0.129278 -0.532838 -0.932303 -0.0386011 -0.235145 0.752026 -0.770075 0.0440591 -0.644433 -0.0322787 -0.211086 -0.117171 -0.307664 0.971933 0.93266 0.127728 0.714439 -0.545219 0.803517 -0.102429 0.0419024 -0.514228 -0.948897 0.431662 0.277176 0.816821 -0.566904 -0.261526 -0.290747 0.142778 0.773864 -0.258603 -0.0972949 0.960845 -0.983177 -0.436798 0.767843 0.0339414 -0.53852 0.620673 0.0867757 0.679763 0.0749543 -0.87291 -0.0356322 0.79901 0.527191 -0.922053 -0.0211469 0.438746 0.656506 -0.6781 -0.0159723 0.835768 0.660717 0.0939162 -0.5449 0.401368 -0.533854 -0.831004 0.363703 0.561908 -0.620121 -0.167837 0.180675 0.8052 -0.705594 -0.12489 0.566914 0.143731 0.106774 0.550832 -0.5073 -0.183948 -0.645932 -0.748614 -0.885279 -0.0197118 0.92734 -0.401945 -0.0062769 -0.210379 0.492751 0.415141 -0.198165 0.278815 0.587999 0.324263 0.554917 -0.612378 -0.578282 -0.85176 -0.419683 0.42801 -0.175015 -0.963817 -0.49089 0.804223 -0.108936 -0.237611 0.327883 0.505922 -0.665097 -0.464299 -0.949122 -0.555861 0.552091 0.69836 -0.600604 -0.749467 0.354978 0.975206 -0.540972 -0.0256729 -0.228047 0.170377 0.507401 -0.371701 0.751434 -0.0966057 -0.440422 -0.680237 0.949411 0.457322 -0.479273 -0.323507 -0.40065 -0.540244 -0.0106629 0.390707 -0.477319 -0.98536 -0.563408 -0.966315 0.573438 -0.499328 0.624459 0.0661784 0.498448 0.615284 0.562949 -0.722999 0.518569 -0.329203 0.962238 -0.167226 -0.510297 0.670787 -0.839412 0.589552 0.00445461 -0.303775 -0.29903 -0.960109 0.232778 -0.651407 0.023268 -0.218301 0.0847716 0.861453 -0.865787 0.763071 -0.633052 -0.598841 -0.667189 0.766581 0.292046 0.0476734 -0.293545 -0.455543 -0.951418 -0.94426 0.734706 -0.449174 -0.155471 0.376954 0.0832949 0.167091 -0.47558 0.258563 -0.472363 -0.341481 0.987055 -0.350988 0.011793 0.353302 -0.89185 -0.0739854 0.573102 0.235534 0.966188 0.260313 -0.55025 -0.448108 0.256926 -0.288733 -0.973674 -0.199332 0.208208 -0.219435 -0.810227 -0.563934 0.252765 0.944911 0.641625 -0.5418 0.3008 -0.890477 0.0932501 0.832149 -0.130984 0.437989 -0.634478 -0.66416 -0.368377 -0.342065 0.0819035 -0.223368 0.563453 -0.972819 -0.829541 -0.26556 -0.277735 0.756329 -0.93213 0.602521 0.711522 -0.214881 0.125432 -0.821991 0.466753 0.657781 -0.746653 -0.434642 -0.0283044 0.0848191 0.507949 0.0798993 0.558113 0.534171 0.697341 -0.00656377 -0.957489 -0.770564 -0.87582 0.521784 -0.37555 -0.285078 -0.972965 -0.549043 -0.319067 -0.381792 -0.900637 0.0568978 -0.385179 -0.582205 -0.32741 -0.911746 0.529415 -0.844324 -0.390196 0.781348 0.257589 0.879362 0.358262 -0.483722 0.062083 -0.304325 -0.552059 0.635266 -0.252664 -0.0303999 0.822878 -0.093687 -0.941246 -0.242263 0.657159 -0.265205 0.40024 -0.843647 0.125452 0.322157 0.792343 0.100472 -0.76607 -0.281939 -0.394605 0.606159 0.786511 -0.933915 0.92214 -0.33819 0.124825 -0.868793 -0.977373 -0.550931 -0.223653 -0.820332 0.265611 -0.318547 0.360296 0.517798 -0.950895 0.74905 -0.495989 0.713458 -0.812316 0.310052 0.801278 0.895083 0.317453 0.250184 -0.624468 0.71202 0.681211 -0.673626 -0.355185 0.518156 -0.721264 0.814915 -0.628726 0.00734665 0.477232 -0.403373 0.0775874 -0.123548 0.604587 -0.0217962 -0.023304 -0.680228 0.6989 -0.391892 0.177955 -0.575835 0.228368 -0.0972379 0.398242 -0.0672557 -0.275531 -0.238723 0.722932 -0.383133 0.948939 -0.253386 0.855038 0.554916 -0.858283 0.549312 0.813149 -0.202914 0.477697 -0.752702 0.287567 -0.544685 -0.942161 -0.396973 0.71601 0.349877 0.119154 0.708277 -0.328134 0.209608 -0.896301 0.372761 0.477899 -0.621922 -0.767367 0.423425 0.286888 0.013413 0.482368 0.225024 0.709551 0.0958615 0.204773 -0.689047 0.825483 -0.0921368 -0.746712 -0.839088 0.555666 0.233559 -0.810295 -0.316225 -0.051795 -0.631307 0.838674 0.318034 0.774343 0.833519 0.974163 0.160399 0.289782 -0.1462 0.0859443 -0.139387 -0.466868 -0.210439 0.704947 -0.595841 0.858578 0.536104 -0.746947 0.138433 -0.868067 0.427243 0.141746 -0.478589 0.987706 0.680105 0.509763 0.997292 -0.474835 -0.605773 -0.106036 -0.872681 -0.913108 -0.914495 0.0673498 0.715463 -0.335243 0.830668 0.623278 -0.491383 0.716758 -0.2739 0.844335 -0.814258 -0.613263 -0.315683 0.462479 -0.0625397 0.621664 -0.352428 0.0648652 -0.301249 0.92508 0.767849 0.870711 0.204441 -0.0378811 -0.386466 -0.638141 0.237494 -0.986539 -0.292882 0.753406 0.261658 -0.815318 -0.19821 0.78381 -0.128394 0.807835 -0.919308 -0.18051 -0.139131 -0.227099 0.76085 0.0402128 -0.923396 0.875571 -0.798986 0.984805 0.16132 -0.132001 -0.500973 -0.630212 0.233283 0.243381 0.746417 0.231684 0.545638 -0.958092 -0.492319 -0.480334 -0.9489 0.0239153 -0.8625 -0.532871 -0.322324 -0.9484 0.301553 -0.931859 0.660371 -0.0908492 0.987791 0.15861 0.960904 -0.983818 0.473573 0.442721 -0.109464 -0.978071 0.899484 -0.894383 -0.194292 0.255905 -0.991849 -0.485097 0.440732 -0.792343 -0.236923 0.420264 -0.669145 -0.442131 0.954856 0.753916 0.152552 -0.562403 -0.222106 0.59078 -0.313828 -0.549898 0.245796 0.100757 0.724933 0.28929 -0.0668232 0.247131 -0.936185 0.861714 0.284964 -0.340695 -0.880781 -0.55386 0.396819 0.587616 0.955709 0.13977 0.583952 0.518095 -0.259418 -0.108423 0.79285 -0.505859 0.240227 0.815219 0.790271 0.552573 -0.71846 0.398583 -0.69453 -0.82132 -0.761334 -0.465292 0.0319856 0.627885 -0.375667 0.706705 -0.192883 -0.157876 -0.465502 0.195663 -0.67555 -0.546678 -0.0237407 0.506412 0.923458 0.134949 -0.929608 -0.472347 0.625832 0.745312 0.313028 0.545853 -0.733469 -0.433669 -0.234393 0.659757 0.14571 0.587583 0.655473 0.434485 -0.78084 -0.0652939 0.231062 -0.0743245 -0.357509 -0.685259 -8.01927e-05 0.0730287 0.472216 0.842036 -0.237764 -0.84204 0.398141 0.584525 -0.394391 0.20679 -0.793731 0.711254 -0.212452 -0.190269 -0.175098 0.175212 0.825259 0.0281312 -0.15171 -0.656536 -0.567469 -0.409277 -0.0199703 -0.94054 -0.708701 0.4797 0.571186 0.718165 0.923688 0.385299 -0.209773 -0.136836 -0.219015 0.746582 0.667501 -0.30522 -0.0397085 -0.949238 0.0328644 0.085564 -0.251938 0.199418 -0.901319 -0.995598 0.642805 -0.0834465 -0.172287 -0.0358022 -0.144744 0.447041 -1.01494 -0.914005 0.621317 -0.308117 0.695613 0.78122 -0.580048 -0.713983 0.0351475 0.736152 0.00114556 0.0215957 -0.0364895 -0.0917602 0.696981 0.664602 -0.172916 -0.986208 -0.502761 -0.905277 0.948593 -0.272651 -0.369152 0.447648 0.805466 -0.590498 -0.0428583 0.480853 -0.943844 -0.179883 0.590737 0.60771 0.833748 -0.289594 0.0854389 -0.795857 0.270816 -0.930004 0.717198 0.0620887 -0.379914 0.98096 -0.434624 0.401847 0.386491 0.0636023 -0.285145 0.181449 -0.822748 -0.638379 -0.891962 -0.750147 0.784727 -0.27401 -0.0694125 0.960271 0.678091 -0.285782 -0.588953 0.55218 0.885593 1.53231e-05 -0.444228 0.690852 0.842108 -0.501617 -0.984962 0.293908 -0.382334 -0.684612 -0.673211 -0.813643 -0.992648 0.446647 0.860545 0.56478 -0.615204 -0.468403 0.247933 -0.907581 -0.93612 -0.0828233 0.931947 -0.838227 0.601536 0.381791 -0.671685 0.0723102 0.792258 0.498632 0.546927 0.70817 0.261407 0.604944 0.991436 -0.546015 0.337298 0.72033 0.630782 0.492607 0.613035 -0.786933 0.306699 -0.657183 -0.506459 -0.618219 -0.850335 0.443634 0.388979 -0.683334 -0.301135 0.606689 0.699729 0.218074 0.996785 -0.575049 0.334391 0.92297 0.621698 -0.590923 -0.68497 0.655801 0.681448 0.387938 0.0912391 -0.651717 0.40547 -0.888291 0.362452 -0.318975 -0.0947365 -0.753832 0.466624 -0.255312 -0.270265 0.393319 0.446669 -0.328585 0.431047 -0.540653 -0.511569 -0.509597 -0.214149 0.729224 0.523449 0.908888 0.471776 0.522873 -0.689958 -0.459807 -0.640604 -0.807584 -0.318602 0.902021 -0.846794 -0.134605 0.416927 -0.186806 0.322628 -0.444243 0.0866079 0.311211 -0.368405 0.717973 -0.309532 -0.0948042 0.102258 -0.241503 0.223993 0.768986 0.0672792 0.532382 -0.484896 -0.493015 0.324294 0.332787 0.899599 -0.156208 -0.575737 0.50658 0.774426 0.609556 -0.33283 0.487364 0.0793419 0.354846 0.624834 0.0276644 -0.475626 -1.01231 -0.266843 -0.398732 0.376715 0.548712 -0.108499 -0.0892704 0.791407 0.437785 0.663377 -0.34712 -0.930659 0.566916 0.348472 -0.559428 -0.0342338 -0.252486 -0.471236 0.194016 -0.964503 -0.0890534 0.252917 -0.0713802 0.586522 -0.443387 -0.764145 0.425596 1.00178 0.844516 -0.175304 0.839468 0.393499 0.787674 -0.654286 0.129636 -0.0228701 -0.388727 0.973158 -0.863427 0.906368 0.874019 -0.0259847 0.361415 -0.993385 -0.118402 -0.786337 -0.439236 -0.861709 0.478805 -0.242395 -0.365182 0.961421 0.871886 1.03404 -0.102531 -0.147126 0.622863 0.326801 -0.805497 -0.279595 0.758289 -0.608754 -0.714021 0.914683 0.207974 -0.306038 -0.0424804 -0.686693 0.992413 -0.767277 0.722008 -0.856807 -0.826589 0.356043 0.0567056 -0.60091 0.259626 -0.328384 0.982793 0.606743 0.960033 0.901424 -0.357345 0.15026 0.619391 -0.798276 -0.63588 -0.560874 0.374173 0.478996 0.383245 -0.205789 0.177454 -0.578849 0.920369 0.573598 0.836809 0.0958933 0.145397 -0.885088 0.812067 0.18897 0.706263 -0.60801 0.122277 0.916369 0.709088 0.298052 -0.884711 -0.598454 0.907643 -0.554368 0.806099 -0.0863074 0.706055 0.250766 0.423581 0.324924 -0.0499422 -0.767214 -0.393845 0.817667 -0.833071 0.860879 -0.399044 0.414043 0.856442 -0.807208 -0.484891 -0.947142 -0.981167 0.540239 0.253137 -1.00216 -0.629008 0.611508 -0.568791 0.058131 -0.730736 0.771712 0.609772 -0.377241 0.101252 -0.742636 -0.223221 -0.353211 -0.308111 0.348684 0.640034 -0.668539 0.96615 0.199108 -0.69094 -0.519749 -0.0546898 0.701339 0.00986669 0.647998 -0.198328 -0.839623 -0.864891 -0.00897564 0.294747 -0.756856 0.550968 -0.917841 0.651073 0.62607 0.935615 0.794742 -0.454966 -0.232212 0.403059 0.800717 0.807751 -0.555565 0.482905 0.148171 0.020868 -0.253668 0.314364 0.886571 -0.73047 0.310026 -0.642615 0.626529 0.993973 0.748278 -0.268932 -0.269566 0.957817 -0.722542 -0.244563 -0.976429 0.536509 -0.13582 -0.856659 0.164948 -0.841124 0.922392 -0.0139272 -0.236695 -0.026004 -0.424129 0.119551 -0.381945 -0.759555 0.616226 -0.325683 0.625337 -0.194677 -0.327128 -0.698229 -0.107558 0.449101 -0.222877 -0.289159 -0.427245 0.412834 0.178204 -0.720091 0.472179 -0.387374 -0.0445524 -0.00625851 -0.457719 -0.19698 0.773766 0.00862753 -0.213439 0.160953 0.351623 0.734364 -0.509068 0.449211 0.491851 -0.546174 -0.78086 0.206228 0.44596 -0.688647 0.689756 -0.923363 -0.663914 -0.157212 -0.974402 -0.424941 0.688086 0.499254 0.805912 0.617549 -0.367751 -0.255155 0.901535 -0.358508 0.630716 1.01721 0.650344 -0.716415 -0.472794 0.857456 0.725154 -0.435923 0.130006 0.0371167 0.24678 0.707812 -0.110907 -0.614047 0.458523 0.193228 0.295277 -0.653114 0.26157 0.298207 -0.323476 0.178736 0.125203 0.0150751 -0.507495 -0.504516 -0.37858 -0.877768 0.0570024 -0.330769 0.477868 -0.713779 -0.0106626 -0.700183 -0.875943 -0.196168 0.0737937 1.04285 0.728412 0.974654 0.100309 -0.142148 -0.0110911 0.430517 -0.636835 -0.726905 -0.309611 -0.594166 -0.211515 -0.249581 -0.335076 0.599985 -0.978759 -0.72784 0.646747 0.419558 -0.286751 -0.30629 -0.0208602 -0.219922 -0.669204 -0.310773 -0.760052 -0.279084 0.00675497 -0.0978552 0.902469 -0.825234 0.389192 0.151278 0.45902 -0.33238 -0.980106 0.178032 -0.329501 -0.0867167 0.0908667 0.420334 -0.30794 -0.947552 -0.282295 -0.658932 0.0441847 -0.706095 0.377916 0.0435542 0.0670618 -0.882601 -0.308711 0.276212 0.630519 0.581055 0.54659 -0.164436 -0.141142 0.149336 0.548377 -0.174578 0.560339 -0.0693368 0.218828 0.0852663 -0.0441157 0.701217 -1.01602 0.692638 -0.643144 -0.424342 0.530647 0.138714 -0.47575 -0.160422 0.819012 0.32195 -0.0875149 0.520678 0.0668728 0.234176 -0.547672 -0.257974 0.515413 0.798742 0.726026 -0.568728 -0.0178745 0.533975 0.610744 0.197236 -0.717042 0.076413 -0.599989 0.824631 0.496792 -0.366458 0.730699 0.268187 -0.516643 0.737631 -0.705909 -0.322455 0.600172 -0.163195 -0.419298 -0.477739 0.992352 -0.978713 -0.408907 0.443074 0.692886 0.642363 0.339154 -0.148115 0.890425 0.770945 -0.642619 -0.109871 -0.841171 -0.475355 -0.0353927 0.0836176 -0.672408 0.365438 -1.00261 0.163004 0.467014 -0.521142 0.453531 -0.280634 0.780956 0.289826 -0.417106 0.847146 -0.028402 -0.0751905 -0.77986 -0.869344 -0.948616 -0.27504 0.46113 0.0115889 -0.545364 0.690945 0.317995 0.756141 -0.359729 -0.322447 0.372528 0.644662 0.839912 -0.543906 0.614929 -0.699324 -0.880544 0.564648 0.131432 0.773259 -0.295998 0.708367 0.108767 -0.0116404 0.348034 0.0403495 -0.360558 0.366202 0.130891 -0.332232 0.283116 0.125393 -0.350638 0.926705 0.0817422 0.445279 -0.562272 -0.0640975 0.467265 0.644423 -0.367941 0.945681 -0.594935 0.135766 0.491315 0.277704 -0.586067 -0.0252288 -0.411802 -0.669762 -0.920053 0.00565551 0.675592 -0.8941 -0.987117 -0.308746 0.319173 -0.892641 -0.821698 0.876026 -0.929856 0.0620559 -0.809619 -0.960278 0.457734 0.32363 -0.428255 -0.653516 -0.758152 0.669323 0.629187 0.85729 -0.852072 -0.938354 0.367572 0.0709855 -0.394447 0.193743 0.171822 0.56747 0.892287 0.01656 0.250218 -0.989529 0.578588 0.468225 0.321841 -0.521398 -0.101194 0.626993 -1.0158 -0.130588 0.593908 -0.290664 0.438394 -0.160956 0.333539 0.295663 0.816799 0.0407869 -0.56327 0.355169 0.0535096 0.675258 0.665349 0.103963 -0.40832 -0.231816 0.810609 -0.378074 -0.0561743 0.868389 0.883949 0.441469 0.286631 0.828858 0.53816 0.807392 0.598218 -0.128732 -0.13744 -0.0463329 -0.345063 0.514969 0.610088 0.379975 -0.250649 -0.166948 0.108551 0.749226 0.779714 -0.738522 0.658112 0.0672208 -0.398108 0.941734 -0.406604 -0.170181 0.659303 -0.534054 -0.992979 0.810701 0.259682 0.197919 -0.856988 -0.0726452 0.951095 -0.503553 0.319247 0.635079 0.920924 0.814238 0.167959 0.20397 -0.0728637 -0.239362 -0.253445 -0.811026 0.658368 -0.602443 0.485066 0.927025 0.444639 0.499203 -0.197078 0.431795 0.545404 0.679583 -0.419628 -0.718533 0.10334 0.906296 0.858338 0.321065 0.662183 0.926072 0.589465 0.3441 -0.18713 -0.841318 0.160134 0.834084 -0.142311 -0.0463741 -0.913234 0.0973996 0.884849 -1.03309 -0.689804 -0.814104 -0.270712 0.176981 0.80096 -0.12081 -0.0813986 -0.565775 -0.527198 -0.774042 0.226482 -0.00956498 0.210594 -0.760577 0.492445 0.784106 0.842897 -0.233379 -0.791802 0.640584 0.675637 0.405137 -0.941089 -0.592463 -0.578641 0.0390368 0.281657 0.456793 0.51412 0.0564297 0.291318 -0.485472 -0.133544 -0.0391163 -0.477935 -0.446196 0.923287 -0.859892 0.827041 -0.949022 0.459107 0.379982 0.971118 0.90541 0.04954 -0.52285 -0.716102 0.710309 0.44614 -0.884018 0.671985 0.193087 -0.631411 -0.366922 -0.711524 -0.0750107 0.155165 0.898737 -0.239444 0.51819 0.943528 -0.714256 0.276046 0.159052 -0.5235 0.638933 -0.94351 0.489071 0.431759 0.453592 -0.00555245 0.783512 -0.112099 -0.896345 0.494918 -0.76469 -0.763256 -0.534835 0.993914 0.169784 0.46476 -0.504666 -0.967471 -0.952679 -0.726025 0.773891 0.836037 0.0880639 -0.217364 0.619932 -0.813976 0.0264267 0.710949 -0.733241 -0.350456 -0.230622 -0.537176 -0.965468 0.8864 0.812703 0.217829 0.152311 0.647399 -0.706134 -0.239825 -0.978102 0.189331 -0.280935 0.0522887 -0.0110459 0.0718765 0.0749278 0.596596 0.713055 -0.528728 0.426147 0.751877 5.23829e-05 0.715816 -0.938483 -0.752858 0.779048 0.386457 0.430112 0.928436 0.200695 0.383287 0.214538 -0.412994 0.6317 -0.764434 0.414456 0.485407 0.755796 -0.0837832 0.348567 0.158523 0.0927721 -0.351016 -0.37404 0.837022 0.593399 0.872175 0.377279 -0.238859 0.93776 0.915359 -0.980959 -0.52935 0.39619 0.12638 0.644681 0.257957 0.747883 -0.953078 0.304618 -0.704457 0.668937 -0.981761 -0.44623 0.221105 0.295211 0.54002 -0.283264 0.482557 -0.19112 0.085371 0.0953251 0.627594 0.289461 0.879155 1.02338 0.199408 0.0731604 -0.0329583 -0.881154 -0.249928 0.000489665 0.705381 -0.0936271 0.0516981 0.0941544 0.729398 0.580139 -0.573099 -0.376932 0.853667 -0.155532 -0.523621 0.630062 0.429161 0.885389 0.626919 0.235237 -0.407216 0.367112 -0.411435 0.353205 -0.56159 -0.939562 -0.308571 0.117296 -0.220765 -0.000520105 -0.501379 -0.399626 -0.842373 0.0592413 -0.678306 0.125938 -0.975509 -0.630823 0.00258036 -0.785577 0.832551 -0.91731 0.467571 -0.398971 0.373045 -0.245707 -0.105538 -0.00335755 0.991451 0.855191 0.749349 0.905618 0.412136 -0.708619 0.01963 -0.373003 -0.521543 0.501597 0.93143 0.400972 -0.0652904 0.678815 -0.659267 0.584369 0.246938 0.360561 -0.120198 0.0426771 -0.541759 0.685644 -0.591051 -0.291476 0.167127 0.346869 -0.707939 0.0234062 -0.883947 -0.215284 -0.793399 -0.537413 -0.246557 -0.0229712 -0.114669 0.192849 -0.0082624 0.670443 0.134784 -0.614676 -0.519359 0.094193 0.446219 0.36748 0.0283202 -0.49297 0.0572417 0.41016 -0.948818 -0.438822 0.415207 0.989989 -0.0947177 0.7923 -0.232228 -0.309246 -0.793777 -0.0201315 0.496839 -0.82312 -0.577785 0.836563 -0.909347 0.50435 -0.672422 -0.927913 -0.673774 -0.440327 -0.105894 -0.530081 1.06608 -0.4038 -0.798949 -0.0955726 -0.538413 0.439166 -0.244773 -0.80202 -0.66906 -0.69223 0.798116 0.342224 0.217057 0.173157 -0.358452 -0.72094 0.0680862 0.586362 0.2399 0.276475 0.0630489 -0.38726 -0.465958 -0.120081 -0.136882 0.376289 0.273376 -0.32696 -0.768618 -0.16637 -0.634137 -0.488115 -0.736456 -0.568123 0.0207412 0.0139919 -0.261044 -0.814679 0.880714 0.545122 0.849108 0.499893 -0.731611 0.10202 -0.115107 -0.297061 -0.378364 0.397171 0.766687 -0.614043 0.12591 0.840597 0.584457 0.0212865 -0.00479688 -0.850032 -0.861131 0.463472 -0.155574 0.628189 -0.945157 -0.752282 -0.108329 0.0845814 -0.423809 0.85113 -0.937172 0.425215 0.690559 0.92857 0.384594 0.417651 -0.173223 0.601782 -0.464855 -0.225797 0.498951 0.0684057 -0.787852 0.952218 -0.781829 -0.924131 -0.0252763 0.517359 0.155343 0.962622 0.52146 -0.661806 0.860167 -0.811439 0.465707 0.358493 0.479257 0.303918 -0.0165284 0.710051 0.626517 0.7175 -0.502144 -0.849631 0.358793 0.406338 0.461927 -0.217083 -0.775537 -0.437624 0.793118 0.514851 0.55599 -0.465423 -0.555025 -0.822233 0.892383 -0.194963 -0.854614 -0.37505 -0.351671 -0.351735 0.608298 -0.792987 -0.804971 -0.93217 0.69489 -0.24133 0.075625 -1.00872 -0.610362 -0.459575 -1.00216 -0.600741 -0.547112 -0.140002 -0.0849167 -0.409827 -0.97665 0.35148 0.640265 0.714345 -0.875674 -0.203255 0.90161 -0.0173727 -0.755291 -0.189895 0.229066 0.0538524 -0.313187 0.861495 0.219892 0.755423 0.141507 -0.0165538 0.770725 -0.535521 0.764474 -0.645351 0.0978285 -0.959713 0.905912 -0.722041 -0.351242 0.273164 0.225627 0.223999 -0.0408623 0.252356 -0.837988 0.0285814 0.87663 0.20914 0.640932 -0.16171 -0.0953963 -0.303141 0.414109 0.565876 -0.672174 0.814382 0.81791 -0.785083 -0.683975 -0.564857 -0.40879 -0.364678 -0.167258 -0.717312 -0.643756 0.67223 0.318398 0.217017 -0.172542 -0.776951 0.0139542 0.298658 0.585219 -0.661735 0.908149 0.824421 -0.533098 0.481407 0.862808 0.523996 -0.0423638 0.668191 0.905044 0.428322 -0.594685 0.38628 -0.492061 0.799526 0.581588 0.659249 -0.661109 0.418333 -0.485238 -0.37608 -0.180375 0.112218 -0.889586 -0.52673 0.895673 0.064247 0.704586 0.00103782 0.386388 -0.358642 -0.727837 0.159357 -0.720107 -0.361024 -0.0488959 0.805869 0.440953 0.752092 0.311043 -0.247871 -0.413739 0.994739 0.700097 -0.46282 0.0468495 -0.66384 -0.138481 -0.858774 -0.853793 0.42684 0.781339 0.510899 0.322134 -0.2004 0.427647 0.469796 0.614872 -0.851644 0.0971509 0.861132 0.0835391 -0.0572648 -0.622174 0.128879 -0.458272 -0.199365 -0.31099 -0.871284 0.318494 0.354938 -0.712455 -0.897536 0.369797 0.275296 0.00283498 0.840802 0.93983 0.515143 -0.456427 0.205722 0.659463 0.451124 0.816696 -0.725287 0.132119 0.876049 -0.333968 -0.896805 0.93429 0.586121 0.633001 -0.187582 0.317246 0.975542 -0.658882 -0.713488 -0.731683 -0.726094 0.345578 -0.275914 0.627256 0.687285 -0.240663 -0.449925 0.461814 0.442234 0.41314 -0.346077 -0.489881 0.333912 0.934159 -0.531285 0.766346 0.609169 -0.864078 0.592068 -0.701116 -0.795664 0.216196 -0.00338653 -0.622663 -0.168867 -0.871545 0.58166 -0.557669 0.123726 0.808251 -0.0858454 0.404091 -0.289396 0.59371 0.0276422 0.74484 0.882119 0.843298 0.614831 0.731027 0.812392 -0.456924 0.872317 0.630257 0.563656 -0.387027 0.326386 -0.977453 0.636367 -0.782284 -0.725424 -0.928604 0.557526 -0.407271 0.459735 0.385464 0.411734 0.970083 -0.445454 -0.677244 -0.833008 0.450525 0.346606 -0.846554 -0.0385544 -0.719419 0.517003 0.471896 -0.373538 -0.818056 0.126673 0.391195 -0.547823 -0.849337 0.183514 -0.110429 -0.173604 -0.663749 0.805597 0.293122 -0.256529 0.0687312 0.0488721 -0.202849 0.0655668 -0.742653 1.12608 1.00507 -0.549342 0.54769 0.632264 -0.25474 -0.402816 0.602961 -0.573387 -0.334212 0.992867 -0.778655 -1.05068 0.523965 -0.937041 -0.505218 -0.135864 0.1623 0.727836 -0.506944 -0.93662 -0.892676 -0.462065 -0.372761 -0.0934095 0.23497 0.695629 0.462606 0.710824 0.2614 0.0123742 0.657365 0.476607 -0.853631 0.516496 0.261722 -0.214449 0.092526 0.30574 0.459813 0.192252 0.467909 0.452412 0.503358 0.610226 -0.642537 0.191046 0.139078 0.292091 -0.692549 -0.574813 -0.164828 0.287344 0.893102 -0.777235 0.582591 0.0418432 -0.709924 -0.723531 0.164368 -0.197106 -0.364679 -0.0895006 -0.84715 0.240061 -0.385226 -0.313835 0.0763461 -0.435329 0.898238 -0.357848 0.454195 -0.491651 0.320832 -0.335821 0.780135 0.0677025 -0.562083 0.584929 -0.836737 -0.205367 -0.48994 -0.999839 0.0975515 0.636139 -0.932012 0.229719 0.340862 -0.147044 0.569122 -0.953982 -0.573011 -0.31652 0.154504 -0.750953 0.298749 0.466509 -0.611621 -0.510672 -0.323573 0.788142 -0.959598 0.310569 0.622443 -0.233494 0.539365 0.400151 0.962859 -0.694326 0.488781 -0.526056 -0.825678 0.737639 0.685088 -0.0858665 -0.983154 0.107488 0.816404 0.925435 -0.829636 0.133239 -0.438854 0.311784 0.941914 -0.828216 0.56845 -0.733354 -0.56503 0.385715 -0.0110102 0.230512 -0.571603 -0.348705 -0.61106 -0.369721 -0.423479 0.382488 -0.229638 0.303666 -0.63308 -0.930996 0.692114 -0.429371 0.393577 -0.309546 -0.707499 0.449707 0.051612 -0.326035 -0.902325 0.0752112 1.06038 0.518 -0.0823761 -0.958845 0.72129 -0.794715 -0.812516 -0.909435 -0.740851 -0.348232 -0.0358604 -0.26095 0.624582 -0.00707379 -0.526539 0.314141 -0.736227 -0.438068 0.093567 0.10474 0.19492 -0.895208 0.898532 -0.938284 -0.160784 0.456574 -0.835333 -0.504302 -0.420907 0.721252 0.675873 0.134334 0.215668 -0.552117 -0.642577 -0.215072 0.264126 0.370882 -0.372106 -0.898078 0.554882 0.162527 0.818379 0.410031 0.0927018 0.903225 0.808481 -0.299995 -0.738603 -0.242688 0.885217 -0.822692 -0.826477 -0.999282 -0.70862 0.439311 0.680903 0.270943 0.298293 0.299742 0.994807 -0.699986 -0.839342 -0.130962 -0.967986 -0.0488012 -0.330942 -0.00416447 -0.107242 0.564291 0.846571 0.0173178 -0.292802 0.816768 0.826903 -0.44779 -0.103886 0.56795 -0.352266 0.783589 -0.43356 0.345106 -0.15088 0.598087 0.57957 0.00166175 0.0663587 0.919987 -0.710579 0.513667 0.870404 0.0136827 0.774152 -0.0889364 -0.127131 0.466584 -0.0192117 0.456964 -0.95361 0.580075 0.452388 0.921877 -0.794891 -0.722449 -1.04911 -0.415681 0.877281 0.604178 0.681507 0.147318 0.653705 -0.551782 0.124918 -0.211404 0.0974844 -0.176141 -0.914411 -0.534775 0.131289 -0.618972 -0.512692 -0.929167 0.938175 0.0359871 -0.645531 -0.305174 1.05463 -0.664862 0.238145 -0.458027 -0.60274 0.309237 0.884065 -0.909537 -0.497293 -0.668472 0.939883 0.370927 0.782108 0.726223 0.241945 -0.479377 -0.207328 -0.919545 -0.964916 -0.332611 0.595795 -0.600234 0.447948 0.519242 -0.369859 -0.225752 0.838638 0.667555 0.882187 -0.294845 0.399824 0.813242 -0.439702 0.729689 -0.0258555 -0.647539 0.0555838 0.218435 -0.707958 0.3695 -1.01554 0.742077 0.511897 0.0604337 0.719908 0.206957 0.322858 0.937467 0.77375 -0.196856 0.0231839 0.0686713 0.829172 0.940231 0.8613 0.377639 -0.615073 0.703784 -0.227333 -0.957734 -0.473075 0.118353 -0.826141 0.294584 -0.849807 0.536823 -0.85907 0.52171 0.630326 0.909174 0.0409301 -0.693415 -0.383583 -0.19936 1.00748 0.528448 -1.03376 -0.83334 0.782153 -0.208326 0.912089 0.0519131 0.0912945 -0.360849 0.729124 -0.658688 -0.0803221 0.0111205 0.480381 -0.085738 0.332377 -0.801766 0.370278 0.633627 0.607552 0.450604 -0.349481 0.498507 0.308443 0.307835 0.982174 -0.605387 0.105849 -0.664303 -0.732556 0.598197 0.561522 -0.519281 0.626749 -0.196183 0.436485 -0.752365 -0.0649848 -0.175672 0.819906 -0.645702 0.690698 0.470467 -0.466897 0.41004 -0.722823 0.824506 -0.437517 -0.0662407 -0.663985 -0.793239 0.257574 0.30123 0.732305 0.209456 0.421739 0.569236 -0.0657312 -0.756321 0.151558 -0.0981122 0.741379 0.416245 -0.866154 0.886168 0.568136 -0.243551 0.496162 -0.37929 0.100972 -0.33011 0.268295 -0.310979 -0.744752 0.693335 -0.240062 -0.39878 -0.636301 -0.752904 0.487368 0.975346 -0.796214 -0.606916 0.20836 0.294833 0.598138 -0.289471 0.0762954 0.711266 -0.116533 -0.204926 0.957568 -0.76204 0.717163 -0.297114 0.705744 -0.735505 0.566546 0.809333 -0.89144 0.678795 0.111313 -0.64887 0.441463 0.652724 0.719808 0.145941 -0.59762 0.700256 -0.527708 0.610243 -0.103808 -0.423398 -0.886686 -0.460952 0.802183 0.147033 0.460505 -0.636365 -0.0178656 0.300559 0.488194 -0.63517 0.599334 0.24676 -0.914383 -1.00314 0.722408 0.000249275 -0.528895 0.60917 -0.752501 0.185591 0.760497 0.63331 -0.582596 -0.718619 0.758361 0.0459349 -0.364747 0.220009 0.159302 -0.314795 -0.626998 0.226211 -0.0284514 0.408631 0.582425 -0.975763 0.52766 0.93175 -0.928392 0.243811 0.172307 -0.430175 -0.950387 -0.582266 0.0516044 -0.785495 0.802082 -0.352308 0.814907 -0.701931 -0.48972 -0.641007 -0.587942 -0.662845 -0.712744 -0.861189 -0.581164 -0.440243 0.822027 0.419885 -0.423339 0.234884 -0.783643 -0.398727 -0.860816 -0.84452 0.936158 -0.428961 -0.152394 -0.448675 0.518375 0.110329 -0.634013 -0.119034 0.887939 0.974376 0.0938753 0.742466 0.696095 -0.586094 0.49989 -0.825574 0.13131 -0.242922 0.41 0.109176 -0.138144 0.114581 -0.91243 -0.0982725 0.877842 0.402012 0.538391 0.238775 0.405669 -0.650764 -0.477015 -0.958478 -0.16579 0.337782 0.115859 -0.203767 -0.662596 0.892736 0.333 -0.156853 0.895061 -0.952038 0.710752 -0.2841 0.747628 -0.033306 0.154827 0.955005 -0.129331 0.706104 -0.937358 -0.804158 0.540163 -0.414002 0.316405 0.365883 -0.171538 0.369008 0.142617 -0.334348 -0.888823 -0.0800282 -0.432481 0.917038 0.465277 -0.486445 -0.346912 -0.0514405 -0.787652 -0.207144 0.474345 0.35927 0.337308 -0.721822 0.884477 -0.880117 -0.0029313 0.149445 0.270038 -0.986961 -0.42783 0.522279 -0.0177941 -0.765579 0.667612 -0.335958 -0.233849 -0.938607 -0.487932 0.599725 -0.30323 -0.939428 -0.697455 0.173615 0.431725 0.913287 -0.681809 0.244574 -0.0621407 -0.283727 -0.739916 -0.846967 -0.534444 -0.904581 0.213366 0.0234036 -0.662488 0.656193 -0.665389 0.543096 -0.916932 0.559028 0.185944 0.29266 -0.604623 -0.841402 -0.32137 -0.768885 -0.215962 0.715446 -0.918442 0.0980946 0.657343 -0.954383 0.0941771 -0.168064 -0.275743 0.515973 0.401192 -0.715653 -0.131087 -0.798712 -0.87926 0.209464 -0.0280894 -0.859977 0.661375 -0.370279 0.668942 -0.688968 -0.396367 -0.744306 0.698371 -0.689851 -0.403796 -0.172208 0.827948 -0.722942 -0.74785 -0.163513 0.073151 -0.75669 -0.00155252 0.204754 0.0701116 -0.546545 -0.793759 0.485072 -0.145887 -0.68477 0.646508 0.500751 -0.67779 -0.646265 0.216879 0.944875 -0.900952 -0.241086 0.881839 -0.353492 -0.797874 -0.811446 0.842826 0.918692 -0.159422 -0.962459 0.709732 -0.153749 -0.340207 0.808516 0.748819 0.537733 0.500701 0.316662 -0.257599 0.623917 0.96602 -0.852869 -0.75375 -0.950304 -0.326629 0.993247 -0.877468 0.78325 -0.537259 -0.402267 -0.714466 0.965204 0.115912 -0.866374 -0.885085 0.706398 0.115087 -0.819026 0.4584 0.705354 -0.256802 0.5656 -0.411471 0.238895 0.155477 0.305221 0.43618 0.143046 0.807481 -0.351213 -0.891117 0.965264 -0.893498 -0.020582 -0.427972 0.35272 0.665136 0.278142 0.438473 0.543586 0.563537 -0.333753 -0.810001 0.371802 0.730965 0.107174 -0.375975 0.710528 0.432423 0.149515 -0.907055 0.139274 0.242148 -0.998492 0.725224 0.409491 0.220858 0.32973 0.30907 0.136669 0.362421 0.310856 -0.652491 -0.790676 0.898747 -0.386749 -0.862764 -0.935916 0.0533345 -0.125224 -0.844244 -0.297835 0.938406 0.00160264 0.799498 0.791591 -0.980079 0.0854634 0.226013 0.821063 0.945635 0.0747229 -0.606483 -0.199869 -0.379523 -0.682678 -0.688268 -0.17854 0.754269 0.42831 0.236864 0.555902 0.412802 -0.817161 -0.00494934 0.426091 0.643008 0.30258 -0.154859 0.138128 0.914891 -0.781173 -0.1603 0.912006 -0.651405 -0.682314 0.740766 -0.995748 -0.103896 -0.630245 -0.466335 0.372219 0.981861 0.641664 0.343253 -0.739518 -0.0651569 0.10285 0.254966 -0.159248 -0.807237 -0.294858 0.407515 0.0370399 -0.840105 -0.343506 0.928615 -0.451643 0.464587 0.966261 0.875029 -0.73591 0.340884 0.144286 -0.14496 0.00565334 -0.669593 -0.287712 0.214915 -0.273198 -0.125657 -0.193343 0.194222 -0.570999 0.195581 -0.170868 -0.421248 0.617762 0.566728 0.761977 -0.579741 0.308061 -0.490414 -0.9875 0.660439 0.857145 0.751733 -0.0765247 -0.0490467 0.121998 -0.542187 0.463609 -0.695938 0.124726 -0.808063 -0.623113 0.802765 0.146713 0.654719 -0.029614 -0.880168 -0.988651 0.454074 0.160023 0.747158 -0.11619 -0.764295 -0.677162 0.786451 0.970579 -0.17916 -0.230174 -0.948231 0.240877 0.939313 0.154601 0.197709 -0.546093 0.842533 0.747456 0.136993 0.533165 0.223542 -0.584969 0.0367059 -0.318457 0.0198689 -0.133723 0.927445 0.875236 0.957841 -0.822268 -0.600223 0.688288 0.240613 -0.58198 -0.293133 0.728562 0.298147 -0.518295 0.181606 -0.512176 0.738656 -0.798869 0.0642564 -0.675759 -0.474125 0.160592 -0.348752 -0.997743 0.905288 0.0174237 0.813965 -0.911359 0.940372 -0.778323 -0.953792 0.391005 -0.131976 -0.676145 0.0563237 0.785368 0.830325 -0.680558 0.210531 -0.500666 -0.409682 -0.0213284 -0.289195 0.484015 0.875959 0.830558 0.971237 -0.557753 -0.112888 0.184571 -0.246446 -0.881431 0.511435 -0.373758 -0.766492 0.654621 -0.386373 0.270804 -0.890472 -0.942552 -0.240225 -0.404916 0.783013 -0.714717 0.128005 -0.649039 0.372988 -0.76606 0.303889 0.203071 0.701303 0.236814 0.96193 -0.382624 0.556915 -0.549929 -0.790631 -0.292003 -0.573758 -0.0153156 0.397036 0.782846 -0.847308 -0.805934 -0.171513 0.693789 0.831893 0.52185 0.619881 -0.35372 -0.997375 0.245637 0.602216 0.218692 -0.760704 -0.109143 -0.606506 -0.20398 -0.839425 0.467366 -0.952024 -0.0378525 -0.498766 -0.0778308 0.390857 0.193337 -0.937678 0.989021 0.00914619 -0.875988 -0.162618 -0.675556 0.269891 -0.24296 0.705474 -0.513249 0.596138 0.867669 -0.127137 0.549917 -0.97281 0.497247 0.1299 -0.166951 -0.331456 -0.300702 -0.936707 -0.469778 0.0829574 0.709923 -0.573198 0.465412 -0.0739928 -0.870487 -0.0809232 -0.617169 -0.677952 -0.811327 0.110055 -0.303681 0.300276 -0.468096 0.735421 -0.69949 0.881428 -0.966969 -0.36509 0.48566 0.437493 0.581395 -0.34279 0.959546 0.22061 0.591662 -0.279014 0.909591 -0.704628 -0.543328 0.423368 -0.272609 -0.101078 -0.133513 -0.0822747 0.164455 -0.345011 -0.34055 0.773809 0.988554 -0.961346 -0.149451 -0.214566 -0.788677 0.620914 0.864232 -0.589298 -0.776833 -0.979691 0.699724 -0.173174 -0.634226 -0.0900911 -0.0598883 0.373158 0.850608 -0.664981 0.565507 0.105786 -0.107248 -0.212716 -0.335855 0.112361 -0.939872 0.269426 -0.177551 -0.427829 0.901636 0.78001 0.168062 0.0910029 -0.329612 -0.450514 0.682132 0.563075 0.631943 0.0897642 0.377629 0.547042 -0.34965 0.983745 0.441928 -0.935492 0.00744436 -0.896903 -0.11391 0.955618 0.415471 -0.255776 0.400132 0.777699 0.915259 -0.950905 -0.23107 -0.82017 0.891806 0.513764 0.793302 0.742613 0.119793 -0.828847 0.021747 -0.172588 -0.256848 -0.781682 0.406303 0.760366 0.174507 0.189985 0.146867 -0.400201 0.915737 -0.188423 0.476795 0.843057 0.839461 -0.710402 0.229455 -0.00933671 0.214505 0.362821 0.98984 -0.425213 -0.682314 0.435873 0.762262 0.238774 0.587127 -0.156617 0.941987 -0.334575 -0.245989 0.590838 -0.0432395 -0.229903 -0.644288 0.237079 0.801303 0.306563 0.610985 -0.438065 -0.0439534 0.41617 -0.826549 -0.934722 0.992541 0.845987 0.757074 -0.692099 0.871704 0.170685 0.494458 0.937428 0.978386 0.604772 -0.0315059 -0.125671 -0.715089 0.132507 0.198556 0.688719 -1.02384 -0.911364 0.259077 0.747331 0.199309 -0.383385 -0.184187 0.497104 0.933458 0.314284 0.0789398 -0.617931 0.444894 0.173922 -0.456841 -0.238904 0.466673 -0.618737 1.03745 0.0927769 -0.37695 -0.387312 0.542877 0.170541 0.676068 -0.174116 0.07756 -0.522164 -0.00826238 -0.670016 -0.904715 -1.02404 0.834846 -0.541393 -0.870573 -0.222737 0.358789 0.533005 0.987632 0.0400784 -0.621467 -0.899918 -0.571914 0.00682041 -0.933893 -0.0191844 0.635221 0.690726 0.757334 -0.132694 0.540475 -1.05543 0.862866 0.447189 -0.46742 0.0408371 -0.454289 0.0646364 0.521393 -0.142202 0.863971 0.327601 0.0467855 0.551608 0.506776 0.0436819 -0.0919237 -0.67756 0.131137 0.222902 0.0406519 0.40047 0.0436883 -0.667397 -0.847141 0.468463 0.35205 0.559385 -0.185683 -0.257052 -0.238262 0.972322 -0.133106 -0.908192 0.456885 -0.275286 0.12074 0.927913 -0.45281 0.236114 0.656401 -0.845237 -0.268328 -0.613109 -0.172636 -0.483284 -0.0700496 -0.541556 0.615387 -0.960164 0.392706 -0.814775 0.973236 -0.593771 0.954685 0.835427 -0.511009 -0.775976 0.190347 -0.580767 0.56635 0.693233 0.272741 -0.333699 1.02799 1.00489 0.280509 -0.489415 0.117587 -0.539716 0.865162 -0.760745 -0.448431 0.246164 0.902717 -0.635105 0.317077 0.217607 -0.77723 -0.454235 0.0901326 0.00435277 0.507249 0.00539925 0.294566 -0.323112 -0.0405082 -0.00669734 0.684901 -0.714206 -1.17928 -0.721154 -0.783843 -0.172752 -0.614586 0.739147 -0.532664 0.100403 0.832305 -0.340343 -0.588499 0.270164 -0.703785 0.605832 0.365935 -0.268405 -0.514598 -0.139407 -0.106896 0.242845 0.755019 0.0319028 -0.86779 -0.805347 0.292611 0.279679 1.07649 0.163705 1.1005 0.18275 -0.824999 0.255921 0.74598 0.206643 0.172573 0.210317 -0.222007 -0.734013 0.0407527 0.824245 0.0924015 0.600182 0.259042 -0.210759 -0.313668 -0.280944 -0.574478 -0.262634 0.102635 0.105347 -0.753914 0.0219508 0.706639 -0.545647 0.0695789 0.52728 0.527976 0.126599 0.659511 0.068372 0.474278 -0.739104 0.62143 -0.817717 -0.451102 0.0695327 0.971979 0.78388 0.752268 -0.22459 0.536905 0.244622 0.959227 -0.458484 -0.812197 -0.659772 -0.847069 -0.0600702 -0.750088 0.090758 0.372109 -0.0784985 -0.943115 0.600408 -0.848419 -0.377766 0.0715213 0.587801 0.771442 0.26815 -1.00574 0.737694 -0.231268 0.257247 -0.803655 0.0636681 -0.271852 -0.772759 -0.414814 0.175968 0.687698 -0.323576 0.765998 -1.05845 0.373948 0.966263 0.451516 -0.0922345 -0.474662 -0.492133 0.875145 -0.884284 0.454946 -0.262886 0.0412235 0.451506 -0.356184 0.153311 0.156434 -0.273165 0.480843 -0.852681 0.627642 -0.747699 -0.225182 -0.721578 -0.676676 -0.147783 -0.0188761 -0.411909 -0.506049 0.780163 0.855356 0.208413 0.715984 1.1173 -0.335351 -0.845384 0.781993 -0.652112 0.696194 0.86809 0.400818 0.312835 0.127788 0.636245 0.516264 -0.725738 0.5866 0.366709 0.257547 -1.0034 0.105668 0.769334 0.844542 -0.767352 -0.113765 0.457422 0.980662 0.902381 -0.0848349 -0.0565106 0.216488 0.744061 1.01242 0.584892 -0.322852 -0.249082 -0.0660892 -0.46323 0.172484 -0.602148 -0.577066 -0.564542 1.00639 -0.0321088 0.359365 -1.11249 -0.806013 0.981315 -0.0359137 0.545044 0.293997 -0.091433 0.767003 0.345688 -0.566794 -0.748614 -0.725526 -0.550976 0.71432 -0.547757 0.0762547 0.29609 -0.696892 -0.599903 0.659558 0.513595 0.553296 -0.226398 0.535336 0.764777 -0.260084 -1.015 -0.180966 0.394633 -0.720944 -0.202972 0.304806 0.0781958 0.31378 -0.328105 0.798006 -0.460352 -0.456947 -0.993941 -0.325717 0.195261 -0.610155 0.145001 0.650329 -0.503219 -0.232188 0.159558 -0.605452 -0.720224 0.91631 -0.279557 0.683763 -0.103557 -0.00894129 -0.236194 -0.436149 -0.853783 -0.342798 0.116444 0.737127 -0.753057 0.438928 -0.709362 0.719252 0.087313 0.316291 0.752707 -0.495695 0.686596 -0.551988 -0.687566 0.511594 0.572118 -0.824069 0.176545 0.657504 -0.604253 0.662197 -0.1143 -0.881749 0.503737 -0.0631174 -0.0151289 0.757227 -0.721482 0.748942 0.293952 0.364535 -0.747422 -0.309163 -0.756235 0.268598 0.288564 0.306694 0.572942 0.211686 -0.747296 0.184147 -0.668907 0.56587 -0.573392 0.386454 -0.542814 -0.165954 -0.864464 -0.588335 -0.0119031 -0.206684 -0.361746 -1.19931 -0.0816337 0.125606 0.232075 0.332201 -0.228044 -0.144876 0.596956 0.800864 0.21018 -0.108581 -0.692297 -0.188739 0.528983 0.799684 0.29716 0.4107 -0.291029 -0.792217 0.445594 0.738066 -0.243321 -0.264911 0.317844 -0.768334 -0.252381 -0.66566 0.710422 -0.390763 -0.83631 -1.02259 0.948545 -0.13468 -0.524186 0.319595 -0.190924 -0.0674656 0.126458 -0.596803 0.703665 0.87824 0.206339 0.349922 0.537144 -0.747219 0.282485 0.450815 -0.535995 0.742698 1.11029 1.05837 0.506523 -0.18956 0.0361349 0.84815 0.194426 0.561837 -0.576567 1.32552 -0.636741 -0.745187 -0.512267 -0.25141 -0.731956 -0.815398 -0.837312 0.892096 -0.578367 -1.19989 0.0706778 0.34516 -0.38006 0.81361 0.44057 0.484854 0.609427 0.315343 0.187265 0.718702 0.604962 -0.488274 0.126643 0.580847 0.437569 -0.772156 -0.0703657 0.839703 -0.662719 -0.480442 -0.961899 0.105138 -0.563008 -1.26755 -0.25338 -0.604256 -0.44136 -0.157247 0.635278 0.273451 0.939367 -0.144131 -1.23993 -0.358096 -0.295232 -0.769767 -0.484088 -0.119071 0.359074 0.139082 0.586032 0.422953 -0.22506 -0.984042 -0.275307 -0.575936 0.422923 0.46124 -0.401433 0.611994 -0.0200808 0.632487 -0.837911 -0.0842981 0.56631 0.404107 -0.847427 -0.142515 -0.290229 -1.12811 -0.929289 0.266073 -0.260656 -1.04159 -1.03394 -0.0509483 -0.515907 -0.0875557 -0.611616 -0.904262 -0.436023 0.807295 -0.0160321 0.631477 0.648508 -0.513846 -1.00647 0.622379 0.0913027 -0.514781 -0.644574 0.3579 0.655207 0.73637 0.446039 0.998393 -0.140101 -0.036724 0.629002 0.181822 0.164352 -0.838476 -0.633629 -0.985748 0.127725 -0.0117479 0.323307 0.614486 0.379465 -0.502442 0.313776 0.514899 1.02393 1.11512 0.176754 0.276109 -0.979667 0.150711 -0.389866 -0.455067 -0.571921 0.390118 -0.163747 0.507061 1.11755 0.645591 0.317009 -0.318296 -1.0621 -0.432632 0.533523 0.657598 -1.03146 -0.109735 -1.00201 -0.559995 -0.441351 0.0750431 0.921009 1.01734 -0.444031 -0.32565 0.598584 -0.490228 -0.0283455 0.961581 0.192901 -0.519037 -0.492326 -0.163626 0.854219 -0.0235839 0.344374 -0.787753 -0.975583 -0.478833 0.375736 0.514364 -0.968641 0.0932667 -0.301578 0.561852 -0.729611 0.213137 0.490565 -0.461746 0.753183 0.419027 0.931417 -0.847203 -1.2576 -0.00435269 0.961702 0.489666 -1.15142 -1.08773 -0.412775 -0.385197 -0.847798 -0.924633 -0.872896 -0.168666 0.43581 0.0595075 0.396812 1.03471 -0.913108 1.01267 -0.4459 -0.480229 0.80429 -0.193182 -0.369831 0.741812 -1.02274 0.336873 -0.745092 -0.743265 0.447118 -0.298798 -0.339008 -0.262187 -0.0415684 -0.494954 -0.766468 0.141725 -0.415272 -0.588548 -0.562016 -0.04554 -0.207958 0.754815 -0.415441 0.337398 -0.30665 0.602795 0.237356 -0.0905804 -0.464019 0.899577 0.116269 -0.841456 -0.368161 0.338177 -0.371813 0.47001 -0.0303127 -0.713359 -0.902581 0.863352 0.365961 0.188298 -0.830557 0.0531951 -0.331116 -0.759756 -0.203894 0.541096 -0.464519 0.660671 -0.190648 -0.800826 0.0771455 -0.564756 -0.371721 0.260512 0.0615038 0.445334 -0.153909 0.456629 0.581195 -0.582899 0.641489 0.324945 0.929849 -0.694549 0.605628 0.528952 0.0164104 -0.791454 -0.605524 -0.432216 -0.0247997 -0.575721 0.222952 0.524027 0.274786 0.0484709 -0.757278 0.545899 0.175099 -1.33951 1.04774 -0.610342 0.250385 -0.184582 0.194566 0.790573 0.0708683 -1.31293 0.00626557 -0.442668 -0.648762 -0.102376 0.534649 -0.597919 0.236345 1.22481 -1.0425 -0.0618053 0.593703 0.535618 0.763752 0.509325 0.0313812 -0.0766045 0.127658 0.305838 -0.934427 0.363787 0.956903 0.287811 -0.219345 0.222929 -0.263508 -0.565304 0.801149 1.32624 -0.539035 0.505266 -0.634916 -0.23829 -0.244582 0.21751 -0.202758 -0.198366 -0.310677 0.630861 -1.04732 -0.349074 -0.358297 0.677884 -0.0229604 -0.606456 0.0451517 0.394542 -0.165332 -0.267506 -0.659539 -0.317284 -0.753699 -0.695858 0.559603 -0.529631 -0.202066 -0.273735 0.580701 -1.22139 -0.996396 0.752622 0.058102 0.243351 -0.36967 0.200597 -0.480652 -0.885104 0.216852 -0.440519 0.447071 0.669532 -0.0585628 1.11577 -1.17311 -0.114281 -0.374278 0.0559404 -0.0517429 0.863527 -0.608821 -0.375543 -0.141578 0.673442 -0.715587 -0.36017 0.930577 0.289991 0.393746 0.948082 0.692427 -0.461506 0.164141 0.186161 0.916553 -0.166832 -0.355548 -1.04097 -1.01455 -0.631583 -0.118269 -0.210747 0.059985 -0.0119071 -0.286209 0.444009 -0.713598 -1.03168 0.460594 -0.600202 -1.17043 0.435907 -0.415698 -0.502581 -1.03674 0.112338 -0.147644 -0.490647 -0.958143 0.112704 -0.109116 -0.276266 -0.129632 -1.22237 -0.0260303 -0.905232 -1.57631 -0.225386 -1.16308 1.79859 0.80363 0.564083 -0.733211 -0.0301547 -0.0285908 0.0592668 0.671704 0.498833 0.0390693 0.535125 -0.280983 -0.75767 -0.591912 -0.193975 0.0934444 0.0899638 -1.20758 -0.322942 -0.516762 -0.254775 0.121891 0.150023 -0.768751 -1.03334 -0.325086 0.114532 -0.524326 0.570347 0.433688 -0.0561854 -1.08776 -0.224618 0.205584 -0.484308 -0.114947 -0.571406 0.226169 -0.295681 -0.362529 0.676119 0.46411 -0.388282 -1.13862 0.209217 -0.795441 0.0537469 0.940887 -0.400035 -0.901082 -0.828905 0.847317 -0.46501 -0.706055 -0.370829 0.324618 -0.667858 -0.398883 0.755403 0.788619 0.462628 0.511422 -0.692565 -1.1728 -0.270932 0.999249 0.0614579 -0.0846395 -1.23864 -0.406711 -0.61257 -0.601577 -0.030718 -0.399762 -0.322443 -0.935693 0.390963 0.776351 0.777381 -0.784991 -0.800944 0.410526 -1.16892 1.08851 -0.0639421 -0.433992 0.639816 -0.86881 0.750917 0.312878 -0.440168 1.06145 -0.264569 -0.183311 0.815434 -0.355919 -0.732199 -0.0336041 -0.181818 -0.945178 0.723473 0.307151 0.23978 0.191907 0.479361 0.590743 0.760634 -0.272237 -0.671087 -0.344292 -0.421395 0.512429 -0.921213 0.678721 -0.620874 -0.338674 0.549292 0.165813 -0.795577 0.624552 -0.523889 -0.179709 -0.802357 -0.275015 0.265804 0.347935 0.0761148 0.312826 0.0139776 -0.679266 -1.22801 -0.895326 -0.820062 -0.666675 -0.780791 -0.708945 0.51099 -0.53923 0.980433 -0.0265541 -0.176005 -0.760486 0.310331 0.66336 0.0714117 0.212631 -0.730384 0.761424 -0.203264 -1.09732 0.627773 -0.503039 -0.357585 -0.996422 -0.424589 0.852728 -0.128148 0.201279 0.707895 0.638247 -0.0392288 -0.40911 -0.471317 0.386793 0.162833 0.715736 -0.672652 -0.571408 -1.26025 -1.50746 -0.0829288 0.0654465 -0.753343 -0.922919 -0.187066 -0.458278 0.675922 -0.384194 -0.215805 -1.04913 -0.498381 0.173399 0.11107 0.32377 -0.168501 -1.15699 0.568397 -1.07926 1.0876 -0.360329 -1.04914 0.507052 0.695175 0.818897 0.695762 0.149509 -0.652169 -1.40601 0.150376 -1.15136 0.77925 0.475247 -0.302908 0.285051 -0.474118 0.806937 1.03309 0.898135 1.04094 -0.55912 0.673718 -0.573007 -0.109479 0.175513 0.515876 1.16735 0.369109 -0.226948 0.793988 0.225616 -1.30054 0.779996 -0.26445 0.232643 -0.321612 1.3007 0.194434 1.16689 -0.418812 1.08055 -1.77769 -0.602077 0.372642 -0.034738 -1.21597 -0.295876 0.995294 -0.513959 -0.639129 1.19258 -0.418445 -0.876758 0.72161 -1.06267 -0.454699 -0.752522 -0.142201 0.141904 -0.860118 -1.54047 -0.301711 -0.917544 0.293006 -1.45061 -0.791357 -0.23873 0.0226777 0.0398397 0.948603 0.00145481 0.507785 0.147078 -0.195623 -1.42304 0.526657 1.29117 0.768165 -0.569407 -0.462039 -1.3468 -1.11313 0.189997 0.247929 -0.763903 0.463967 -0.553874 -0.296754 -0.958093 -0.712673 -1.1974 0.279834 0.36481 0.772607 -0.530803 0.359282 -0.484928 0.884958 -1.12655 1.12291 -0.661334 0.461601 1.36049 0.849246 0.367543 0.455672 -0.179797 0.941043 -1.11318 -0.493396 -0.924832 1.4139 0.882839 1.14512 -0.334615 -0.0156718 0.234734 1.57455 0.746173 -0.47384 0.00615082 0.904452 0.82315 -0.640342 0.654901 -0.643962 -0.00399416 0.530671 -0.749564 0.792924 0.569805 0.538107 -0.873908 -0.297742 0.52774 -0.599847 -0.59236 0.403621 1.13957 -0.0878354 -0.0999966 -1.83103 -0.216442 0.956078 -0.888064 -0.0102348 0.77173 1.37681 -0.687778 -0.193257 -0.218002 -0.799269 -0.113041 0.0746933 -1.04829 0.36167 0.00339043 -0.687975 0.0745892 -0.296751 -1.18851 0.306214 0.776927 0.0370374 -0.168359 -0.59519 0.0762107 0.301746 0.104292 -0.0762742 0.521057 1.06272 -0.860744 -1.49157 -0.00739965 0.768146 1.05067 0.164723 0.106752 1.0492 -1.35129 0.563865 -0.47731 0.323689 -1.16535 0.583784 -0.716129 -0.763418 -0.870206 -0.719815 -0.669322 0.251871 0.28852 -0.60351 0.663093 0.647489 0.383806 -0.636081 -1.05832 1.30983 -0.686281 -0.194268 1.02382 0.901996 -0.066437 0.340855 0.09648 0.195515 -0.378775 0.658731 -0.271646 0.734166 -0.00517467 -0.226068 0.595375 -0.381758 -0.898969 2.04461 0.918747 0.114467 -0.591732 -0.659457 -0.58786 -0.347924 -0.589329 0.814597 -0.493242 -0.174077 -1.15832 0.132286 -0.721954 0.199782 0.882289 -0.959692 0.480411 1.14093 -0.0211633 0.816773 0.510729 -1.17595 0.719599 -0.173247 0.931007 -0.0523475 -0.194264 -0.747197 0.531015 1.43857 0.231971 0.203737 0.85461 -0.102061 1.00118 -0.112561 -0.307894 0.0872036 0.206119 0.659421 0.953261 -0.609965 -0.944733 0.180962 0.994819 -0.455814 0.239143 0.446115 -0.304178 -0.589623 0.18696 0.320186 -1.24807 0.254845 0.45397 0.243078 -0.222554 0.644925 0.139481 0.266192 0.318561 0.441306 -0.647372 -0.250536 0.0207625 0.353044 0.522692 1.19147 -0.243331 0.783958 0.490439 -0.536735 -0.715692 0.806849 0.505751 0.402669 0.0634199 -0.59228 -0.567364 0.109913 0.141347 1.24626 0.110395 -0.572594 -0.484056 -0.125832 -0.825573 -0.727178 0.818535 0.745777 -0.173093 0.115146 0.277153 1.18863 -0.459884 -0.0295714 0.903676 -0.615241 0.514428 1.1734 0.0554496 0.237082 -1.42014 0.166851 0.238997 -0.375471 0.442024 0.611653 -0.00799953 0.681894 0.180073 -0.60174 0.595771 -1.31259 0.881757 -0.596724 -0.299233 0.726317 -0.715784 0.728098 0.489547 0.42514 -0.00935005 -0.0723029 -0.557293 0.915562 0.241393 -0.705053 0.648325 0.307912 -0.24931 -0.0635561 0.709068 0.126641 0.91109 0.784854 -0.166964 0.41583 0.187891 0.0960153 0.392128 1.07963 0.518456 -0.710963 0.992657 0.768773 -0.060291 -0.611531 -0.227313 -1.10186 -0.277576 0.471818 -0.944309 -0.213436 -0.353359 -0.746731 0.152998 0.397307 0.689084 0.478765 -0.321178 0.192207 -1.03695 -0.229964 -1.40968 0.94957 -0.464831 -0.24014 0.0732307 -0.606572 0.667125 0.274725 0.381302 0.097354 -0.236146 -0.598774 0.0244274 1.17654 0.757327 0.325994 0.647589 0.263801 0.770958 -0.491049 1.0864 0.46233 -0.015911 -0.293696 0.248365 0.656882 -0.441505 0.393451 -0.271958 0.876037 0.0855298 0.880327 0.677438 0.800907 -0.770187 1.10914 -0.294262 -0.401871 -0.595734 0.364069 0.738221 -1.06512 0.501315 1.42829 -0.238498 -0.0430385 0.483438 -0.762993 -0.0813143 0.0222561 -0.0273694 -0.646228 -1.02899 1.69392 0.84336 0.799867 -0.0133905 0.705431 0.300491 -0.121894 0.267955 -0.124093 0.259431 0.305518 -0.365786 0.458358 -1.05111 -0.785665 0.167949 -0.282351 0.415875 -0.340105 0.512663 0.910492 0.76921 -0.842952 0.807582 1.05843 0.84535 0.522839 0.21729 -0.496586 -0.362309 0.539853 0.384457 0.532182 1.19044 -0.472982 -0.522583 -0.372433 0.915014 -0.86921 -1.1933 0.385631 0.401926 -0.402069 0.363288 0.0644928 0.288297 0.610993 -0.924809 -1.05688 -1.0503 0.490165 0.220815 0.530648 -0.877717 -0.948376 -0.835289 -0.452937 -0.430596 -0.923678 0.503338 0.417994 0.59639 -0.533676 0.695689 0.418701 -1.10523 0.164817 -0.351288 1.04302 0.129593 0.382333 -0.267958 0.828631 -0.924822 1.24147 0.00621304 -0.168815 0.751149 -0.165995 -0.15865 0.492883 0.632679 1.88054 0.533028 -0.55133 -0.406496 -1.38546 -0.678896 -0.692206 -0.412146 0.141809 -0.14469 0.805526 0.400633 0.216366 0.171931 0.315236 -0.468257 -0.035566 -0.230765 0.861644 -1.30559 -0.443356 -0.456143 0.63556 -0.623678 -0.79186 0.00124371 0.228363 0.165704 -0.17828 0.412212 0.82565 -0.908922 -0.364192 1.00601 -1.02393 -0.782255 0.614179 -0.829543 0.839164 1.52295 0.168274 0.0737493 -0.0797916 0.0376946 -0.509085 0.676345 0.933051 0.385184 0.384562 -0.104159 -0.999606 0.78441 -0.317534 -1.01461 -0.0716523 0.0446879 -1.00359 -0.581503 0.201174 0.0608143 -0.267707 0.458685 1.60461 0.108812 -1.0382 -1.24414 0.418563 -0.137157 -0.358691 -0.997733 0.12861 0.200492 0.299706 0.342607 0.0274969 0.389668 0.846656 1.3226 1.06998 0.448639 0.280325 -0.0835323 -0.208234 -0.068907 0.39313 0.923028 0.35561 0.466557 0.460904 -0.112452 0.183181 0.235452 0.0927884 -0.374807 0.0376345 -0.737873 0.256586 0.66677 -0.196974 0.41941 0.427113 0.800376 0.120469 -1.7429 -0.867332 -0.870671 -1.08545 -0.836636 0.661801 -1.14483 1.60493 1.13933 -1.23365 0.815018 0.601547 -0.350249 0.515748 -1.31168 1.89402 -1.48731 -0.383079 -0.52421 0.668956 0.370895 0.43853 -0.0506899 -0.412073 0.483831 0.41241 -0.668532 0.566588 -1.28827 -1.11397 0.940397 -0.284549 0.182679 0.0877197 0.369374 0.129403 1.48809 0.289285 -0.344366 -0.221579 -0.279504 0.546735 -0.535374 0.356067 -0.746025 -0.211061 0.0331275 0.278583 1.53327 0.41848 -0.387455 0.284899 -0.649555 -1.1644 -1.03297 -0.518731 -0.966824 -0.274448 0.596716 -0.58266 -1.02108 0.886599 -0.34824 -0.167183 -0.0771424 0.606927 -0.320478 1.68539 0.517349 -0.498263 -0.0180896 -0.578376 -0.471834 -0.0368314 0.570759 -0.303768 0.977465 -0.228368 -0.342163 -0.0764334 -0.00442885 -0.364882 -0.477654 1.12337 -0.856966 -0.145405 0.426067 -1.38902 0.314313 0.251714 1.53128 0.657113 -0.466053 -0.405547 0.343034 1.28772 0.123224 0.587037 0.920923 1.178 -0.961604 -1.33028 -0.887061 -0.358646 -0.0620898 -0.521005 0.271753 -0.416027 -0.220247 0.618758 0.046322 0.212421 0.259183 -0.178011 -0.581228 1.56853 -0.36423 0.174328 -0.476171 -0.179582 0.653274 0.7171 -0.0607814 -0.0479761 -0.112552 0.853728 -1.28815 -0.110168 -0.680853 -0.0649817 -0.439625 -0.0666574 0.856534 0.977559 -0.0899596 -0.730245 0.18731 1.16716 0.151416 -0.901848 -1.09411 -0.0304034 0.339827 -0.128579 1.18714 -0.79795 0.551255 -0.442732 0.156943 0.695793 -1.2832 0.654425 -0.771529 -0.405727 -0.0590878 -1.32848 -0.296383 0.752595 -0.88611 0.89181 -1.15736 0.62526 -0.855172 -0.152096 -0.504355 -0.0251788 -0.847465 0.231406 0.12238 -0.443173 -0.212193 0.325843 -0.766419 0.939872 0.905822 0.334194 0.877857 -0.31124 -0.845067 0.337631 -0.319088 0.746811 -0.597682 0.615538 0.75383 -0.359337 -0.888344 0.254219 -0.122138 0.74612 0.870598 0.492643 -0.56217 0.812873 -0.124553 -0.196147 0.131723 0.888629 0.180623 0.0610923 -0.263577 -0.754151 -0.555161 0.6301 1.00186 0.863042 -0.455718 0.548911 1.12786 -0.352868 0.199625 -0.91759 0.629576 -0.49809 0.757648 0.517038 -0.0147257 -1.20526 0.886457 -0.0576252 0.868184 0.368346 0.946886 0.983771 0.870051 -0.0158198 -0.158838 0.25518 -1.536 -1.39384 -0.117572 -0.0819577 -0.605546 -0.843135 0.108547 -0.298512 0.104337 1.38875 -0.245039 -0.204644 0.30003 0.774856 0.0918355 0.0531042 0.554052 -0.141955 0.690876 0.497903 0.00156557 -0.0483981 -0.0322394 0.472014 0.299938 -0.629106 -0.674299 -0.0530994 0.691757 -0.209838 -0.815509 0.609997 -1.2666 0.467153 -0.381012 0.376694 -0.484998 0.155869 -0.840057 0.00521842 -0.572812 -0.913325 0.0872743 -0.756803 0.559543 -0.299151 0.3199 0.496931 -0.0699206 -0.0898012 -0.14245 1.06113 -0.394886 0.773794 0.782789 0.761513 -0.971589 -0.82011 -1.04859 -1.0945 -0.100625 -0.27521 0.466993 1.06447 0.12107 0.971754 -0.38598 -0.331924 -1.12515 0.103603 -0.52791 -0.678497 0.737677 -0.88889 -0.120176 0.468991 -0.0699074 0.552076 -0.637227 -1.13292 0.133997 0.763898 0.780314 -0.794892 0.825496 0.112292 -0.982215 -0.633113 0.0180034 -1.13628 -0.0898803 0.185308 -0.369614 0.132685 -0.204794 -0.514934 -1.05142 -0.00881808 -0.204472 -0.207157 -1.08545 -1.1534 -0.259609 0.173111 -0.348706 -0.515685 0.861265 0.342312 -0.886258 -0.727672 0.185964 -0.107746 0.806484 0.315401 -0.695721 -0.270766 -0.561173 0.376376 -0.19036 0.930209 0.0222679 0.990936 -0.490911 0.256486 0.475059 -0.700055 1.09991 0.259075 0.701623 -0.168916 -0.21325 -0.344784 0.842456 1.03972 -0.436877 -0.309135 -0.65714 -0.913601 0.629799 1.0067 0.836861 -1.22716 -0.178239 -0.0999726 -1.01695 0.868232 -0.0496916 0.416419 -0.0131095 -0.295087 0.826125 -0.432136 -0.0294469 0.528446 0.545706 -0.321549 -0.933387 -0.115988 -0.16064 0.0769661 -1.02812 0.599188 0.897002 0.245978 0.236809 0.913206 -0.660307 0.30909 0.609502 -0.79472 -1.02461 0.546613 0.235368 0.417316 0.154271 1.11919 0.340865 -1.15825 -0.734546 0.0528765 0.675836 -0.696575 -0.281155 0.51574 -0.40698 0.598819 -0.825959 0.363787 0.940311 0.630945 -0.0504222 0.498837 -0.559095 -0.321897 0.842008 0.689022 0.483009 -0.972284 -0.252219 -0.547997 -0.674705 -1.04399 -0.812518 -0.329765 -0.31682 -0.683014 0.800206 -0.497318 -0.614188 -0.144037 0.973806 0.573131 -0.495405 -0.0313546 -1.10595 0.73509 -0.786014 0.725957 -0.54522 -0.226705 1.09526 0.330238 0.0227416 0.210233 -0.495696 0.288112 0.0302483 0.69971 0.729051 0.672988 0.839624 0.0170028 0.32869 0.0637789 -0.155174 0.0939555 -0.838289 0.253745 0.704384 0.686545 0.702268 0.612291 -0.29649 -0.619753 -0.741758 0.00664706 -0.300724 0.150168 -0.326977 -0.245514 -0.82149 0.873501 -0.784268 -0.388582 -0.682452 0.666005 -0.0238755 -0.211392 0.633774 -0.770777 0.0182386 -0.51201 1.32297 0.133148 -0.683046 -0.117632 -0.101276 0.551174 -1.19083 -0.565706 -0.269448 0.640103 0.840002 0.268282 1.04926 -0.609657 1.024 -1.07286 -0.11553 -0.232111 -0.272731 0.189504 0.83013 0.0394443 -0.757049 0.517993 -0.598126 0.873499 0.0516783 0.138774 -0.858706 -0.790885 0.24564 0.959568 0.887235 -0.843434 0.225084 -0.96853 0.201047 0.00255989 -0.860607 0.0240974 -0.837137 0.743281 0.122976 0.542815 0.497836 0.906994 0.369173 0.193639 -0.434099 -0.653947 0.841411 0.378738 0.661272 -0.764926 -0.732915 -0.613376 0.184056 -0.100128 0.113591 0.0339754 0.823414 0.67085 -0.474665 -0.583672 0.228349 -0.0339853 0.254785 0.669006 0.552345 -0.729855 -0.1791 0.473493 0.707671 -0.784118 -1.00715 0.107708 0.413567 -0.845546 0.891198 0.415301 -1.01491 0.895405 -0.152096 -0.722207 0.390457 0.227113 -0.794027 0.0398252 0.621031 -0.989352 -0.150334 -0.928842 0.370106 -0.667632 -0.804871 0.425144 -1.04915 0.635228 0.274246 -0.0963506 -0.168191 0.927462 0.701029 0.41725 -0.369755 0.712022 0.301976 -0.760362 0.496751 -0.411633 -0.74482 0.0785775 -0.669532 -0.259392 0.835039 -0.0602238 -0.0277617 -0.158391 -0.135125 -0.166771 -0.571798 0.807456 -0.199826 0.454114 -0.815198 0.727893 0.339448 -0.298135 -0.64955 -0.341612 -0.874573 -0.66928 0.0907053 0.351048 0.677916 -0.14627 -0.891648 0.270486 0.857277 -0.896307 -0.481867 -0.0561589 0.450958 -0.1884 0.581554 -0.526389 -0.696446 -0.636022 -0.771645 -0.479225 -0.746532 -0.00162101 -0.690143 -0.684139 0.224166 0.0691162 0.386761 -0.879349 0.866094 -0.62185 0.583199 0.973372 -0.505905 -0.905544 0.511225 -0.393637 -0.736216 0.905734 0.434484 -0.874137 0.609883 -0.883656 0.418007 0.689461 0.984066 0.91414 -0.224802 0.596106 0.0684342 -0.0380121 0.0668095 -0.758421 -0.291635 -0.569489 -0.899427 0.11137 0.657499 -0.940937 -0.150649 -0.334137 0.641975 -0.904618 0.924238 0.850225 0.178774 -0.239032 -0.841126 -0.175324 0.686806 0.751385 0.906391 0.719542 -0.0912326 -0.0250112 0.897357 -0.175162 0.345069 -0.801921 0.0257925 0.14376 -0.707735 -0.00941304 -0.226118 -0.682938 0.898502 0.117875 -0.655485 0.290435 -0.0512309 -0.613442 -0.9839 0.085124 -0.0931232 0.388303 -0.288122 0.107897 -0.248224 -0.440528 -0.394406 -0.690517 0.32102 0.239358 -0.258311 -0.544937 -0.614859 0.775753 -0.69352 -0.618852 0.610417 0.896304 -0.420273 0.827881 -0.232375 0.581654 -0.479213 -0.991483 -0.842831 0.798643 0.610615 -0.677964 -0.571578 0.878527 0.736331 -0.024643 0.122679 -0.0236863 -0.30979 -0.320589 0.768929 0.338619 0.0211225 0.466259 -0.134669 -0.421946 0.520317 -0.379677 -0.181461 -0.0538602 0.717934 -0.477427 0.734884 -0.060974 0.95218 0.885858 0.867085 0.606792 0.59764 0.00508661 -0.545848 0.804547 0.859105 0.988745 -0.806784 0.612048 0.561366 -0.966477 0.227975 0.494557 0.839279 -0.0542735 0.583881 -0.143727 -0.0448892 0.462134 0.315002 -0.239496 0.802878 -0.537473 0.0711031 0.0350831 -0.113519 -0.390442 -0.581873 0.844387 -0.0640875 -0.740593 -0.454888 -0.786171 0.103403 -0.686414 -0.750588 0.798389 0.968302 0.376528 0.262107 -0.78811 -0.472809 0.436413 -0.512387 0.684029 -0.738628 -0.42925 0.31352 0.733036 -0.775658 0.0542688 -0.931196 0.00904622 0.255688 0.22783 -0.902783 0.752762 0.344563 0.276851 -0.295878 -0.42814 -0.977456 -0.461014 -0.380689 0.0448802 0.786612 -0.688868 0.644921 0.0626383 -0.351738 0.360584 0.113323 0.976696 0.367186 -0.869415 -0.845279 -0.0947835 -0.432233 0.92343 0.452307 0.553624 -0.0998841 0.904905 -0.311285 0.0205595 -0.76633 0.170629 -0.973246 -0.549592 -0.49965 -0.512288 -0.983204 0.388562 0.866499 0.798673 0.297061 0.248677 -0.319773 0.860388 0.0187799 0.769829 -0.449077 0.468264 0.871078 -0.170018 -0.747026 0.337439 0.610954 0.668163 -0.9288 0.590037 -0.336504 -0.540498 -0.232564 0.238031 -0.87298 -0.878854 0.609893 -0.510031 -0.907089 0.00283082 0.280407 -0.753032 -0.415015 -0.419663 -0.497365 -0.503461 0.525228 -0.394986 -0.1249 0.411736 0.0147073 -0.751164 0.754015 -0.724095 -0.152077 -0.17336 0.901715 0.6998 -0.303396 0.963283 -0.941615 -0.213905 0.504968 -0.604262 0.0381569 -0.590942 -0.916148 -0.762366 -0.686737 0.0959976 -0.78263 0.218916 -0.0733344 -0.482182 0.419719 0.332516 0.700597 0.883777 0.377216 -0.43387 -0.17881 -0.21584 0.00255873 -0.722875 0.351987 -0.780838 0.998961 -0.493777 0.707345 0.889191 0.139224 -0.478032 0.969715 0.649648 -0.412712 -0.294729 -0.781889 0.072759 0.837651 0.192019 -0.740832 0.278571 0.85438 0.961412 0.215932 0.726089 0.207396 -0.955977 0.764377 0.772534 0.835105 -0.0657391 -0.215281 -0.338117 -0.293061 0.593791 0.0582332 -0.716366 -0.439677 0.324595 -0.76343 0.230526 -0.159489 -0.581037 0.959391 0.624065 -0.536994 -0.132714 0.994403 -0.863495 -0.382615 0.335419 0.49178 0.0579526 -0.457402 -0.471722 -0.394765 -0.448369 0.0673718 0.595167 -0.984961 0.0104196 -0.184073 -0.843504 0.668828 -0.570676 -0.064385 0.0252504 -0.903549 0.335082 -0.772176 0.113876 -0.0312021 -0.134046 -0.607097 -0.198771 -0.127285 0.963948 0.890078 0.715023 -0.895276 -0.526464 -0.237727 0.348306 -0.735926 0.3251 -0.828 0.579353 -0.114418 0.21075 0.508838 0.378029 0.595099 1.04286 -0.89442 -0.182428 0.594786 -0.662818 -0.539155 -0.604732 0.77603 -0.329676 -0.254706 -0.954709 -0.204861 0.298722 0.336966 0.59605 -0.501252 0.901956 0.663331 0.702996 -0.335394 -0.866819 -0.165473 0.673948 -0.587498 -0.382316 -0.530921 -0.324372 0.0892757 -0.921551 -0.825436 0.470077 0.602717 -0.457079 -0.850784 -0.30684 0.268873 -0.626959 -0.888671 -0.75061 0.689324 0.873064 -1.03561 0.615322 -0.940248 0.787644 -0.0176255 -0.218382 -0.705664 0.853679 -0.45665 -0.327086 -0.824916 0.209193 0.847055 1.05845 -0.407278 0.424878 -0.469959 0.0131712 -0.588389 0.691914 -0.821951 -0.802441 -0.360432 -0.976066 0.730082 -0.297682 0.731803 -0.560339 -0.846107 -0.948449 0.48265 -0.860648 -0.146719 0.356149 -0.916726 0.525162 0.885106 -0.428784 0.715024 -0.020773 0.357664 -0.472958 -0.504455 -0.403547 -0.749268 0.689049 0.0122053 0.746611 0.780892 0.449714 -0.234539 0.860276 -0.073571 0.153454 0.687653 -0.0648588 0.298467 0.016787 -0.787202 1.12741 -0.490062 -0.220231 -0.155137 -0.108413 0.23597 0.593779 0.464256 0.276678 -1.10789 -0.0973702 -0.391491 0.90088 1.17251 -0.276282 -0.564683 -0.0530105 -0.919338 0.481816 -1.11735 -1.11689 0.863344 -0.853561 0.209034 -0.560611 -0.263945 0.66057 -0.472721 0.336235 1.05081 -0.804894 0.487052 -0.248028 0.516064 0.408739 -0.489582 -0.874631 -0.620411 0.390066 -0.734018 -0.770504 -0.147126 0.663328 -0.910903 -0.724783 1.15987 -0.122718 0.363669 0.555489 -0.690806 0.857829 0.90664 -0.581358 0.420693 0.114115 -0.0168973 -0.788529 0.357119 -0.895321 -0.208702 -0.701093 -0.302074 -0.899566 -0.013863 0.320302 -0.960977 -0.703307 -0.754683 0.123778 -0.945393 1.03451 0.514814 -0.755597 0.532779 0.71159 -0.739104 -0.688035 0.00598776 0.507142 -0.0368175 -0.510523 -0.536041 1.2066 -0.827545 0.0325551 -0.45972 0.624109 0.117224 -0.770876 -0.119829 -0.717882 -0.0931939 -0.0142071 -0.435624 0.280717 -0.168986 -0.993073 -0.116446 -0.126135 -0.448968 -0.612671 -0.647859 0.445837 0.329244 0.618895 0.702455 -0.966415 0.845893 0.0399121 -1.07695 -0.786387 -0.565819 -0.276407 0.530821 0.702107 0.215954 0.0547487 0.0897334 -0.654421 -0.373385 0.503076 1.3035 0.606497 -1.25636 0.785657 0.423403 0.236029 0.946463 -0.589971 -0.0407273 -0.39786 0.823515 0.167944 0.731411 -0.960517 -0.330341 -0.38423 0.361139 -0.655639 -0.0538602 -0.226622 0.208809 0.937844 0.144015 0.170626 -0.391723 0.958504 -0.44085 -0.622981 0.0993364 0.10329 0.338307 -0.674205 -0.3005 0.0187052 -0.0204714 0.688225 -0.0068393 -0.797908 -0.174679 0.178939 -0.383779 0.0905411 0.119506 -0.180483 -0.695325 1.16664 0.577689 -1.11892 0.180581 -0.759481 0.742972 0.211343 -0.598455 -1.11392 0.676511 -0.505773 0.262226 0.320148 0.121271 0.622656 -0.941168 0.0521368 -0.866216 -0.35958 -0.0210619 0.555273 0.877076 0.417991 0.453423 0.565183 0.126357 1.2641 -0.0077808 0.737736 0.693678 -0.0765523 0.104188 0.467688 0.0399273 -0.756794 0.103855 -0.475382 -0.969777 -1.056 -0.416716 -0.600767 -0.530805 -0.762661 -0.263392 -0.650046 -1.39201 0.958042 -0.325127 -0.333822 0.159541 -0.518353 0.18689 0.776941 -0.649987 -0.749262 0.382389 -0.680126 -0.919953 -0.80587 -0.102281 -0.804055 0.850018 0.931235 0.534068 -0.649845 -0.96542 0.901401 0.435843 -0.720941 0.531553 -0.585266 1.06627 -0.429606 0.898609 0.538289 -0.326527 0.765059 -0.807222 -0.338399 0.574596 -0.0323594 0.329707 0.865174 0.593661 -0.407674 0.637233 -0.0966593 -0.241797 -0.445654 1.11968 0.214241 -0.913864 -0.850587 -1.03247 0.362437 0.890219 0.707441 -1.08197 -0.716715 0.872823 -0.0861711 1.23076 -0.182311 -0.729925 0.928693 -0.0388477 0.375858 -0.331866 -1.3939 0.336544 -0.0636082 0.445137 -0.467967 0.762914 1.07095 -0.232836 0.176818 -0.124821 0.462874 0.165792 0.93467 0.162873 0.0319747 0.996623 1.12306 -1.61216 -0.168189 -0.0817531 -0.0381502 0.0405966 -0.444344 -0.876421 0.77277 -0.905617 -0.477983 0.540596 -0.690523 0.81441 0.184999 0.0538502 -0.185737 -0.0956697 0.444574 -0.826817 -0.193829 0.332347 0.702754 0.999776 -0.642608 -0.277505 0.532929 0.274244 1.08378 -0.215843 0.160532 1.53727 1.25858 -0.901946 -0.264173 -0.433834 -1.25212 -0.0855915 0.622385 0.598021 -0.596777 -0.135723 -0.637977 -0.164703 -0.826857 -0.118982 0.633859 0.265484 0.399855 -0.102335 1.03618 -0.901846 0.78389 -1.32025 0.871259 -0.564714 0.758499 0.153443 0.2828 -0.21574 1.1056 -0.28638 -0.787788 -1.14849 0.0238825 0.952727 0.71106 -1.14593 0.0439028 -1.07815 0.704002 0.0411317 -0.368588 -0.271318 0.0246269 0.313307 -0.870779 1.34383 -1.5482 0.138035 -0.0414318 0.55968 -0.144532 0.953259 -0.525335 0.652476 0.286228 0.0173828 1.14135 0.509412 0.0200018 0.115734 0.0649031 -0.754272 0.793772 0.102528 0.734055 0.420833 -1.37615 1.46922 -0.397966 -1.60422 0.545588 -0.0952444 0.702343 0.0802154 -0.9825 -1.65816 0.517481 -0.869729 -0.4483 0.899576 0.777384 -0.40202 0.503225 -0.258019 0.252338 0.0933524 0.651091 -0.735183 0.730637 -1.2572 -0.225448 -0.324561 -0.286722 -0.000479178 -0.34555 -0.32125 0.849792 -1.39175 -0.632332 0.0482248 0.0802211 0.51851 -0.081656 -0.401941 -1.07123 0.524333 -0.174224 1.56338 -0.134735 -0.0396956 -0.698054 0.872829 -0.580111 -1.03117 -0.0630047 -0.351074 0.0925845 -0.0681675 -0.855467 -0.133078 0.76307 -0.882246 -0.594882 -0.138705 0.509687 -0.124364 0.0817262 0.305518 1.02769 0.318363 0.401876 0.0347986 0.222485 1.04579 -0.807981 -1.14458 -0.491768 0.277481 0.356411 0.961673 0.52799 -0.230431 -0.0305019 1.07837 -0.30031 0.272311 -0.257583 0.29525 0.0664969 0.734168 0.280202 -0.761905 -1.56833 0.883229 -0.722499 0.393941 1.54278 -0.797562 0.896827 -0.565888 0.0638562 0.58921 0.0549099 -1.40514 -0.950072 0.255128 -0.905283 1.18229 -0.295055 -0.741341 -0.178038 -0.413647 -0.0433202 -0.541666 0.0716583 -0.353363 0.284583 0.484898 -0.0600522 -0.438757 -0.538819 0.266996 0.325708 0.715145 -1.58726 -0.901544 1.00912 0.0250371 0.588817 0.814347 0.960635 0.785926 -0.882992 -0.916367 0.638041 0.279849 -0.705192 -1.25051 -0.38987 0.779806 0.526722 -0.9803 -0.22562 -0.204537 0.110561 0.759659 -0.016648 1.00025 0.0805715 -0.279544 0.0906418 0.211918 -0.425041 0.207432 -1.03067 1.25056 -0.0911665 -0.983593 -0.01627 -0.941965 0.963569 -0.949393 -1.09159 -0.784534 0.0614598 0.152478 -0.0148199 -0.962826 0.300387 -0.382578 1.30763 -0.993636 -0.332147 1.26198 -0.464149 -0.826326 -0.59434 0.199438 0.803642 -0.699329 -0.753126 0.356521 0.010142 0.00781097 -0.204684 0.893114 0.513293 -1.21638 0.169484 -0.890773 0.0850754 0.951766 -0.876697 0.403757 -0.73096 1.16557 1.51853 -1.31835 -0.16696 -0.287827 1.29598 0.678006 0.401106 0.330981 -0.490766 0.508839 0.0681715 -0.229028 -0.177566 -0.827625 0.841747 -0.50788 0.458869 -0.752005 -0.476569 0.0838539 -0.000624318 -0.174381 -0.163077 0.163723 0.723411 -0.565108 0.221583 0.921058 0.288879 -0.343566 0.595313 0.281731 0.200037 -0.496019 0.753322 1.30401 -0.734637 -1.36363 -0.0464906 0.213438 -0.885755 -1.24323 -1.21054 -0.802761 -0.258073 -0.241286 -1.22769 -0.123125 0.237414 0.896004 0.353881 1.26885 0.555218 -0.117401 0.455724 0.16255 -0.0801631 -0.519892 0.0975611 1.39394 0.158904 -0.109156 -0.498561 -1.96392 0.677056 -1.02836 -1.5619 -0.475157 -0.0667441 0.663986 -0.161343 0.367754 -0.280754 -0.678783 0.769805 -0.731563 0.0507958 1.11685 -0.975904 0.573331 -0.182703 -1.02709 -0.429822 -0.57136 -0.335311 -0.913643 -0.0443349 -0.747352 -0.226534 0.511122 0.763825 -1.55977 0.74266 -0.601707 0.478618 -0.945288 -1.31232 0.38408 -0.801861 -0.322075 1.03575 -1.18972 0.820889 -0.0287765 0.0115744 -1.02254 0.318839 0.419827 -0.567302 1.05392 1.47592 -0.265503 0.390386 -0.551003 -0.0629559 -0.850862 0.116033 -0.829215 0.250668 -0.714168 -1.08886 -0.522793 -0.10439 0.13357 -1.24888 0.147334 0.218141 -0.930726 -0.114585 -1.06335 1.57138 -0.81215 -0.096435 1.15988 0.561344 -0.365973 -0.38781 0.412849 -0.243457 -0.984159 0.234787 0.577675 -0.934305 -0.859925 1.18234 -0.306671 -1.23849 -1.17756 -1.02975 -0.406989 0.233484 1.398 -0.133116 -0.875108 -0.250984 0.809236 -0.0127254 -1.69941 -1.05454 1.47588 -0.222211 -1.37165 -1.4048 -0.712993 0.221659 -0.950816 -1.38153 -0.793616 0.548987 0.760509 0.704907 -1.01383 1.01034 -0.73583 -0.263826 0.537258 -0.188999 0.435302 -0.089255 -0.485544 -0.470434 -0.237245 -0.397688 -0.471776 -0.913316 -0.734407 0.420391 0.680177 -0.417389 -0.609274 -0.1553 -1.60257 1.13271 -1.09848 0.538003 0.626355 -0.0676763 0.0446194 0.447184 0.72706 0.895747 -0.853573 0.834075 -0.226924 -0.492733 0.449905 1.43154 0.532404 0.190599 0.423028 1.22858 -0.52904 -0.18191 -1.90301 -1.3569 1.02184 0.748263 0.312288 -0.475006 1.04839 0.11988 0.230866 -0.737466 -0.401014 -0.0932554 -0.582619 0.417504 -0.781925 -1.54684 -0.0547453 0.412702 0.0203481 0.0822579 -0.273762 1.45402 1.08488 0.177112 -1.09439 0.0235747 0.301312 -0.945747 0.215913 -0.478728 -0.70286 -0.26016 -0.604078 -0.47117 -0.459287 0.462161 -0.302833 -1.23626 1.76913 0.678626 -0.664901 0.972689 -0.786833 0.685457 -1.63609 0.983163 1.30685 0.983978 -0.109344 -0.039493 -1.3886 -0.340179 -0.466195 0.276475 -1.59434 -0.154842 0.277884 0.636038 -0.863229 0.606783 1.10834 0.0554932 -0.592014 0.691998 0.373411 -1.02637 -0.390071 -0.210427 -1.07398 1.07935 -1.11812 0.88721 0.545497 0.285876 0.790271 0.197896 -0.313303 1.13148 -0.537944 0.148278 -0.0490982 1.58357 -0.387358 -0.89943 -0.256361 -0.552742 -0.407452 1.86425 -0.256813 0.417894 0.221844 -0.0294141 -0.127968 0.3183 1.27563 -0.654865 1.25995 0.957207 -1.87209 1.15802 -0.890675 -1.90566 -0.821944 -0.400238 0.697104 -0.393097 0.436082 -0.19508 -0.232822 -1.13352 0.69835 -1.27605 -0.0705337 -1.02488 -0.852123 -0.464731 1.05336 0.281196 -0.327242 0.888533 1.0463 0.149709 0.868668 -0.582522 0.409043 0.280344 -0.994025 -1.48599 1.18597 -0.462819 -0.462954 -0.257288 -1.07167 -1.37299 -1.69158 -1.15049 -0.556971 -1.69941 0.784312 -0.10512 -0.687667 -0.557141 -0.20666 -0.0286655 -1.4298 -0.00431982 0.592274 -0.145824 0.035061 -0.560074 -1.87796 -1.26029 -1.05736 0.388438 -0.83792 0.0614203 -0.395005 -0.603594 -0.844313 -0.25124 0.702509 -0.279414 -0.311374 -1.09075 -0.567096 0.473066 -0.997729 0.138588 -0.224466 1.12132 0.644853 -0.865518 0.0996968 -0.886848 0.130428 -0.323656 -0.44738 1.59529 -0.438066 0.238599 -0.790079 2.40862 -1.02834 1.11307 1.04565 -0.285046 0.295331 1.07302 -0.345449 -0.559188 0.0758246 0.702935 0.255174 -0.393804 0.821376 0.57726 0.970098 -0.919638 -0.839115 0.424896 -0.443498 -1.06755 -0.610829 -1.34757 0.493001 -1.64964 0.844375 0.406886 0.421637 -0.965827 0.30159 -2.23931 0.177947 -1.35005 0.313671 -1.29992 1.23588 0.499296 -1.42255 -0.00206664 0.700333 0.204265 0.327515 0.465679 -0.994369 0.600578 -2.16379 0.444904 0.203495 0.544382 -1.45247 0.725924 0.703746 -0.339502 -1.84032 0.0311363 0.136163 -0.865124 1.14821 1.04111 0.123443 1.13327 -1.0925 0.844098 -0.91686 -0.205498 0.824693 -0.492968 -0.915855 -0.783502 -0.280295 -1.53505 -1.31046 0.350366 -0.336642 0.929223 0.790125 -0.503809 -0.149653 0.0637619 -0.958434 0.732445 -0.635449 0.759469 -0.828751 -0.262225 -0.352197 -1.0481 -0.445671 0.905038 -0.127129 -0.40611 0.950392 0.274243 0.0467318 -1.15907 -1.16176 0.864092 -1.19504 -0.130998 -1.13941 2.19674 0.802046 0.035419 0.748138 -0.965337 -0.140527 2.24241 1.58578 0.470426 -0.21519 0.332731 -0.0638299 0.669255 1.70501 -0.633496 0.547756 0.449018 -0.371383 0.045506 -0.527884 -1.37801 0.500451 -0.894706 -0.509055 -0.336494 0.670477 0.0534023 0.553727 -1.7079 -0.669807 -1.99147 -0.264309 -1.23811 1.01437 -1.57354 1.11151 1.26283 -0.512331 1.12745 -0.527327 0.371983 -0.45576 0.506883 0.451441 0.691809 -1.85526 0.272089 0.862012 0.638763 0.0493436 0.414771 -0.757284 0.299839 -2.15554 0.399738 -0.78843 -0.271971 -0.386329 0.329655 -0.134188 -0.346603 0.305103 -0.128339 -1.10734 0.226242 0.697293 -0.152516 -0.440614 0.714722 0.291527 0.298362 -0.905422 1.39044 -0.107231 0.63927 -0.840573 0.146804 -0.0140478 -0.711096 -1.01614 -0.96821 1.20066 1.00163 0.311664 0.804991 0.065002 0.126926 -0.65531 0.585938 0.28045 -0.751005 -0.34829 0.626385 -0.905372 -0.548193 0.471596 0.781454 -0.878531 -0.693009 -0.711788 0.571989 0.309681 0.806574 -0.603862 0.743177 0.399125 1.38688 0.661369 -0.438169 -1.4718 -1.11994 0.25805 -0.803673 0.96233 -0.365299 0.819405 0.179375 -1.65296 0.691571 -0.202394 -0.291929 -0.0510681 -0.383536 -0.822236 0.693211 2.00221 0.239801 0.709444 -1.85104 -0.438983 -2.71758 0.406722 0.0555142 -0.728648 -0.528115 -0.169626 0.424492 0.401619 0.939633 0.287078 0.909309 -0.357292 -0.599252 -1.02033 -0.221543 -1.42052 -0.113267 0.792654 -0.250364 -1.37492 0.266997 -0.31943 0.56742 -0.920298 -0.375724 -0.347113 -1.6361 0.848705 0.376706 -0.921038 -0.102561 0.157917 -0.462895 -0.796671 -0.797054 0.563895 0.233991 -0.480723 -0.00613688 0.174064 -0.0429012 -0.215316 1.6086 -0.846995 1.21733 0.46027 0.177548 -0.999873 -0.780011 -0.882377 0.83156 0.995292 0.0486733 -1.55101 0.818837 -0.370885 0.412412 -0.0908058 1.08025 1.18658 0.147687 1.30106 -0.419404 -0.396276 -0.479228 -0.70084 1.08292 -0.277162 0.166042 -1.05136 1.78213 0.48829 1.70628 -0.291495 -0.889419 0.97879 2.17577 0.0935058 0.229654 -1.00023 -1.28071 -0.926278 -0.392025 -0.272752 1.09599 0.876451 0.0305314 -1.09378 -1.05375 -0.236918 0.331913 -0.375962 -1.07271 -0.411278 1.48039 1.63156 -0.659055 0.5265 -0.714018 -1.09662 -0.530091 0.374945 -0.103386 -0.30909 -0.311733 -0.423623 2.51351 1.09762 -0.672532 0.348714 0.156574 0.724398 0.0511406 -0.597789 0.245794 0.42317 -0.431299 0.989594 0.689843 -0.57012 -1.49485 1.05505 -0.232333 -1.40158 1.17002 -0.185382 -2.13805 -0.605874 -0.0835598 -1.6125 -0.0432111 -1.12548 -1.95386 -0.0386866 -0.429714 0.763942 -0.333691 0.735145 0.713483 0.399436 -0.655088 -0.187517 1.09009 -0.142792 -0.258876 0.31323 -0.953564 -0.675554 -0.833984 -1.74566 -0.269993 -0.0943549 -1.2003 -0.84876 0.678218 -0.112651 0.577754 0.720612 0.959504 -0.194253 0.586524 1.10263 0.30949 -0.853837 -0.143622 -0.780244 0.68948 -1.38439 -0.608361 -0.388791 1.41159 0.366019 0.889755 -0.626218 0.398993 0.509639 2.00537 1.83575 -1.01794 -0.918612 0.103001 -0.0223562 -0.276938 0.36988 0.915554 -0.083451 1.30923 -0.100422 -1.20826 -0.687305 0.227349 -0.521693 -0.613631 0.116488 1.98983 -0.331615 -0.17605 0.693705 -0.526486 -0.352995 -1.47337 0.333639 1.1302 -0.657251 -1.83633 0.85876 1.13253 0.401433 -0.491419 -0.178532 0.425814 -0.406798 -0.784763 -0.0232362 1.00973 0.295422 -0.180814 -0.0398447 0.614711 1.22787 -0.59118 1.04513 1.17623 -0.631935 -0.607643 -1.181 -1.06228 0.478502 0.328686 -0.583561 0.26628 0.283171 -1.51339 -1.12103 0.349859 1.17541 0.898135 -0.685862 -0.0302525 0.791466 -0.33535 -0.454092 0.441479 -1.65675 0.262263 -0.720886 0.828064 0.355327 -0.00823854 -1.38781 1.41871 1.43111 0.180993 -0.0984846 0.793652 0.624788 -0.648131 0.964865 0.0532583 -0.0384577 -1.07206 -0.639403 -0.640218 -0.756176 -0.00105482 -0.975469 0.397972 -1.1062 0.390938 0.670305 1.17655 1.01037 1.67045 -0.313783 0.804764 0.204188 1.38412 1.67722 0.79255 -2.14057 -1.33205 0.426878 -0.239427 -0.13159 1.98976 0.457754 -0.0321717 -0.227316 -0.935085 0.724509 0.634522 0.826943 -0.476854 -1.02097 2.05157 0.377788 -0.233515 0.143659 0.422216 -1.20597 -0.135936 0.85726 0.765381 -0.671067 0.165371 -1.0311 0.887418 -0.702153 -2.07602 -0.375421 0.775652 0.400074 0.878476 -0.982043 0.240958 0.705386 -0.159139 -0.661966 0.341112 1.58231 -1.55621 0.316695 0.0934375 -0.873643 0.489714 -1.25953 -1.42364 -0.189835 1.11118 -1.14788 0.0566394 -0.10642 -2.08218 -1.17365 0.150509 -0.359971 0.268897 -0.0493319 0.136465 -0.271897 0.0141422 -1.48823 -0.0490448 -0.33668 0.0494218 -0.596944 0.331653 -1.02111 -0.342551 -0.268895 0.0310863 1.08969 -0.497591 0.727568 1.13928 1.07286 0.888657 0.861349 0.300685 -1.62186 0.738123 -1.23644 0.586436 0.17639 -0.0215641 -1.27725 0.0328369 0.413855 1.02787 0.209477 1.06036 1.29102 1.61698 0.440292 -0.062008 0.594178 1.47784 1.39182 -0.797364 -1.44904 -0.639785 0.166117 0.458961 -0.618883 1.80179 0.127047 1.88855 0.628983 -1.01086 -0.248423 0.809225 0.837727 -0.499235 -0.504931 1.63811 0.632443 0.0479284 0.67411 -0.0263559 -0.242675 0.302125 -0.794883 0.0245128 0.0555104 1.1151 -0.19484 -0.482995 -1.08054 -2.72806 1.05919 -1.11332 -0.800407 0.454741 -0.499144 -0.239023 1.47114 -0.442762 -0.903443 -0.915008 1.0953 -0.0207233 -0.767724 -0.282752 0.264512 0.812203 -0.130773 0.475012 0.408077 0.222019 -2.22248 -0.173902 -0.047076 -1.74275 -1.4865 0.292561 -0.460517 -0.237552 -0.202615 0.0451944 -0.541656 -1.42928 -0.984023 0.0260844 -0.573999 -0.483323 -0.597476 0.876178 -0.4048 -0.640627 0.804198 1.03791 -0.169574 0.90971 0.144354 0.483111 -0.243958 -0.330106 0.838765 -0.0398847 -1.52709 -0.378673 -0.753431 0.724154 -0.462737 -0.953927 -0.717966 0.445796 -0.00968029 1.23908 0.889666 -0.617326 -0.815524 0.201544 0.00819508 -0.148586 0.190547 1.26011 1.19597 -0.77566 -2.37152 0.512877 -1.38791 0.620389 0.788279 1.30255 -1.43669 1.76013 1.67537 -0.771825 0.536653 0.812577 -0.14091 0.698841 -0.635913 1.35418 -0.0308857 0.531819 0.494447 -0.662633 -0.0586857 -0.459568 0.854151 -0.632113 -0.705555 -0.0263063 -0.297244 -0.599199 -0.761057 -1.22497 1.03541 -1.06163 0.810274 -0.484105 -0.240519 0.452199 1.05356 -0.463362 -0.4389 -0.0976541 1.00243 -0.556401 -0.675877 -0.886844 -0.274691 1.0638 0.676929 1.02165 0.0637865 0.29105 -2.23296 -0.0785942 -0.826636 -1.53643 -1.33598 0.671469 0.0152486 -0.421717 -1.03513 1.14866 -1.08282 0.968345 -0.911765 -0.593805 -0.0951174 -0.382502 -1.06898 1.33252 -1.52103 -0.909915 0.312736 -0.0230742 -0.533974 0.698806 -0.0941677 1.54467 -0.552264 0.0721067 -1.30438 -1.00678 -1.27052 0.211275 -0.728305 -0.00259241 -0.710298 -0.0966142 0.343062 -1.31403 -0.135273 -0.08959 0.505001 -0.780747 0.213242 1.03726 -0.71485 1.08681 -0.275718 -0.604662 -0.0251948 -0.0179491 -1.61519 -0.423664 0.220759 -0.48459 1.39112 1.05522 0.261806 0.800156 0.911829 0.254448 0.0570196 -0.814756 0.275594 -1.12864 0.897818 0.136399 -0.459534 0.462355 0.0252483 0.963916 -0.327816 -0.108131 0.836244 -0.70797 0.433915 -0.501028 -1.14748 0.189003 0.162676 -1.60327 -0.548141 -0.818543 0.393287 0.115482 1.0219 0.710683 0.232024 1.39738 -0.317661 -0.0400909 0.321022 -0.828577 -0.690092 0.243465 1.57839 1.08292 0.456849 1.07559 1.62113 0.358148 -1.30447 -0.821542 0.379244 0.599514 0.597242 -1.2271 -0.20553 -0.685413 -0.228058 0.474992 -0.675685 0.135619 -0.843679 -0.000688548 0.341473 0.206577 -0.0101184 1.35082 0.480109 -0.204214 -0.879315 -0.289865 -0.678512 0.951327 0.179091 -0.148144 -0.0714989 -0.763097 -0.0399992 0.149388 -0.250791 -0.75368 -1.39473 0.75934 -0.958222 