784 100 100 100 100 26 
0.313355 -0.891381 0.600556 -0.460113 -0.544562 0.506896 0.0811968 -0.425364 -0.0784158 0.756893 -0.371207 0.302062 0.38382 0.911812 0.41271 0.799751 0.805117 0.0345972 -0.637805 0.283315 0.872115 0.917227 0.92634 0.63098 -0.366201 0.969257 -0.171773 -0.631809 -0.478354 -0.91811 -0.0454679 -0.515321 -0.378923 -0.731075 0.218897 0.458777 0.929211 0.789934 -0.338793 0.540972 -0.801057 -0.479176 -0.169732 -0.35999 0.992825 0.69079 0.456267 -0.304138 -0.13261 0.761543 0.644686 0.437033 0.353012 -0.0439793 -0.454707 0.203694 -0.917763 0.119554 -0.860757 0.836047 0.057464 0.0165511 0.394503 0.015643 -0.690733 0.787941 -0.0226175 -0.350812 0.514167 -0.726994 0.897834 0.709406 0.478558 0.436601 -0.00315905 -0.341549 0.429767 -0.332424 0.00901249 -0.945055 -0.826288 -0.534868 -0.895645 -0.884967 0.350927 0.404422 0.97847 -0.246838 -0.109905 0.349674 -0.160184 0.476116 0.77134 -0.70001 0.47413 -0.86923 0.972667 0.912646 0.975431 -0.138899 -0.839841 -0.978086 -0.193492 0.589843 -0.741127 0.399933 0.225642 -0.886353 0.889605 0.170955 -0.436873 0.281318 -0.900509 0.780552 0.306424 0.85641 0.0993262 -0.0307417 -0.176759 -0.627269 0.190446 -0.826683 0.0400924 -0.939009 0.132482 0.3747 0.280294 -0.844608 -0.179822 0.480411 0.835565 0.125209 -0.806909 0.938739 -0.191612 -0.0385381 0.592899 -0.684417 0.788065 0.420082 -0.083356 -0.102807 -0.987356 -0.461867 0.704484 -0.3008 -0.279027 -0.946512 -0.952362 -0.441974 0.189285 -0.277393 -0.201345 -0.496241 0.137035 0.288213 -0.252216 -0.683883 -0.0703058 -0.517799 -0.304472 0.484984 0.0923724 -0.850319 -0.230769 0.124585 0.438043 0.255633 -0.560512 -0.44169 0.99842 -0.849583 0.531725 -0.0179095 0.0896534 0.726804 -0.529639 0.919967 -0.515176 -0.55674 -0.157736 0.292077 -0.185591 -0.921813 0.72178 0.845303 -0.364383 -0.802483 -0.74638 -0.709583 0.464933 0.266053 -0.98821 -0.550565 0.591643 0.791636 0.625577 0.583719 -0.659349 0.835954 -0.412584 -0.718031 0.957582 0.822489 0.825827 -0.875788 -0.0673846 -0.23177 0.589493 -0.403048 -0.0917042 -0.641528 -0.0541472 -0.509307 -0.970614 0.0636578 -0.779261 0.721699 0.266687 -0.921152 0.157457 0.868016 0.346065 0.472602 -0.672124 -0.611847 0.92505 0.749464 -0.661622 -0.693502 -0.37706 0.665878 -0.81203 0.664916 0.943279 -0.167469 -0.625845 0.945265 0.921013 0.654959 0.462 0.523927 0.81583 0.567853 -0.622186 -0.196359 0.744459 -0.0878744 0.191509 0.34915 0.641814 0.0673568 -0.292786 -0.188001 -0.837931 0.0917851 -0.116087 -0.687072 -0.107678 0.663606 0.72536 0.895306 0.249216 0.778931 -0.447848 0.0663163 -0.621791 -0.106141 0.651783 0.237471 -0.486425 0.809 -0.694283 -0.733834 0.0672636 0.0535842 0.50484 -0.870646 0.401216 -0.013437 0.477191 0.247868 -0.385221 0.585836 0.435565 0.0187197 0.866032 0.475346 0.553629 0.244694 0.562783 -0.457992 -0.667938 -0.526134 -0.660824 -0.711269 0.478703 0.43586 -0.914606 0.602421 0.626379 -0.935424 0.305101 0.603908 -0.530452 0.927279 0.372054 -0.468626 -0.0576039 -0.232202 0.444057 0.79293 -0.913106 0.662541 -0.772292 -0.519641 -0.447169 0.978935 0.845286 -0.175696 -0.236543 0.676535 -0.133646 0.278258 -0.74362 -0.698644 0.301315 0.909832 0.774979 0.145912 0.313992 0.84002 -0.794003 -0.512107 0.54424 0.571881 0.810647 0.786722 0.266751 -0.368587 0.0622761 -0.166894 -0.974723 0.641364 -0.149232 0.978412 0.314957 -0.563163 0.0599821 -0.550163 0.836493 0.290405 -0.636921 -0.740678 0.400431 -0.522664 0.696962 0.353075 0.328014 -0.153972 0.857651 -0.400998 -0.918915 0.71987 0.437081 -0.20487 0.0704404 -0.764198 -0.838865 -0.308389 0.755198 0.622246 -0.293804 0.178257 0.624802 0.563476 -0.745368 -0.495957 -0.674278 -0.44567 0.570469 0.718973 0.637227 0.800364 0.931241 0.993916 -0.887927 0.773425 0.874392 -0.628766 -0.991992 0.534199 -0.4187 -0.184702 0.249084 -0.683852 -0.451437 0.117278 0.159328 0.783246 -0.111291 -0.893775 -0.131508 0.976153 0.0355388 0.293692 0.302566 0.686753 -0.240067 -0.0219769 0.40865 -0.778526 -0.09762 -0.096732 -0.634934 -0.522671 -0.879013 -0.319487 -0.776255 -0.413566 -0.617184 -0.314111 -0.297123 -0.223467 -0.784887 -0.919874 -0.366472 -0.158108 -0.735209 0.966936 0.0364823 -0.252931 0.459037 0.401685 0.600954 0.0218462 -0.141977 0.533371 -0.48668 -0.139706 0.953918 -0.416843 -0.0788754 0.877613 -0.739094 0.249668 -0.897684 -0.550693 0.906393 -0.687076 0.345259 0.487809 -0.00341017 -0.380597 0.761088 0.123183 0.0514817 -0.708943 -0.134403 -0.55539 0.393281 0.46088 -0.995052 0.2374 -0.666978 -0.601103 0.139146 -0.872706 0.836748 -0.061731 0.118618 -0.530004 -0.990467 -0.555312 -0.756942 0.706362 0.471432 -0.979411 -0.0567712 -0.435335 0.426046 -0.27969 0.87475 -0.591467 -0.502482 -0.0149 0.453816 -0.442733 0.164659 0.469324 -0.303212 0.303489 -0.251916 -0.658206 0.201581 -0.958196 0.0450314 0.431063 -0.098785 0.965702 0.190893 -0.602235 -0.19065 -0.912685 0.663758 0.11099 -0.830058 0.216197 -0.835922 -0.0620838 -0.505382 -0.956803 0.0311349 -0.897403 -0.315922 0.313659 0.956107 -0.183322 0.573994 -0.216482 0.370943 -0.107249 0.875401 0.498599 0.972962 -0.792818 0.684325 1.0046 0.200667 -0.469327 0.525135 0.47853 -0.481628 -0.912098 0.27293 -0.830378 -0.556121 0.605659 -0.221831 0.264319 0.833682 0.13533 0.825178 -0.145779 0.844593 0.959177 0.681122 0.584651 -0.541944 0.945306 -0.567497 -0.968036 -0.918011 -0.817322 -0.500315 0.739462 -0.0547847 -0.245038 -0.455876 -0.360462 -0.487199 0.462259 -0.136673 0.128594 0.031847 -0.689763 -0.996941 0.981467 -0.603341 -0.139309 0.149557 -0.549408 0.0531436 -0.738454 -0.198087 -0.355906 -0.865752 -0.430918 -0.459536 -0.557246 -0.663276 -0.682774 0.389869 -0.345851 -0.718841 0.213494 -0.833717 0.0949154 -0.131489 -0.966325 0.0508557 -0.205514 -0.0514244 -0.412993 0.431773 0.414124 0.241024 -0.0690958 -0.32838 -0.398633 0.871745 0.591517 -0.353929 -0.253785 -0.63547 -0.11396 -0.2367 0.338854 0.151816 -0.17148 -0.465231 0.39358 0.78719 -0.432891 -0.155304 -0.47622 0.320878 0.367089 0.213519 -0.809758 0.998757 0.915976 -0.125798 -0.376744 0.212141 0.6713 0.719021 -0.34849 -0.466466 -0.572251 0.779271 -0.296351 0.72237 -0.0270024 0.182656 -0.474867 -0.813972 -0.78572 0.990384 0.296841 0.775959 -0.785105 0.421939 0.879645 0.433108 0.097779 -0.808666 0.428192 0.549041 -0.229459 -0.765208 -0.469316 0.790744 0.280755 -0.28416 -0.0654662 -0.495213 0.88634 0.381516 -0.979751 0.344873 0.444196 0.0356394 -0.481299 -0.396377 0.515213 -0.665932 -0.541322 -0.121899 -0.746774 0.706141 0.230432 0.265757 0.846875 0.964844 0.632553 -0.48187 0.0244263 0.62838 0.140552 0.352324 0.973125 0.381255 0.115739 0.374807 0.356179 -0.0409206 0.243939 0.11584 -0.954621 -0.800647 -0.221652 -0.985237 0.950042 -0.424337 -0.731978 0.905037 0.762935 0.679082 0.324229 -0.618092 0.157452 -0.309424 0.333792 -0.357489 -0.62459 0.349159 -0.46065 0.979424 0.483548 0.75152 -0.689263 0.572677 0.781963 0.28988 0.0488309 -0.781378 0.690081 -0.233312 0.474584 -0.613837 -0.537985 0.223402 0.566414 -0.0205056 -0.599385 -0.0988385 0.0538077 -0.877459 -0.553981 -0.0522696 -0.977794 0.812407 -0.175851 0.705332 -0.674036 -0.990361 0.559315 -0.47936 -0.537711 -0.69301 0.106593 0.787124 0.685482 -0.136821 -0.552698 -0.92321 0.617049 0.260022 -0.745022 -0.570353 0.514865 0.101184 -0.368229 -0.855337 -0.102419 0.646822 0.752305 -0.724034 -0.996071 -0.220957 -0.472518 -0.622142 0.856629 -0.757473 0.0663851 0.0675212 -0.41955 0.173446 0.704185 0.667418 0.764807 -0.244856 0.747395 -0.305106 -0.990735 0.884393 -0.236571 0.312941 0.000725449 0.835577 0.494903 -0.642162 -0.0457308 -0.609684 -0.932662 0.393605 -0.646058 -0.442676 0.0930845 0.0202859 -0.861432 -0.210166 0.971323 0.837993 -0.390695 0.831274 -0.586006 0.174176 -0.25476 -0.195916 0.698608 -0.701664 -0.811835 -0.785723 -0.842489 -0.784653 0.0254997 -0.100698 -0.353502 0.991997 -0.825392 -0.613764 -0.592125 -0.913944 -0.206687 0.485342 0.460655 0.957741 -0.960865 -0.0200886 -0.406034 0.0465817 0.587848 0.550402 0.274 0.940983 -0.168884 0.343098 -0.912356 -0.836452 0.60588 -0.167526 0.386085 -0.271126 -0.281249 -0.386902 -0.896426 0.13974 -0.135164 -0.426488 -0.691718 0.488713 -0.92222 0.706648 0.955254 0.464439 -0.258025 -0.884957 -0.0263928 0.3847 -0.0393684 -0.643794 0.318253 -0.782487 0.735549 -0.278709 0.111107 -0.0791884 -0.226386 0.24416 0.0162613 -0.219662 -0.864357 -0.250243 -0.513748 0.664077 -0.96776 -0.845517 -0.534591 0.526696 -0.528984 0.128883 -0.405356 -0.948365 -0.885259 0.0685154 -0.834387 0.813986 -0.629603 -0.830583 0.674343 0.479568 -0.664509 0.492563 0.127674 -0.690635 0.333875 0.564593 -0.745278 0.303363 -0.200326 -0.0507663 -0.0902321 0.767066 -0.303697 -0.442466 0.470993 0.946249 0.40972 -0.967022 0.559995 0.672247 -0.0533656 -0.980543 -0.165831 0.0171759 -0.470288 0.640724 -0.771411 -0.208983 -0.697387 -0.0716558 0.640843 -0.0468268 0.0864658 -0.400154 0.704284 0.815951 0.743907 0.556082 -0.301959 0.623975 -0.169062 0.783147 0.170929 0.663848 -0.330093 0.496037 -0.286787 0.317804 0.383348 0.0289097 0.688229 0.0562844 -0.304788 -0.478571 0.0653933 -0.978405 -0.778776 0.285054 -0.42341 0.948886 0.55327 0.958208 -0.173807 -0.705776 -0.492114 0.689668 0.980597 0.153137 -0.793953 -1.00588 -0.411178 -0.628192 -0.46594 -0.762112 0.710608 0.410308 -0.907325 0.0390336 0.4538 0.958684 -0.397361 0.137378 -0.658421 -0.670798 0.870353 -0.0730556 0.914171 0.92649 -0.301364 -0.470207 0.900658 -0.441695 -0.421548 -0.702704 -0.788089 0.353611 -0.70173 -0.0353006 -0.778053 0.800928 0.319626 0.0930035 -0.686708 -0.336648 -0.960711 0.16065 0.208263 -0.480716 0.822632 -0.17154 -0.58832 0.635497 -0.307434 0.98655 -0.817738 -0.255954 0.529192 0.0776239 0.729844 -0.210527 -0.0582073 -0.801778 0.725693 0.757219 -0.412317 0.490395 0.318658 -0.826387 -0.060384 0.598843 0.547934 0.178882 -0.566622 -0.367751 0.151647 -0.662597 -0.00643236 -0.747053 0.569109 0.677253 -0.837002 0.387282 0.521059 0.480096 0.728202 -0.0813654 -0.685284 0.474674 -0.301247 -0.19001 -0.404413 -0.589639 0.960293 -0.287082 0.259996 -0.765587 0.845014 -0.624382 0.44945 0.570857 -0.0875477 0.733008 0.292565 -0.831869 0.75468 0.391858 0.598277 0.0695768 0.840956 -0.59549 -0.144946 -0.478388 0.523216 -0.509069 -0.738968 -0.180728 0.944926 -0.576705 -0.226036 0.848857 -0.99954 -0.244124 -0.973898 0.534321 -0.0118488 0.919362 -0.221408 -0.752997 0.969992 0.448244 -0.21646 -0.941588 0.999286 -0.114644 0.960834 -0.269587 0.108059 -0.436727 0.406065 -0.0420483 -0.254533 -0.785539 0.193535 0.950241 0.79381 0.951231 -0.972064 0.33543 0.772301 0.831016 0.996638 -0.662225 -0.708107 -0.838493 -0.803329 -0.113391 0.169893 0.715832 -0.928806 0.0541601 -0.395427 0.855007 -0.0998073 0.417126 -0.300544 -0.00120501 -0.242405 -0.0200021 0.903682 -0.202075 0.200067 -0.197309 0.406816 0.505408 0.925304 -0.7497 0.826105 -0.223472 -0.182785 0.243599 -0.0401919 0.0904896 -0.580271 -0.198315 -0.079388 -0.299726 0.659145 -0.278628 0.606886 -0.287321 -0.146214 0.0356421 -0.536038 0.193751 -0.984666 -0.0978339 0.648243 0.0257641 -0.558947 0.472969 0.494807 0.406496 -0.584552 0.133854 -0.848063 -0.231647 -0.0825856 -0.423382 -0.045541 -0.951748 -0.952803 0.762345 0.115873 0.423619 0.302028 -0.274725 -0.430177 -0.109696 0.586258 -0.189328 -0.00235223 0.603302 0.382002 0.540112 0.986133 -0.312867 -0.212645 -0.428472 -0.159689 0.977536 -0.380212 0.0410654 -0.906153 0.988029 0.88941 -0.485282 -0.343523 -0.605427 0.839872 -0.486012 -0.0777558 0.516032 -0.233253 -0.649964 -0.209912 -0.320295 -0.729028 -0.835214 -0.0199074 -0.774444 -0.199273 -0.479258 -0.0479519 -0.00643 -0.293829 -0.117477 0.0830804 0.55114 0.768061 0.578056 -0.675975 0.1312 0.919571 -0.239611 -0.730764 0.45758 -0.340437 0.445708 -0.15691 0.646184 0.0105105 0.871964 0.329195 0.881141 0.725343 0.771546 -0.216944 0.847047 0.432788 0.671637 -0.861569 -0.315027 -0.275324 -0.0314268 -0.250478 -0.25632 0.713289 0.456209 0.105806 -0.97781 0.931383 0.205007 0.555884 -0.943457 0.642794 -0.923868 -0.711756 -0.675178 -0.00870653 0.391464 0.141166 0.984289 -0.337656 0.384276 0.35317 -0.15554 0.740169 0.518065 0.990934 0.405709 -0.727066 -0.786607 -0.961925 0.488654 0.634992 -0.0088527 0.138078 -0.862923 0.60385 -0.25021 -0.604994 -0.716447 0.865458 -0.280726 -0.172386 -0.232707 -0.0109761 0.277023 -0.39457 -0.659857 -0.788504 0.374433 0.802108 -0.508147 -0.182958 0.523614 -0.0781963 0.133998 -0.396145 -0.105502 -0.316791 0.182013 -0.550597 0.927632 0.694878 0.78663 -0.687773 0.592805 0.845834 -0.605947 0.650209 0.293353 -0.970385 -0.276312 -0.332525 -0.690315 0.472202 0.644031 0.756538 0.227267 0.505704 0.117955 -0.0171073 -0.608091 -0.156934 -0.391647 -0.81876 -0.712586 0.46144 -0.75433 0.789294 0.270947 -0.63798 0.323516 0.275653 0.37664 -0.267306 0.162447 -0.814843 -0.025891 0.835076 0.689651 -0.536801 -0.113675 0.295765 0.932067 -0.846417 0.0163617 -0.711686 0.365742 0.107695 -0.373478 -0.405555 -0.157858 -0.768039 -0.501035 -0.786961 -0.61967 0.23391 -0.881973 -0.548571 -0.633218 -0.838184 -0.866191 -0.839869 0.291394 0.535954 -0.158487 -0.377562 -0.469236 0.697551 -0.668746 0.656535 -0.104256 0.398329 0.0735103 0.231502 0.0266406 -0.136384 -0.128697 -0.210179 0.153556 -0.632916 -0.76852 0.812531 -0.446773 -0.0401343 -0.864054 0.012349 0.319488 -0.361848 -0.737605 -0.977508 0.770543 0.966617 0.979935 0.942723 0.187496 -0.6777 -0.481339 -0.900677 -0.47029 0.590807 0.339113 0.931216 -0.233207 0.3915 -0.582857 -0.959831 -0.329044 -0.351702 0.484024 0.888467 -0.467179 0.0560701 -0.465465 0.612429 0.140849 0.653959 -0.773813 -0.625101 0.65473 -0.488011 -0.426889 0.0635056 0.33928 -0.746092 -0.30082 -0.668105 0.505736 -0.0394092 0.112876 0.463266 -0.717599 0.508572 -0.917308 -0.634338 0.733535 0.396274 0.0134576 0.309602 -0.338261 0.335805 -0.431523 -0.346378 0.44876 -0.599716 0.541073 -0.422668 -0.593121 0.9622 -0.272344 -0.115829 0.363451 0.197903 0.965749 -0.905298 -0.218844 0.289871 -0.167463 0.856942 -0.221683 -0.119548 0.941721 -0.157126 -0.152824 0.030729 -0.032337 -0.710323 0.0886095 0.0918191 -0.795941 0.490115 0.456182 0.0761777 -0.335588 0.916848 0.947924 -0.979191 0.771704 -0.257417 0.224753 0.138617 0.755466 -0.932836 -0.274725 0.548619 -0.624236 -0.0600401 0.791889 -0.238317 0.734496 -0.864934 0.763543 0.667432 -0.250624 -0.74017 0.802008 0.661329 0.353243 0.093199 0.737299 0.565618 -0.634824 0.648854 0.0356924 0.917461 0.405543 -0.40495 0.448226 0.3406 -0.641143 -0.273818 -0.771871 0.143458 -0.48196 0.750808 -0.309888 -0.263491 -0.316334 -0.0219186 -0.272791 -0.921391 0.157848 0.815878 0.544132 0.252589 0.32352 0.293659 -0.627163 0.728977 0.355531 -0.389415 -0.531015 0.269933 -0.792553 -0.81044 -0.713496 -0.811353 0.234214 0.847193 -0.434242 0.0973575 -0.701159 0.17061 -0.978294 0.561181 0.215233 0.76706 -0.942765 0.661006 -0.210345 0.677195 0.784578 0.888654 0.897315 0.203589 0.448787 -0.090158 0.247044 0.926057 -0.710519 0.622945 -0.804654 0.191489 -0.090822 0.567784 0.071462 -0.107697 -0.924688 -0.601819 0.523066 0.502326 0.0933178 -0.659109 0.248407 -0.569017 0.738818 0.970917 -0.0710417 -0.804035 -0.81485 -0.277773 0.37456 -0.306359 -0.004007 0.914014 -0.710038 -0.923357 0.829023 0.14436 0.732753 -0.895925 -0.794034 -0.750868 0.535598 0.320083 -0.332385 0.531469 0.496712 -0.529334 0.81951 -0.162512 -0.802589 0.386084 -0.764393 0.504843 -0.240271 0.495331 -0.410013 -0.571141 0.966956 -0.877333 0.407604 -0.638805 0.873296 0.622369 0.644512 0.157076 -0.422066 -0.0237977 -0.881401 0.985865 -0.364574 0.71879 -0.569326 0.748363 0.253226 0.588873 -0.771812 -0.404999 0.14153 0.137285 0.464029 -0.123449 0.277486 0.56846 0.987561 0.845721 -0.370361 0.872308 -0.683698 0.819589 0.349197 0.645139 0.354482 0.0683495 0.353087 -0.638633 -0.00199477 0.615835 0.971016 -0.267494 0.042153 0.424941 0.175212 0.354032 -0.154749 -0.251002 0.333254 -0.343605 0.770364 -0.423549 0.00879032 -0.386402 0.495558 -0.790899 0.0235381 0.706023 -0.535251 -0.0816819 0.864728 0.580488 -0.614179 0.476945 0.781613 0.980915 -0.473909 -0.400496 -0.759608 0.436859 -0.179393 0.21766 0.383606 -1.02169 0.128164 0.939375 0.686321 -0.587549 0.88318 -0.174247 -0.203239 0.888123 0.538494 -0.479456 -0.820271 -0.158826 -0.775849 0.424557 0.809334 -0.900904 -0.90517 0.175397 -0.780803 0.0390885 -0.580633 0.103336 -0.281351 -0.477539 -0.672809 -0.121669 -0.131825 -0.0107804 -0.474027 -0.570138 -0.272948 -0.877642 -0.224538 -0.576423 -0.900808 -0.0438588 -0.259255 -0.187872 -0.436836 0.521721 0.56948 0.744886 0.830928 -0.0975681 0.565252 -0.319855 0.15607 -0.0621745 0.229805 -0.776194 -0.0659054 0.196253 -0.704578 0.205351 0.612485 -0.262025 -0.942566 0.975643 -0.348612 0.40075 0.0649767 -0.259386 0.767903 0.167651 0.53484 -0.793486 0.468588 -0.247025 -0.315884 0.615212 -0.978605 -0.163807 0.876009 0.853309 0.137644 0.172392 -0.424294 -0.7364 0.410173 -0.634983 0.100152 -0.789074 0.979581 0.675916 0.387033 0.709346 0.793639 0.38678 0.169463 0.77074 0.975849 -0.324609 0.347534 0.765577 0.146288 0.129505 0.994099 0.820938 -0.835669 0.460653 0.541109 -0.338063 0.546477 -0.337112 -0.456114 -0.328362 0.514854 0.360944 0.50949 -0.911811 0.0184521 -0.485795 0.506083 0.352424 -0.284134 0.310875 0.36205 0.256038 -0.93473 0.734475 -0.879678 -0.599481 -0.845097 -0.637792 0.571836 -0.743885 -0.589408 0.669791 -0.881309 0.525291 -0.667377 0.57878 -0.239464 0.976978 -0.392055 -0.180257 -0.595692 0.84995 -0.0712307 0.0490473 0.993116 0.123023 0.298886 0.42463 -0.0322568 0.68506 0.385147 0.205468 0.386477 0.579329 0.983737 0.695795 0.32786 0.654111 -0.0477055 -0.926515 0.798252 0.0807986 -0.470932 -0.955927 -0.883608 -0.260772 -0.0953935 0.58671 -0.262858 -0.464578 -0.931434 -0.936637 0.434869 -0.450322 0.422333 0.788307 -0.669238 0.385345 0.727141 -0.804362 -0.843735 -0.372894 -0.174044 0.0096144 0.528924 -0.537645 0.00503964 0.972628 -0.989646 -0.354515 -0.371289 0.902605 -0.801161 -0.54102 -0.113972 -0.0725264 -0.735423 -0.459206 0.489691 -0.0367503 -0.115192 -0.303015 -0.577609 0.769676 -0.372762 -0.211258 -0.484617 0.168326 -0.605064 0.757333 0.390739 -0.294895 0.645697 0.108783 0.516006 -0.339401 -0.524677 0.491192 0.290419 -0.332147 0.189987 0.900331 0.136784 -0.534966 0.554625 0.980023 -0.786431 -0.185104 0.665184 0.204116 0.1326 0.623074 0.227363 0.655735 0.986472 -0.685056 0.0515716 -0.0370064 -0.673893 0.723575 0.734227 0.823522 0.129214 0.70307 -0.114855 0.112519 0.151527 0.963869 0.898238 -0.927952 -0.0451317 -0.432509 0.700555 0.307086 -0.905072 -0.374259 0.874781 0.246229 -0.750401 0.651153 0.405703 0.642763 -0.756701 -0.311625 0.766995 0.129016 0.677367 0.722275 0.940274 -0.950703 -0.000457303 -0.891985 0.972191 0.358412 0.926138 0.586965 -0.706633 -0.363876 -0.119594 -0.838918 0.822206 0.0195316 0.579116 -0.73206 -0.730229 -0.0809271 0.621386 0.760609 0.935476 0.871845 0.0725478 -0.959556 0.0263151 -0.881043 -0.0723448 -0.985143 -0.710674 0.632254 -0.0576952 0.747695 0.104659 -0.464554 -0.139208 0.770543 -0.925375 -0.33729 -0.13712 0.47113 -0.440921 0.635312 0.00602208 -0.718913 -0.226134 -0.206465 -0.452069 -0.0497575 0.0108983 0.581206 -0.451117 -0.975339 0.769825 0.0424374 -0.780419 -0.0617794 0.819511 -0.23849 0.165969 -0.322161 -0.579603 -0.923004 0.907028 0.863289 -0.369422 0.393769 0.346694 0.244398 0.277611 0.0324176 -0.744425 -0.74526 0.660515 0.159826 -0.245676 0.785641 0.493889 -0.362521 -0.207012 0.877957 -0.305544 0.616682 -0.429521 -0.24825 0.529333 0.153062 0.416678 0.846969 -0.441943 -0.621367 -0.507076 0.997312 0.682955 0.674275 -0.920752 0.390909 -0.504243 -0.60238 -0.440287 -0.633984 0.97582 0.818235 0.462687 0.0588391 -0.42782 0.853176 -0.977242 0.0734081 0.322999 0.763308 0.596677 0.607854 -0.117513 -0.93343 -0.63309 0.0216053 0.608168 0.217128 -0.854804 -0.178709 0.546711 0.5328 -0.183597 0.338804 0.555663 -0.249676 0.345044 -0.855949 -0.321989 -0.655192 0.728947 0.452275 0.145383 0.503679 -0.625544 0.861016 -0.0887024 -0.0908603 0.0459363 -0.322294 0.666438 -0.982546 0.438166 0.698404 -0.306107 -0.924198 0.840007 0.148037 -0.0989437 -0.232487 -0.920668 -0.834371 0.354944 -0.18269 0.31611 0.215845 0.94229 -0.696764 0.850161 0.500106 0.194311 -0.764251 0.535852 -0.682154 0.749758 0.168062 -0.529461 -0.232508 0.776656 -0.289127 -0.25564 -0.979431 0.329602 0.387577 -0.340219 -0.545165 -0.691007 -0.824337 0.985383 -0.450609 0.400322 0.703641 -0.0334549 -0.974568 -0.151012 -0.617631 -0.74274 -0.246658 -0.489911 -0.573274 0.29126 0.849042 0.39926 -0.555274 0.499876 -0.890696 0.217854 0.0370308 0.160669 -0.670225 -0.928439 0.701337 0.691113 0.253737 -0.617729 0.114916 0.661709 0.422059 0.309605 -0.425129 0.728196 0.0415648 0.859463 -0.373009 -0.304784 0.485256 0.574621 0.186121 0.881667 0.494755 0.134372 -0.527366 0.403446 0.504108 0.845705 -0.160792 0.799183 0.694281 0.979079 -0.274049 0.470344 0.0355265 0.857885 0.874466 -0.637724 0.123752 0.392971 0.635837 -0.480631 -0.297259 0.16195 0.65466 0.327763 -0.693335 0.872185 -0.618248 0.813856 0.365468 0.803372 0.148847 -0.399328 -0.563753 -0.534152 0.618588 0.669739 -0.329964 -0.136374 0.830753 -0.0994045 0.218052 -0.0762378 -0.940439 0.572469 -0.0192506 0.265956 -0.778816 0.646159 0.352251 -0.316867 -0.370691 0.0299481 -0.862467 -0.693 -0.997681 0.179103 0.338645 0.0948839 0.62093 -0.017521 0.391922 -0.330327 0.418001 0.433515 0.248712 0.90327 0.448948 0.76846 0.737775 -0.463482 0.0501879 0.613903 -0.926764 -0.753276 0.636933 0.910248 0.766836 0.375103 -0.40081 0.29956 -0.256643 -0.800218 -0.168467 0.1318 -0.196271 -0.424313 -0.539806 -0.293675 -0.3034 -0.515668 -0.631954 -0.824338 -0.181326 0.404473 0.634192 0.117747 0.567201 0.172309 -0.969007 -0.470394 0.550634 0.072558 0.614665 0.613167 -0.0111615 -0.917265 0.453706 0.54131 0.392138 -0.312006 -0.346191 0.912118 0.0921673 -0.700231 -0.553275 0.93485 -0.990098 -0.444968 -0.462956 -0.399466 0.612993 -0.604795 0.797299 -0.534565 -0.224145 -0.633316 -0.309905 0.514022 0.644261 -0.0297037 -0.306396 0.965764 0.778623 0.509552 -0.00709671 0.598749 0.701661 0.115992 -0.912171 -0.861811 0.993827 -0.301371 0.772742 -0.375645 -0.935052 0.558692 0.448892 0.276847 0.189216 -0.133168 -0.782976 -0.838876 0.106801 0.870069 0.645252 0.540669 0.0968261 0.720459 -0.866134 0.469437 -0.57295 -0.668602 -0.793836 -0.515079 -0.871869 0.872428 0.754795 -0.216101 0.22227 -0.253131 -0.468823 -0.2647 0.413507 0.246346 -0.127131 -0.686519 0.711181 -0.712916 -0.0352814 -0.0647219 -0.574641 0.326271 0.899007 -0.290303 -0.100722 -0.100534 0.861851 0.840602 0.134256 0.399099 -0.640122 -0.459581 0.798885 -0.304292 0.870545 -0.272569 0.976912 0.0164952 -0.655243 0.412235 -0.202365 0.78652 -0.72852 0.937624 0.427198 -0.252635 -0.44917 -0.217236 -0.324268 -0.560388 -0.0074794 0.813704 -0.387955 -0.686696 0.184463 0.769563 -0.30511 -0.0455225 0.574447 -0.840563 0.594352 0.115534 -0.418479 0.705417 -0.965286 0.382847 0.62429 0.928396 -0.416499 0.134043 -0.859894 -0.406098 -0.258629 -0.00486753 -0.572723 -0.558453 -0.337652 0.0350205 0.817947 -0.29069 -0.626378 -0.0310787 -0.80883 0.442828 0.405648 -0.739678 0.223844 0.946357 -0.074665 -0.780435 0.770834 -0.361886 -0.538849 0.0627462 -0.121898 -0.598915 -0.148834 -0.812627 0.287089 0.264162 -0.59319 -0.179067 0.716185 -0.35232 0.0760455 0.308605 -0.206259 -0.00911314 -0.0184227 -0.640317 0.696613 -0.136855 0.785891 -0.892995 0.949936 -0.0779232 -0.534263 0.378749 -0.555241 0.718773 0.253104 -0.23249 0.316865 0.122111 -0.636907 0.375594 -0.304296 -0.742879 -0.753926 0.831588 0.942884 -0.89793 0.535968 0.617495 0.372028 0.663532 -0.341405 0.710429 -0.0539191 0.430758 0.92146 -0.387234 -0.270192 0.175361 0.477017 -0.394925 0.0794514 -0.4351 0.751144 -0.822105 -0.759986 0.232928 0.868832 0.398632 -0.17726 0.474642 -0.0247367 0.137928 0.0265546 0.291058 -0.291558 0.485856 -0.34571 0.463099 0.828414 0.776014 -0.498506 -0.306515 -0.749314 0.0467113 -0.578309 0.855465 0.472285 0.18943 -0.577883 0.455826 0.0460933 0.555442 -0.676698 0.579848 0.580632 -0.283286 0.310036 0.640458 -0.548567 0.00770491 0.872782 0.161824 0.844183 0.463855 0.0738941 -0.911619 0.115878 -0.271692 0.511289 -0.871787 0.366293 0.0451689 -0.0184767 0.419461 0.559408 0.0435848 -0.0650955 0.85326 -0.795486 0.802926 -0.206686 0.926231 -0.948887 -0.622203 0.403949 0.394373 -0.68243 -0.393418 -0.795514 -0.258253 -0.123123 0.898929 -0.984496 0.557506 0.837323 -0.571911 0.459775 0.831118 0.621908 -0.714924 -0.00164083 0.988095 0.012468 0.0841246 0.91208 -0.390338 -0.54102 0.467954 0.0115077 -0.871665 0.0644707 0.192947 0.684065 -0.61885 -0.763595 -0.66009 -0.0970075 0.100776 -0.968298 -0.632332 0.147414 -0.667535 -0.0964365 -0.141878 -0.863357 -0.589582 0.736498 -0.813954 -0.210619 -0.215713 0.932914 -0.637725 0.591186 -0.905242 0.146915 0.190887 0.365627 0.58583 -0.617559 0.396914 0.515003 0.447601 -0.681077 -0.984847 -0.238929 0.433204 0.592252 0.786655 0.803875 0.677252 -0.283365 0.260735 -0.762185 0.593072 0.790509 0.383839 -0.883404 -0.725054 -0.167493 0.213411 -0.900103 0.743052 -0.552541 -0.0141935 -0.146515 0.212271 -0.489459 0.499821 0.392744 -0.661896 0.419758 0.419589 0.0595337 0.526906 0.868164 0.994002 -0.351282 -0.642282 0.596405 0.182434 0.510593 -0.914235 0.17624 -0.507019 0.655736 0.972991 0.712996 -0.309441 -0.738004 0.0338697 0.250002 0.519126 -0.980578 0.087752 -0.257812 0.900184 0.903917 -0.084701 0.621843 0.787965 0.242984 0.153566 -0.499703 -0.427324 0.275748 0.79855 0.704449 0.325259 0.816698 -0.355932 0.415013 -0.632143 0.0399217 0.145498 0.914872 -0.254352 0.181432 -0.544799 0.840932 0.594952 -0.784168 0.653603 -0.44859 0.0672884 -0.837466 0.43992 0.387352 0.379939 0.0199114 -0.879497 -0.897596 0.100377 -0.551643 0.281682 0.431612 0.192482 -0.830882 -0.594029 -0.0201816 -0.580099 -0.712867 -0.275182 -0.278134 0.474737 0.647466 0.406212 0.478442 0.40634 0.706601 0.0336972 0.517208 -0.410463 0.0167247 0.363223 -0.248544 -0.852667 -0.801457 0.183595 0.624509 -0.722278 0.939738 0.0766624 -0.369406 0.763423 -0.803034 0.262687 -0.0632365 -0.945073 0.275097 0.664017 -0.457625 -0.492081 0.294152 -0.20293 0.125072 0.287132 -0.377036 -0.126825 0.633467 0.971677 0.0881606 -0.0547646 -0.0148316 0.0819828 0.255384 -0.137901 -0.490933 0.92593 -0.867139 -0.922042 -0.558649 0.425038 -0.214652 0.188733 -0.957214 -0.970516 -0.0182226 -0.11692 -0.300497 0.346503 0.718896 0.688355 0.797357 0.796961 0.422173 -0.633412 -0.375276 -0.398631 -0.238367 0.708561 0.623847 -0.973711 -0.270827 -0.177862 -0.387457 -0.18715 -0.693597 0.248061 0.798532 -0.495604 0.35455 0.080193 -0.79661 0.168091 -0.331487 -0.438091 0.179631 0.0841749 -0.786396 0.183388 -0.177052 -0.34106 0.110949 0.188 0.0319776 0.940548 0.61732 -0.100208 -0.803616 0.455738 0.926901 -0.949717 0.804762 -0.939605 -0.880901 -0.117625 0.904918 0.947826 -0.985124 0.328868 -0.231963 -0.387974 0.411219 0.68307 -0.0093245 0.995389 0.254617 0.182533 -0.327085 -0.0494322 -0.475903 -0.497926 0.387429 -0.0581636 0.399719 -0.22088 -0.952561 -0.880979 -0.60479 0.310725 -0.902054 -0.68498 0.955312 0.881947 0.884081 -0.221645 0.286274 0.621102 -0.924304 0.355287 -0.052681 0.865203 -0.972618 0.66458 0.627681 0.264307 -0.528146 -0.618344 0.761926 0.352523 0.940191 0.2785 -0.675645 -0.819379 -0.501355 0.914558 0.580354 0.3845 0.789498 -0.49395 -0.767718 0.260521 0.128909 -0.742415 0.0785337 -0.176447 0.757616 0.452242 -0.0660905 -0.803381 -0.378504 0.562159 0.37475 0.737077 0.0292597 0.629779 0.756301 0.0975685 0.781147 -0.346373 0.658885 -0.631189 -0.7408 0.843426 0.392569 0.772337 -0.427667 0.379203 -0.573451 -0.768011 -0.289765 -0.00950606 -0.636972 -0.561899 0.923855 -0.306109 -0.580516 -0.712805 0.250787 0.681601 -0.508476 -0.543147 0.680116 0.737547 -0.28645 -0.888729 -0.521473 -0.124157 0.645815 0.879578 0.408017 0.0215716 0.528048 0.66999 0.540358 -0.738748 -0.209916 0.564505 0.747745 -0.223351 0.0814799 0.390409 0.0987154 0.107667 -0.166648 0.688294 -0.559694 0.72864 0.76753 0.67708 -0.000480373 0.845755 0.356588 0.0766201 -0.651395 0.88443 -0.143846 0.692117 0.502447 0.41215 0.162943 -0.225952 -0.490466 0.756049 0.891693 0.991489 -0.333658 -0.882772 0.645058 0.674457 0.617172 0.642938 -0.994863 0.803516 -0.799788 -0.504128 0.675118 -0.897736 0.546769 -0.338637 0.429657 0.159049 0.0895555 -0.935214 0.00468897 -0.790942 -0.682029 -0.165822 0.559844 -0.511967 0.641151 -0.130836 -0.0132109 -0.0852537 0.518112 -0.457059 -0.846481 0.443102 0.212616 0.444581 -0.695651 0.0936331 0.354418 0.587958 0.922332 0.360317 -0.893669 0.220886 0.568267 -0.490895 0.885808 -0.907987 0.84627 -0.42552 0.493043 0.864237 0.964021 -0.862417 -0.958326 0.224676 -0.882356 -0.639035 -0.508019 -0.242902 0.832702 -0.556586 -0.450774 0.484927 -0.686957 0.898179 -0.0207258 -0.921462 0.324999 0.635532 -0.653106 -0.732083 0.676706 -0.737499 0.800488 -0.224401 -0.094663 0.177097 -0.0685426 -0.286748 -0.300879 0.412651 -0.511109 0.983834 0.891832 -0.202167 -0.454067 -0.479298 0.254142 0.0370785 -0.19719 0.38049 -0.993301 -0.499728 -0.716625 0.866098 -0.716804 0.759786 0.761318 0.755652 0.962401 -0.641452 -0.846863 0.193815 0.00554986 -0.259884 0.374792 0.841413 0.926066 -0.379792 0.108392 -0.0362919 0.187591 -0.32751 0.188604 0.66642 -0.727175 -0.187731 -0.270321 -0.969036 0.556319 -0.534977 0.794603 -0.438976 -0.657843 0.529514 0.470698 -0.497694 0.19042 -0.202091 -0.992366 -0.368452 -0.392651 0.278223 -0.4338 -0.515662 0.0618514 -0.653367 0.105422 -0.224285 -0.582506 -0.25705 -0.017299 -0.413024 0.657872 -0.961723 0.353795 -0.144034 0.566441 -0.802628 -0.830722 0.631226 -0.546304 0.520807 -0.750367 0.150755 0.38217 0.54851 -0.153128 -0.836211 -0.695494 0.0911564 0.205491 -0.506851 -0.789777 -0.650687 -0.645435 0.810946 0.594217 -0.599792 0.0967573 -0.271122 -0.446253 -0.774973 -0.30732 -0.328231 0.945704 -0.287495 -0.7128 -0.199445 0.927515 -0.263181 -0.104849 -0.949975 -0.637253 -0.762139 -0.938049 -0.0914367 0.71675 -0.320793 -0.631154 -0.563157 -0.360697 -0.838259 0.664185 0.327803 -0.833396 -0.890214 0.526483 0.677379 -0.442173 -0.247801 0.918499 -0.233809 -0.409547 -0.424298 0.154489 -0.923518 -0.151101 0.650791 -0.208741 -0.296633 -0.790078 -0.372189 0.232302 -0.680647 -0.327903 0.0883486 0.043336 -0.59849 -0.739586 -0.423673 -0.0901308 -0.306044 -0.0425069 -0.0436733 -0.668671 0.2519 0.889921 -0.445518 -0.202368 0.279732 0.792483 -0.227896 0.01571 0.148767 -0.241231 -0.422634 -0.949619 0.443799 0.796479 0.107228 -0.719901 0.9586 -0.63789 0.346956 -0.856927 -0.577097 0.59406 0.336225 0.232286 0.923615 -0.0526498 -0.296831 0.0594404 -0.281663 0.616721 0.654305 -0.704874 0.910716 0.247391 -0.0146719 0.740687 0.193422 0.631288 0.606456 0.840858 -0.188088 0.652342 0.341465 -0.540316 -0.708157 0.193844 -0.574761 -0.0542931 -0.309988 0.0075563 -0.0856471 -0.752341 0.749018 -0.335907 -0.18043 0.739323 0.977461 -0.844358 -0.542462 0.494701 0.485558 0.717421 -0.633586 -0.130541 -0.155178 0.901714 -0.471419 -0.709598 0.612043 -0.680559 -1.00606 -0.894256 -0.387271 0.0246467 0.217733 -0.450675 0.426126 0.182499 -0.151309 0.083529 0.0595982 -0.458716 -0.816486 0.168313 0.318283 0.591249 0.308172 0.519482 -0.0718965 -0.409478 -0.965166 -0.578044 -0.845991 0.77183 0.424422 -0.393047 0.877479 -0.0151795 -0.43696 0.0512336 -0.868325 -0.16895 0.626126 -0.792091 -0.302699 0.576087 -0.148674 0.951394 -0.173919 0.0474712 0.494448 -0.714914 0.910902 0.276775 -0.00172971 -0.558399 -0.204419 0.187841 0.451377 0.313689 -0.439707 0.882516 0.898419 -0.692335 0.204991 0.0832737 -0.555068 -0.367686 -0.0771573 0.332972 0.236639 -0.82949 0.215755 -0.407852 0.221176 -0.178796 -0.376951 -0.710867 -0.137348 -0.752938 0.307001 0.377846 0.250405 0.504125 0.398603 0.238687 -0.583759 -0.316245 -0.118297 0.0751748 0.654025 0.579259 0.843465 -0.289536 0.170743 -0.789253 0.873672 0.817236 -0.0386875 0.875731 -0.0997847 0.671438 0.213992 0.707772 -0.970133 -0.664589 0.991563 0.0645655 -0.943194 -0.0429886 -0.405046 0.571556 -0.370434 -0.881717 -0.485651 0.983326 0.857693 -0.815619 -0.850059 0.612751 -0.635936 0.851787 0.747344 0.303496 0.37786 -0.319821 0.390779 -0.839962 0.660024 -0.326425 -0.870247 -0.64877 0.183477 -1.03409 0.342623 0.201989 -0.542558 -0.632049 0.972044 -0.086439 0.176806 -0.504324 -0.0601959 0.418867 -0.842182 0.365687 0.332033 0.375065 0.82026 -0.954611 0.803333 -0.480064 0.495823 0.632416 -0.726098 -0.894631 -0.982482 -0.405461 0.856419 -0.0044533 0.09639 0.559974 0.240005 0.950588 0.157733 0.141656 0.241352 -0.050034 -0.440006 -0.461377 0.378059 -0.403183 0.0821558 -0.534049 0.0246069 -0.132965 -0.507717 -0.73358 -0.039007 -0.855032 0.240172 0.00811871 -0.858979 -0.585096 -0.138877 -0.945318 0.443641 0.163911 0.591084 0.406753 -0.408079 0.660329 0.296993 -0.669309 -0.211259 0.164632 -0.353956 0.567466 0.484649 0.655782 0.974374 0.359243 0.0630225 0.0269674 -0.171978 -0.569272 -0.792921 0.640421 -0.825733 0.796592 0.148886 0.365647 0.974747 0.162503 0.806631 -0.279653 -0.464088 0.0820963 0.0460139 -0.852083 -0.810535 -0.64716 0.394074 0.137465 -0.670719 -0.00331853 -0.507208 -0.450409 0.509567 -0.838445 0.300179 0.0815139 -0.353612 -0.243501 -0.242502 -0.855321 0.0372743 0.718095 -0.452163 -0.186675 -0.976772 0.489866 0.668431 -0.27943 -0.260003 0.0252407 0.611394 0.0606341 0.657286 0.842211 0.366334 -0.244467 -0.287992 0.463042 -0.670655 -0.767768 -0.0891228 0.763067 -0.400091 -0.100572 -0.262782 0.927121 0.0535015 -0.367699 0.182767 0.687989 -0.619383 -0.272859 0.932457 -0.737819 0.441095 0.0961807 -0.387959 -0.142964 -0.974466 0.762079 0.259669 0.352877 -0.112403 0.809524 0.466595 -0.653172 0.940565 -0.504107 0.56742 -0.136946 -0.966931 -0.718344 -0.255927 -0.0650787 -0.642871 -0.196703 0.557062 0.988678 -0.874271 0.671314 0.409259 0.826842 -0.754782 -0.683559 0.282157 -0.710756 -0.325813 0.0697809 -0.779323 0.283798 0.0801644 -0.673053 0.719044 0.74808 0.245407 0.424107 0.377378 -0.706192 -0.136705 -0.725323 -0.874811 -0.532795 0.202013 0.704583 -0.849836 -0.802149 -0.871482 0.983423 -0.0583749 -0.551146 -0.0612762 0.808735 0.786607 -0.797812 -0.531115 0.191296 0.169313 -0.618891 0.320222 0.47048 0.68738 0.672393 -0.84224 0.710672 0.231063 0.00581468 0.733045 -0.0690186 -0.551877 -0.38787 0.726503 -0.90864 0.197888 0.367832 -0.195424 -0.0648958 0.743526 -0.628516 -0.273165 -0.276588 0.00882232 0.140008 0.398619 -0.751956 0.752089 -0.156071 -0.723437 -0.361238 0.337152 0.647623 0.953047 0.485807 -0.144538 -0.612752 -0.613307 -0.0119776 -0.735118 0.440292 0.309276 -0.616634 0.468881 0.884696 0.0907252 0.189926 0.641858 -0.826751 0.651897 -0.465806 0.79219 0.787113 0.751923 0.250984 0.0687571 -0.357697 0.65385 -0.0116524 0.725219 -0.920653 0.394961 0.780521 -0.0139978 0.13012 -0.586401 -0.594804 -0.24935 0.0491453 -0.862089 0.00370973 0.241743 0.0387797 0.8605 -0.80635 0.00200231 -0.224867 -0.523904 0.748428 0.408344 -0.718194 0.811058 0.429328 -0.434664 -0.769399 -0.169314 0.393383 -0.108324 -0.108998 -0.902254 -0.283512 -0.0553253 -0.128023 0.486442 -0.549652 -0.589192 -0.789415 0.710397 0.762145 -0.658554 0.85931 0.000789612 -0.0665069 0.0482414 0.182201 0.575634 0.56589 1.05304 -0.320846 0.398971 -0.471973 0.178313 0.623303 -0.748327 0.657181 0.725991 0.299086 0.87526 -0.0160929 -0.164538 -0.026081 0.039165 0.684552 -0.0749114 0.097398 -0.483907 -0.096507 0.425356 0.328857 0.0211179 -0.382754 0.016994 -0.0285064 -0.629892 0.490497 -0.0682726 0.34695 0.310524 -0.310639 -0.319846 -0.613314 -0.719049 0.810702 -0.217239 -0.53092 0.576835 0.623105 0.884453 -0.235583 -0.332622 -0.556629 0.260336 0.755837 -0.127712 0.258315 0.521802 0.596469 -0.0281444 -0.257763 0.380294 -0.734352 1.00609 -0.206649 -0.554847 0.022282 -0.765869 0.493795 0.470235 0.0744508 -0.673857 -0.0171426 0.360452 0.816887 -0.59893 1.00698 0.282196 -0.85502 0.911216 -0.155352 0.931555 0.834184 0.813293 0.545178 0.840493 -0.801949 -0.245268 -0.317067 0.294342 -0.0656572 0.0480704 -0.735954 0.5846 0.22851 0.0554971 -0.734584 0.159664 0.464257 -0.334112 0.473791 -0.223464 -0.845614 0.228346 0.420202 0.276838 1.01113 -0.640905 -0.749269 0.105046 -0.602382 -0.98582 -0.132643 -0.783642 0.0491328 -0.900073 -0.394923 -0.542053 0.163478 -0.753927 0.343686 -0.518353 -0.358836 0.426121 -0.908725 0.633769 -0.990283 0.023347 -0.117055 -0.0849017 0.570083 0.00424612 -0.365852 -0.591827 -0.434407 -0.0974903 0.864676 0.0778975 -0.414492 0.342851 -0.575322 -1.00267 0.269885 -0.250968 -0.204621 -0.813551 -0.125053 0.398496 0.265944 0.918669 -0.626467 -0.301911 0.643448 -0.922084 -0.613388 -0.592672 1.01127 0.743129 -0.747023 0.767969 0.068792 0.862547 0.139223 0.273243 -0.0399301 0.197885 -0.0220571 0.879033 -0.561755 0.226711 -0.843492 -0.544418 0.786756 -0.719646 -0.661283 0.164419 0.424364 -0.714922 -0.163666 -0.756191 -0.692354 -0.38001 -0.958138 -0.647436 -0.74299 -0.911949 0.378955 0.0369229 0.285701 0.0969142 0.345135 -0.69715 -0.128067 -0.915983 -0.870618 -0.491488 0.260403 -0.97492 -0.391718 0.569622 -0.508004 0.530715 -1.01208 0.0571239 0.449617 -0.687169 -0.331811 -0.869241 -0.285884 -0.605036 0.805012 -0.718752 -0.171012 0.413149 -0.848229 -0.154804 0.90114 0.228025 -0.140539 -0.192705 -0.765401 0.783802 0.706039 -0.209934 -0.982622 -0.0467689 0.157718 -0.146984 0.804997 0.319193 0.937298 -0.81487 0.694598 -0.680149 -0.933059 0.350268 0.271864 0.880763 -0.0352267 -0.559328 -0.491477 -0.847101 0.920355 0.591813 0.310934 0.280472 0.559593 -0.617062 0.0328485 -0.130425 0.706507 0.321288 0.745195 -0.883132 -1.05544 -0.437559 0.705421 0.682982 0.0205139 -0.629518 0.972043 -0.489871 -0.984866 -0.88232 0.788844 -0.139434 0.449288 0.254405 -0.674707 -0.570731 -0.753671 -0.209078 0.836333 -0.747453 -0.575727 0.647803 0.254347 -0.0904522 0.897852 -0.261545 0.760281 -0.503226 -0.81099 -0.488778 0.689574 -0.150524 0.634692 -0.7966 0.860037 -0.587578 -0.950831 -0.933072 -0.451308 0.518355 -0.242834 0.00295732 0.0576448 0.584793 0.938303 0.0084031 -0.333375 0.425855 0.382112 -0.0658042 -0.787525 0.6494 -0.530148 0.792619 1.03943 -0.257601 -0.581336 0.357686 0.90078 0.608183 -0.34547 -1.019 -0.656629 -0.68183 -0.464148 0.322209 0.209068 0.449919 -0.0187966 -0.910217 0.172859 -0.983175 0.779991 -0.810985 0.277457 0.543678 0.416045 0.565655 -0.18342 -0.259764 0.547449 0.745175 -0.359956 -0.0332516 0.0818913 -0.798102 -0.577373 -0.40666 0.489401 -0.614389 -0.221298 -0.60817 0.427511 0.475262 -0.362566 -0.856101 -0.360092 -0.92271 0.70971 -0.790489 -0.664624 -0.875134 -0.512945 -0.123644 0.016035 -0.0331461 -0.499767 0.268493 -0.0503011 -0.435759 -0.471703 -0.208817 0.641408 0.472738 0.595913 -0.603294 -1.02262 0.336293 0.350222 0.734231 -0.502679 -0.0102862 0.315729 0.642169 0.903073 -0.781609 0.385921 0.911818 -0.96452 1.01908 0.11142 -0.233485 -0.666173 0.594054 0.775611 -0.189145 0.357481 -0.242277 0.302703 -0.349811 0.165802 0.815296 0.751987 -0.461816 -0.758653 0.416153 0.625071 -0.794192 -0.375948 -0.0193679 -0.892508 -0.122323 -0.138363 0.403858 0.261721 0.303524 -0.683624 -0.871326 -0.453526 -0.140962 -0.386264 -0.0698609 0.37495 -0.217416 0.679929 -0.469628 -0.549701 0.498274 0.112696 0.736399 0.271183 -0.302343 -0.104194 -0.863993 0.606267 0.554026 0.519494 -0.641239 -0.0141624 -0.411679 -0.491247 -0.810883 0.695733 -1.09016 -0.700297 0.366455 0.962537 -0.172981 -0.201507 -0.770009 0.881375 -0.832011 0.951781 0.749472 -0.512289 -0.973911 -0.144741 -0.68379 -0.112002 0.152601 0.840891 -0.650153 -0.450188 0.324372 -0.452456 0.246548 0.950907 0.409487 -0.248184 -0.118565 0.724242 -0.96204 0.88818 0.227788 0.853387 0.807163 -0.557051 1.03177 0.0120847 -0.553613 -0.447716 0.0015072 -0.0911351 0.278682 -0.0345309 0.248276 0.757579 -0.704943 0.502214 0.455645 -0.274939 -0.359571 0.602695 -0.776966 -0.874669 -0.569837 0.950163 -0.673795 -0.245369 -0.0224986 0.288916 0.0426963 0.53458 0.203808 0.749025 -0.220834 -0.687497 -0.963473 -0.529969 0.967359 0.133165 -0.200781 0.476934 -0.51388 -0.0106338 -0.178324 -0.689883 -0.514662 -0.410757 0.167307 -0.366541 0.209688 0.696938 0.0349055 -0.607955 -0.401037 -0.0258927 -0.612367 0.33087 -0.875579 0.261098 0.51969 -0.930991 0.985701 0.0866036 0.247801 0.663844 -0.329831 -0.574239 0.403917 -0.11786 0.577892 0.632183 -0.850174 -0.111148 -0.0587091 -0.122618 0.390848 -0.520677 -0.414638 -0.895296 -0.642026 0.375335 -0.400243 0.845401 -0.396139 0.767063 0.916247 0.855492 -0.538888 -0.780396 -0.77654 -0.00781817 0.88436 -0.967781 0.0647725 -0.503887 0.150089 -0.325962 -0.941412 0.914853 0.67435 0.00665067 0.270401 -0.259953 -0.670534 -0.547335 -0.242986 -0.793553 -0.787588 -0.068208 -0.132422 0.525111 -0.614871 -0.500426 0.583226 -0.389827 -0.00364731 0.368905 0.10952 -0.339501 -0.872412 0.0777252 -0.536409 0.62135 -0.116072 0.541988 0.815329 0.727943 -0.84261 -0.458552 0.280545 0.226784 0.759407 -0.459294 -0.366833 -0.491287 0.412417 -0.791026 -0.391411 -0.412351 0.118546 -0.64313 -0.641602 -0.0806226 -0.0600476 -0.701743 0.998135 -0.182572 -0.44745 0.808744 0.733571 -0.301337 0.257135 0.103101 -0.143305 0.14295 -0.384929 0.898552 -0.276215 -0.0681663 0.42808 0.594671 0.829684 0.553932 -0.953559 -0.801174 0.954714 -0.753823 0.144682 0.762969 -0.0685157 -0.844477 0.0614118 -0.767204 0.110177 0.787612 -0.887155 0.603619 -0.714684 -0.343936 0.821733 0.165915 0.953779 0.307702 0.707373 -0.373931 -0.507033 -0.663664 -0.259743 0.330523 0.161017 -0.632989 -0.23938 -0.313986 0.946564 0.868743 -0.77239 -0.453554 -0.547954 -0.502412 0.932017 0.452579 -0.841699 -0.0476398 0.505764 -0.328626 -0.518103 -0.304612 -0.762572 0.493545 0.667192 0.79457 0.924537 0.969477 0.0748108 0.337995 -0.705166 0.70379 -0.45362 0.373951 0.937606 -0.694887 0.205517 0.0652529 -0.184068 0.0336654 -0.233944 -0.588209 0.725109 -0.893455 0.479131 0.0423113 -0.246704 0.343347 -0.261359 0.396988 -0.98743 -0.28292 0.699441 0.977826 0.177326 -0.0355623 0.370034 0.497075 0.246934 -0.710169 -0.982197 -0.196986 0.742174 -0.805542 -0.481807 -0.479938 0.599756 0.517652 -0.61048 -0.653773 -0.00436412 -0.949526 0.892544 0.137301 0.522671 -0.906984 -0.746217 -0.572799 0.249978 -0.464296 0.34878 0.423454 -0.206928 -0.608292 0.123863 -0.302107 -0.843002 -0.209472 0.91064 -0.440623 0.111991 0.598689 0.594466 0.00628883 -0.0458256 -0.970299 -0.274539 0.926913 -0.338126 -0.742408 0.861044 -0.222231 -0.523449 -0.176813 0.129785 0.49231 0.864929 -0.68978 0.186469 0.325247 0.268223 -0.113476 0.662404 -0.622231 0.79423 -0.0734803 -0.124097 -0.251643 0.653748 0.319768 0.88804 0.629783 -0.349068 -0.842031 -0.067641 -0.29143 -0.426909 0.350549 0.306472 0.234016 0.498515 0.22401 -0.793975 -0.32844 -0.820568 0.932662 -0.258436 -0.657621 -0.838492 0.0340113 -0.526464 -0.392092 0.0734551 0.547765 0.499605 0.00961349 0.0448553 -0.989829 -0.92108 -0.319276 -0.328653 0.631666 0.304995 -0.463713 -0.889123 -0.570101 -0.615337 0.553562 -0.26909 0.971835 -0.523669 -0.878688 0.770258 0.118188 0.316932 -0.150829 0.287389 0.146253 -0.926614 -0.854777 0.626921 -0.820188 0.498781 -0.732992 -0.914691 -0.0453373 -0.959915 -1.04022 0.369264 0.697196 -0.315237 -0.329428 -0.47577 0.0140406 -0.0529396 -0.500488 -0.621621 0.200837 -0.67309 0.683437 0.336204 -0.548427 -0.771191 0.0316586 0.284843 0.0175447 0.695997 0.214485 0.690506 0.442781 -0.259837 0.361669 -0.961602 -0.671308 -0.206962 0.535169 -0.107204 0.514619 -0.787628 -0.656635 -0.228617 0.583611 -0.26328 0.804957 -0.115072 0.583552 0.385154 0.881166 -0.176692 0.174358 0.963438 -0.658707 0.714378 -0.64872 -0.769019 -0.547375 -0.251569 -0.645651 -0.0108608 -0.671739 0.278321 -0.471926 -0.201246 0.868945 -0.0852243 0.755732 -0.00842173 0.70603 0.548394 -0.496627 0.701928 -0.761684 -0.0593327 -0.713979 0.905534 0.51014 -0.582315 -0.264352 -0.0864183 -0.615329 0.0934061 0.145057 0.172572 -0.0920228 0.321786 -0.570228 -0.342875 -0.807756 -0.747892 0.140785 -0.688534 0.102233 -0.752245 0.248951 0.407824 -0.871771 0.654066 -0.0715251 0.630078 -0.464659 0.380159 -0.168772 -0.832684 -0.745071 -0.68255 0.656935 0.428448 0.677788 0.0047106 0.659934 0.401912 0.609597 0.0613878 0.34424 0.0497318 0.412596 0.732108 -0.891866 -0.966207 0.987889 -0.583516 -0.763344 1.01224 0.92295 0.579613 0.760541 -0.857102 -0.756606 0.0835363 -0.337297 0.283438 0.930849 0.879049 0.501053 -0.186136 0.874749 -0.467351 0.134804 0.303024 0.0492984 -0.795265 -0.857605 0.656359 0.190614 -0.698042 -0.319101 0.0929947 -0.420528 0.429607 -0.267034 0.952454 0.635477 0.132203 -0.965541 0.714381 -0.661877 -0.759628 0.465337 -0.243852 0.665759 0.70431 0.730609 0.629127 -0.324944 0.844358 0.466852 0.0437862 0.501023 -0.907971 0.604064 -0.303406 0.605487 -0.625063 -0.655131 -0.937554 -0.793649 -0.735396 -0.266614 -0.618732 -0.733908 -0.769032 0.100561 0.498236 0.102633 0.283898 -0.465763 -0.844371 0.299091 0.0347436 -0.0347305 -0.503147 -0.583754 -0.627221 -0.323354 -0.461365 -0.956175 0.957919 0.496238 -0.545458 0.305089 0.618734 -0.727432 0.34071 0.945962 0.273836 -0.606773 0.289424 0.152909 -0.857411 -0.769415 0.0564967 -0.88739 0.580496 -0.337593 0.266386 -0.768728 -0.884587 0.0192729 0.0454828 0.994496 -0.109556 -1.05555 0.487845 0.703775 -0.852831 -0.140988 0.447949 0.116866 -0.965191 -0.805986 0.128993 0.203839 0.22633 0.852036 0.0135826 1.01667 -0.592364 0.559385 0.990453 -0.450063 0.809873 -0.720691 0.431186 0.273403 0.345584 0.147859 0.202047 0.791523 -0.606525 0.493913 -0.704617 -0.587009 -0.331589 -0.0705309 -0.692727 0.801235 0.737295 -0.0917374 -0.726789 -0.899861 0.370646 -0.340733 0.755357 -0.388035 0.497133 -0.384157 -0.393081 0.686215 -0.658321 0.415631 -0.548327 -0.601677 0.851043 -0.529083 0.361778 0.634799 -0.52655 -0.552316 -0.956173 -0.136722 0.354626 0.916882 -0.954432 0.253818 0.825668 0.760865 -0.818462 0.202981 0.621951 -0.93171 0.730794 0.675544 0.791151 0.386337 -0.309545 0.402468 0.490762 -0.887393 0.082153 0.768273 1.01987 -0.485301 0.504882 0.334067 -0.808304 -0.522063 -0.182637 0.360661 -0.651905 0.8047 0.541426 -0.236562 0.802965 0.00342734 0.433336 -0.00177192 -0.663226 0.321536 -0.726153 0.785426 -0.777025 -0.111059 0.859192 0.0916684 -0.382002 0.834951 0.855178 -0.528219 0.913043 0.174429 0.167155 0.238921 0.245233 0.633516 0.468455 0.8585 -0.0606516 0.374911 0.48619 0.815443 -0.387371 0.36887 -0.379645 -0.571124 0.177005 0.466961 0.117832 -0.614755 0.632402 -0.11889 -0.980943 -0.0149654 -0.774776 0.130602 0.781032 1.03004 0.283444 0.312788 -0.85415 0.430237 -0.145658 0.855105 0.559924 -0.42739 0.0669806 -0.267663 0.934144 0.73783 -0.0868119 0.686553 -0.231692 0.379706 0.606395 0.722644 0.310808 0.174616 0.156018 0.634235 0.55281 0.808066 -0.706645 0.471487 -0.0570716 -0.742258 -0.888269 0.34372 -0.205532 -0.593412 -0.209751 -0.884388 -0.642826 -0.699378 -0.421686 -0.317362 0.266667 -0.373782 0.089534 -0.0452635 1.00722 0.831575 0.751568 -0.247627 -0.53872 -0.488361 0.361311 -0.165487 0.406752 -0.583995 -0.98765 0.750699 0.375919 -0.0935746 0.0868199 -0.48596 -0.490522 0.0801019 0.902913 -0.426424 -0.597419 0.804982 -0.54238 -0.0321593 -0.0374006 0.574852 -0.388621 0.217271 0.825643 0.0770142 -0.0209413 -0.173466 -0.0312791 0.700388 -1.004 0.760929 0.0170221 -0.75901 0.438305 0.337012 0.875315 0.819842 -0.790201 -0.0619591 -0.211026 0.299148 0.848308 0.0865477 -0.838114 -0.940948 -0.259132 -0.414305 0.144473 0.797867 0.366007 -0.715494 0.276258 0.716091 -0.571454 -0.453979 -0.158088 0.945775 -0.194172 0.695311 0.675965 -0.151602 0.599309 -0.648125 0.361612 -0.877125 0.00197147 0.264129 0.532098 0.109241 0.846596 0.837782 0.715298 0.263021 0.42429 -0.81855 0.576993 -0.205848 0.558858 -0.421227 0.0996952 -0.927125 0.661202 -0.650398 0.422974 -0.227813 0.703918 -0.198602 -0.446374 0.791664 0.119294 1.06083 -0.364709 -0.753867 0.97178 -0.976466 -0.601561 0.622553 -0.217944 0.477437 0.510032 -0.711478 -0.855181 0.72449 0.384419 0.509562 0.972578 -0.329773 -0.850731 -0.933041 -0.86559 -0.279038 0.448626 -0.297177 0.197957 0.790474 0.234511 0.805131 -0.269762 -0.0230725 0.644893 -0.744076 -0.325921 -0.0976447 0.0037968 -0.783546 0.199162 -0.160965 0.396377 -0.0476039 -0.819022 -0.776075 -0.464878 0.184408 -0.29483 -0.588409 -0.796872 -0.778054 0.0978676 -0.553793 -0.653384 -0.555058 0.20987 -0.128562 0.526215 0.314853 0.402259 0.839226 0.315759 -1.0071 0.061758 0.893052 0.367267 -0.375203 0.585903 -0.544399 -0.458996 0.0879321 0.824939 0.633209 -0.813728 -0.138165 0.528771 0.150267 -0.624524 -0.665646 0.847853 -0.097258 0.316785 0.8031 0.287667 -0.025639 -0.668742 -0.453475 0.0939904 -0.597625 -0.044905 0.171855 0.142925 0.877228 -0.89167 -0.540516 -0.89471 0.88661 -0.335448 0.761199 0.0778965 0.558244 -0.927707 -0.895777 -0.968359 0.0734786 0.944575 0.434572 -0.989064 0.125087 -0.585834 0.532598 -0.666291 -0.429582 -0.599741 -0.359536 -0.380523 -0.141948 -0.0370419 -0.501046 0.340131 -0.161269 -0.253903 -0.48948 -0.359885 0.233568 -0.93957 0.646688 -0.694547 -0.38724 0.680229 0.191022 -0.931395 0.314627 -0.622785 0.627719 -0.261848 0.107781 0.0383835 0.6439 0.359251 -0.151553 0.53553 0.93134 -0.107772 0.919805 0.116117 -0.545816 0.513951 0.671113 0.343244 0.621574 -0.79853 0.69512 0.533872 -0.893852 0.487407 -0.446863 -0.470605 0.0944844 0.903281 0.2536 -0.404744 0.272211 0.0548738 0.427146 0.947828 -0.979809 -0.903798 0.27131 0.226527 -0.0937998 0.768442 0.513613 -0.263601 0.279899 -0.885257 -0.36268 -0.347105 -0.437002 0.29894 0.441118 0.27878 0.892525 0.780796 0.778754 0.248836 0.307719 -0.43986 0.130814 -0.411499 0.576148 0.967285 0.759152 -0.000242131 -0.352418 -0.184712 0.270269 0.787745 0.0681419 -0.643723 -0.551818 -0.145931 -0.136304 -0.0466326 -0.736716 0.51808 -0.131933 -0.495784 -0.777078 -0.7383 -0.285412 0.462748 -0.444998 -0.721576 0.964303 0.205697 -0.652206 0.682744 0.848523 -0.740507 0.440723 0.436655 -0.316827 -0.384477 0.591612 0.650761 -0.0996366 -0.543064 0.214317 -0.19046 0.254087 0.621483 -0.280387 -0.0975136 -0.589003 -0.680533 0.48584 -0.267302 0.936097 -0.145585 -0.0586667 -0.754057 0.912888 0.341574 -0.902705 0.55192 0.126249 0.892378 -0.238895 -0.79833 -0.327406 0.0940157 -0.49938 0.398 0.75829 -0.502243 0.261317 0.521192 0.728097 0.023391 -0.599112 -0.599608 -0.479094 0.345226 0.239828 0.187392 0.402705 -0.78813 -0.72019 0.428188 -0.697614 -0.809424 -0.929745 -0.761273 0.288718 0.974741 0.654221 -0.761156 -0.637294 -0.244661 -0.101764 -0.866655 -0.728815 0.927535 -0.31419 0.909142 -0.314261 0.982271 -0.83315 -0.978644 -0.820873 0.837274 0.157789 0.915741 -0.00569494 -0.998622 -0.578469 0.643289 0.995382 0.419574 -0.730941 0.463713 0.658771 -0.310628 -0.620208 -0.878665 -0.85947 -0.744985 0.202872 -0.192865 -0.427815 0.00274826 -0.481028 -0.0678778 0.161586 -0.826538 0.766523 -0.450861 -0.873335 0.600586 0.0255929 0.204724 0.448461 0.150675 -0.562113 0.465897 -0.232996 -0.475829 0.594623 -0.12937 -0.502265 -0.679143 -0.851823 0.0512517 0.385678 -0.798502 -0.508072 -0.380417 -0.703066 -0.0199097 -0.366914 0.601894 -0.791327 0.237888 -0.0565506 -0.659981 -0.573451 -0.263935 0.875384 -0.505476 0.118933 -0.96238 -0.178672 0.618377 -0.152134 -0.144817 -0.509373 -0.636061 0.399202 0.713271 0.112432 -0.374644 0.493565 -0.155273 0.367031 0.246033 0.532566 0.715667 -0.0827942 0.787559 -0.765052 -0.367818 0.186711 0.609075 -0.354046 0.627768 0.508654 -0.980723 -0.535599 -0.969482 -0.302759 -0.571707 -0.121597 -0.518273 0.851229 0.241966 0.977916 -0.771952 -0.94165 0.65006 0.0640435 -0.388371 -0.56659 0.753458 -0.375716 -0.590753 -0.445274 0.620369 0.586036 0.222524 0.059953 0.701183 0.945362 0.817601 -0.58743 0.594635 -0.88615 -0.67408 0.0992653 -0.119434 -0.957873 0.417104 -0.00566731 0.806687 -0.317184 0.909617 0.4307 -0.536906 0.775066 0.84585 -0.990942 0.173834 -0.0066289 0.650763 -0.55994 0.61254 -0.170192 -0.676473 -0.358036 0.966557 0.462774 0.093164 0.646747 0.471378 0.715632 -0.0284724 -0.7766 -0.986518 0.839212 -0.685909 0.901139 -0.738658 0.889425 -0.915485 0.0150109 0.00542817 0.812257 0.766996 1.00937 0.465495 -0.46042 -0.394172 -0.539293 -0.518402 -0.123716 0.431171 -0.344383 0.86451 -0.785233 -0.179982 0.0405923 -0.653371 0.154534 -0.180261 -0.473258 0.968492 -0.452841 0.420059 -0.991077 0.309504 -0.140904 -0.0358979 0.191095 -0.752747 -0.813062 -0.0154671 0.823324 -0.538112 -0.100896 -0.0495526 0.294584 0.205973 -0.941365 0.219453 -0.693444 0.667182 0.496206 0.34674 0.628431 -0.510414 -0.319258 0.581044 0.271302 0.455913 -0.377515 -0.466995 -0.695102 0.0902554 -0.374232 -0.905334 0.832312 -0.679488 -0.615594 0.215529 -0.813438 0.934726 0.167984 -0.577585 0.313118 0.224679 0.400694 -0.287389 0.156358 -0.479243 0.304937 0.678108 -0.247824 -0.635127 -0.380067 -0.81931 0.329873 0.416927 0.126064 0.648378 0.476407 0.40025 0.329402 0.334226 -0.317294 0.970316 -0.614518 0.563571 -0.16326 -0.169311 0.504547 0.143922 0.570856 -0.220715 -0.603507 -0.661598 -0.486174 0.799347 0.44463 -0.38465 0.437929 -0.373104 -0.949884 -0.270964 -0.506402 0.758686 0.898778 -0.716661 0.940924 0.788946 -0.358319 -0.188839 0.61268 0.0118599 0.431287 0.291102 0.206279 -0.211062 -0.13305 0.923499 0.734041 -0.407355 0.725556 0.900267 0.574251 0.482698 0.951252 -0.0181707 0.922571 -0.758172 -0.449107 0.0882934 -0.958893 0.864438 -0.0584247 0.605412 -0.733512 -0.369819 0.394781 -0.10844 0.813136 -0.523229 0.217164 -0.616468 0.684804 -0.597869 0.745465 0.143899 0.832624 0.654275 0.322478 0.150781 0.22918 0.388222 0.17193 -0.329761 -0.000225957 0.755156 0.0889688 0.895109 0.934628 0.280994 -0.510329 -0.796889 0.641659 0.507636 0.472203 0.414336 0.548782 0.477005 -0.569804 -0.569681 -0.417179 0.376379 -0.203943 -0.639672 -0.115704 -0.617564 0.461028 -0.497558 -0.712478 0.13455 -0.517439 0.480123 -0.533228 0.107863 0.386878 0.908642 0.597131 0.00162354 0.0531582 0.509415 -0.338106 -0.769431 -0.824587 0.208955 0.753122 0.726464 -0.0867439 -0.323875 0.0181266 0.701121 -0.145965 0.43852 0.731306 0.496441 -0.961979 -0.396435 0.945359 0.701005 -0.520467 0.43817 -0.501335 0.1928 0.748865 0.851957 0.878534 -0.00892487 -0.0680611 0.77415 -0.821095 -0.443257 0.924786 -0.777107 0.285337 -0.217476 0.0266876 0.0753851 -0.9377 0.607825 -0.518196 -0.925219 0.580481 -0.752622 -0.510198 0.85681 -0.540368 -0.685445 0.743094 -0.471776 0.428043 -0.196456 0.926821 -0.32912 -0.909134 -0.584054 -0.801166 -0.163558 0.759591 0.831037 0.449238 0.1516 -0.433781 -0.378115 0.407538 0.664046 0.56932 -0.43518 0.976723 0.241119 -0.338683 -0.831103 -0.483781 -0.4773 -0.783647 -0.779254 0.738921 -0.0871097 0.00709502 -0.518393 0.7601 0.0742256 -0.755602 0.160949 -0.53275 0.98091 0.643902 0.708892 0.233844 0.232328 0.837882 0.670375 -0.119687 -0.28406 0.171289 -0.967703 0.440837 -0.133405 0.647323 0.954265 -0.681084 -0.38411 0.0791523 0.142273 0.299398 0.00669205 -0.615288 -0.56084 0.365083 0.524324 0.469945 -0.427512 -0.622054 0.590873 0.00250178 -0.782642 -0.326782 -0.151048 0.692844 -0.893261 -0.86212 -0.370409 -0.184122 -0.497013 -0.412238 0.489626 -0.907282 -0.700396 -0.639023 0.109187 -0.579101 -0.891563 0.506801 -0.980761 -0.688226 -0.0709186 0.733757 0.521401 -0.603057 0.465853 0.468392 0.473326 0.0334389 0.176074 0.417478 -0.60531 -0.00590038 0.36969 0.58346 0.632486 0.715989 0.913808 -0.817781 -0.056818 -0.260665 -0.512821 -0.713879 -0.172349 0.63613 0.190967 -0.350961 0.713768 -0.269633 -0.422978 0.718359 0.0593095 -0.758261 0.900823 -0.0764076 0.577235 -0.458807 0.751736 0.202631 -0.647666 -0.639727 -0.880347 0.84906 -0.995284 -0.804637 0.845798 0.598608 -0.905445 -0.0900514 0.805566 0.742048 -0.165833 -0.576061 0.398892 0.792827 0.563137 0.801057 0.975754 0.0865216 -0.864844 0.0100426 -0.935431 0.126565 0.513212 0.208646 0.193321 0.8129 -0.079139 -0.695677 -0.684696 0.286418 0.492962 -0.41543 0.997174 0.626541 0.968714 -0.835903 0.194247 -0.440109 -0.294731 0.175918 0.443972 0.680262 0.266085 0.240249 0.907904 0.600633 -0.394021 -0.367813 -0.149487 0.671602 -0.238328 -0.469531 0.384872 -0.146478 -0.24416 0.694357 -0.0620838 -0.187343 0.412571 -0.561328 -0.946327 0.554285 0.309268 0.0332858 0.305249 0.823364 -0.568436 0.877495 -0.500939 0.0555922 0.569316 -0.264135 -0.558102 -0.903662 -0.319975 0.130442 0.974802 -0.1598 0.237309 -0.54142 -0.76951 0.186568 -0.933244 0.233281 0.690477 -0.163902 0.278805 -0.972113 0.332704 -0.0230213 0.577252 0.861618 -0.0431807 -0.709264 0.666751 -0.620802 0.0447499 0.929353 -0.94049 -0.531298 -0.0143297 -0.738653 0.464493 -0.421958 -0.81184 0.231957 -0.557385 0.872032 0.191369 -0.447342 0.980939 -0.864109 -0.249788 -0.379176 0.700478 0.825198 0.759006 -0.579869 1.01517 -0.869965 0.552104 -0.34113 0.0537243 -0.744294 0.918219 0.931431 -0.600341 -0.646583 -0.732939 -0.993777 -0.699102 0.0270798 0.379064 -0.201188 0.776867 0.913244 0.652721 -0.610652 -0.881707 0.115123 0.567708 0.454959 -0.918015 -0.0332362 0.800156 0.510544 -0.946404 -0.353549 0.462924 0.366185 0.404214 0.226293 -0.89192 0.393248 -0.180781 0.0531942 0.286674 -0.0782683 -0.469019 0.320413 1.00173 0.432616 -0.380801 0.640844 0.229538 -0.485361 0.408615 0.115695 -0.799116 -0.0884042 -0.0533516 -0.190897 0.0773578 -0.675836 0.0404971 0.291707 -0.252136 0.677352 0.920673 0.349345 -0.853571 -0.624738 -0.236773 -0.144186 -0.865966 -0.137249 -0.0485874 0.722595 -0.334869 0.0730432 0.6413 -0.406722 -0.0797098 -0.712692 -0.181176 -0.520981 0.123494 -0.235755 0.450883 -0.62077 -0.288987 -0.26129 0.931047 1.01849 -0.194072 -0.293462 -0.715532 0.819332 -0.886456 -0.767997 -0.148284 -0.713884 0.210084 0.0062021 -0.707697 0.145692 0.292479 0.370565 0.437865 -0.150452 -0.268644 0.712043 -0.653043 -0.954903 0.696168 -0.892601 -0.927089 -0.750868 0.792915 0.0855538 0.670814 -0.897523 0.445802 -0.225653 -0.746628 0.597851 -0.280699 0.596458 0.432556 0.403947 -0.606705 0.832002 -0.68405 -0.8327 0.318785 -0.0294356 0.138586 -0.476313 0.541059 -0.359041 0.821615 -0.249266 -0.939893 0.605557 -0.382346 -0.800974 1.07893 0.479775 -0.486048 0.376941 1.15364 0.96491 0.867734 0.193068 -0.289534 0.30848 -0.278284 0.560288 0.589502 0.817113 -0.650757 0.587963 0.276262 0.748476 1.00518 0.196341 -1.06096 -0.649132 0.308797 0.709307 -0.0390801 0.319434 -0.652502 -0.650212 -0.616097 1.03871 0.56866 1.03341 0.559041 -0.0484399 0.779755 0.639956 -0.446933 0.502424 0.750822 0.213866 -0.892731 -0.37518 -0.975744 -1.01724 -0.140129 0.644787 -0.380469 -0.57479 0.28779 -0.136299 -0.910358 -0.322272 0.172114 0.631915 -0.862268 0.098659 -0.946958 -0.400414 -0.00132222 -0.188525 -0.142821 0.955641 0.898137 -0.347015 0.835119 -0.207554 -0.414692 0.625643 -0.600373 0.613456 0.484376 0.787493 0.235368 0.742736 -0.257256 -0.33305 0.29126 0.222959 -0.832851 0.723677 -0.122766 -0.34246 1.00819 -0.435122 0.963521 0.730712 -1.02317 -0.878593 0.132445 -0.437146 0.869579 1.21952 0.154499 0.431217 1.29733 -1.03122 0.957655 0.320547 0.322499 -0.261353 -0.447008 0.242058 0.104142 0.031117 -0.246371 0.775936 0.14817 -0.480172 -0.406867 -0.487036 -0.568617 -0.199068 0.448315 -0.639054 -0.26565 0.757617 0.65549 -0.243808 0.680449 1.1257 0.0826144 0.661611 -0.106848 -0.0502801 -0.151213 -0.108348 -0.525694 0.0223952 -0.903948 0.835225 -0.650239 0.0532191 -0.149502 0.727144 -0.319379 -0.491782 -0.731541 -0.718248 0.222257 0.0506604 -0.777671 -0.593398 0.803089 -0.0670869 0.965397 0.327641 0.74757 0.462169 0.109822 -0.569206 -0.379153 -0.250635 0.33523 0.838186 0.551861 0.785026 0.793436 -0.4338 -0.475561 0.15213 1.00416 0.974539 0.310498 -0.814167 0.0799835 -0.756981 -0.749976 -0.0159983 -1.03994 -0.39839 -0.512433 0.859907 0.871487 -0.506321 0.951623 -0.0773514 0.370042 -0.746846 0.167883 -0.279552 -1.15597 0.347049 0.509099 -0.2294 -0.627164 0.472575 -0.168623 0.824112 -0.595809 0.564997 0.248572 -0.166528 0.539002 0.779311 0.453988 0.311676 0.464602 -0.264775 0.115344 0.106376 -0.118701 0.821944 -0.0783226 -0.12732 0.071394 0.221659 0.112971 0.263088 -0.112861 -0.113954 -0.846712 -0.304115 0.773516 -0.737418 0.95566 -0.990375 1.05243 0.125501 -0.224006 0.543329 -1.17178 -0.911041 0.499541 0.301728 0.463431 0.739252 -0.446816 -0.207564 0.884126 -0.251493 0.439281 -0.458547 -0.411482 0.748261 -0.290753 -0.843574 -0.359808 0.777492 -0.334178 -0.118754 -0.105861 -0.374423 -0.136434 -0.157989 0.996902 0.512608 0.0295253 1.01141 0.105372 -1.03617 -0.143645 -0.498972 0.0721671 0.402359 -0.917332 0.622041 -0.242334 -0.354632 0.795103 -0.778318 0.0373739 -0.378678 0.0807034 -0.166787 -0.531396 0.153436 -0.227783 0.0445474 0.337238 -0.349698 -0.733671 0.864439 -0.205651 0.928479 -0.724652 -0.884232 0.0487713 0.948187 -0.678701 0.765646 -0.104302 -0.273774 0.938831 0.681165 0.0261662 0.798902 0.831346 -0.642412 0.331076 -0.115654 -0.462603 0.366219 0.387743 -0.793499 1.14529 -1.20908 -0.0172149 -0.382891 0.831779 0.495968 0.967707 0.099848 -0.150341 -1.11099 1.23351 1.12971 0.231979 -0.643309 -0.347907 -1.01045 -0.323992 -0.141041 -0.723273 -0.508179 -0.489306 -0.887819 -0.0898001 -0.895085 -0.218246 0.480715 -0.180298 -0.655393 0.824669 0.610585 -1.13829 0.934335 0.269731 -0.533798 -0.0483255 -0.139624 -0.0935188 -0.569769 0.0816883 1.14646 1.2075 0.848141 -0.767231 -0.216549 0.559442 0.235523 -0.857197 0.839374 -0.0132578 0.122749 0.549258 0.499978 0.694307 -0.228204 0.885701 0.922859 0.247248 -0.862498 -0.035519 -0.660076 0.768312 -0.246839 -0.207066 -0.131429 0.28184 0.0761346 0.45751 -0.477525 -0.120392 0.524015 0.901629 0.90861 -0.160656 -0.83211 0.059718 -5.71897e-05 0.225798 -0.048132 0.629219 0.390381 -0.593481 0.542753 0.494556 1.05421 0.644168 -0.25376 -0.656978 0.0962382 0.643262 0.506549 0.471552 -0.711885 0.756017 -0.814447 0.232153 -0.784258 0.933188 -0.0382127 0.799664 -1.09909 -0.582772 0.137973 -0.240122 -0.932 -0.913148 -1.11604 0.361521 -0.0346906 0.195168 0.236141 0.407148 -0.573296 -0.409896 -0.121194 -0.0498323 -0.556426 0.25482 0.0682877 -1.00795 0.0505887 1.07009 -1.33891 -0.62622 -0.307877 0.0075725 0.870845 0.017619 0.059194 -0.50195 -0.297094 0.645156 -0.534383 -0.587461 -0.287925 -0.498576 -0.563079 -0.55932 -0.0584047 -1.07573 0.148394 -0.0902964 0.477904 0.247719 0.972323 0.01595 -0.148143 -0.943329 0.564772 0.158763 0.361921 0.301436 -1.29192 0.668221 0.845739 0.180479 -0.732306 -0.487893 -0.0975261 -0.0622146 0.319101 -0.835428 -0.118952 0.242793 -0.517351 -0.13803 -0.295041 -0.71545 1.01625 -0.523663 0.562404 0.260127 1.31198 -0.468083 0.796851 0.329405 -0.443175 -0.868217 0.893461 1.31132 0.256697 0.271301 -0.0802362 -0.837122 0.58602 -0.739195 -0.0235381 -0.79327 -0.0958823 -0.195347 0.190581 0.416793 -0.433728 -0.355277 -0.1085 -0.574402 0.506939 0.70952 0.277991 -0.634102 0.395255 -0.604805 0.413947 0.654571 -0.193331 -0.954144 -0.64078 0.11094 0.0889875 0.982927 -0.835201 0.16492 0.647957 -0.230421 -0.419718 -0.474206 -0.00324615 -0.713578 0.188824 0.609781 -0.737955 -0.0972051 -1.03796 -0.348868 0.522056 -0.213083 -0.0233841 0.503362 -1.42953 -0.726713 -0.252487 0.0208594 0.925309 -0.43687 0.58565 0.288467 -0.726728 -0.516778 0.0706869 0.868656 1.27808 0.650401 -0.558042 0.342342 -0.682625 1.08997 0.762738 0.629619 -0.439779 0.686691 0.26609 -0.280219 0.193299 -1.22185 -0.435381 0.280897 0.461617 0.80943 -0.310155 -0.478699 -0.0935631 -1.00689 -0.279042 0.779125 0.955789 0.826726 -0.843982 0.189229 -0.00611715 -0.489166 -0.699794 0.291924 0.687978 0.688278 0.161792 0.11524 0.915302 -0.550921 -0.62133 1.06471 -0.295668 0.549575 0.434002 -0.347723 -0.679754 -0.896491 -0.634436 -0.859495 -0.313785 -0.150272 0.147127 1.33022 0.59464 -0.869316 0.128708 -0.560151 0.555125 0.746589 -0.0156177 0.817923 -0.433933 -0.483199 -0.65618 -0.0362772 -0.593927 -0.118948 -1.16201 -0.389019 0.185717 -0.963504 0.39741 -0.22308 -0.158122 -0.809705 0.475022 0.303477 -0.753078 0.0111804 -0.0777488 -0.708502 -0.00715648 -0.358468 -0.633762 -0.0271449 -0.699166 0.752357 -0.787634 -0.335671 -1.24575 -0.837312 0.613359 -0.349213 -0.661951 -0.152454 -0.477453 0.390972 -0.504552 0.847299 -0.237534 -0.635572 0.866944 0.461224 1.03245 -0.936187 -0.0736667 0.805486 0.482875 0.054468 0.041872 1.10752 0.993711 -0.683126 0.0148864 -0.827041 0.424573 0.14152 -0.123963 -0.331317 1.1769 -0.309161 -0.829726 -0.295283 -0.0190387 1.11067 -0.333466 -0.657607 0.576954 -0.406198 0.563586 -1.21441 -0.569601 0.600989 0.0474233 0.898121 0.245532 -0.706724 -0.353012 1.3094 0.644878 0.820225 0.000327541 -1.02609 1.07951 -0.164249 0.500424 -0.973626 0.464039 -0.150875 1.07393 0.742794 0.0590295 -0.0104462 -0.646626 0.335362 -1.16775 0.792145 -0.275831 -0.901428 1.11256 0.414702 -0.178554 -0.314476 -0.213838 0.312955 -0.924625 -0.533251 -0.367304 0.388405 0.94102 -0.9005 0.633749 -0.0325424 -1.0686 -0.893156 0.551964 0.887192 0.542375 0.531117 0.883663 -0.352888 0.425991 0.457749 -0.238118 -0.935411 -0.888664 -0.396868 0.349983 -0.183734 -1.21437 -0.00722555 -0.296124 1.07057 0.916157 -0.454108 -0.91411 0.563679 -0.026613 -0.464132 0.411511 -0.249414 0.107137 0.598166 -0.800846 0.0753361 -0.107175 -0.223096 0.17268 0.471851 0.654023 0.40188 -0.75133 -1.61374 -0.876705 -0.553359 -0.340106 0.136106 0.163404 -0.618747 0.619577 0.44331 -0.850844 0.435422 0.553681 -0.508338 0.750818 -0.711868 -0.371647 -0.708991 -0.335683 -0.100743 0.191257 0.648283 -0.301227 0.0318193 0.0695332 1.23216 0.34723 0.669129 -1.00077 -0.77767 0.299313 0.306574 -0.348547 -0.299972 1.06447 0.247151 -0.315286 0.227745 -0.584176 -0.269099 -1.29731 -0.452843 0.292395 -0.492331 -0.543935 1.13931 -0.464998 -0.738932 -0.330928 -0.497504 -1.00794 -0.369231 0.576824 1.6361 0.30573 0.157305 0.545728 0.527254 1.10028 -0.485253 -0.983402 -0.328718 -0.531662 0.854767 -0.767373 0.86541 0.121697 -0.491607 -0.167535 -0.643195 -0.168073 0.335665 -0.0436411 0.951049 0.692914 0.130404 0.714301 0.876684 -0.757537 -1.12311 -0.0937229 1.43727 -0.376119 -0.622277 -0.563613 0.765852 0.029291 0.461462 -0.397033 -0.539317 1.11311 -0.382838 0.799573 -0.714113 0.495785 -0.80711 0.978399 -0.422 -0.325886 -0.0472707 0.356443 -0.243791 -0.270209 -1.11404 0.782359 -0.232792 0.291218 -1.37954 -0.179705 -0.885675 -0.110043 0.340472 -0.0123762 -0.00392475 0.713908 1.06676 0.173659 0.675116 0.792009 -0.34584 -0.638294 0.390099 -0.0511111 0.669186 0.300429 -0.363573 1.02183 0.4781 0.575183 0.732411 0.0566594 0.348628 0.302128 -0.117667 0.931876 -0.387828 1.00282 0.0342516 0.770766 -0.709443 -0.577375 0.261651 0.110988 -0.117613 -0.282482 -0.171591 -0.943172 -1.03555 -0.00391901 -0.377143 -0.624716 -1.03598 -0.0645489 1.9236 -0.585756 -1.01276 0.782915 -0.323783 -0.731383 0.382333 0.847954 0.296457 -0.0337547 0.884919 0.747633 1.24591 0.926744 -0.308969 0.900088 -0.814629 -0.726505 -0.96774 -0.631405 0.823357 -0.305666 -0.00310738 0.253168 0.873292 -0.390001 0.233215 -0.508997 1.78453 0.827439 0.0500507 -1.32253 0.421385 0.649213 0.708383 0.327761 0.278614 -0.0492786 1.0273 0.863553 -1.09781 0.725246 -0.149054 0.768887 -0.084448 0.731238 0.0901772 -0.468971 -0.579827 0.148544 -0.114832 0.707117 0.0889806 0.857317 0.0139488 1.10098 -0.734573 -0.875661 -0.870201 -0.220716 -0.656512 0.695227 0.0227831 -0.831867 0.767273 0.728845 0.315293 0.498779 -1.78836 1.02159 -0.879296 0.92515 0.0571024 1.12215 1.2948 -0.587129 -0.814367 0.86807 -0.211357 0.077515 -0.114533 -0.358225 -0.698601 -0.600572 -0.714955 -0.481597 -0.386457 0.0320946 -0.408742 -1.09606 0.78787 -0.905016 1.28915 0.113976 -1.0772 -0.335802 -0.696721 0.950474 -0.250927 -0.427719 1.21951 -0.0886315 -1.09008 0.403708 0.704632 -0.0379247 -0.293973 0.0531586 0.0388244 -0.534179 0.512727 -0.465322 1.25 -0.463421 -0.660071 -0.497246 -0.149278 0.571737 -1.17545 0.124496 0.538992 0.752399 -0.10633 -0.706827 1.20646 -0.784503 0.0680377 -0.739164 0.0814581 1.26128 -0.358097 -0.927986 0.869703 -0.680753 -0.165438 -0.920192 0.423122 0.421347 0.216314 0.178956 -0.960293 -0.814128 0.0875352 -0.858996 0.722199 -0.116722 0.602747 -0.0828901 -0.860086 0.555916 -0.930011 0.68819 1.32309 -0.857196 0.599962 0.0589455 0.617759 -0.903525 0.822251 0.475043 0.376164 0.652103 -0.425136 0.737664 0.0681441 -0.205353 -0.401803 -0.698908 -0.970486 -0.0332215 -0.336953 -0.74758 -0.548158 0.230805 0.372002 0.489506 -0.858793 1.33112 0.397214 0.433621 0.341077 0.277176 -0.266171 -0.876031 0.371306 0.128632 -0.752884 -0.287332 -0.0198506 0.6772 -0.580937 0.367128 0.737737 0.021242 -0.836936 -0.578726 0.0485917 -0.915681 -0.0726114 0.125876 0.909401 0.343868 -0.483181 -0.538431 -0.0605133 -0.0626821 -0.681659 0.164502 -0.149868 -0.245538 0.318168 -1.13769 1.115 0.268032 -0.538838 0.382146 -0.179204 0.0774633 -1.86 0.207893 -0.546265 0.255812 -0.543596 -0.588097 0.668422 0.00446416 0.332415 0.486968 1.74717 0.133706 0.376419 -1.25233 0.896996 0.719158 -0.50176 -0.0176625 -0.0659067 0.652657 0.66 -0.60625 0.605244 -0.89028 -0.621066 0.0156386 0.721135 0.386432 -0.0421007 -0.864356 -0.49752 1.26399 0.122104 -0.296571 0.610264 0.775585 -0.178481 0.993987 -0.440847 -0.864479 -0.366928 0.482107 0.554509 0.132076 -0.00498645 -0.696302 0.715979 -0.349874 -0.247341 -0.663997 -1.0981 1.39876 -0.39621 0.417654 0.670772 0.154165 -0.123032 -0.279924 -0.346107 0.999835 0.249251 0.814734 0.225743 -0.20845 -0.432748 -1.01239 0.44633 -0.995653 -1.07703 -0.100686 -0.182392 0.710336 0.0575057 0.312324 0.588484 0.827008 0.309955 0.628015 -0.0635735 0.281383 -0.158568 -1.08675 0.94588 -1.38525 -0.2695 0.182708 0.183242 -0.0697763 -0.739011 -0.810137 -0.574221 -0.546843 0.712769 -0.302199 -0.179043 -0.368566 0.666698 0.425 -0.375155 -0.809713 -1.95221 0.330089 -0.429247 -0.886065 -0.901057 0.826193 -0.235637 -1.54649 -0.918689 -0.820243 1.8524 -0.573401 -1.06987 0.412728 -0.750455 0.425072 -0.826652 0.683334 0.174257 0.182401 -0.0778714 0.10033 -0.0194062 0.510732 -0.244033 -0.950765 0.196171 -0.492038 0.411577 -0.120187 -0.275517 -0.379864 0.898015 -0.151411 0.156044 -0.299201 -0.842096 0.879081 0.752047 -0.983547 0.0167309 0.273987 -0.314986 0.0280832 -0.453825 0.241838 -0.605814 0.713374 -1.3191 -0.595255 -0.243842 0.394144 -0.90958 -1.18146 0.697051 -0.435519 -0.0605749 -1.11385 0.747419 0.893203 0.31352 -0.256931 -0.055789 0.114319 0.0616065 0.409068 -0.254569 0.493108 0.514107 -0.869685 -0.697223 0.184669 -1.08756 -0.572123 0.378319 -0.107804 -0.846038 0.00293632 -0.576889 0.705348 -0.733158 -1.18292 0.726624 -0.617678 0.0851744 0.402267 1.45177 0.599388 0.829347 -0.872601 -0.119694 0.22448 -0.727161 0.137178 0.320161 0.287246 0.836136 1.72531 -0.237686 -0.560494 -1.03574 0.632991 0.468985 -0.012677 -0.359379 -0.723283 1.13156 -0.393787 -0.286519 0.490904 0.172269 0.628154 -0.826253 -0.63102 -0.741858 0.82211 0.44407 -0.032862 0.847204 -0.773578 1.10895 -0.325777 -0.218874 -0.268069 -0.253379 -0.526367 -0.580023 -0.516151 -0.788918 -0.897397 -0.190636 1.427 0.234101 0.782166 -0.860748 -0.976158 -1.01391 0.131942 -0.466326 -1.523 -1.00117 -1.26169 -0.0188456 0.428099 -0.315364 -0.698837 -0.905166 0.90364 -0.346097 -0.723786 -0.356955 1.02482 -0.043064 -0.330923 0.199813 -0.882638 0.466912 -0.698679 0.954024 0.376067 0.871498 1.08983 -1.30608 -0.187224 -1.19563 0.308016 0.521419 0.418018 0.583545 0.223195 0.21049 -0.333008 -1.43873 0.681338 0.361678 0.0273616 0.0308871 0.339846 0.365612 -0.789265 0.998648 -1.0365 -1.14461 -0.591718 0.0444557 -0.804167 -0.143136 0.780212 1.25101 -0.850385 -0.684251 -0.503944 0.326501 -1.21443 -0.739319 -0.265434 0.667006 1.0858 -0.449752 0.0517453 -0.743236 0.165579 0.539051 0.624257 1.16268 -0.510857 -0.232255 -0.595337 -0.220958 -0.785746 -0.242344 -0.418309 -0.641358 0.0271289 0.829778 0.332814 -0.323892 0.737496 0.383915 0.644439 -0.51126 -0.119356 -0.0111599 -0.985866 0.520865 1.34524 0.222063 0.632269 0.0836529 0.500921 0.389825 1.44599 0.921559 1.17943 -0.102419 0.838488 0.122354 0.40387 0.567708 -0.195745 0.132607 -0.548607 0.924021 -0.255369 -0.214104 -0.337247 0.316542 -0.581183 -0.0368439 0.480665 -1.04767 1.35201 0.0552109 -0.409644 -1.1818 0.103168 0.0101727 -0.68958 0.390497 0.80575 0.458525 -0.16927 -1.42631 -0.0390178 -1.02254 -0.652445 -0.485065 0.204538 -0.393551 -0.0875835 0.524971 0.48451 0.334536 0.844451 0.687622 -0.396365 -0.0748824 0.675338 0.669643 -1.14041 0.22946 -0.563782 0.465616 -0.654355 -0.751056 0.167422 0.711063 -0.000841712 -0.333944 -1.37139 0.342566 -0.713324 -0.416887 -0.766369 0.787358 0.290844 -0.362943 0.621854 0.833059 -0.942154 0.0525784 -0.392561 -0.616007 -0.108327 0.660252 0.989165 0.796701 -0.642423 -0.236082 -0.56754 0.652103 -1.40672 -0.331815 0.424157 0.419755 1.31882 -0.341949 0.782998 0.826754 0.134446 1.31141 -0.828898 0.485178 -0.0889982 -0.539299 1.11029 -0.733455 1.20234 0.846705 0.673016 -0.00505893 -0.0443686 1.50807 0.472848 -0.868654 0.0143247 -1.34291 0.0846019 1.41026 -1.16277 -1.21077 0.267312 0.367781 1.13593 0.775423 0.779698 -0.567166 0.924344 0.729356 -0.748864 0.967005 0.411825 0.159434 -0.600025 -0.854315 0.41999 -0.289541 -0.70049 0.789132 0.586877 1.08659 0.263961 -0.189999 0.253 -0.80302 -1.05917 -0.718135 0.443729 -0.448133 0.241664 0.602062 0.711195 -1.14861 -0.275833 0.555161 -0.64832 -0.587355 -0.135739 -0.0687349 -1.22225 0.525969 -0.0677275 0.469817 -1.11369 0.301125 -0.367284 0.652373 0.0829365 -0.128586 -0.652597 1.01798 -0.29213 -0.113319 -0.363673 -0.758902 0.620188 0.730776 1.43683 0.619751 -0.735532 1.13117 0.757715 -0.879349 0.614552 0.869192 -1.00348 -0.139472 -0.678706 0.103267 -0.796219 -0.861394 -0.775737 0.454164 0.509192 0.839847 1.15661 -0.226939 0.264295 -0.4775 -0.214694 0.963347 -1.06084 -0.00242103 -0.358274 0.706615 0.813547 -0.087899 0.213234 -0.140908 0.706213 0.125533 -0.543705 -0.316554 -0.122879 0.56722 0.244218 -1.06387 1.30873 -0.337701 -0.195387 0.120183 -0.586813 -0.652024 0.421908 -0.0951716 0.541072 0.687172 0.581802 0.697822 0.223202 -0.214423 0.849406 0.901073 0.587781 -0.0354821 -1.0874 -0.0316735 -0.600707 0.0200882 0.769795 0.244894 0.804546 -1.45116 -0.208064 -0.489872 -0.365485 -0.673412 1.17175 0.159966 -0.16434 0.751049 -1.01986 -0.140405 -0.394204 0.848482 0.743204 0.523131 0.896262 0.900084 -0.952279 -1.10559 -1.25271 -0.318874 -1.27088 0.195116 -0.352669 0.277337 -0.705983 -0.646828 0.392838 -0.0124851 -0.48387 0.305316 -0.428501 -0.231021 -0.558696 0.0848795 0.949144 0.109442 -0.0369865 0.521938 0.76873 0.0208256 0.632363 -0.496748 0.0882483 0.264516 -0.233865 -0.221486 -0.0891635 -0.561513 -0.794467 0.075563 -0.301269 -0.212459 0.746149 0.341291 -0.471485 -0.720838 -0.673067 0.90574 0.194824 -0.74949 0.0912209 0.040788 1.44634 -0.695932 0.927201 1.31959 0.385495 0.710258 -0.226492 -0.0952957 0.702033 0.145376 -0.0357854 -0.780054 0.426886 0.0961013 -0.0394865 -0.799317 -0.989238 0.0152375 0.614492 -0.672945 0.0109391 -0.804785 -0.608562 -0.211487 -0.494731 -0.411169 0.371183 -0.17085 -0.288731 -0.191866 0.0381956 -0.125802 0.107555 0.602676 -0.241329 0.624381 1.01396 -0.31762 0.955886 -1.32834 -0.402314 -0.207069 -0.357754 -0.460972 0.537713 0.551102 -0.134249 -0.636839 -0.48575 -0.191204 0.695491 0.567699 0.527067 -0.678142 0.502773 0.502233 0.296244 -1.04871 -0.840259 0.298699 -0.634339 1.49174 0.100771 -1.08229 -0.687768 0.743944 0.814152 -0.148374 0.0807706 0.229976 0.531398 0.073969 -0.781061 -0.230248 -1.09286 -0.873072 -0.944086 0.153474 -0.121818 0.0603451 -0.616161 -0.544093 0.612024 -0.459567 -0.172196 0.11869 -0.703863 0.141153 -0.218417 -0.233937 0.290211 -0.0420964 0.586451 0.371231 -0.606903 0.80607 -0.446358 0.441565 -1.40071 1.05922 0.483369 0.117222 0.876621 -0.226176 -0.737028 0.776733 -1.11978 -0.94633 -0.255076 -1.22365 0.547858 0.709837 -0.607961 -0.742719 0.493527 0.596505 0.0212586 -0.488838 0.604884 0.369726 0.137853 -0.617677 0.565943 0.710516 0.133972 0.218685 0.83153 -0.265669 0.952713 0.362526 0.0620111 1.1076 -0.855413 -0.166532 1.49504 0.796501 0.528581 0.354877 0.772892 -0.740269 0.776834 -1.37517 0.555534 0.361975 0.276424 0.346837 0.691525 -0.0924432 0.218893 0.103672 -0.549721 -0.736963 0.0946975 0.150207 -0.597902 0.120052 -0.694201 0.876018 0.579369 1.22888 0.32678 0.82022 0.414302 -0.872254 -1.10796 0.786999 -0.811698 -0.183091 0.105414 0.561122 -0.187158 0.39017 -0.821942 -0.323922 -1.22853 0.786505 0.171628 -0.0474711 0.650655 -0.38527 -0.513529 -0.265877 -0.551439 0.75801 1.0454 -0.768349 -0.851227 0.739711 -0.122695 0.828593 0.381994 0.464522 0.231061 0.0897796 0.570795 0.511491 0.827732 -1.13111 0.271898 0.636753 0.361839 -1.15188 -0.699486 0.189819 0.405802 0.825887 0.0771731 0.477466 -0.519507 0.17937 -0.396484 -0.66005 0.389555 -0.384129 0.475813 0.0150624 0.692975 0.419367 -0.547176 0.61501 0.0960129 -0.341249 -0.862636 -0.839228 -1.02878 -1.08774 -0.0265828 -0.0246644 0.98639 -0.361266 -0.119645 -0.552952 -1.40456 -0.170845 0.539119 0.455736 -0.779251 -0.804018 0.672859 0.0423651 -0.479162 -0.154228 0.532101 -1.0438 -0.880396 0.720312 0.65902 0.682228 0.730672 -0.146543 0.659257 -0.450714 0.265915 -0.849318 -1.07125 0.571047 0.330514 1.09965 -0.0587443 -0.593708 -0.515541 -0.69403 -0.768107 0.682757 0.401994 0.780166 -0.460446 0.159325 -0.222056 -0.451164 -0.31945 -0.633154 0.697415 -0.457379 0.657882 0.226587 -0.142359 -0.0309001 0.102507 -0.309116 0.85741 -0.0756959 -0.637191 -0.873222 -0.390345 -1.10786 0.467187 0.988699 -0.526554 0.928772 -0.412065 0.0313364 0.307543 0.386053 -0.0385703 0.11058 0.0259851 -0.591285 -0.733065 0.0240243 0.205043 0.785179 0.868232 0.0215496 -0.309856 1.02731 -0.0796523 0.642853 -0.600447 -0.703463 -0.07138 -1.08713 0.33141 0.941606 0.69368 -0.319794 0.988435 0.333426 0.130113 0.239016 -0.393748 0.214008 -0.997456 -1.05779 0.225862 -0.143767 -0.499918 -0.752053 0.832183 -0.754509 0.170104 0.478823 0.642384 -0.623879 -0.570643 -0.560587 0.949187 -0.624277 -0.965521 -0.179901 0.739105 -0.732643 0.23927 0.824688 1.14684 -0.323742 -0.16562 1.01929 0.283359 -0.181396 0.139101 0.956085 -0.501327 -0.430089 0.1146 0.740427 0.915803 0.942321 0.616869 0.0161164 -0.390448 -0.503535 -0.510419 0.748213 0.357399 -0.850512 -0.47866 0.0264193 -0.427609 0.267601 0.33358 -0.14468 0.839734 0.0236109 -0.649505 -0.666419 -0.869886 -0.321144 -0.724314 0.39531 -0.616975 0.83961 1.0241 -0.162956 0.812603 -0.0503988 0.409582 -0.873286 0.280447 0.22038 -0.241666 0.338762 0.82877 -0.0767953 0.738517 0.345385 -0.411283 0.159745 -0.64805 -0.629801 -0.468906 -0.67304 -0.1633 1.00584 0.468216 0.531911 -0.990506 -0.899556 -1.00782 0.633913 -0.583744 -0.0390867 0.960124 -0.932805 -0.826151 -0.460792 -0.135304 0.121594 0.253583 -0.724434 -0.056346 0.450775 -0.10196 0.38169 0.0335508 0.124753 -0.730193 0.146725 0.17531 0.118401 -0.0774244 -0.754297 -0.946029 0.870736 -0.701726 0.62198 -0.258548 -0.597914 -0.723454 -0.213722 -0.0691691 0.484219 -0.904736 0.397335 -0.112056 -0.750028 -0.379474 0.448766 0.206451 -0.873454 0.527859 0.201192 0.875337 0.588005 0.402175 -0.108512 -0.829419 0.5114 -0.0508721 0.846566 0.708239 -0.352676 -0.686557 -0.338309 0.443964 -0.685238 -0.926679 0.521604 -0.024415 -0.0583233 -0.476502 -0.409003 -0.398986 0.609197 -0.581544 0.851756 -0.475868 0.384421 -0.112832 -0.592602 0.788543 -0.565529 0.352883 0.969681 -0.856796 0.547372 0.222996 -0.601038 -0.346365 -0.951452 0.29411 -0.288922 0.22041 -0.548143 0.514134 0.651051 0.486028 0.458679 -0.89991 0.152321 -0.390439 0.259184 -0.317771 -0.248585 0.193655 -0.264042 -0.463981 -0.147038 0.10852 -0.372376 0.870946 0.218531 0.949759 -0.391846 -0.507265 0.96886 0.746847 0.103335 0.961918 0.121267 -0.978926 -0.382609 -0.0621354 -0.870285 0.0372352 -0.220258 -0.213177 0.161429 0.624796 0.19737 0.0601208 -0.485919 0.339317 0.618988 -0.0834369 0.509982 -0.169918 -0.342108 0.589338 0.468304 -0.974108 0.971684 -0.127849 0.427656 0.9022 0.14295 0.981127 0.11624 -0.596406 -0.71973 0.254471 0.4233 0.851179 -0.946664 0.691781 0.427372 -0.332657 0.891242 -0.840163 0.782033 0.468879 0.38372 -0.814841 0.0983104 -0.981822 0.336311 0.18155 -0.824727 -0.109072 0.653165 0.75096 -0.254318 -0.746496 0.374015 0.875214 -0.696505 0.696738 0.477765 -0.312772 -0.936855 0.2804 -0.986967 -0.73849 0.123347 0.114099 0.0219806 -0.667459 0.996782 -0.886807 -0.299769 -0.445123 -0.670073 0.661082 -0.80373 -0.0498504 -0.729055 0.778168 0.375452 0.0884477 -0.0799021 -0.883315 -0.329146 0.194168 0.902219 -0.702312 -0.748275 -0.842613 -0.529418 -0.954275 -0.198882 0.876985 0.135749 0.0775045 -0.516339 -0.412979 -0.899064 0.981957 0.692721 -0.0134282 0.804964 -0.0918497 -0.2081 0.138835 0.178064 0.475474 -0.549544 -0.0227229 -0.355879 0.709156 -0.409398 0.640288 0.294968 0.537715 -0.726057 -0.290646 -0.730101 -0.341829 0.0182852 -0.00741447 -0.499032 0.511907 -0.950035 0.594158 -0.0263273 0.918288 -0.857998 -0.545547 0.93038 -0.995718 0.1778 -0.234007 -0.800783 0.397698 -0.137846 0.113756 0.688161 -0.425611 -0.352924 0.51733 0.216515 -0.382886 -0.288727 0.692874 -0.325517 0.194002 -0.887594 -0.801903 0.966955 -0.3299 0.743882 -0.32908 -0.212335 0.555025 -0.716803 -0.65721 -0.439571 0.311612 0.450515 0.933864 -0.702963 0.0331385 -0.391714 -0.755968 0.357517 0.935455 -0.589197 0.637187 -0.754405 0.312051 -0.497188 -0.832046 0.160672 -0.289535 0.676394 0.83929 -0.534967 0.343607 -0.151633 0.252428 -0.678455 -0.171099 0.510005 0.117497 0.681566 0.42715 -0.466159 -0.104779 -0.0197039 -0.176453 -0.797691 -0.5024 -0.495051 0.543406 0.285145 0.50723 -0.0995108 -0.789669 -0.261617 -0.600469 -0.0624863 -0.38648 -0.555828 0.766823 0.923122 0.754217 0.166989 -0.407262 0.244733 0.300882 -0.957196 0.262917 -0.137689 0.0584722 0.976321 -0.901895 0.930003 -0.823297 -0.448694 0.391405 0.469617 0.60229 -0.658109 -0.479053 -0.728953 0.875797 0.974963 -0.847664 0.72679 -0.283875 0.650377 -0.357755 0.207798 0.958764 0.993265 0.606784 0.852445 -0.198056 -0.753423 -0.231949 -0.484875 -0.325994 0.394531 0.320825 0.127613 0.0188856 -0.590067 0.727063 0.358538 -0.597533 -0.460171 0.866523 -0.406274 -0.650338 -0.852541 -0.597429 0.471752 -0.198101 -0.687675 -0.779103 -0.914343 -0.249474 0.372314 -0.71942 0.47792 0.82653 0.449415 -0.0134643 0.265502 -0.648311 -0.837931 0.714939 0.465307 -0.276068 0.808911 0.519202 -0.879137 0.0572139 0.676019 0.575067 -0.266041 -0.671567 0.62807 0.0124618 0.828402 0.865824 -0.365096 -0.250735 -0.0955837 -0.418428 0.150261 -0.00568431 -0.25299 0.101287 0.868956 -0.714599 0.159954 -0.246641 0.160415 0.237429 0.228789 0.625953 -0.86658 -0.699061 0.562725 0.786961 0.0116581 0.132459 0.511243 0.590723 0.581514 -0.336731 -0.547181 -0.379738 -0.663109 -0.143422 -0.682153 -0.887408 0.312778 -0.754644 -0.751926 0.530071 0.0668692 -0.52711 -0.629196 0.388924 0.0422481 -0.275179 0.49204 0.0144332 0.317389 -0.526027 0.402147 -0.364781 -0.510509 -0.222381 -0.4815 -0.198527 -0.369967 0.467676 0.246603 -0.423584 1.09161 0.883335 0.231297 -0.240222 0.385052 1.06913 0.566852 0.710442 0.747078 -0.474603 -0.79205 0.353804 0.326329 0.547818 -0.740396 -0.0614118 0.0305358 0.143471 0.0921924 0.570432 -1.07992 0.50757 0.182298 -0.458491 -0.421405 -0.89562 0.13529 -0.46837 0.272551 0.655859 0.787648 0.499535 -0.801796 -0.399888 0.938401 -0.513184 -0.720976 -0.876599 0.983999 0.0324323 -0.496331 -0.693749 0.646214 0.0945593 0.349167 -0.00312822 -0.456111 0.909811 -0.773661 0.945203 0.0505192 -0.875126 -0.568583 -0.0499074 0.418346 0.23974 -0.0766253 -0.0549583 -0.218581 -0.647928 -0.350749 -0.169104 0.350621 -0.816018 0.249052 0.339495 -0.413028 -0.43464 0.720286 -0.104046 -0.386313 0.0369548 -0.206386 0.166014 -0.55269 0.834577 -1.07508 -0.622405 0.586482 -1.00624 -0.230926 -0.207488 -0.945923 0.536924 0.00829468 0.765776 0.525422 0.652094 0.0911202 -0.431268 0.798699 -0.878193 0.408315 -0.977638 -0.364731 0.855981 0.549478 0.212482 -0.701026 0.210624 0.788976 -0.145396 0.305445 0.890145 0.314488 -0.851135 -0.572118 0.743206 -0.0858633 -1.08815 -0.640656 -1.09163 1.29899 0.621635 -0.721239 0.120007 -0.200822 -0.817687 0.198655 -0.144554 0.580545 -0.383749 -0.712223 -0.659809 -0.407524 0.339151 -0.384184 0.10975 0.569731 0.561764 -0.829861 0.915431 0.408804 -0.699348 0.766556 -0.457586 -1.03017 -0.208224 -0.152406 0.36217 0.323078 0.0142651 0.723002 0.633706 0.298256 -0.0524056 0.693327 -0.246721 -0.925529 -0.206866 0.975947 0.387646 -0.16001 -0.274652 0.0955206 -0.474259 0.391842 -0.384751 -0.565477 0.318197 -0.747128 -0.476683 0.835889 -0.571501 -0.406943 0.210748 0.789694 0.351352 0.799603 0.459602 -0.230021 -0.216311 -0.342689 -0.262258 0.564516 -0.220691 -0.880768 -0.418278 -0.731501 -0.0981774 0.106936 -0.235318 0.312139 -0.0930771 0.16806 0.759146 -0.557785 -0.657975 -1.02836 -0.595195 0.803499 -0.51341 0.108029 -0.0564665 0.721827 -0.812996 0.497036 -0.495923 -0.179353 0.657951 -0.404157 -0.462291 -0.98415 0.854027 0.766188 0.572775 -0.172757 -0.412968 0.0714472 0.462301 0.6734 0.482605 0.614983 -0.410681 0.129047 -0.550108 0.511687 0.480371 1.02676 0.285342 -0.0520715 -0.757203 0.33199 0.501264 -1.25267 -0.252538 0.609811 0.295872 0.522877 -0.702855 -0.279634 0.565428 -0.906089 0.282056 -0.675682 0.502316 -0.706254 -0.565019 -0.387504 -0.232401 -0.812718 0.663556 -1.15405 0.684254 0.267615 0.333392 -0.6373 0.0439037 -0.0688334 -0.0536628 -0.245019 -0.334132 0.500618 0.169899 -0.534101 0.730231 -0.493018 -0.810234 -0.33026 0.256452 0.3863 -0.483687 -1.05001 0.537779 0.926717 1.08475 -0.19948 0.892784 0.608893 -0.231392 0.528884 -0.893186 0.749688 0.718854 -0.00735994 -0.499008 0.404784 0.396773 0.0343841 -0.679166 -1.35983 0.333106 0.549603 0.921733 0.172087 -0.779814 -0.599585 0.69992 0.765176 1.01511 0.761971 1.21565 -0.883101 0.932026 0.440466 0.642242 0.966365 -0.217868 0.628297 -0.544642 -0.316933 -0.294557 -0.250593 -0.422699 0.324948 0.39037 -0.0793838 -0.97466 0.811711 -0.824147 -0.364516 -1.11088 0.00703329 0.0619546 1.31149 0.426165 1.40219 -0.936126 -0.859343 0.643456 -0.758922 0.568027 0.456602 0.164779 -1.37236 -0.710999 -0.0819197 0.488182 0.496945 -0.292453 -1.07255 0.409989 0.247284 -0.222651 0.865787 0.231044 0.7539 0.834475 0.9572 -0.5006 0.104865 0.853017 -0.594988 0.54533 0.286676 0.482922 -0.102002 0.0162046 -0.964356 0.278759 0.378803 -0.6167 -0.837874 0.605039 0.906794 0.702014 -0.588614 -0.500876 0.0920042 0.842365 0.418497 0.683045 0.650194 -0.560272 0.340495 -0.603447 -0.413086 -0.54949 -0.457822 -0.420642 0.878867 1.32601 -0.796304 0.881904 0.799377 -0.410245 -0.861835 -0.729864 0.341 1.11361 -0.452255 -0.630016 0.351297 -0.0561385 0.291982 -0.233551 -0.118368 0.14585 -1.14638 -1.07453 -0.432924 1.28777 -0.434411 -0.000196719 1.22559 0.348782 0.699739 -0.261656 -0.728972 0.268978 -0.174238 0.795811 -0.251861 -0.410639 0.992875 0.673637 1.07273 -1.15646 0.238733 -1.06118 -0.146449 0.317524 -0.664047 0.168603 0.943022 -0.245132 1.33552 -0.477397 -0.878832 0.321278 -1.33888 -0.315942 -0.841251 0.713152 -0.037718 -0.19113 -1.23083 0.485647 -0.365027 -0.133004 0.13297 0.37873 0.264775 0.0655179 0.588843 -0.655518 -0.17406 0.588889 -0.880831 0.158457 0.426696 -0.671939 0.645153 -0.607788 -0.302329 -0.707636 0.48398 0.0243803 0.650907 -0.492347 -0.619237 -0.0205337 0.236925 0.586115 0.368987 0.0705141 1.00219 -0.664871 0.145898 0.333867 1.1507 -0.403785 -1.28488 -0.450715 -0.731967 -0.378614 0.776052 0.0772255 0.596852 0.855229 -0.746993 0.871994 -0.678655 0.336455 -0.701365 0.535345 -0.714765 0.0467501 -0.136649 0.13341 -1.44224 0.738327 -0.954381 0.30961 0.667457 -0.0420858 0.276148 0.682371 -1.41971 -1.17292 0.74409 0.997023 0.504513 0.854271 1.20235 0.495041 0.803909 -0.52842 0.00125044 -0.0259524 0.286963 0.6816 0.340697 -1.39227 0.273957 -0.545549 0.222272 0.532411 -1.24671 -0.233228 -0.0693482 0.569067 0.797257 -1.19869 1.09995 -1.28709 0.0433453 -0.74726 0.75307 -0.0875462 -0.318898 -0.681617 -0.661945 -0.737242 -1.44357 0.619581 -0.751263 -0.074225 0.47156 0.518697 0.777602 0.458305 -0.58176 -0.0565143 0.371686 -0.42114 -0.921314 0.303912 0.0268026 0.174194 0.16007 -0.456022 0.340665 -1.28745 -0.858614 -0.0355955 -1.06091 -0.341042 0.707175 0.669573 0.0763945 0.353064 1.04085 0.727092 0.159823 0.74179 -0.572883 -1.37394 0.342175 -0.797915 -0.0614776 0.975781 -0.952717 -0.734706 -0.0787117 0.866697 -0.0689656 0.743026 -0.427672 -0.423279 0.524929 1.28524 -0.276164 0.553941 -0.316492 0.438685 -1.06985 0.16131 0.637995 -0.223181 -1.35803 0.0792285 -0.899526 -0.471216 -0.0656217 0.992934 0.0490191 0.280634 -1.29741 -0.0270427 0.597842 -0.0230439 0.603091 0.0696692 -0.239682 0.219592 0.84551 -0.882856 1.25456 -1.49328 1.27189 1.85818 0.631337 -0.278078 0.790159 -0.353381 0.389731 -1.25137 -1.26105 -0.741184 -0.252135 1.1146 -0.297031 -1.32704 1.9852 -1.14891 0.501257 0.365794 0.729711 -0.152315 -1.75476 -0.380839 -0.399375 -0.540109 0.233374 0.794329 -0.606858 0.953246 0.466778 0.449502 0.85424 0.716162 -0.702962 1.76002 0.369692 1.36458 -1.62505 -0.0303903 -0.346528 0.22239 -0.601081 1.00495 0.542837 -0.569889 -0.183724 -0.542859 0.625578 0.152961 -0.274986 -0.291186 -0.0850211 1.19593 -0.33426 -0.688009 1.11069 0.289362 1.1074 0.211039 -1.17281 -0.723437 0.270139 1.50873 -1.05931 -0.981826 0.249603 1.17676 0.806932 -0.322939 0.467987 -0.445196 -0.283325 1.51833 0.917045 -0.226144 -0.231853 0.794027 -1.1546 0.728954 0.964451 -0.36451 -0.330218 -0.0686517 -0.270149 0.661775 1.17711 -0.330867 0.87597 -1.40467 -1.09906 -0.444089 0.126458 0.211648 -0.126227 -1.083 -0.643771 0.32299 0.646138 0.602759 -0.351406 -0.130696 0.531072 0.940917 0.710586 -1.28632 -1.08978 -0.396817 -0.348801 -1.17072 0.409159 -0.348539 -0.185854 0.90785 -0.138979 -1.75355 0.780812 -1.23772 -0.449625 0.593755 0.648317 -0.173819 -1.34858 -1.25451 -0.0337999 0.68596 -0.351118 0.853212 -1.26223 1.28256 -0.735645 0.398425 -0.560706 -0.404653 0.419202 1.81709 1.11609 -0.151542 -0.180169 -0.438567 0.180274 -0.782293 0.510656 -0.537824 0.201717 -0.406556 -1.30514 -0.21601 -1.3577 0.547273 -0.0382515 -1.23147 -0.0811891 -0.326405 0.83615 0.742254 0.605668 -0.0289851 1.22092 0.183485 -0.389211 0.425707 0.766147 0.921244 -1.65965 0.36959 -0.728337 0.730601 0.0402049 0.335311 0.804545 -0.225769 1.43978 1.24105 0.722499 0.0901025 -0.931842 0.877847 -1.42519 0.773356 0.858883 1.5139 -0.880464 -0.417287 0.797274 0.651696 1.86551 -0.396946 -0.668137 -0.468352 -0.461002 0.921703 -0.461445 0.270554 -0.0221893 -1.17986 -1.57432 -0.4976 1.68017 -0.304207 -0.204333 -0.298991 1.05335 1.09475 0.62364 0.0105078 -0.822383 -0.520001 0.897559 0.237652 -0.51678 0.207579 -0.194301 -0.114191 -0.288298 -1.23156 0.140591 -0.490431 0.351146 -0.363336 -0.481066 -0.174453 -1.34113 -0.649601 -0.623399 0.219268 0.149714 -0.334091 -1.41083 -0.448775 0.629803 -0.0305518 0.488411 -0.584534 1.04847 1.56936 0.273848 -0.575606 -0.838626 0.0761323 -1.15298 0.882346 -0.271861 0.992985 1.22627 -0.799001 -0.772822 -0.0738853 0.243026 -0.00839268 0.184419 -0.280425 -0.563992 0.597872 -0.682825 -1.26908 -0.793452 -0.0302613 0.841195 -0.599438 0.941095 -1.14458 0.134905 0.47537 -1.77888 -0.601505 -0.301282 0.392064 -0.736749 -0.268013 -0.249808 0.409265 1.36639 -0.0946456 -0.772196 0.677182 -0.915732 0.0679134 -0.147464 0.646717 0.901275 0.146926 -0.238986 0.552726 -0.105959 -0.0250505 1.04655 -0.190314 0.687714 -0.958841 -0.452679 -0.708504 -0.507734 0.85263 0.660274 -0.663264 -0.412672 -1.01666 0.442396 -0.427913 -1.23221 0.418563 -0.338561 -0.355829 -0.906109 -0.133728 -0.115858 -0.546952 0.835677 -0.617009 0.148409 0.294701 -0.77472 -0.0344391 -0.679023 -0.188536 -0.645155 -0.11801 0.80449 -0.0631066 0.984893 -0.668056 0.726463 -1.82655 -1.10855 -0.554105 1.7453 -0.13714 -2.24116 0.107802 0.399816 -0.736375 1.0987 0.0737724 0.943208 1.06719 0.501805 0.595244 -0.29921 0.630167 -1.71414 0.892367 -0.0504273 -0.705184 -0.488483 0.492969 -2.15331 -0.19095 -0.908923 -0.219011 0.310163 -1.13359 -0.0390856 0.454141 -1.21276 0.325142 -0.496739 -0.795308 -0.273463 -0.0778923 -0.222678 0.0802489 0.668149 0.998412 -0.620686 -1.09177 0.258676 0.96461 0.224541 0.235776 1.16676 1.08561 0.771893 -0.0264998 -0.349134 0.390876 -1.29735 0.930411 -0.671682 -0.165318 0.710656 1.32769 -0.868556 -0.89824 -1.11366 0.232867 0.880242 0.946561 0.376001 -1.20637 1.31953 -1.04428 -0.169224 -0.110074 -0.232684 -1.07023 -1.71186 -0.0520547 1.43885 0.7004 -0.530093 -0.94516 1.08836 -0.768226 -0.934572 0.779403 -0.594917 -0.0609496 0.334033 -0.854797 -0.280325 -0.426945 0.374001 0.520374 -0.10279 -0.506215 -1.97511 0.418343 -0.710052 -0.167098 -0.227298 0.316453 0.62681 -1.07892 0.354449 -0.0534216 2.77831 -0.11234 -0.821375 -1.09989 -0.0813978 -0.980637 0.0271417 -0.876565 1.1623 1.31025 0.235381 -0.253846 -0.142586 1.15189 -0.889332 -0.692125 0.529536 -0.297821 -0.456124 -1.05973 -1.1722 0.655101 0.0361272 0.778967 -0.0218335 -0.836164 0.300971 1.3799 -0.269701 -1.03484 -0.409675 -1.42002 -0.204152 -0.143986 1.02805 -0.702347 0.840853 -0.833636 -1.73115 -0.0967899 -0.792355 0.935327 -0.178838 -0.509584 0.394178 0.202927 0.659875 -0.953053 -0.174281 0.656034 -2.1444 -0.337013 -0.302565 0.900956 0.456658 1.38914 -0.31781 0.354988 0.577237 -1.35097 -0.835123 -0.876387 -1.19615 0.0613803 -0.124397 -0.606985 -0.534359 -0.527858 -0.929577 -0.4729 -0.883893 0.84584 1.63034 0.463616 -1.3684 0.530397 0.327134 0.0467467 -0.48627 1.22423 -1.51728 -1.01977 0.48669 0.218508 1.22234 1.0112 0.35556 -0.55555 -0.407501 -0.948041 -2.52564 0.125174 0.0816798 -0.905425 0.864709 1.53999 -0.387044 -0.379778 -1.04013 0.571177 1.42014 -0.107583 -1.6005 -1.51748 0.436428 -0.0666479 1.60409 -0.456042 1.73625 2.37652 -0.132968 0.356668 0.482348 0.58259 -1.08982 -0.622959 0.770975 -0.742839 -1.18608 -0.664104 -1.76959 -0.398131 -1.29025 0.15117 1.30214 -1.16203 -0.329588 0.935569 0.224412 -1.00925 -0.782085 0.232096 -0.558414 0.599619 -0.542275 -0.833175 0.0142852 -0.369518 -1.84685 0.153625 -1.12701 1.32865 -1.54026 0.922916 0.496388 1.28259 2.24277 -0.168103 1.01726 0.567465 -1.98617 -0.620051 -0.436957 0.599155 0.011393 0.566478 0.769446 0.11471 0.0902959 -0.461198 -0.591667 0.502942 -0.483619 0.257261 0.48527 -0.762898 0.0838578 0.178501 -1.64746 -0.249084 0.00294161 0.549751 1.21089 -0.734316 0.226852 -0.581278 1.06918 -0.216411 0.324473 0.645573 -0.323815 -0.203635 0.333645 0.300139 0.198545 0.334785 0.877464 -0.772524 -0.186924 -1.01537 -2.85436 -0.0428152 0.900591 0.225702 0.0262946 -0.180256 -0.466024 -1.18308 -1.58767 -1.02983 2.8091 0.399305 -2.15606 -1.32647 0.58118 0.0413796 0.955671 0.834756 1.81829 1.99475 -1.03786 -1.06261 -0.365769 -0.0164827 -1.41849 0.454739 0.413116 1.10891 -0.380127 -0.323625 -1.13195 1.38383 -0.758008 0.978949 0.464595 0.457464 -0.403984 0.199542 -0.00851335 -1.59517 -0.0485303 -0.191345 0.530071 0.147585 0.215389 -0.386777 -0.525538 0.659368 -0.847213 -0.660351 -2.45582 1.97211 -2.02241 -1.02527 1.04216 -0.155742 0.856608 -1.13544 0.635013 1.55628 -1.93507 -0.425197 0.0172608 0.862666 -0.269961 0.0244287 0.333219 0.0993995 0.267055 0.0499295 0.730746 -0.813373 -0.966024 0.0504759 0.456116 0.3608 -0.537533 -0.676851 -1.4104 0.27067 -0.939464 0.138504 0.820621 -0.224732 -1.70692 0.499201 -0.599681 0.0344977 -0.962357 0.113192 -0.434468 -1.66306 0.12083 0.526439 -0.0734574 -0.553021 -0.730004 1.11229 -0.226017 -0.143226 -3.59892 0.532967 0.94046 -0.237685 0.282372 1.13783 0.155897 -0.145759 -1.48775 -1.11948 2.02505 -0.1703 -0.593457 -1.26917 -0.420972 -0.737087 0.963003 -0.245467 1.22436 1.18511 0.363884 0.601691 -0.424443 0.193135 -0.0958144 -0.607983 1.42168 -0.711387 -1.50276 0.315418 -1.18814 0.556698 1.07371 -0.153162 -0.130725 -0.992934 0.0787167 -0.637376 -1.65782 -0.992491 0.0295515 -1.04673 -0.398179 0.0325817 0.317531 -0.111245 -0.170016 -0.802045 -1.44877 -0.155166 -2.47578 0.975239 -0.990198 -0.670196 -0.521723 -0.2552 0.939857 -0.574888 0.19977 0.862294 -0.0573293 1.61352 -1.21564 1.12372 -1.43844 0.195276 0.310003 0.355279 -0.312394 -0.46416 0.834796 -0.165854 -1.58903 0.505891 0.679756 0.845999 -0.163209 0.707345 -0.654579 -0.309192 0.0593292 1.041 1.48879 0.0599561 -1.7591 0.751298 0.937437 -0.620953 -0.453491 0.172589 -0.0711459 -1.252 -0.872744 -0.424089 -0.19526 0.842232 0.54506 1.43593 0.764068 0.872253 -3.09742 -0.207824 1.0485 -0.407622 -0.0728066 0.568388 0.107486 -0.703267 -1.58735 0.613003 3.09869 -0.0559643 0.271693 -1.05616 0.49919 -0.406518 -0.653139 0.967944 1.60229 1.14209 0.803973 -0.462898 1.08436 -0.87954 -0.354035 -0.0464334 1.09095 -0.588764 -1.14078 0.793018 -0.4426 0.989135 1.2546 0.207296 -0.336967 -0.389159 -0.23382 -0.529458 -0.683209 -1.35419 -0.702402 0.0422823 0.552175 -0.649353 -0.678179 -0.158848 -0.0620125 -0.838726 -0.580637 0.282466 -1.66832 2.06249 -1.79385 -1.06004 0.295876 -0.747033 0.725428 -0.171393 0.107946 2.1765 -0.317213 0.491436 -1.28798 0.549146 -1.2019 0.160337 0.18766 -0.371577 -0.588504 -0.839206 0.497137 0.600844 -1.31144 -0.521271 1.02377 -0.803607 -0.575985 0.310895 -1.66995 -0.0236199 -0.842689 0.91487 -0.369083 -0.387126 -0.806977 -0.598679 0.584742 -0.924602 -0.332656 -0.611024 0.338405 0.0415939 -1.59755 0.352628 -0.0285742 -0.160736 0.659203 1.29142 0.120642 1.33091 -1.94832 0.333374 0.277712 0.333417 -0.292969 0.6182 1.32498 -1.16778 -1.49667 0.583427 2.40722 -0.406691 -1.38351 -1.53329 0.964405 -0.0338004 -1.03612 -0.433582 1.14449 1.41139 -0.473223 -0.683121 -0.191036 -0.502322 -0.862906 0.954482 -0.0724103 1.43032 0.404092 0.883189 -1.30915 1.80664 1.92617 -0.274326 1.10467 0.479283 -0.180067 -0.026806 -0.333269 -1.13133 -1.11673 -1.61685 -0.957056 0.905378 -0.597895 -0.681227 0.166977 -0.833929 0.593012 0.617949 -1.20033 0.77443 -0.870436 -0.871766 0.250513 0.442296 0.348042 -0.275405 -0.641216 2.18109 1.09116 0.585358 -1.4333 1.93412 -0.746023 0.69177 -0.588001 0.347166 0.772585 -0.260497 0.113361 -0.115315 -0.352041 -0.403865 -0.246756 -0.161275 -1.35632 -0.0434137 -1.26794 0.324264 -0.300313 -1.37064 -0.533283 -0.664446 0.475869 0.0473374 0.247423 0.754152 -1.00426 -0.568521 -1.24598 0.248712 -1.02218 -0.989224 -1.36846 1.02898 -0.540399 2.17381 -0.630834 -0.522506 -1.30586 0.237056 0.848669 0.658147 0.809379 0.314039 -0.288401 0.63843 -1.44409 -0.299576 1.02638 -0.739917 0.31264 -1.87608 0.0938519 1.45362 -1.68073 0.50346 1.25519 0.0954592 0.240364 0.112453 1.40527 -1.93979 0.93903 -0.60524 0.3007 0.765695 0.0240705 1.4177 -0.777763 1.95705 1.3402 0.184318 -0.944526 0.363596 -0.692519 1.53906 0.585015 -1.32544 -0.213597 -0.878715 0.785415 -0.16272 0.39563 -0.539945 0.122051 0.17453 -0.631785 -0.00476496 -0.820557 0.129354 -0.783302 -0.15969 -0.0129742 0.844673 -0.0353611 -1.15781 -0.152762 2.2906 0.368953 1.16289 -1.30766 1.14403 -0.00156641 -0.0923853 -0.0939224 0.0413709 -0.174247 -0.0163179 0.217472 -1.07928 0.146566 -0.288098 0.745814 -0.0890114 -0.981285 -0.0980193 0.249517 -0.874162 0.0286614 -0.221016 -0.511995 -0.58304 -0.189611 -0.583055 1.30838 0.629834 0.426205 -0.150549 0.750763 0.784989 0.0123794 -0.205981 -0.907639 0.630861 -0.18485 1.71443 0.0580808 -0.526366 0.260414 1.0791 0.15429 0.562 0.313891 0.756915 -0.731572 -0.210106 -0.964598 -0.636907 0.865248 -1.26227 -0.249698 0.146312 -0.903802 0.101269 -0.646013 -1.12768 -0.263972 0.27498 -0.67908 0.0352806 0.370462 -1.82519 0.75515 -0.122794 0.440677 0.857455 -0.322574 0.622231 -0.411442 1.56305 1.81643 0.453949 0.233894 -0.265302 -1.79158 0.628558 0.113705 0.0319887 -1.66632 -1.0119 -0.596449 0.510468 0.279871 0.462622 -0.851191 -1.04769 0.408204 0.158902 -0.348302 -0.0305964 1.20017 -0.259011 -0.0244788 -0.305971 -0.774747 -0.394874 0.981516 1.18577 0.478242 0.454964 -1.25571 0.813009 0.374475 -0.142958 -0.328452 0.586501 1.04682 0.667699 0.879094 -1.06255 -1.08174 0.344937 -0.239276 0.54606 0.417058 0.447239 0.244036 0.470429 -0.0209376 0.215276 -0.707558 -0.189401 1.35264 1.01576 0.944817 -0.831918 0.418092 -0.24687 0.279116 0.369114 0.237525 0.277299 -0.394381 -0.849115 -0.247482 -0.856822 0.765492 -0.615438 0.741921 0.386383 -0.275441 -0.335449 1.12287 -0.95887 0.0321277 -1.16052 0.370004 -1.10346 -0.428071 -1.91772 -0.310043 0.670551 -0.239156 1.60136 -1.50714 -1.60579 -0.17727 -1.66448 -0.232108 -0.160545 -0.705868 -1.87538 0.542344 -0.218325 -0.314168 1.17649 1.09202 -0.306579 -0.0421355 0.213676 0.709859 -0.187066 -0.428131 -0.404616 -0.614546 -0.123571 1.85856 0.321994 -0.930159 -0.592231 -0.64489 0.638076 0.814066 0.31087 -0.737505 -0.971959 0.389732 -0.143288 -0.330575 0.0352718 -0.0249715 -1.02611 -0.300242 -0.0807882 -0.700359 0.126966 -0.202562 0.549291 2.02573 0.624238 -0.511726 1.84804 -1.22262 0.615161 -0.746293 -0.875019 0.192257 0.00804412 1.02214 -0.298636 0.532465 -0.487822 0.237619 -0.988195 -0.700081 -0.1732 -0.764408 -1.97932 0.564819 -0.492737 -1.16422 -0.650317 1.0968 -0.26432 -0.0758073 0.032944 -0.670526 0.536494 0.644178 0.32727 0.37037 0.0400023 -1.23818 -0.020011 -0.367075 -0.727219 0.860512 -0.232962 0.149443 -1.04455 0.508946 -0.126329 0.964837 0.438176 -0.973117 -1.24986 0.691927 -0.876947 -0.837867 0.278313 -0.417745 1.14976 0.335644 0.794833 -1.17983 -1.65147 -0.223436 0.0888084 1.39973 -1.05506 -0.64492 -0.519202 0.174141 0.869136 -0.887437 0.73507 1.24139 0.208841 -0.325443 -0.627853 0.508429 0.240129 -0.0728832 1.35904 0.222543 0.666622 -0.197689 -0.618959 -0.135766 -0.322304 -1.37322 0.283736 -0.231205 -0.32664 0.698228 -0.637079 0.424936 -0.561656 -0.367206 -1.096 0.105668 -0.946235 -0.607814 -0.936902 