784 100 100 100 100 100 26 
-0.251416 0.980585 -0.947826 -0.124285 -0.350709 0.32744 0.346361 -0.9451 -0.744489 0.40368 0.474712 -0.507012 -0.847452 0.622532 -0.589754 0.127219 -0.33409 -0.51726 0.380545 -0.13642 -0.742866 0.775206 0.410289 0.753756 0.307489 -0.270652 -0.652224 -0.4922 -0.213156 -0.348009 -0.681826 -0.0695433 -0.441561 -0.297454 0.195578 -0.540665 -0.72213 -0.398937 0.339592 0.925771 -0.475531 -0.151304 0.446486 0.0140674 0.0671545 -0.760425 0.119212 0.499142 0.449638 0.911429 0.349183 -0.582811 0.1406 -0.889609 -0.477408 0.864174 0.857053 0.658614 -0.591514 -0.976747 -0.257602 -0.284344 0.0678859 -0.0255178 -0.23794 0.426629 -0.402051 0.129142 0.275369 0.519916 0.84678 -0.311403 -0.816236 -0.693015 0.563632 -0.486949 -0.925118 0.53548 0.725025 0.65394 -0.218768 0.616237 -0.938648 0.0977207 0.507015 0.453017 0.38072 -0.525178 0.051656 -0.237773 0.593398 0.0679037 -0.705133 -0.465319 -0.686726 -0.966784 0.623731 0.988579 0.48807 -0.937645 0.088753 0.462124 0.243798 0.614281 0.0252485 0.287924 -0.272366 -0.788279 0.958675 -0.69108 -0.43176 -0.697773 0.632509 0.747239 -0.302799 0.785834 0.369834 -0.899786 -0.25115 0.0392161 -0.222868 -0.340319 0.705208 0.765863 0.0629464 0.0154778 -0.644361 -0.825834 -0.916397 -0.0738781 0.261836 -0.00249432 0.537872 -0.517643 -0.468528 -0.122935 -0.283878 0.682742 -0.476616 0.245012 0.0295645 0.509089 0.943238 0.085339 -0.923218 0.997678 -0.891267 -0.983259 0.975941 0.06428 -0.411484 0.433357 -0.739775 0.302455 0.270713 0.458604 0.875485 -0.172923 0.66075 -0.389705 -0.438313 -0.428304 -0.284219 -0.792808 0.95742 0.665962 -0.12632 0.678874 0.830377 -0.992751 -0.311815 -0.176384 0.874191 0.325927 0.339173 0.498856 -0.970679 -0.491638 0.0923134 0.909683 -0.334272 0.57635 0.311724 0.999748 -0.887138 0.357155 0.196197 0.164232 -0.850004 0.349668 0.849179 -0.490691 -0.441096 -0.0971742 0.845032 0.468445 -0.347025 -0.137782 0.196775 -0.970424 0.0306733 -0.413043 0.490375 -0.137812 0.628158 -0.416984 0.173915 0.585121 0.128736 -0.42185 -0.064131 -0.692647 -0.109095 -0.569392 -0.602137 0.294059 -0.975655 0.103775 -0.278123 0.243128 -0.754177 0.477025 0.508968 0.745521 0.362275 -0.041782 -0.724372 -0.538406 0.42868 0.488817 0.209885 -0.809797 -0.562098 0.0161091 -0.342661 0.40136 -0.594119 -0.490931 0.750686 -0.869666 -0.124039 0.128303 0.350005 -0.959766 0.22996 0.362876 0.0099799 0.842496 0.83004 0.35565 0.365727 -0.00431869 -0.980229 0.269937 0.933916 0.498415 0.0442729 -0.213354 0.298188 0.936997 0.571694 -0.401403 0.978902 0.898918 -0.535728 -0.277504 -0.612879 -0.187498 -0.778827 0.592628 -0.310209 0.288709 0.123353 -0.964609 0.174401 0.872664 -0.574981 -0.41421 -0.625463 -0.903718 0.892506 -0.114522 -0.734262 0.913685 0.703244 0.405797 -0.734693 0.223752 0.768021 -0.649378 0.603059 -0.0573107 -0.300059 -0.662825 -0.254641 0.0735309 -0.101524 0.582363 -0.0668678 -0.841915 0.0576359 -0.859047 -0.444718 0.737476 0.84667 -0.353243 0.492337 -0.571341 0.0816306 -0.188592 -0.524285 -0.263093 -0.851149 -0.792221 -0.380091 -0.239256 0.948683 -0.19232 0.364071 -0.911836 -0.368309 0.910804 -0.876549 -0.58349 0.763149 0.432731 0.404096 0.627174 -0.274443 0.882387 -0.227566 0.50156 -0.0559309 0.691191 0.489754 0.91241 -0.684864 -0.376612 0.335547 0.0878182 0.917127 -0.83908 -0.732056 0.790079 -0.0308804 -0.241754 0.581505 0.797746 0.607887 -0.270809 0.0178842 -0.244989 0.358822 -0.100284 -0.807297 -0.163977 0.691959 0.428526 0.982636 -0.0300778 0.976495 0.238871 -0.109824 0.240826 -0.298629 0.666583 0.683968 0.111766 0.415759 0.923077 0.833794 0.569102 -0.946936 -0.388633 -0.242601 -0.0924698 0.0968073 0.0191316 -0.377669 -0.686876 0.490554 -0.999737 0.990251 -0.932038 -0.998493 -0.904212 0.31387 0.988614 0.341932 -0.743778 -0.260498 -0.21292 -0.383321 0.596487 -0.116506 0.946364 -0.618777 0.497553 0.00869242 -0.480091 -0.64286 -0.693359 -0.882602 -0.973278 -0.0924484 -0.120054 0.647286 0.342607 0.3783 -0.0336613 0.161302 0.898088 -0.852593 -0.972416 -0.516667 0.538434 0.616763 0.0816881 -0.974746 0.510961 -0.51017 -0.614871 -0.0177384 -0.596057 -0.0011832 0.112269 -0.742504 -0.966142 -0.963429 0.565364 -0.667804 -0.177823 0.951735 0.255813 -0.271976 0.513234 -0.308647 0.906823 -0.477578 -0.214903 0.0527116 0.555095 -0.224671 -0.220916 0.202887 -0.267657 -0.415728 -0.125185 -0.504215 -0.767448 -0.0754472 -0.513799 0.818541 0.444148 0.634123 -0.717883 0.50397 -0.0922121 0.797922 -0.970976 -0.231067 0.274121 -0.469351 -0.791185 0.0712731 0.624037 0.779775 -0.653855 0.9253 -0.926479 0.838732 -0.403939 0.370457 -0.829982 0.287751 0.020973 -0.15365 -0.374039 0.304773 -0.00849349 -0.0426726 0.959781 0.178712 -0.563363 -0.638788 -0.0585949 -0.18909 -0.128357 -0.317252 -0.890727 0.693919 -0.155352 -0.195412 0.617218 -0.859067 0.050953 -0.247277 0.78025 0.840686 0.531458 0.824502 -0.749239 -0.261484 0.170572 -0.318558 -0.0184703 0.601076 0.757021 -0.786745 0.836979 0.261033 -0.715411 -0.0125822 -0.967961 -0.136749 -0.639754 0.603364 0.594313 -0.0971567 -0.380665 0.860207 -0.752267 0.581994 0.505262 0.663872 -0.257645 -0.463012 0.441079 0.136648 -0.328487 0.0840074 0.470546 0.344936 -0.270719 0.391838 0.0508634 0.810342 -0.870689 0.820069 0.441716 0.760543 -0.542015 0.0868963 -0.363676 -0.801152 -0.816666 0.0725241 0.567557 0.892414 0.710516 0.635046 0.0187618 0.900179 0.845689 0.431085 -0.575862 0.126151 -0.421073 0.556299 -0.133373 0.431823 0.736071 -0.22824 -0.868535 -0.429402 -0.812926 -0.410201 -0.241985 -0.351929 -0.266832 0.00113275 -0.0441367 0.174707 0.394154 0.0552827 0.575429 0.487491 0.402001 -0.822401 -0.233131 -0.961053 -0.687761 0.245474 0.74191 -0.0747691 0.508274 0.773092 -1.01389 0.467158 -0.45076 0.277888 0.58405 0.305861 -0.91928 -0.704416 0.250689 -0.0532048 0.00286215 -0.224907 0.21116 -0.0740656 -0.804984 -0.193269 0.395351 0.768297 0.791204 0.680684 -0.940172 -0.296356 -0.120429 0.0619788 -0.788541 -0.15021 0.10693 0.251339 0.590544 -0.69473 -0.357075 -0.529811 -0.867955 -0.0797327 -0.927074 0.656795 -0.650238 -0.652713 -0.267833 -0.0901751 0.48064 0.990319 0.823985 0.0790705 0.872505 -0.67668 -0.111629 -0.505956 -0.735776 0.653723 -0.310864 -0.877828 0.570776 0.655183 0.780191 -0.359008 0.0475402 0.780984 -0.588338 -0.319472 -0.163842 -0.242557 -0.34313 -0.0222692 0.245842 -0.0904084 -0.970797 0.684201 -0.55264 -0.589699 0.882493 0.259466 0.317745 0.841632 -0.826146 -0.0683503 0.803404 0.159097 -0.705992 0.580253 -0.577115 0.915821 -0.113422 0.121856 0.342725 0.792947 0.427958 -0.371443 0.00933526 0.667299 -0.701897 -0.338262 0.23757 -0.762261 0.773297 0.688044 -0.639185 0.725746 0.207816 0.483786 -0.486165 0.862638 -0.763188 0.130654 0.0391307 -0.928395 -0.460738 -0.033409 -0.329751 -0.357784 0.539431 -0.320125 -0.603411 -0.340182 -0.0629438 -0.790012 0.762575 -0.756513 -0.58514 -0.663529 -0.431424 -0.363451 0.533823 -0.806154 0.981914 -0.836198 -0.413596 -0.0583164 0.613561 0.797117 -0.715203 0.32162 0.897784 0.86966 0.277229 -0.264126 0.241939 0.427738 -0.849135 -0.807792 -0.676044 -0.0581664 -0.264591 0.205803 -0.058991 -0.639718 -0.41115 0.912095 0.209298 -0.431476 -0.627866 -0.562544 -0.528228 0.363323 0.141673 -0.866553 0.750869 -0.878579 0.777024 0.453501 -0.0361348 -0.415115 -0.0493347 -0.554364 -0.15742 0.437908 -0.474417 -0.183274 -0.915512 -0.848983 -0.201538 -0.56814 0.150477 0.641121 0.239773 -0.443678 -0.740385 -0.11214 0.814119 -0.733996 0.780824 -0.849046 -0.549769 -0.868553 -0.31475 0.484 0.134515 -0.727196 0.323953 0.663624 0.290741 -0.977879 -0.161712 0.647094 -0.137678 0.820936 -0.644206 0.212225 0.393729 0.152153 -0.946943 0.546036 -0.677241 0.103065 -0.183712 0.665181 0.903356 0.0745117 -0.417629 -0.671654 -0.480511 -0.630744 -0.607778 -0.597913 0.874141 -0.910506 0.82733 0.128977 0.748765 -0.202333 -0.314285 -0.324911 0.19637 0.308657 0.614866 0.805158 -0.516937 0.309917 -0.765417 0.3191 0.220286 0.104442 0.652486 -0.638415 -0.930348 -0.833987 0.498262 0.0847514 -0.783089 0.176635 -0.906843 0.58698 -0.134374 0.703439 0.780124 0.122332 0.69072 -0.76066 -0.707371 -0.119675 0.0964831 -0.0754015 0.519281 -0.256647 -0.985993 -0.261469 -0.612005 -0.783408 -0.274485 0.872749 -1.00021 -0.0438141 -0.401779 -0.0143286 0.714733 -0.400875 0.75323 0.147871 0.291115 -0.254861 -0.230383 -0.0425543 -0.952607 -0.381939 -0.39825 0.424536 -1.00154 -0.0846563 0.205155 -0.888681 -0.319756 -0.596728 0.802598 -0.959817 0.209098 0.429901 -0.0417539 -0.918778 0.958774 -0.752573 0.837056 0.038299 -0.960416 -0.29553 0.349203 -0.0497015 0.534516 0.745269 -0.775618 -0.0868056 0.0388253 -0.0531542 0.176175 -0.0914782 -0.509085 -0.943173 0.782221 0.286907 0.363848 -0.92752 -0.16757 0.46688 0.719391 -0.901888 0.420515 -0.916373 -0.0674831 -0.222901 0.619859 -0.854502 0.930597 0.46161 0.319779 0.496731 -0.554878 -0.446582 -0.674041 0.692942 0.955099 -0.156335 -0.0754121 -0.145273 -0.909014 -0.781879 0.872771 0.663591 0.876743 -0.900739 0.304024 0.210196 -0.508228 -0.618757 -0.945997 0.26475 -0.907495 0.546713 -0.156655 -0.276001 0.132334 0.640069 0.72603 -0.331788 0.822925 -0.0534035 0.0242512 0.280063 0.75604 -0.833988 0.209608 -0.514536 0.581262 0.827261 0.523371 0.69032 0.625627 0.557179 0.812245 0.495561 0.813018 -0.470245 -0.890875 -0.693748 0.875421 -0.553348 -0.347751 -0.139943 -0.334788 0.755844 0.555047 0.444094 0.957031 -0.577251 -0.0358249 -0.921343 -0.465767 -0.143305 -0.0212068 0.0102221 0.0346566 0.474062 -0.998622 0.603706 -0.10944 0.141106 -0.881505 -0.962794 0.882591 -0.641188 0.703151 0.368491 -0.750426 0.426249 -0.280495 0.666303 0.342327 -0.0676877 0.22456 0.329075 0.761841 0.511536 0.833815 -0.680048 0.59652 -0.445528 0.910016 0.923951 0.42782 0.491708 0.272602 0.31582 -0.132366 0.913321 -0.696301 0.694065 0.545397 0.608401 0.709753 -0.413108 -0.90882 0.126738 -0.553283 0.177905 0.538156 -0.0340814 -0.283505 0.906897 0.326862 0.830523 0.912577 -0.743118 0.583196 0.407662 -0.315917 -0.0114994 0.92501 -0.903019 -0.0471909 0.902516 -0.0336811 -0.0253058 0.712693 0.269911 -0.315949 0.342321 -0.0174137 0.851571 0.0258321 0.0104267 0.395436 -0.40407 0.801995 0.88406 -0.18528 0.903643 -0.967629 -0.319657 -0.269579 -0.958324 0.491628 -0.106054 -0.159742 -0.239506 -0.893951 -0.60728 0.673274 0.353614 0.609751 0.00674816 0.444787 -0.147755 -0.956421 -0.932265 0.0476459 0.746026 -0.914211 -0.834634 -0.20577 0.603684 -0.381964 -0.718683 0.0665348 0.390518 -0.320723 0.299914 -0.567855 -0.322586 0.657222 0.193345 0.528629 0.173964 0.452834 -0.0377118 -0.996478 -0.29574 0.537188 0.701021 -0.308512 -0.374295 -0.217599 -0.153464 0.530946 0.0512364 0.0511496 -0.421085 0.773692 -0.541529 0.663969 0.386504 0.279558 0.68238 -0.984767 0.787836 0.922923 0.350637 0.582652 -0.676545 0.335007 0.509572 0.90031 -0.738027 0.646863 -0.21078 0.485719 -0.443803 -0.660023 0.418123 -0.560168 0.767824 0.751758 -0.150766 0.494439 -0.591814 0.0376295 -0.500674 0.483826 0.410239 -0.308564 -0.453792 -0.561347 0.340621 0.262627 0.0899466 0.621195 0.213847 0.213404 -0.415258 -0.422184 0.127847 -0.149103 0.00999171 0.372206 -0.758202 0.00916584 0.783639 -0.695834 0.457936 0.387289 -0.777268 0.205116 0.685433 0.557686 0.726885 0.534712 -0.855031 0.0733581 -0.154317 -0.601694 -0.0109565 -0.285339 0.124744 0.630913 0.986248 0.767253 0.194131 -0.711865 -0.291532 -0.142276 -0.855164 0.566658 -0.612071 -0.264918 0.273867 -0.818095 -0.973395 0.911301 -0.551434 0.149314 0.241021 0.925021 0.613781 0.0075002 0.109517 0.601709 -0.54844 -0.92496 0.715979 0.646569 -0.232377 0.998991 -0.525204 0.256405 0.657517 0.85283 -0.102054 -0.149327 0.148414 -0.993279 0.332139 0.0898041 -0.174264 -0.733762 -0.503455 0.710736 -0.684409 0.328715 0.55567 0.264595 -0.597195 -0.63162 0.0545218 0.862979 -0.565442 -0.00382621 0.135858 -0.755257 -0.461551 -0.325069 -0.0455921 -0.596725 0.171468 -0.421986 -0.0683049 -0.848396 -0.385687 0.609747 -0.368841 -0.702214 0.428229 -0.583699 -0.761505 -0.51948 0.0675516 -0.203295 -0.384768 -0.957499 -0.922419 0.918787 0.938622 -0.526353 0.773841 -0.665947 -0.254778 0.962209 0.828904 0.399635 0.70295 0.986394 -0.567343 -0.593379 -0.913217 0.294101 0.922518 -0.913935 0.421019 0.183446 -0.154597 -0.675863 -0.0223141 -0.339741 -0.335049 0.993564 0.919017 -0.119133 -0.559547 0.179275 -0.0556873 -0.572023 0.532143 0.393702 0.273762 -0.796055 -0.476779 -0.708475 -0.0760918 -0.948026 0.874124 0.246627 0.514603 -0.453294 1.00025 0.036914 -0.450746 0.162695 0.646687 0.261554 0.363782 -0.153804 0.2319 0.744966 -0.503416 0.837618 0.630158 0.19378 0.621643 0.172971 0.0146466 0.0303443 -0.460005 0.467697 0.907454 0.493118 -0.195814 0.810654 -0.747956 -0.858119 -0.471622 -0.805142 0.827847 0.719337 0.634159 0.329721 0.27438 -0.124771 -0.192735 0.626512 0.584289 0.00604408 0.11295 -0.850502 -0.535364 0.605565 -0.521014 0.840685 -0.227628 0.146911 0.13698 -0.651958 0.129043 -0.488923 -0.353359 -0.0296232 0.983043 0.943552 -0.32961 -0.357667 0.630006 -0.0301184 0.619409 -0.308937 0.502786 -0.931674 -0.918945 -0.347075 -0.0172538 0.843268 0.744102 0.484686 -0.493025 -0.442526 0.113661 -0.5299 0.34068 0.491878 -0.770988 0.105175 -0.380918 -0.225173 0.257094 0.932116 -0.498558 -0.991609 -0.401043 0.866557 -0.349941 0.403882 0.643122 0.514061 -0.231401 -0.451838 0.0436216 -0.971712 0.404957 -0.0517656 -0.611141 0.321145 0.772104 -0.320618 0.0102852 0.68988 -0.785784 -0.0659084 -0.708828 -0.51851 0.664111 0.0945224 0.733473 0.0309435 0.703204 -0.237241 0.368743 0.797287 -0.670739 0.496057 0.18767 -0.140832 -0.95195 -0.50289 -0.673304 0.861827 -0.699088 -0.223418 0.11095 -0.0572939 0.844269 -0.509726 0.752409 -0.122018 0.94306 -0.0351318 -0.985041 0.256775 0.652806 -0.221488 0.317199 0.574234 0.672862 0.70655 -0.0770681 0.911535 0.926041 -0.993362 0.468305 0.535642 0.668921 -0.738811 0.305855 -0.795337 -0.0330297 -0.824349 0.588179 0.619694 -0.472192 -0.566385 -0.00707616 0.282204 -0.523439 -0.870911 -0.296118 0.129841 -0.339135 0.0198295 0.788924 0.0704839 0.967584 0.876437 -0.727643 -0.310799 0.112114 -0.625727 0.699752 -0.710991 0.32451 0.273793 -0.466708 -0.480151 -0.536158 -0.493022 0.0525934 0.677828 -0.175036 0.577817 -0.746196 -0.131838 -0.637668 0.552717 0.556473 -0.387493 0.271064 0.854068 0.0340001 -0.587778 0.212392 -0.761088 0.480305 0.391698 -0.0625372 0.823213 -0.739489 0.0435298 -0.553865 0.880966 0.148305 -0.983305 -0.42701 0.915322 0.126049 -0.906737 -0.264965 0.471022 0.021428 -0.187308 -0.9463 0.816877 0.648335 -0.492756 0.411033 -0.809704 0.390344 -0.635535 0.294634 0.252759 -0.669357 0.286293 0.876018 0.963929 -0.647218 0.398714 -0.191726 1.00128 0.746138 0.604003 0.303048 -0.50574 0.00955093 -0.385692 -0.755307 0.993093 0.182734 0.676671 0.341962 0.320145 -0.943325 0.527995 0.601917 -0.201526 -0.594669 0.59061 0.0694797 -0.0858636 0.238816 -0.751496 -0.688474 -0.473295 -0.288455 0.506106 0.677081 -0.0177053 -0.410508 0.759719 -0.32965 -0.438706 -0.715808 0.941868 -0.960988 -0.902387 0.148249 -0.599805 -0.817151 -0.243122 -0.440699 -0.982158 -0.824386 -0.167513 -0.660652 -0.943707 -0.212224 0.990169 -0.55403 -0.880353 -0.430137 -0.169749 -0.665328 0.965906 0.0508248 -0.439163 -0.181825 -0.417169 -0.504348 0.6737 -0.215615 0.82784 -0.256579 -0.216773 0.790032 -0.48094 0.613645 -0.956267 0.244172 -0.906697 0.444913 -0.889048 0.670828 0.53498 -0.171534 -0.822252 -0.327702 0.987284 -0.327312 0.288926 -0.574609 -0.7401 -0.191837 1.01909 0.0439124 0.355696 -0.838901 0.0938996 0.514516 0.348808 0.715885 0.959337 -0.386596 -0.525363 -0.785394 -0.796368 0.196867 -0.459098 -0.862477 -0.240631 -0.725162 -0.70725 0.299868 0.27886 -0.0243464 -0.655027 0.363689 -0.83829 0.278534 0.569271 -0.242656 -0.369995 0.668979 -0.751052 0.00718899 -0.910867 -0.481475 0.777326 -0.387911 0.460572 -0.489597 -0.0743372 0.26899 -0.873917 -0.109845 0.62846 0.948683 0.71821 0.682724 0.795639 -0.116477 -0.129816 0.0633975 -0.60662 -0.869355 0.197818 -0.654501 -0.000763109 0.634035 -0.0111484 0.468866 0.346462 -0.163825 0.549351 -0.847957 -0.26215 0.102783 -0.574262 -0.532013 0.847113 0.798445 -0.364553 0.354652 -0.992689 0.464954 -0.906328 -0.514617 0.686432 -0.118996 -0.674038 0.244728 0.909981 -0.771674 0.0257211 0.248278 -0.587666 0.748825 -0.743891 -0.239474 0.0198545 0.181857 0.0971736 -0.639228 0.0761416 -0.457999 -0.461431 0.259745 0.908441 -0.389153 -0.0310203 -0.882928 0.389317 0.458993 0.634304 -0.10301 0.541328 0.0617249 0.899949 0.998524 -0.930163 0.33031 -0.323008 -0.245949 0.7311 0.515353 -0.674724 0.260295 -0.454518 0.250021 -0.0855838 -0.286247 0.593658 -0.309328 0.436828 -0.800501 0.644288 -0.539562 0.278249 0.758601 -0.341902 -0.413937 -0.0602342 -0.218624 -0.82622 -0.144023 -0.0348019 -0.825794 -0.913462 0.20643 -0.405965 0.804154 -0.0869223 -0.756837 0.760462 0.973216 0.298521 0.712621 -0.374624 0.728485 -0.503174 -0.958055 0.914521 -0.985552 0.718526 -0.10624 0.0258659 -0.983914 0.205521 -0.550975 -0.810511 0.0493276 0.47147 -0.151448 -0.0117997 -0.202927 0.261015 -0.737581 0.373094 -0.455493 0.68026 0.658869 0.112308 0.0533038 -0.813234 -0.654553 0.281443 -0.0277779 0.794884 -0.317597 -0.022465 -0.846705 -0.473985 -0.856296 -0.490998 0.529479 0.94342 -0.67388 -0.645177 0.0736499 0.952412 -0.0301867 -0.482486 0.0324244 -0.501944 -0.624086 -0.683438 -0.0153594 -0.753183 0.546533 -0.0706735 -0.221962 0.250552 0.299927 0.285905 0.695867 0.540766 0.810706 0.227775 -0.870052 -0.548372 -0.334103 -0.755856 -0.823336 -0.881529 -0.505527 -0.803196 -0.25478 -0.474262 0.137745 -0.573888 0.614344 0.40595 0.44649 0.476342 0.69774 -0.550807 0.185628 -0.503301 0.416074 0.947266 -0.385495 -0.603764 -0.508775 0.469763 -0.501138 0.988672 0.899316 -0.310906 -0.448877 0.830768 -0.607093 0.164794 0.547098 0.17376 -0.301261 -0.606964 -0.114079 -0.104553 0.537714 -0.100749 -0.410119 -0.57063 0.798106 0.196174 -0.894217 -0.0244101 0.272028 -0.863717 -0.159932 0.935222 0.9646 0.815737 -0.113636 0.920373 -0.816474 -0.175817 0.309881 0.271451 0.12461 0.377118 0.00572861 0.916908 -0.301878 0.867421 -0.430529 0.630897 -0.811904 0.157844 -0.305158 0.349128 -0.608305 0.00333218 -0.469007 -0.46213 -0.273183 -0.751798 -0.310126 0.845752 0.20731 -0.789643 0.337125 0.198226 0.697019 -0.141015 -0.143444 0.738677 -0.817472 0.0581516 -0.179562 0.757417 -0.922442 0.242788 0.00818359 -0.628296 -0.117464 -0.106291 0.475362 0.0747691 -0.369174 -0.886082 0.802259 -0.647347 -0.850119 0.718817 0.391946 0.512932 -0.0964931 -0.687901 -0.643464 -0.466247 -0.611068 -0.575183 -0.212027 0.803766 -0.377328 -0.227456 -0.848665 -0.627471 -0.970294 0.603921 -0.30561 -0.202121 -0.926211 -0.496501 0.941383 -0.71414 -0.475124 0.867504 -0.742507 0.474585 0.74773 0.210088 0.551685 0.812373 -0.826011 -0.38908 -0.411259 0.830568 0.0893439 0.520233 -0.352454 0.359169 -0.375911 0.225391 0.152321 -0.766439 -0.932252 -0.249346 0.980325 0.0885644 -0.244264 -0.416071 0.259361 0.97154 0.954694 0.40036 0.750135 -0.538989 -0.418049 0.452886 -0.407621 -0.261132 0.499391 0.394848 -0.0614655 0.464224 -0.11409 -0.814908 0.485435 -0.311651 0.00680184 -0.874311 -0.0382947 -0.483469 0.754429 -0.14403 -0.503432 -0.278481 -0.740736 -0.403488 -0.14675 0.639702 -0.456313 -0.882854 -0.469273 -0.845764 -0.558825 0.741718 0.881681 0.25726 0.742435 0.368715 0.286578 0.675139 -0.724934 -0.604881 0.780574 0.980926 0.0471052 -0.18903 -0.972819 -0.246237 0.77602 0.696016 0.416285 -0.175147 0.160769 -0.970585 -0.564602 0.313453 -0.964308 0.403727 0.451421 -0.706641 -0.444158 -0.265388 -0.48008 0.570762 0.851023 -0.734049 0.95886 -0.645596 0.556178 0.782232 -0.240156 -0.320609 -0.118922 -0.264213 0.628665 -0.706901 -0.232774 -0.746987 0.426902 -0.731075 0.960091 -0.854329 0.53597 -0.267577 0.606148 -0.794894 0.78008 -0.52744 0.908475 -0.734298 -0.39602 -0.931306 -0.49376 0.925152 0.19182 -0.0918676 0.0185103 0.169276 -0.0413843 0.900561 0.393379 -0.230764 0.51904 -0.898757 0.8488 -0.416135 0.886916 0.511384 0.768158 -0.924002 0.136239 -0.0807989 -0.682799 -0.508269 0.964381 0.367468 -0.472226 0.274209 -0.890156 -0.584068 -0.329287 0.581045 -0.848132 0.69186 -0.825304 0.382008 0.462032 0.362813 0.700288 0.125185 0.623641 0.792939 0.105256 0.489754 -0.0655062 -0.970686 -0.778169 -0.0918458 -0.174096 0.385232 -0.087135 -0.119642 -0.748098 0.126057 -0.23646 0.216163 -0.200144 -0.910032 0.57711 -0.228865 0.417788 0.255144 0.601898 0.82637 -0.495786 0.956439 0.204249 0.0919321 -0.557341 0.156456 0.758273 -0.175899 0.22566 -0.591307 -0.351496 -0.223676 0.646678 -0.572486 -0.123511 -0.723722 0.498446 0.687967 0.581482 -0.052595 0.369331 0.503803 -0.765394 0.139261 -0.700297 0.242806 0.727694 -0.371967 -0.676226 -0.542102 0.574715 0.603914 -0.942666 -0.0901716 -0.616459 -0.727526 0.117256 0.475912 -0.513793 -0.679189 0.859097 -0.809803 -0.951052 -0.412096 -0.411094 -0.142843 0.72558 0.900082 -0.545519 -0.633274 0.702149 -0.114355 0.309986 0.596004 -0.165069 0.673595 -0.539692 -0.276208 0.426 -0.844771 -0.286806 0.491207 0.847096 -0.639984 0.775621 -0.29953 0.598348 -0.243753 0.262266 0.0264184 0.155488 0.238783 0.77027 -0.879169 0.901823 0.619652 0.378745 0.743045 -0.295998 0.385779 0.0492937 -0.835833 0.616526 0.142195 -0.0477517 -0.942491 0.0253804 -0.229091 -0.850418 0.00226474 -0.421465 -0.877773 -0.723948 -0.0655714 0.309968 0.914655 -0.469071 -0.408384 -0.0267028 0.869329 0.453965 -0.985421 -0.146454 0.894681 0.621174 -0.532567 -0.0919414 -0.876772 -0.830357 0.330852 0.315136 -0.443147 -0.626065 -0.162255 -0.166282 0.732574 0.446374 0.595903 0.749535 0.736916 0.160027 0.544105 0.290283 0.0252819 -0.95572 0.444882 -0.3228 0.839221 0.628319 0.345991 0.166198 0.736066 -0.334177 0.293556 0.232195 0.141992 -0.855134 0.68019 -0.870267 -0.598611 0.516622 0.761825 0.805155 0.0899 -0.0780721 0.357223 -0.817239 -0.260625 0.987659 -0.752927 0.119591 -0.850673 0.306016 0.148365 -0.392948 0.108351 0.528121 0.343646 0.831518 -0.810616 -0.568643 0.211831 -0.657289 0.0411593 -0.315559 -0.080778 0.560109 -0.746197 -0.205619 0.530654 -0.0461705 0.64198 0.703781 -0.312 -0.819825 0.411646 -0.485923 -0.417774 0.24501 0.0738485 0.143828 -0.0768262 -0.900262 0.0987245 0.0176241 -0.988752 -0.827253 -0.236825 0.35538 -0.241902 0.628961 0.129242 -0.862442 -0.681019 -0.175217 0.157686 -0.653163 0.261246 0.0616253 0.356871 -0.854713 0.43246 -0.70776 -0.761336 0.625869 0.262175 0.731395 0.828393 0.492691 -0.388947 0.28524 -0.0594584 0.687509 0.5286 0.830486 0.873239 0.0849618 -0.777619 0.309953 -0.108927 -0.328622 -0.592275 0.3113 0.763407 0.405532 -0.970746 -0.296891 -0.568422 0.370666 0.985119 0.301792 -0.658301 -0.3956 0.326883 0.44035 0.246312 -0.927333 -0.963986 0.608864 0.759427 -0.303321 0.62219 -0.726661 0.294175 -0.956038 -0.449737 0.541358 -0.77493 0.309129 0.591095 -0.746988 -0.214782 -0.0733239 -0.72053 -0.0345719 0.774987 0.627201 0.903388 0.684457 0.422765 0.934707 -0.17975 0.110297 0.441462 0.0504865 -0.704389 0.104097 0.978155 0.24303 -0.244755 -0.660563 0.59899 0.886214 0.157638 -0.583243 0.951616 0.808027 0.41578 -0.250856 0.0903239 0.106285 -0.949042 0.289342 0.158949 -0.746131 0.509596 0.793685 -0.410008 0.694557 0.7034 -0.437649 -0.479525 0.563338 0.587689 0.886232 -0.348306 0.807583 0.409991 -0.514368 -0.032535 -0.0451231 -0.869534 -0.392641 -0.236872 0.527665 0.593058 0.625016 -0.917613 0.402111 0.396268 -0.017627 0.0428218 0.929637 -0.591994 -0.652677 0.571649 -0.270035 -0.195803 -0.216957 0.810019 0.988495 -0.416697 -0.59867 -0.0341676 -0.783314 -0.687434 -0.983948 0.0559779 0.365975 -0.391925 -0.166918 0.898334 -0.666507 -0.145169 0.976061 0.784256 0.259786 0.487867 -0.780436 -0.68612 0.224179 -0.288582 -0.998138 -0.217131 -0.239489 -0.764345 -0.434031 -0.489503 0.707427 0.305457 0.888904 0.502317 -0.0567009 -0.383033 0.315452 -0.830392 -0.453587 0.3232 0.839695 -0.656062 0.726148 -0.00302017 0.682916 0.164147 0.340636 -0.337817 -0.637307 0.0812867 -0.840187 0.0866765 -0.791377 0.398348 0.113324 -0.770872 0.251644 0.378108 0.364457 0.64099 -0.321755 0.1199 -0.0864307 -0.646886 0.966292 -0.312512 -0.763527 0.909507 -0.929675 -0.784056 0.754453 0.724644 0.314161 -0.57498 -0.289038 -0.495231 0.535777 0.0562041 -0.567373 0.146777 0.377583 -0.292394 0.245324 0.620724 -0.0749439 -0.856942 0.44198 0.990047 0.575897 0.422782 0.3501 -0.829188 0.845377 0.00514125 0.451246 0.792488 0.677286 0.554569 0.582091 0.835655 0.803449 0.246164 -0.181581 0.488649 -0.755436 0.659922 0.722168 -0.431893 -0.023029 0.267209 -0.566443 0.509362 -0.0606227 0.4402 0.10534 0.400486 -0.60535 -0.837133 0.364782 0.919181 0.931266 0.923073 -0.222044 0.258464 0.0349729 -0.310405 -0.295761 0.58662 0.358791 0.984179 0.281037 -0.989366 -0.786092 -0.57954 0.456347 -0.679222 -0.126037 -0.558593 -0.727199 0.906026 0.918452 -0.690874 -0.702712 -0.360584 -0.592586 0.309628 0.957306 -0.192158 0.0983736 -0.798226 -0.373617 0.825942 -0.69782 -0.560274 -0.667011 -0.402586 -0.439891 0.652847 -0.74831 0.110135 -0.787662 -0.849229 -0.300717 0.745654 0.603994 0.745371 -0.656233 0.441034 0.367914 -0.545291 -0.431199 0.571803 0.55848 0.656825 0.509429 -0.126106 0.976661 -0.363523 -0.541762 0.648403 0.340242 -0.251836 -0.456616 0.989367 0.588959 0.953841 -0.541645 -0.661386 0.293494 0.965017 0.970671 -0.349361 -0.739275 0.10908 0.956094 0.188924 -0.057629 -0.0089433 -0.192534 -0.591223 0.454231 0.325171 -0.760824 -0.987165 -0.924772 -0.3389 -0.142413 0.706563 -0.399989 0.49698 -0.0614345 0.397162 -0.624507 0.959004 0.717989 -0.0156069 -0.17731 -0.188268 0.0978219 -0.564069 -0.143773 -0.824055 -0.872215 -0.63514 0.663241 -0.747465 0.402838 -0.960534 0.525672 0.240858 0.413025 -0.854549 0.312934 -0.0713046 0.5287 -0.862616 -0.781931 -0.830007 0.294227 0.752585 -0.401283 0.396842 -0.682725 -0.341013 -0.318029 0.475231 -0.338892 0.943879 0.70453 -0.790143 -0.430034 0.395416 0.0153759 0.782875 0.411738 0.384954 -0.0517769 0.428092 -0.231097 0.112025 0.128999 -0.389371 0.666132 -0.826815 -0.0466678 0.618346 0.455173 -0.949967 0.587966 0.976509 0.585629 0.430465 0.505804 0.720741 -0.970888 0.619339 0.975586 -0.473593 0.352584 -0.325616 0.913886 -0.230879 0.93912 -0.838989 -0.133495 -0.876378 -0.448144 0.846849 0.909872 0.774133 -0.578669 -0.0445619 0.571372 -0.439703 0.122967 0.134792 -0.385887 0.741293 -0.946624 0.796633 0.406741 0.494577 -0.473959 -0.897672 -0.925499 0.203221 0.160762 -0.86387 -0.544304 0.998854 -0.116696 0.44818 0.724883 -0.999911 -0.743842 -0.852769 -0.881039 0.114353 0.405015 0.961466 0.630781 0.472717 -0.757326 0.523233 0.295808 0.913043 0.109925 0.13366 0.0657743 -0.874954 -0.131991 0.96209 0.970816 -0.922023 -0.429884 -0.0625826 -0.904579 -0.953752 0.806667 0.422113 0.243836 0.662324 -0.323001 -0.526935 -0.896179 -0.484258 0.988338 0.998691 0.280614 0.854359 0.414485 0.869258 0.355942 -0.408412 -0.558499 -0.249155 -0.950603 0.716225 0.979869 0.608142 -0.0108998 0.919719 -0.00422634 0.947441 -0.709686 0.804385 -0.550615 -0.467893 0.0641969 -0.296126 -0.0260539 0.126431 0.981668 0.738632 -0.578744 0.335322 0.356272 0.289212 0.880533 0.320914 -0.640158 -0.480761 -0.363848 -0.462333 -0.927959 -0.726688 0.706588 0.166956 0.516078 -0.137278 0.111017 -0.981171 -0.83662 -0.248643 0.149876 -0.0251493 -0.731553 -0.77014 0.87043 -0.512227 0.467725 -0.0531997 -0.112865 0.0917564 -0.66164 0.691145 -0.137139 -0.24957 0.289507 -0.523238 -0.445512 0.93444 -0.864652 -0.300353 -0.130117 0.242215 0.927246 -0.51172 0.613211 0.81844 0.1829 -0.619441 0.725769 0.663943 -0.160144 -0.0448272 0.985199 -0.853509 -0.193424 0.344925 0.224195 -0.847171 0.129356 -0.324264 0.883992 -0.334959 -0.850578 0.901693 -0.140427 0.108687 0.517319 -0.728116 0.915824 -0.481476 0.396472 0.0180118 -0.831698 -0.970139 -0.306148 -0.17194 -0.754913 0.932071 0.36073 0.652196 0.791125 0.241424 0.499188 -0.83578 0.791194 -0.699015 0.983867 -0.161208 0.827986 0.947138 0.608786 -0.556499 -0.127624 0.296655 0.273165 0.284436 0.932444 0.99476 0.296271 -0.410573 -0.461213 -0.696749 0.761651 0.393836 0.0136469 0.963831 -0.0134562 -0.645336 -0.624798 0.105012 -0.880192 0.389966 -0.123658 0.743004 0.545906 0.169156 0.946333 0.233565 -0.340311 -0.676015 0.446811 -0.995209 0.930051 0.293094 0.434002 -0.194287 0.231301 -0.164316 0.814408 0.823435 -0.918784 0.640988 -0.150311 0.00728121 0.627461 -0.0208648 0.733139 -0.757515 -0.394627 -0.941345 0.197108 -0.629487 -0.122861 0.716353 0.610832 -0.788527 0.127047 -0.970867 0.993113 -0.512833 -0.285774 -0.134583 -0.48514 0.619148 -0.48849 0.00167189 0.428252 0.575237 -0.815447 -0.432687 0.467939 -0.0804039 -0.603821 -0.452407 0.268466 0.241508 -0.621453 -0.0545362 0.408434 -0.255913 -0.736476 0.693128 -0.424421 0.204926 -0.147594 -0.439794 0.280222 0.497239 -0.98108 0.477934 -0.325407 -0.606449 -0.204096 -0.812171 0.165261 -0.518816 0.838111 -0.808146 -0.538584 -0.903205 -0.302254 0.0894874 0.968988 -0.662023 0.224516 0.670387 -0.690666 0.0789495 0.243699 -0.389204 0.735384 -0.395714 -0.825335 0.231678 -0.254899 0.995701 0.749873 -0.219565 -0.384329 0.328483 0.0228006 0.00242472 0.415698 0.586723 -0.919375 -0.999607 0.0177475 0.100506 -0.411454 0.54777 -0.0394504 0.0287585 -0.0762173 0.241114 0.807421 -0.0581699 -0.931553 -0.85132 0.18038 -0.28073 -0.38594 0.429555 -0.214893 -0.669062 0.759475 -0.731202 0.886019 -0.283813 0.931491 -0.631953 -0.252741 0.696927 0.25919 0.804517 0.540686 0.932027 0.422377 -0.883488 0.532895 0.0748685 -0.838291 -0.300251 -0.193596 0.212691 -0.230544 -0.951641 0.234064 0.575669 0.722747 -0.83603 0.0913476 -0.779769 0.49519 0.480933 0.154701 0.261946 -0.410341 0.435342 -0.571857 0.926231 -0.986016 -0.852179 -0.637663 -0.389026 0.423782 -0.693225 -0.57123 -0.969544 0.0595262 0.148743 0.674348 -0.667887 -0.888013 0.00484582 -0.528934 -0.60389 0.188149 0.748678 -0.934945 0.796751 -0.873266 -0.565655 0.752354 0.445688 -0.588715 -0.132677 0.529602 0.989561 0.489658 -0.0768045 -0.017019 -0.358298 -0.409661 -0.23994 -0.127667 -0.80753 0.449695 0.735564 -0.875008 -0.747187 -0.0100403 -0.776187 -0.698299 0.0221321 0.822402 -0.491778 -0.0680877 0.631034 -0.773461 -0.401488 -0.662839 -0.117119 -0.312286 -0.563113 -0.843287 -0.734195 -0.769443 0.430065 0.0949097 0.755774 0.162298 -0.622486 0.744783 0.65277 0.871384 -0.035749 -0.204931 -0.233764 0.709954 -0.878914 -0.628383 0.9598 0.441993 0.0550165 0.137252 0.548168 0.678885 -0.626944 -0.74397 -0.68542 0.459813 0.355448 -0.503651 0.466399 0.742667 0.923214 -0.871986 0.927166 -0.609294 0.765958 0.693142 -0.207271 -0.155855 -0.801341 0.743714 0.326648 0.414042 0.647057 0.0616702 0.667562 0.309805 0.131159 -0.115101 0.803916 -0.414436 0.393368 0.846798 0.898765 -0.809888 -0.866424 -0.679501 -0.13504 0.470211 -0.0414876 -0.418287 -0.849285 -0.73373 0.37476 0.452167 0.614521 -0.579988 -0.950817 0.247311 0.328249 0.616856 -0.945568 -0.69414 0.929387 -0.463056 0.823949 0.574198 0.550558 -0.203531 -0.281937 -0.379799 -0.857268 -0.0288653 0.496275 -0.393602 -0.0335297 -0.846921 -0.93283 0.881611 -0.438162 -0.690848 -0.73701 -0.129642 -0.981376 -0.951805 0.0223956 -0.496588 -0.732156 0.152015 -0.482457 0.973271 0.331454 0.171429 -0.127808 -0.464542 0.838945 -0.718551 0.729392 0.751895 -0.697848 -0.623934 -0.0291243 0.976929 0.558154 -0.515383 -0.504477 -0.0257859 -0.767869 0.684041 -0.278118 -0.0932535 -0.89211 -0.285466 -0.360159 -0.415855 -0.772145 -0.379522 0.94273 -0.163396 -0.72391 -0.227405 0.908454 0.747153 -0.698642 -0.547054 -0.911418 0.153255 0.386732 -0.157938 -0.324032 -0.369434 -0.615783 0.248561 -0.0325017 0.773063 0.117123 0.473236 0.337346 0.699603 -0.045531 -0.0611121 -0.360236 -0.555191 0.956492 -0.822475 -0.973685 0.201543 0.919643 0.164338 0.601549 0.295806 -0.437189 -0.140517 0.0434799 0.936407 -0.822049 -0.565277 -0.113897 -1.00294 0.29214 0.13874 -0.330046 -0.928892 -0.401827 0.113645 0.571762 0.665477 0.135047 -0.812701 -0.115292 0.617285 0.453547 0.265686 0.764732 0.804405 -0.209606 -0.215419 0.764896 -0.283743 0.00304668 0.0988512 0.952024 0.698638 -0.0655473 0.835729 -1.00163 -0.715871 -0.773077 0.864354 -0.00257023 -0.727931 -0.65806 0.116876 0.447492 0.248624 0.880783 -0.140718 0.306518 -0.393439 0.709915 -0.708166 -0.380947 0.0816346 -0.574062 -0.786168 -0.722613 0.0314415 0.755726 -0.924671 -0.700031 0.0132546 0.958543 0.90329 0.291399 -0.196552 0.0812596 -0.397148 -0.0800953 0.501168 0.273977 0.279808 0.901883 -0.48561 -0.696685 0.227314 -0.240864 -0.0806509 -0.688736 0.830249 -0.272374 -0.948139 0.657838 0.829119 1.00662 0.367871 0.480702 0.515919 0.0364789 -0.649883 0.77191 0.27189 -0.647702 0.842341 0.667081 -0.652654 -0.419219 -0.105038 0.169075 -0.694918 0.600697 -0.447607 0.393334 0.007274 -0.0497913 -0.3231 0.765319 0.355223 0.951585 -0.198204 0.68969 0.878646 -0.0176905 0.781928 0.467857 -0.297435 0.2122 -0.321862 0.903041 0.0632455 -0.792792 0.0725831 -0.205899 0.76658 0.63374 0.158576 -0.584738 -0.678168 0.0683275 0.875781 -0.836465 -0.370233 0.925286 -0.169799 0.183698 -0.438141 -0.617782 0.871351 0.393984 -0.968269 -0.974878 0.648614 0.179939 0.759801 0.7317 0.555866 0.401159 0.693212 0.494051 0.318056 0.567632 -0.104881 -0.605174 0.954656 -0.860788 -0.3863 0.926039 -0.150941 0.819431 -0.698127 0.459951 0.172657 -0.67294 0.591799 0.835943 -0.637563 0.866721 -0.22086 0.877443 -0.186872 0.6529 -0.737834 0.61675 -0.189003 0.0418729 0.0115472 0.0103675 0.331862 -0.96 0.964084 0.175697 0.342792 -0.91785 -0.755661 0.171225 0.956512 -0.341091 -0.423258 -0.00981652 -0.024528 -0.234922 -0.335686 -0.937897 0.246445 -0.112876 -0.979566 -0.0745446 0.175547 -0.413992 0.569512 -0.694314 -0.802936 -0.396463 -0.414483 -0.939363 0.809704 0.135274 -0.841059 -0.873099 -0.306926 0.584293 -0.471676 -0.482612 0.470829 0.885897 0.0913027 -0.091063 0.131166 -0.467822 0.506627 -0.0857867 -0.506644 0.828013 0.188804 0.536842 0.494422 0.189359 -0.893059 0.0210653 0.107472 0.430957 -0.898322 -0.882501 -0.61089 -0.805775 -0.941476 0.354601 -0.101105 -0.694668 0.70355 0.874318 0.0422355 0.501405 0.504323 0.620631 -0.290443 -0.354687 0.361916 -0.0667077 0.136757 -0.983091 0.639971 -0.53894 0.0756443 0.614405 -0.862572 0.475198 0.843632 -0.509476 -0.392233 -0.450062 -0.488429 0.157937 0.784198 -0.63705 -0.880574 -0.0183689 0.88013 -0.688801 0.202299 0.296593 -0.0690165 -0.66049 -0.080906 0.932997 0.91938 -0.656955 -0.312331 0.13065 -0.19469 0.40442 -0.744206 0.56812 0.10389 0.634769 -0.374216 -0.319812 -0.700217 0.189855 -0.053885 -0.300369 -0.921382 0.956451 -0.253607 0.799317 -0.623629 -0.697301 0.0508908 0.216961 -0.239409 -0.631338 -0.416605 0.258535 -0.728428 -0.724698 -0.00988958 0.870084 0.782678 -0.927934 -0.670389 -0.389364 -0.644212 0.104553 0.754327 0.2681 0.526413 -0.153781 -0.437257 -0.728491 -0.707642 0.501407 0.669006 -0.980723 -0.627086 -0.577152 0.0596827 0.697114 -0.26004 -0.641865 -0.831078 -0.688155 -0.12893 -0.0145968 -0.804385 0.226848 -0.705395 0.432851 0.790186 0.713822 0.104778 -0.393215 -0.655316 0.605577 0.802838 0.87678 0.0960178 -0.386771 -0.0102449 -0.0721517 -0.377972 0.440353 0.755521 0.215047 0.319357 0.00772805 -0.504133 0.162191 -0.74805 0.565486 -0.437395 0.891922 -0.47105 -0.613989 -0.210802 0.649173 0.41388 -0.519032 0.173271 -0.144831 -0.761977 0.676186 -0.258016 -0.0143141 0.378102 -0.650961 -0.789571 0.85849 -1.01438 -0.418303 -0.0951332 0.909655 0.62298 -0.922472 0.926299 0.395213 0.848822 0.667313 -0.0477228 0.329273 0.90269 0.573091 -0.521852 0.432813 -0.952512 0.563574 0.167173 -0.905819 -0.275048 -0.657377 0.403893 0.195703 -0.500902 -0.635999 -0.77246 0.714228 -0.412594 -0.30684 -0.191751 -0.302915 -0.891729 -0.2971 -0.357975 0.227077 -0.953621 0.250887 -0.610017 -0.339319 -0.823734 -0.827683 0.80156 -0.99646 0.159728 -0.346595 -0.0724509 0.734832 0.968833 0.0460925 1.02245 -0.658261 0.387364 0.915149 0.199677 0.333229 0.704752 0.898785 0.820528 -0.254522 0.904249 -0.686248 -0.458233 0.0101389 -0.947101 0.404675 0.60577 0.79084 -0.24 0.591022 -1.00361 0.794662 0.113544 -0.702108 0.373501 -0.0883429 0.965597 0.425857 -0.723361 -0.679843 -0.524189 0.359631 -0.279372 -0.507202 -0.11665 0.808583 -0.992739 0.583497 -0.91055 0.552691 0.933532 0.278385 -0.59297 -0.531127 -0.814038 -0.00351304 -0.663076 -0.979635 -0.897018 -0.632834 -0.363224 0.965568 0.882312 -0.10592 0.639274 -0.191917 -0.465472 0.431288 0.0144128 0.371508 0.0449108 0.0314769 0.680839 -0.371371 -0.593131 -0.619625 0.410881 0.0960144 -0.784201 0.491364 -0.880871 0.862696 -0.182194 0.758633 -0.496547 0.510659 0.181372 -0.175321 -0.273756 -0.700444 -0.748284 -0.724397 0.086849 -0.395322 0.176919 0.186614 0.055953 -0.211737 0.806722 0.589991 -0.760828 -0.181702 0.942237 0.372773 -0.488557 -0.265899 0.0181055 1.0238 0.566018 0.192211 0.938418 0.544437 -0.24389 -0.873593 -0.0257825 -0.452733 -0.116556 0.0477641 0.790995 -0.0254609 0.915731 -0.745431 0.331449 0.910226 -0.733963 -0.289514 -0.114602 0.648873 0.497927 0.0601571 0.51386 0.201464 -0.624012 -0.470057 0.524973 -0.104698 0.286291 0.29416 0.818945 -0.532552 0.411726 0.913626 0.368321 0.0918646 -0.742014 0.579476 -0.556902 0.519897 0.830546 -0.160932 0.0181599 0.772078 -0.16406 -0.381112 -0.535632 -0.4546 -0.82195 -0.152493 -0.0350216 0.886454 0.207793 -0.729619 -0.705478 0.125521 0.492004 0.233923 -0.315925 0.368209 0.823041 -0.767049 0.471993 -0.0785681 0.640251 -0.775726 -0.537155 0.54671 -0.485137 0.325874 -0.0836222 0.414184 -0.363587 0.440918 -0.726788 -0.533242 0.125688 -0.474689 -0.622679 0.342269 -0.840247 -0.802802 -0.0824734 0.255833 -0.127832 -0.403936 0.599447 -0.524023 -0.359003 0.317844 -0.933869 0.665909 -0.221035 -0.947 0.631289 0.689211 0.399152 -0.317004 -0.822033 -0.432791 0.68283 1.01411 -0.662144 0.0293452 -0.419796 -0.291888 -0.678484 0.881376 0.954813 0.709803 -0.417298 0.959671 0.235127 0.587065 0.716217 0.967266 -1.00152 0.107806 -0.840724 -0.959843 0.015294 -0.175618 -0.502609 0.238372 -0.108159 0.0707645 -0.227786 0.0958275 0.0140493 -0.0173007 0.0702608 -0.464734 0.915844 0.148657 0.563483 0.755617 0.259055 0.611299 0.345129 0.51974 -0.188557 0.162375 0.806208 -0.599229 0.816982 0.455796 -0.122982 0.559039 0.650166 0.441147 0.476832 -0.624323 -0.124052 -0.156504 -0.754997 0.444124 -0.867472 -0.611004 0.0449676 -0.630305 0.623544 0.356983 0.000920085 -0.747806 0.163462 -0.2891 -0.464066 -0.939051 0.170813 -0.897481 0.572052 0.517978 0.254881 0.692692 -0.578791 0.421528 -0.691509 -0.423444 0.641919 -0.4641 -0.795515 -0.68439 -0.0346421 -0.200288 0.0691819 -0.0869574 -1.01387 0.282378 0.205225 -0.806259 -0.983978 -0.30935 0.229683 -0.927699 -0.496289 -0.17328 -1.01578 -0.476947 -0.895772 0.110693 -0.869935 -0.734007 0.618025 0.797953 0.914943 -0.481142 0.459629 0.185545 0.642518 0.0414517 -0.837641 0.708095 0.802296 -0.924447 0.452725 0.93537 0.651042 0.993992 0.605407 0.83948 0.378992 -0.674328 -0.497232 0.170931 -0.939407 -0.960223 0.522951 0.957771 -0.842351 0.358415 -0.865779 -0.650779 0.136647 -0.898164 0.864461 -0.392704 0.915161 0.801717 0.212712 -0.647298 0.0289103 -0.438084 0.127206 0.818283 -0.0938258 -0.679756 0.858817 -0.268515 -0.767823 0.159271 0.672811 -0.570866 -0.57356 0.527095 0.180648 -0.441203 0.799387 0.158997 0.279618 -0.39263 -0.945675 0.437301 -0.437434 -0.124755 0.345062 -0.312328 0.344111 -0.158888 -0.791776 -0.234848 -0.378173 -0.214911 -0.727986 -0.821276 -0.489363 0.708892 0.870286 -0.717824 0.37475 -0.41194 -0.0807648 0.606471 0.496198 0.874012 0.607226 -0.192239 -0.022688 0.363586 -0.149349 -0.559266 -0.180379 -0.0213354 -0.340067 -0.986318 0.0263729 -0.209103 0.885393 0.112771 -0.672954 -0.00186933 -0.756045 0.292758 -1.01153 0.229185 -0.325965 -0.021964 0.709357 0.432886 0.608468 0.544411 0.940041 0.686974 0.107701 -0.50173 0.398933 -0.040457 0.340871 0.94812 0.757223 1.09913 0.0062032 0.876096 0.256336 0.322333 0.900348 -0.0710606 -0.138378 -0.347144 0.468188 0.589459 0.16153 -0.598265 -0.255939 0.970225 -0.39265 0.300468 -0.841344 -0.485122 -0.30725 -1.00641 0.22766 -0.0664727 0.647269 -0.145743 -0.762324 0.79617 -0.448524 0.190017 -0.518552 0.352789 -0.858949 -0.498727 -0.220273 0.911834 -0.228235 -0.420135 0.233381 0.740693 0.421404 0.0375391 -0.631147 0.35162 0.514575 0.858237 0.653884 0.944163 -0.289327 1.04566 -0.20768 -0.435474 0.69032 -0.646031 -0.306219 -0.521058 0.186284 -0.661302 0.615878 0.657771 0.840867 -0.685802 -0.201312 0.702531 -0.390025 0.236846 -0.0845555 -0.603544 -0.949125 -0.311372 0.28293 0.233487 0.792212 -0.928979 0.86913 -0.555866 -0.0643169 0.479463 -0.62487 0.886739 0.14856 0.748421 0.0831687 0.862712 -0.867929 -0.932606 -0.80158 0.553391 -0.178658 -0.860984 0.466861 -1.03996 0.937088 -0.60288 -0.690208 -0.0159023 0.355001 0.0271421 -0.185408 -0.867245 -0.358877 -0.0961912 0.33637 0.705706 -0.488957 0.452712 -0.97707 -0.899642 -0.640645 -0.243765 0.185089 0.219732 -0.498287 -0.502113 0.146455 0.56143 0.703023 -0.723717 0.932281 0.576122 0.0845817 -0.197614 0.0414328 1.03099 0.204427 -0.21179 0.024608 0.483319 0.371814 0.327565 -0.736499 -0.577656 0.489612 0.434494 -0.547532 -0.610996 -0.973734 -0.86486 0.17191 0.902688 -0.874549 0.426177 0.587226 -0.692492 0.27508 -0.676717 0.14873 -0.121791 0.482046 0.752588 0.271395 -0.219574 0.168538 -1.00554 -0.255601 0.480422 0.0670803 -0.793108 -0.073074 -0.033751 0.493582 -0.0941084 -0.618079 0.444875 0.0130186 -0.53112 0.177466 -0.238316 -0.184443 0.594977 0.243512 -0.813054 -0.190768 0.811848 -0.186469 0.120271 -0.774698 -0.607398 0.970937 1.06846 0.892463 -0.300058 0.703489 -0.0358307 -0.519939 0.835753 0.2575 0.867455 -0.223554 -0.640934 -0.65753 -0.312445 -0.664543 -0.240583 0.0945487 -0.158139 -0.872888 0.318905 0.0151889 -0.655075 -0.592368 -0.793473 -0.906476 -0.497975 -0.658108 0.395037 -0.95948 0.138641 0.891481 0.620856 0.663838 0.794415 0.36211 -0.0529807 0.944298 0.946413 0.104879 -0.312703 0.442479 0.0494035 0.818235 0.0984645 -0.0892118 0.445876 -0.449334 -0.222331 -0.336968 -0.314028 0.688875 0.00578395 0.711702 -0.467593 0.721485 0.321408 0.107892 -0.575695 -0.757413 -0.498924 0.917284 0.850623 0.313327 -0.242431 -0.823436 0.638025 0.468998 -0.0905076 0.730377 -0.737621 -0.464576 0.946566 -0.319886 0.109402 -0.633491 0.50379 0.646508 -0.424422 -0.342046 0.657502 0.657546 0.454655 0.0217058 -0.532922 -0.407699 -0.873914 0.705419 0.0725596 -0.0340862 0.946729 0.167354 -0.705711 0.23213 -0.695661 0.664853 0.775824 -0.256245 -0.730766 -0.540871 -0.432323 -0.497871 -0.783624 0.513035 0.713095 0.883029 -0.172871 -0.704735 -0.701075 -0.495161 -0.873129 -0.470722 0.36873 -0.821779 -0.724936 -0.492626 0.46889 0.389089 -0.918556 -0.234384 -0.518493 -0.876888 0.0243425 -0.740774 -0.757324 0.653813 -0.14357 0.908266 -0.530424 -0.459125 -0.145062 -0.757074 0.105665 0.189693 -0.277501 0.740025 0.7398 -0.703953 0.530749 0.752252 0.14855 -0.469071 0.380731 0.583417 0.0660352 0.500426 0.0823009 0.935975 0.393246 0.312657 -0.872044 -0.363379 -0.337113 0.453302 -0.825778 0.400475 0.402668 0.897161 0.557428 -0.759113 0.743087 -0.815646 -0.817015 0.754747 0.638658 -0.00376279 0.350588 0.680124 0.507138 -0.448652 -0.891413 0.910034 -0.408419 -0.778473 0.908609 -0.89961 0.210696 0.79851 -0.0580926 -0.771029 0.905472 -0.805736 0.140638 -0.648992 -0.994078 0.976799 0.0386924 0.864198 0.746577 0.925017 0.0775587 0.0126387 0.675256 1.03982 0.96605 0.638851 0.482122 0.732306 0.53713 -0.685382 0.746015 -0.930773 0.00468854 0.290737 -0.731723 0.605089 0.192356 -0.628169 -0.689297 0.365138 -0.748453 -0.615508 -0.528722 0.577015 0.533685 0.741744 0.0237938 0.0271335 -0.569078 1.02807 -0.154345 -0.992709 -0.99597 -0.268266 0.270624 0.827898 0.66167 -0.454703 0.0728397 -0.363288 -0.560515 -0.494017 -0.414175 -0.599126 -0.535581 -1.15606 -0.108767 -0.219277 -0.453932 -0.626726 0.969989 -0.955563 -0.627063 0.137494 -0.488878 0.621103 0.901954 -0.657551 -0.634914 -0.441131 0.776224 -0.997611 -0.647424 -0.13062 0.422116 0.113004 -0.931464 -0.334059 -0.0713719 0.297807 0.149579 -0.712384 -0.818866 -0.734905 0.211673 0.75866 0.901823 -0.433641 -0.686 -0.264295 0.418025 0.711183 -0.202825 0.480296 0.289849 -0.0632549 0.717135 0.536916 -1.03923 0.435445 -0.61421 -0.454044 -0.38008 -0.444088 0.416397 -0.250357 -0.208024 0.573541 -0.981703 0.639735 0.523503 -0.582748 0.178111 -0.577998 0.0182996 -0.300799 -0.496742 -0.357153 0.10983 0.864731 0.321431 0.630717 -0.462254 0.92998 -0.425389 -0.422787 -0.545618 -0.000926294 0.0309552 -0.647706 0.0427034 -0.263774 -0.534064 0.34839 -0.576249 -0.310954 0.216315 -0.243254 0.756289 0.045479 1.0031 0.307019 0.271622 -0.87071 0.641498 0.436235 0.38437 -0.764191 0.0203312 -0.817606 0.803249 -0.489309 -0.0982173 0.838904 -0.306679 0.594063 -0.0161724 0.669844 -0.450902 0.959748 0.795874 -0.680724 0.913641 -0.30645 -0.715651 0.318934 0.696527 0.969191 0.406438 0.740986 0.44553 -0.681625 -0.411317 -0.773407 0.445341 -0.604577 -0.0879703 -0.304935 0.263294 -0.787668 0.109079 0.647759 0.65259 -0.726427 -0.872627 0.203424 -0.339489 -0.503819 -0.898037 -0.600441 -0.625549 -0.277281 0.70202 -0.524088 -0.684919 0.123343 0.0784846 -0.0800514 0.337026 -0.446721 -0.534622 0.450219 0.311242 -0.618228 0.429254 -0.770074 0.39606 0.743984 0.429432 -0.189509 0.858747 -0.732011 0.58662 -0.10013 -0.199943 0.667718 -0.962674 -0.890289 0.0686899 0.0243408 0.818069 0.0358303 -0.273879 -0.88739 -0.258412 0.287637 -0.169023 0.197975 0.576594 0.829883 -0.0130082 0.274872 -0.480048 0.794333 -0.721703 -0.682904 0.514786 0.381813 -0.708521 0.282297 0.51262 0.450479 -0.71453 0.0976516 -0.620893 -0.821666 0.366971 -0.147293 0.0117963 0.331883 -0.0537917 -0.963314 0.968615 -0.430997 0.709301 0.178044 0.863381 0.421262 -0.480237 -0.475209 0.739577 0.873845 -0.278145 -0.622539 -0.599339 0.685065 -0.0298529 0.103244 -0.2479 -0.560321 0.688507 0.913553 0.023327 -0.743377 -0.760493 -1.07205 0.142988 0.367156 0.558158 -0.455665 -0.691033 0.542903 -0.56824 0.817289 -0.613544 -0.657315 -0.802885 -0.0737875 0.491179 -0.124071 -0.138505 -0.617189 0.273825 -0.00853098 0.254803 0.158244 0.814545 0.477068 -0.115492 -0.500802 0.129773 -0.624432 -0.929435 0.69022 0.931887 -0.871863 -0.774753 -0.615934 0.0543731 -0.0042842 0.997572 0.093998 -0.239544 -0.726618 0.00406564 -0.0107677 0.301576 0.868257 -0.306428 0.657924 -0.947786 0.164427 0.522316 0.944114 0.509936 0.09556 0.697837 -0.494069 0.320198 0.543385 -0.401605 -1.08561 -0.982567 -0.585305 -0.490075 -0.28691 0.570968 0.532554 -1.00562 0.355806 -0.793448 0.927493 -0.455203 -0.714339 -0.239082 -0.959488 0.326434 0.0770483 0.226923 0.94271 -0.153245 0.533352 -0.759942 -0.212142 0.996521 -0.158437 -0.330487 -0.787928 -0.721389 -0.87409 -0.239307 0.821555 0.170064 -0.362521 -0.915437 0.46876 0.625409 0.969878 0.512564 -0.933382 -0.651051 -0.563273 -0.640387 0.155778 0.0424445 0.0424565 -0.0398437 -0.0664626 0.178921 0.109052 0.748429 -0.0116497 -0.755423 0.648266 -0.120258 0.595767 -0.936213 -0.584326 0.140339 0.836838 -0.0983472 0.863357 -0.0164317 -0.577818 -0.10425 -0.469682 0.953835 -0.089764 -0.481262 -0.0895236 -0.66547 0.818654 -0.84823 0.928099 -0.425852 -0.213747 0.224221 -0.156112 -0.280822 0.294156 0.459056 -0.571591 0.666995 -0.130033 0.388287 -0.486326 -0.772734 -0.750257 -0.559319 0.227163 -0.101259 0.140174 -0.38347 0.705692 0.489685 0.249162 0.210765 -0.281538 -0.39321 0.638233 -0.827286 0.084707 -0.200968 -0.896424 0.796286 -0.0629397 -0.0328433 0.914951 -0.0846256 -0.455761 -0.625087 0.00882848 0.828546 0.284701 -0.278519 -0.597088 0.911211 -0.0317415 -0.10322 -0.713737 -0.0596281 0.943968 0.450653 0.554098 -0.0845104 -0.116404 0.0721645 0.9651 -0.61661 -0.385879 0.802032 -0.100327 -0.891994 0.0114944 -0.357395 0.22336 0.010564 -0.864533 -0.860183 -1.02807 0.681488 0.256756 0.490769 0.0355859 -0.229861 0.0415578 -0.061778 0.322613 0.863217 0.769712 -0.612344 0.705368 -0.341217 0.165861 0.730029 0.281191 0.334471 0.750761 -0.620768 -0.737252 -0.486272 0.546642 -0.759395 -0.463928 -0.175991 -0.147367 -0.491116 -0.764638 -0.378147 0.00283474 0.36522 -1.07816 -0.113864 0.874866 0.73963 0.743776 -0.383478 -0.270116 0.30025 0.680488 0.327547 0.150395 0.151834 0.138647 0.442205 -0.359432 -0.696638 0.624643 -0.00629843 0.725827 -0.952066 0.734886 -0.0632017 0.295777 0.416773 0.669957 -0.924787 0.302428 0.752152 0.465307 -0.111247 0.460653 -0.661573 0.255526 0.84021 0.541096 -0.354364 0.302159 0.544595 -0.0763699 -0.175137 0.500336 -0.0909484 0.122197 -0.428765 -0.352611 -0.409683 -0.836485 -0.752714 -0.230994 0.266892 0.305683 -0.319322 -0.19575 -0.0507236 -0.82908 -0.989758 -0.688221 0.677651 -0.453117 0.588352 -0.1565 -0.362697 0.479501 0.0777009 0.107508 -0.620728 -1.03831 -0.851708 -0.953586 -0.620545 0.558216 -0.919884 -0.227097 0.741476 0.359797 0.00667205 -0.361369 0.701591 0.121822 -0.827676 -0.880737 0.513686 -0.162307 0.578866 0.738853 0.805625 -0.757329 -0.631983 -0.354297 -0.0507261 0.574789 -0.573698 -0.220841 -0.369572 0.823017 -0.121576 0.728832 -0.0968839 -0.836045 0.193174 0.994317 -0.187456 -0.400041 0.0413789 -0.0863929 0.837541 -0.199803 -0.799938 0.835325 -0.446455 -0.334603 -0.217995 0.93539 -0.658445 0.439074 -0.758382 0.693255 -0.0371582 -0.536152 -0.706555 0.631596 0.0132026 0.699597 0.253416 -0.317324 0.110509 0.59521 0.851717 -0.0548848 -0.287622 -0.651163 -0.108985 0.209203 0.112874 -0.802032 -0.10975 -0.152951 0.676377 0.267487 0.706451 -0.899699 0.871823 -0.806999 -0.205028 -0.170902 -0.219361 -0.769282 0.43293 -0.0994004 0.0359936 0.281649 0.683336 -0.879496 -0.636812 0.681255 -0.18068 0.948531 0.153972 -0.771276 0.423751 -0.926292 -0.460227 0.550287 0.0734539 0.703975 0.608309 -0.0244008 0.523307 -0.431366 -0.423974 -0.153088 -0.0516384 -0.778729 0.761421 0.900788 -0.745193 0.192187 -0.26597 -0.178787 0.0869705 0.330593 0.569751 0.749522 -0.6501 0.957829 0.205433 -0.819625 -0.554924 -0.713977 -0.299562 0.237771 -0.576464 -0.884774 0.539204 -0.44028 0.511491 -0.108856 -0.495585 0.758296 0.358212 0.909227 0.52928 -0.283999 -0.720348 0.752178 0.0406642 0.989917 0.632272 -0.282492 -0.357333 -0.339686 -0.314808 -0.943826 0.238704 -0.82572 0.725922 0.377777 0.736642 0.28364 -0.993147 0.439645 -0.282981 -0.696708 0.631061 -0.170643 0.216798 -0.701303 0.178154 0.166794 0.137101 -0.12274 0.562752 0.78461 -0.0980063 -0.465807 -0.789949 0.0281331 0.658448 0.548478 -0.780128 0.232371 0.0368426 -0.543612 0.0203465 -0.0598046 -0.598602 -0.805752 0.438066 0.332835 -0.0873989 0.175736 0.122003 0.903659 -0.421714 0.570848 -0.848956 -0.0461342 0.0736219 0.699183 -0.28098 0.855075 -0.151736 -0.820459 0.338225 0.715682 0.475312 -0.0577386 -0.74146 -0.592763 0.673922 0.0688286 0.669424 0.383078 -0.213138 -0.328104 0.680695 -0.585385 0.341472 -0.715846 -0.640113 0.35753 0.227169 0.905566 -0.0793725 0.0912636 -0.119801 -0.0499586 0.613936 -0.637217 -0.46411 0.25762 0.308892 0.351499 0.575675 -0.790449 0.00189202 0.79514 0.742886 0.471606 -0.236598 0.781008 -0.53139 0.788759 -0.465784 -0.938151 0.621689 0.18816 0.150038 -0.189408 0.270994 0.265232 0.565231 -0.862238 -0.277728 -0.583213 -0.203641 -0.481482 0.906896 -0.014771 -0.663327 -0.0957171 0.694507 0.0505125 -0.668475 0.787111 0.407478 0.297325 0.411198 -0.48391 0.163965 0.77495 0.79212 -0.790356 0.557599 0.132091 -0.0523477 0.324827 0.26764 0.942239 -0.147497 0.200379 0.24592 0.339443 -0.313278 0.887086 -0.645528 0.398084 0.908617 -0.620158 -0.657002 -0.909174 0.272103 -0.176304 0.599021 0.602726 0.95155 0.587822 -0.770309 0.230249 0.962389 0.64147 0.163717 0.656724 0.0524382 0.945669 0.589535 0.607765 0.225269 0.651863 -0.432765 0.592233 0.587432 -0.0368158 0.311377 -0.910063 -0.0242493 -0.79543 -0.792111 0.943119 0.567018 -0.616616 -0.067419 0.217937 -0.230092 0.0487044 -0.700514 0.738558 0.864999 -0.592112 0.693543 -0.343185 0.700872 -0.960209 -0.627388 -0.962418 -0.0469241 -0.250137 -0.737958 -0.450181 -0.501106 -0.448182 -0.0717204 -0.70744 -0.609352 0.179748 -0.972026 0.311753 -0.34165 0.185889 0.873865 0.0945469 -0.930295 -0.834949 -0.873133 -0.698134 -0.75797 -0.279547 -0.0949594 -0.114675 0.651779 -0.395096 0.0999939 0.224018 -0.810021 -0.0593501 0.0283391 0.109844 -0.465541 -0.922574 0.827036 -0.466846 0.622415 0.303735 -0.513519 -0.699471 -0.122906 -0.78112 -0.493409 -0.144199 -0.923892 -0.980396 0.924107 0.87124 0.0646418 -0.956504 -0.647679 -0.645741 0.790897 0.427977 -0.431087 -0.262617 -0.572567 -0.223282 0.420978 -0.893489 0.00983774 -0.693913 0.651717 0.0930697 -0.498992 0.835518 -0.0856285 0.327458 -0.996108 0.685341 0.71396 -0.12746 0.809137 0.929147 -0.395104 0.555584 0.0111712 -0.0940967 0.696552 0.209729 0.430161 -0.355197 0.938657 0.309291 -0.252208 0.84635 -0.210332 0.553166 0.779476 0.330087 0.759899 0.817997 0.255249 0.58591 0.48032 0.350921 0.679279 0.857691 0.485961 -0.357715 0.876898 0.768548 0.431404 -0.245841 0.625661 -0.88944 0.754069 0.0880466 -0.732717 0.570424 0.411919 -0.192472 -0.799859 0.470293 -0.0627828 -0.940739 -0.84562 0.952462 -0.635983 -0.660235 0.22478 0.0994534 -0.696773 0.501443 0.748674 0.164434 -0.396281 0.0230083 -0.0137172 -0.272796 0.0194754 -0.288647 0.288515 0.994664 -0.72413 0.159613 -0.567185 0.192748 0.628783 0.619046 -0.368612 -0.475368 -0.213366 0.671127 0.131927 -0.765853 -0.879248 0.701821 0.776728 0.571739 0.78337 0.0519218 0.743657 0.859862 0.0134393 0.370947 -0.620144 0.295518 -0.742866 0.134924 -0.127339 -0.514191 0.516932 0.48597 -0.192682 0.819346 -0.195603 0.209086 0.149478 -0.57333 0.8791 -0.595208 0.125216 0.642858 -0.778712 -0.217329 -0.0900537 -0.302775 -0.328896 0.619819 0.908042 -0.136315 -0.906905 0.358822 -0.737867 -0.954483 -0.168355 -0.553995 -0.957506 -0.588324 0.132448 0.626694 -0.413061 -0.0492814 -0.741731 -0.45705 -0.0691782 0.602725 0.727676 0.620463 0.215017 -0.251316 0.418189 -0.122574 0.54751 -0.366461 0.902083 -0.124572 -0.245182 -0.0687371 -0.965549 -0.719591 0.672355 -0.719861 0.636032 0.425532 0.0422198 -0.847372 0.169563 -0.158194 -0.201186 -0.531123 -0.697457 0.5368 -0.242797 -0.302225 -0.496081 -0.567059 -0.0417513 0.466825 0.63229 -0.140412 -0.975624 0.0359676 0.873424 -0.777987 -0.398146 0.272945 -0.373897 0.835778 0.397338 0.539901 -0.435324 0.661501 0.580655 0.441803 0.135401 -0.0193914 0.0353161 -0.39242 -0.795425 -0.894913 -0.64475 0.342205 0.00617335 -0.434379 -0.882143 0.398544 -0.014336 0.45959 -0.280435 -0.249268 -0.383 -0.813866 -0.136359 -0.721626 0.181064 -0.59892 -0.144138 0.587445 0.37694 0.319603 0.974944 -0.97283 -0.227384 0.08959 0.514993 -0.748331 -0.350073 0.643566 0.345331 -0.220677 -0.474379 -0.950318 0.578773 -0.366242 0.480697 -0.888738 0.155466 0.404563 -0.68617 0.0664996 0.0892245 -0.28956 0.0691616 0.175451 -0.600148 0.0200475 0.244157 0.521599 0.259733 0.764197 0.448775 0.937834 0.860072 -0.865781 0.82648 0.332331 0.327902 0.771635 -0.479944 0.122983 -0.291319 -0.73414 -0.669922 -0.698337 -0.964609 0.830613 -0.542864 0.641839 -0.160474 -0.10986 -0.873391 -0.850484 0.652832 -0.214211 -0.755286 0.256738 -0.973588 -0.258144 0.743138 -0.0975583 0.0471078 -0.785293 -0.526624 -0.756865 -0.681312 -0.474802 -0.396999 0.229759 0.857009 -0.173999 -0.216159 0.946212 -0.794871 -0.0173042 -0.408843 0.780637 -0.189929 -0.980061 0.64966 0.440551 0.429931 -0.893866 -0.696445 -0.440579 0.822553 0.74041 0.467793 0.275795 0.902774 0.314088 -0.676312 -0.754932 -0.302245 0.370588 0.21476 0.751476 0.820414 -0.757971 -0.371452 -0.636652 -0.0767736 -0.329832 -0.188679 0.465581 -0.846889 -0.765093 -0.577457 0.623201 -0.310208 -0.20555 0.989375 0.819065 -0.954578 -0.945353 0.723472 0.277101 0.399667 0.397342 -0.72193 -0.185253 0.488737 -0.29601 -0.65677 -0.244933 -0.338909 -0.494049 0.382498 0.731748 -0.165037 0.28587 0.34321 -0.948163 -0.292783 -0.64208 0.15129 0.925836 -0.576538 -0.531601 0.337955 0.609934 0.609353 -0.00629986 -0.75731 -0.45368 0.853221 0.0117214 -0.299417 0.845972 -0.0746111 -0.592279 -0.166051 0.193684 -0.445114 0.206456 -0.194108 -1.02435 -0.746252 0.51467 -0.346862 -0.049541 -0.184349 -0.779169 -0.152569 0.126849 0.741061 -0.602227 -0.177729 -0.534624 -0.271529 0.815201 -0.771718 -0.817119 -0.417404 0.219809 0.785249 0.13629 0.136906 0.398741 -0.631201 0.969199 0.504375 -0.568351 0.410285 -0.753983 -0.135149 0.926547 -0.886547 0.26592 -0.927637 -0.450543 0.583981 -0.009543 -0.296036 0.70791 -0.242981 0.575377 0.886157 -0.114442 -0.81936 -0.951666 -0.548553 -0.791498 -0.796938 -0.0147341 0.21542 0.596891 -0.509206 -0.400213 0.0833322 -0.754784 0.407292 -0.52952 -0.901054 -0.139081 0.825059 -0.0156884 -0.218356 -0.587724 -0.0125097 -0.0883212 -0.279618 -0.354496 0.995962 0.731384 0.206697 0.351929 -0.899425 0.523045 -0.299006 -0.121043 -0.109458 7.08301e-05 -0.112778 0.0766907 -0.723311 -0.420769 0.1836 0.812755 0.564031 -0.204712 -0.852889 0.854466 -0.172508 0.851373 0.375426 -0.968876 0.751983 0.643804 -0.968369 0.173299 0.544823 0.959581 0.370695 0.852295 0.740944 -1.05112 0.0720414 -0.0565947 -0.413903 0.199569 0.909239 0.348295 0.674848 0.0401005 -0.460294 -0.575477 -0.709659 0.982965 0.0093649 -0.0696851 -0.728278 0.00714975 -0.664881 0.789977 0.453397 0.490847 -0.242371 -0.16518 0.0352423 -0.207695 -0.951334 -0.701895 0.911743 0.506466 0.230988 -0.696164 -0.705606 -0.380164 -0.79242 -0.0682144 -0.836211 0.839888 0.707921 -0.40386 -0.586614 -0.23366 0.15079 0.044274 0.800552 -0.290842 -0.299323 -0.861105 -0.406998 0.179 0.971512 -0.0509958 0.355764 0.220697 -0.70525 0.0963056 -0.295093 0.00580068 0.728734 -0.185057 -0.260392 0.522107 0.11882 -0.748401 -0.109855 -0.723589 -0.366765 -0.437381 0.621629 0.335817 0.859123 0.442859 0.0699155 0.357745 -0.420651 -0.993724 0.606446 -0.89433 0.0602223 0.326958 0.543063 -0.558027 -0.658086 -0.00917822 0.260691 0.660346 -0.253264 -0.00487418 -0.126785 0.146322 0.854821 0.848864 0.703354 -0.544456 0.947384 0.00422919 0.250087 0.455122 -0.698374 0.476517 -0.265764 0.0521366 0.628853 -0.693819 0.562924 -0.576005 -0.455053 0.789871 -0.65385 0.682381 0.555834 -0.518004 0.302648 -0.262384 0.809612 0.325236 0.289805 0.349838 -0.0415318 0.237268 -0.814395 0.264283 -0.502974 -0.198436 0.818427 0.831679 -0.637793 -0.164189 1.05265 -0.22369 0.210927 -0.587473 0.877512 0.775845 -0.892841 -0.97968 -0.967977 0.40425 -0.233046 0.946477 0.52592 -0.767185 0.630611 -0.435472 -0.428803 0.514096 0.277589 0.213766 -0.588288 -0.199144 -0.538958 -0.646446 -0.551397 0.509273 -0.340386 -0.0591582 -0.300116 0.626442 -0.126016 -0.31711 -0.164094 0.579444 -0.0229348 -0.597339 -0.355483 -0.208595 -0.601747 -0.875793 0.575864 0.0351628 -0.172228 -0.392661 0.657538 -0.682428 -0.699059 -0.987833 0.392929 -0.627306 -0.979937 -0.716405 -0.312418 0.709877 -0.0853841 0.324845 -0.337347 0.430001 -0.0582726 -1.14235 -0.163806 -0.235829 0.589709 0.138303 -0.291715 -0.150031 0.0753366 1.06289 -0.488222 -0.335179 0.127244 0.756429 -0.796866 0.530684 -0.845259 -0.955648 -0.44363 -0.103868 0.792371 0.0385177 -0.215947 -0.958813 -0.893845 -0.748516 -1.02027 0.143435 0.759577 -0.624037 -0.656276 0.00423507 0.830714 0.554104 0.405741 -0.559988 0.205326 -0.748698 -0.819989 0.832408 0.276866 0.955005 -0.685136 -0.323278 0.578377 0.90004 -0.741406 -0.614936 0.112881 -0.229133 0.210755 0.0444773 0.31289 -0.639015 0.156495 -0.705625 0.0822931 0.537309 -0.00589083 -0.853133 -0.601773 0.167411 -0.0889375 0.399758 -0.435754 0.634404 -1.08924 0.765306 0.459314 -1.01696 -0.372898 -0.182888 0.621334 0.175206 -1.17804 0.263389 0.712942 1.28706 0.664368 0.624604 0.148507 0.372411 0.429453 -0.658139 -0.438345 -0.121928 -0.178644 0.0152043 -0.487219 0.211283 0.450507 -0.0473435 -0.932506 0.0225745 0.432097 0.579965 -0.0478451 0.588464 0.102538 -1.1679 -0.19076 -0.845775 0.238674 -0.906113 -0.127514 -0.40354 0.463973 -0.659842 -0.793933 -0.726836 0.407722 -0.435289 -0.93576 0.23368 -0.488643 -0.124683 0.130618 -0.16663 -0.416994 0.523035 0.29109 -0.460835 -0.27179 0.348227 0.347474 0.70753 0.474616 -0.378847 -0.777604 0.434183 0.0690432 0.486881 0.660359 -0.509842 0.216485 -0.101204 0.485127 -0.0383139 -1.17573 0.29451 -0.1601 -0.250509 0.377065 0.0234388 -0.379485 -0.382258 0.778749 1.09103 -0.704655 0.283907 0.919948 -0.230339 0.23987 0.154558 0.539463 -0.582154 1.04509 0.82536 0.631745 0.67094 0.589789 -0.748773 -0.481843 0.547688 0.263634 -0.197829 0.641213 0.36856 -0.0416469 -0.198869 0.832364 0.778312 0.764294 0.251308 0.255203 0.0335145 0.940811 1.41833 -0.708459 -0.582756 1.02659 0.126278 -0.415331 -0.546663 0.363476 0.756886 1.16645 -0.0288887 -0.673617 -0.0572677 0.106838 0.724035 -1.0215 0.748988 0.913775 0.38593 -0.531367 0.756532 1.47518 0.170631 0.427063 -0.477768 -0.545026 -0.278821 0.484311 0.802167 -0.402919 0.177287 -0.767223 -0.123619 -1.30359 0.081547 -0.169941 -0.118901 -0.526973 -0.608344 0.866438 -0.778016 -0.440306 -0.449828 0.181252 0.610591 0.190071 -0.283145 -1.59883 -0.561247 0.133963 0.166325 -0.739696 0.397629 0.627287 1.22498 0.214438 -0.82812 0.355079 0.997452 0.833203 -0.700795 0.740932 -0.440839 -0.892737 0.587104 -0.479783 0.551311 -0.882804 -0.533795 0.967363 -0.378811 0.634366 0.414286 0.732935 -0.265859 -0.105219 0.864889 -0.520139 -0.359806 0.863172 0.441444 0.449157 0.88696 0.167386 -0.89404 1.02631 -0.311755 -0.731708 0.648593 -0.857406 -1.2728 -0.273855 -0.495057 0.46012 0.887751 0.360466 -0.256175 -0.983572 0.626086 -0.651074 0.0623448 1.12214 1.11133 0.741863 0.551823 -0.16858 -0.134084 0.438126 -1.04576 0.810052 -0.881879 0.709063 -0.281664 0.363004 -0.581159 -0.74569 -0.433471 0.601866 1.28675 -0.0782234 -0.923609 0.0468654 0.0584513 0.95629 0.175633 -0.406891 -0.581874 -0.123112 0.95766 -0.0681864 -0.702169 0.216514 -0.0669584 0.581607 0.0308833 0.0262862 -0.108185 -0.280289 0.562123 0.0115261 -0.725679 1.00388 0.275078 0.8112 0.496775 0.0256475 -1.57827 -0.843399 -0.87462 1.15689 -0.247888 0.64427 0.859194 0.0320042 1.28431 -0.112617 -0.231901 0.0789881 0.396259 0.657137 -0.181424 0.401637 -0.239943 -1.11722 -0.0745467 0.264864 -0.19449 0.459751 1.21641 -0.508139 -0.756382 -0.215032 -0.312843 1.16251 -0.623279 -0.870579 0.680692 -0.244441 -0.195543 -0.30455 0.830755 -0.29024 -1.0213 0.222562 -0.6599 -0.660549 -0.210814 -0.591232 0.468939 -0.755659 0.227968 0.838683 -0.122995 0.739401 -1.01862 -0.288246 1.00322 0.200776 0.858475 0.190593 -0.209957 0.938318 -0.561812 -0.348768 0.337276 -0.619512 0.554192 -0.00571164 0.34522 0.279894 -0.794272 0.310063 -0.885253 1.01518 -0.566842 0.0154713 0.371663 1.20107 1.00151 0.266346 0.193615 0.638352 0.678072 0.830867 -0.593387 1.15593 0.409481 0.0120754 0.749493 0.834566 0.415129 0.318859 -0.185424 0.444546 -0.604435 -0.560889 0.313386 0.129442 -1.09367 -0.090008 -0.422535 0.322818 -0.122956 -0.632592 0.553605 -0.520376 -1.81921 -1.01614 -0.595818 1.31674 -0.28841 -0.547668 0.600519 0.440267 -0.220633 1.23149 -0.968578 1.56956 -0.212158 1.09138 -0.161124 -0.304066 -0.138241 0.607351 1.50476 -0.0879226 -0.578533 -0.781786 -0.1048 -0.827025 -0.680761 0.286732 0.416414 -0.551235 1.39683 -0.262279 -0.77772 0.411224 -0.554136 -0.873656 -0.870818 1.12215 -0.760034 0.364123 -0.744735 -0.583963 -0.863452 0.0776059 0.329343 -0.568907 -0.955827 -0.940491 0.501083 0.160056 0.24612 0.439899 1.47931 -0.568842 0.501164 -0.204155 0.767789 0.264179 -0.0493932 -0.984057 -0.0378155 -0.33562 -0.00332341 0.220006 -0.153845 0.219433 -0.629832 -0.77765 0.258709 0.798373 0.271244 0.988264 0.702875 0.0508968 0.980226 -0.989588 0.253616 1.47145 0.364114 0.669995 0.251479 0.796698 0.745542 0.829779 0.745013 1.10146 -0.283665 -0.417928 -0.841561 0.340653 0.661427 -0.394327 -1.3661 -0.435883 -0.472477 -0.146479 0.433779 0.167169 0.120103 -0.156412 -0.536797 -0.150831 -0.33678 -0.569447 -1.00548 -0.24129 0.748664 -0.459039 1.2401 -1.13988 -0.323264 -0.0710396 0.797009 0.607205 0.41843 1.3043 -0.495543 -0.553033 1.02297 -0.274446 -0.216913 -0.459577 0.212985 -0.33803 -0.386201 0.287337 0.12401 0.21034 0.520018 0.849248 0.389689 0.572945 0.0853692 0.753695 -0.840473 -0.0775019 -0.460006 0.328127 -0.585889 -0.21261 -1.28633 0.337116 -0.687257 0.589859 0.0321639 0.492677 -0.0988834 0.78832 -1.15818 -1.10081 0.653083 -0.658149 -0.381678 -0.0486728 1.53866 -0.271181 -0.204805 -0.183775 -0.0513448 -0.395041 0.865906 0.830651 -0.306603 -0.693763 1.0562 0.784127 1.0421 -1.00895 -0.68013 0.203626 0.352704 0.00121751 -0.205172 0.0873378 0.884536 -0.945199 -0.323133 0.858616 0.69939 -0.131968 -0.347432 -0.233614 0.0491714 0.33788 -0.412146 1.10379 0.67591 -0.126536 0.413736 -0.372153 0.751207 -0.487171 0.042847 0.807615 -0.404579 0.00463109 0.0187336 0.328629 -0.74899 0.680277 -0.129879 0.251462 -0.606188 -0.160295 -0.078196 -0.482882 -0.363562 0.531058 0.359751 -0.946912 0.918929 -0.00559152 -0.127366 1.30328 1.23457 0.389128 0.411145 -0.0364591 0.595703 -0.0100455 -0.305724 -0.391018 0.704547 -1.1183 -0.0951961 -0.998551 -0.939958 -0.120076 -1.15799 0.915261 0.642087 0.0729361 0.112769 0.969629 0.570768 -1.10586 -0.469664 -0.462677 0.948256 0.613814 -0.030229 0.622824 -0.318031 -0.927225 -0.226608 -0.0858421 -1.27644 -0.363329 0.642681 -0.0580255 0.632754 0.861675 0.285842 0.0482392 1.32027 -0.17063 0.0751478 0.226466 0.315842 -0.890864 -0.929476 0.837662 0.83688 -0.539818 -0.716153 -0.615418 -0.930526 -0.416532 0.311092 0.766338 0.327728 -0.59793 0.268179 -0.903969 0.431408 -0.886839 -0.832049 -0.669629 0.148539 -0.579157 0.232877 0.309727 0.57784 -0.0542727 0.845806 -0.634567 -0.613322 -0.754684 -0.168 -1.39356 0.255801 0.0521199 -0.452731 0.693068 -0.521427 -1.00471 -0.62169 -1.25516 0.460361 -0.318221 -0.719682 0.574639 -2.00513 -1.28659 0.770494 0.75479 0.368304 -0.252532 -0.648774 0.75311 -0.560196 0.750008 -0.329092 1.12136 1.16974 -0.418356 0.754933 0.460108 -0.534858 0.70972 0.734737 -0.760515 1.1527 -0.382435 0.576045 -1.05704 0.716253 -0.664102 0.0642168 -0.924823 0.668373 0.362918 0.266327 -0.092885 -0.632835 -0.501546 0.366854 1.43906 -0.309923 -0.464221 -1.26915 -0.658404 -1.39956 1.00296 0.460998 -1.22833 -0.176922 -0.146619 0.645727 0.353967 -0.234109 1.16429 -0.0084447 0.664115 1.39028 -0.538209 -0.184355 -0.800074 -0.836829 0.441688 0.230509 0.751964 0.615258 -0.528713 -0.814511 -0.0520857 -0.725072 -0.910006 0.891285 -0.0700774 0.707955 0.79163 -0.530641 -0.436461 1.23797 -0.955422 0.583643 -1.56212 0.495373 0.959209 -0.598377 -0.814722 -0.53088 -0.0597974 0.0066145 0.346686 0.612846 -0.271388 -0.565429 0.0697399 0.151784 0.755324 -1.08851 1.24947 0.121455 0.654651 -0.271475 -0.258935 0.525315 -0.427805 0.106852 -0.392793 0.10361 -0.570719 0.164096 1.0549 0.398143 -0.13135 -0.571983 0.721882 -1.12368 -0.0612734 -0.509482 0.582789 0.298327 -0.519834 0.226057 -0.749943 -0.451417 0.304455 0.574236 -0.65639 0.828469 -0.961779 1.56635 -0.777609 0.353125 0.536944 -0.0717041 -0.570835 0.474724 0.615237 1.26526 0.424514 -0.630785 -0.0526207 0.243927 0.357366 -0.848488 -0.962504 0.0213483 0.787135 0.0470268 1.14598 -1.00208 -0.539251 -0.748474 -0.0497073 0.748625 0.257437 -0.997627 0.669453 -0.782706 -1.06251 0.379231 -0.403076 0.433407 0.610131 -0.575288 -0.597233 -0.871821 -0.0700964 0.954318 -0.290862 -0.285488 -0.123799 0.264027 -0.0800198 0.192213 0.549405 -0.774006 0.422398 0.672267 0.222587 1.25852 -0.731842 -0.521944 -1.07213 -0.377831 -0.311313 -0.18893 -0.796309 -0.902359 0.186615 -0.562356 0.808784 -0.908773 0.0687318 -0.973196 -0.34464 -1.17235 -1.12398 -0.917459 -0.137387 -0.413979 0.664338 -0.433392 -0.522395 -0.315765 -0.719152 0.0228833 0.447858 -0.815841 -1.49842 -0.36613 0.0376844 0.111625 0.553417 -0.453322 0.00764643 0.0196143 0.457263 -0.403917 -0.0880282 0.844048 0.0433684 -0.519336 -0.833367 -0.652274 -0.530122 -1.01481 0.147977 0.0605343 -0.846397 0.938836 0.628052 -0.794987 -0.264727 -0.0690392 -0.586929 0.224497 -0.118926 1.43904 0.802779 0.253907 0.643138 0.827107 1.24664 0.169229 -1.05836 1.02087 -1.00345 0.393771 1.69011 0.11567 0.257181 0.291238 0.737888 0.648376 -1.00664 -0.504301 0.455747 -1.36911 -0.0541357 1.4776 1.29248 -0.0185473 -0.222125 -1.11939 -0.644682 -0.735604 -0.951347 0.381903 0.573639 0.433587 -1.29508 -0.896356 0.090094 -0.488611 -1.20974 1.03682 -0.709782 0.3181 0.758811 0.0145098 -0.0878838 0.3701 -0.564614 0.36756 1.05258 0.441723 -0.926759 0.415532 -0.467373 0.0690743 1.15722 -0.678607 -0.438311 0.366484 0.585673 -0.662305 -0.974162 -0.524768 1.41334 0.349442 -1.14461 -0.937828 -0.199108 0.363441 -0.889963 -1.01309 0.776767 -1.04395 0.0756196 0.640282 -1.16584 0.4727 1.16052 -0.693198 0.985885 0.97959 -0.0795025 -1.03129 0.991904 0.970667 1.12856 0.308994 0.196603 0.554697 -0.30034 -1.01243 1.32482 0.0204168 0.276661 -0.6569 -0.95556 -0.433129 -1.23477 -0.427579 -0.290328 1.84006 -0.398125 1.02534 0.69776 0.0313137 0.588483 0.357779 0.866753 0.510691 0.325477 -0.351281 -0.737442 -0.0332917 0.319758 0.0298949 -0.807728 0.222954 0.596359 0.314719 0.0325013 -0.208433 1.61513 0.590564 1.14177 0.266206 0.458819 -0.724683 0.0649651 0.290854 -0.888318 0.738196 -0.227747 0.255596 -0.214174 -0.506712 -0.261404 -1.02309 -0.83098 -0.0428929 -0.485116 -0.479816 0.65968 0.122915 -0.289625 -0.656523 0.671463 -0.82024 -0.121079 0.562855 0.191588 1.15551 -0.432851 -0.00239585 -0.100496 0.330824 -0.562602 -0.476475 0.373766 -0.275616 0.39483 0.309368 -0.467301 -0.759217 -0.155019 0.135236 -0.958678 0.334489 -1.00588 -0.0629954 0.513616 -0.351972 0.801948 -0.183809 -0.157783 -0.770775 -1.12466 -0.268597 0.0510776 -0.37103 -0.650804 -0.33077 0.146098 -0.526525 1.02975 -0.388785 1.24749 0.222837 -1.04794 -0.631429 0.15094 -0.330411 -0.159971 -1.48368 -0.812316 0.982585 -0.242714 0.26338 0.136341 -0.991587 1.22682 1.23661 0.131146 1.12231 -0.283391 -0.545202 -0.380951 0.738266 -0.597647 -1.098 0.564802 0.72938 -0.159052 -0.811438 0.467635 -0.601582 0.266448 0.209408 0.240618 0.405174 -0.610287 -0.111588 1.25719 0.442162 0.731358 0.692444 -0.455815 -0.0930074 -1.04348 -0.720726 0.712345 -0.327303 -0.265752 -0.356152 -0.312818 0.0097135 -1.25481 0.859109 0.17765 0.272209 -1.8535 1.3558 0.412646 0.915305 0.576958 0.974686 -0.373152 -0.0301845 -0.768092 0.140951 0.488517 1.13378 0.898593 -0.0139982 -0.411275 -0.686168 1.55706 -0.962794 -1.19954 0.724654 0.299481 0.442808 0.0982612 -0.871034 0.145397 -1.13591 -1.57841 -0.867967 -0.907552 -0.753066 -0.19497 -0.612865 -0.179952 -0.158961 0.779378 -0.136298 -0.0299545 0.526484 -0.0536106 0.712081 0.601177 0.451511 -0.303725 0.686129 -1.0007 0.741326 0.674125 0.643 0.650761 -0.0161218 0.803293 0.843711 0.382717 0.331013 -1.34168 -0.386627 0.0512211 -0.0751947 -0.504422 0.220328 -0.197759 0.409937 0.12585 0.0928145 0.671743 0.349626 -0.684625 1.11533 1.00324 -1.12845 0.424653 -0.566358 1.0286 -0.566518 0.795457 0.326076 -1.42083 -0.988296 0.822759 0.518014 -1.19935 -0.421345 0.0359489 -0.413645 0.730252 -0.136161 0.879819 -0.120473 -0.341346 -0.194634 -0.792898 1.26228 0.41716 0.675028 -0.169337 -0.32232 -1.24699 -0.684707 0.328396 0.82914 -0.329571 1.28955 0.253128 -0.690299 -1.38817 0.4998 0.627801 -0.311994 -1.30634 -0.372676 -0.0923969 0.54656 -0.196131 0.640888 -0.0635846 0.330315 1.07131 0.0123371 -1.30328 -0.4216 -0.886293 0.105505 -0.983347 0.156904 0.00417056 0.0690084 -0.694319 0.178244 0.877488 0.233999 0.269827 -0.840241 -0.964166 -1.15508 -0.574809 0.781756 -0.627602 0.897909 0.857876 1.03193 -0.206821 -0.141506 0.0421822 0.264949 -0.030938 -1.39867 1.62933 -0.398811 0.591826 0.161255 -0.570851 0.249496 0.668092 -0.285481 0.430087 -0.860722 -0.594871 -0.608549 0.112789 0.735688 1.12872 0.135773 -0.488251 -0.631141 0.0783082 0.276238 1.10702 1.02967 0.550707 0.250275 -0.599322 0.665624 0.174459 0.0935964 1.52919 0.589511 -0.848229 0.359856 1.15657 -0.479571 -1.03182 -0.494426 1.02777 -0.411644 -0.156711 -0.437506 0.455981 0.773015 -1.18205 -0.373836 -0.250511 0.533732 -0.0201547 -0.58651 -0.170901 -0.0335313 -0.627454 -0.230455 1.33881 -0.534621 -1.90252 0.600112 -0.523291 -0.121971 -1.14107 -0.857615 -0.991695 -1.06227 -0.87895 0.434448 -1.01154 0.25401 0.556715 1.0785 0.367361 0.717081 1.84317 -0.41547 -0.27105 -0.323683 -1.3484 0.357342 0.11657 0.820898 0.465587 -0.278741 -0.901561 -0.0683204 0.0182675 1.02299 -1.18093 -1.5501 0.0277262 -0.228876 0.17849 0.276246 0.588293 -0.245004 -0.52462 -0.00172157 -0.919209 0.856448 0.909119 0.69293 0.775121 -0.850935 0.142743 0.0752852 -0.0850285 -0.783981 0.106357 -0.0637252 -0.327913 0.268025 0.698562 -0.517754 -0.476789 -0.794206 -0.416827 0.373 1.36691 0.209788 -1.29641 0.502318 -0.0250091 -0.093945 0.349239 0.343376 -0.765971 0.125017 0.741445 -0.223923 0.743312 -0.106888 0.585576 1.09294 -0.816958 -0.646747 -0.392017 0.71238 -1.00404 -1.16547 -0.1506 0.671068 0.870476 -0.414514 0.238167 0.510539 -0.12131 0.0994181 0.240711 0.787747 -0.777286 -0.916369 0.0106238 0.317726 0.247633 0.869734 0.526762 -1.57111 -1.47016 -0.150673 0.679433 -0.930149 -1.20278 -0.900263 -0.213766 -0.469054 0.106198 1.19809 -0.532914 0.434798 0.987934 -0.233188 -0.310898 0.285388 0.659389 -0.82194 0.136717 0.169045 0.767887 0.354563 -0.709971 0.672136 -0.377642 -0.486118 -0.931222 -1.40484 0.640451 1.03603 -1.48589 -0.800769 -0.439754 -1.78962 0.193199 0.0485665 -0.138655 0.475611 -0.515346 1.07167 -1.47836 0.994141 0.46391 -0.345403 0.674672 -0.89551 0.434466 0.181533 0.106503 1.12155 -0.249362 -0.0775126 -0.630202 0.591081 0.262468 0.646779 0.84694 -0.244479 -1.18775 0.290459 0.66295 0.680295 -0.264284 0.344039 0.21849 0.904237 -0.644949 0.887809 0.0271259 -0.57467 1.11589 0.170244 0.529447 -0.945684 -0.562033 1.10351 0.780498 -0.701596 0.137348 0.102566 -0.413964 -0.427781 -0.198597 1.67343 1.37296 -0.479759 -0.426588 0.594412 -0.828931 0.348492 -0.561397 -0.0701236 -0.668072 -0.473898 -0.855578 -0.0422019 -0.384206 0.421774 1.48619 0.296066 -0.756082 0.279579 0.480635 -1.13823 -0.807284 0.606358 0.921544 -0.460904 0.420695 0.847601 0.0820562 -1.11412 0.412638 0.231802 -0.747648 -0.440923 0.158293 -1.22569 -0.77054 -0.294932 0.157742 0.660872 -0.558557 0.842079 -0.955984 0.68531 0.703783 -0.590037 -0.450524 -0.857509 -1.5948 -0.456786 -0.309013 -0.827497 -0.0281315 -0.109877 -0.481174 0.349404 0.41555 -0.461776 -1.40407 -0.0812426 -0.0420481 0.681912 -0.580056 0.259127 0.386194 -0.90475 0.689436 0.373746 0.580715 0.788427 1.16409 -0.133407 0.681917 0.638614 0.504223 0.224619 0.0291889 -0.882549 0.540222 0.195212 -0.369324 0.921612 0.311956 -1.03719 0.158407 0.364909 -0.0595378 0.870028 -0.52787 -0.716022 -0.917608 0.804109 0.104929 0.817097 0.588611 -0.443596 -0.203475 0.825021 -0.0504635 0.0204638 -1.10248 0.535161 -0.133845 0.775132 -0.370405 -0.948249 1.03927 0.487086 -0.628303 -0.270635 -0.214514 -0.975092 0.265035 0.935554 -0.183379 0.725792 -0.608973 -1.04668 0.228122 0.590022 -0.952581 -0.958995 0.251443 -0.512061 -0.161699 0.913364 1.42327 1.14645 -0.267167 0.430914 0.86271 -0.421903 0.545075 0.14132 -0.306989 -0.201707 -1.01577 -0.635038 1.16343 -0.330043 -0.374978 -0.54291 -1.31055 0.19008 -0.335657 0.0134121 0.095601 -0.132512 0.497168 0.367753 0.887083 -0.377713 0.00751807 0.600926 -0.137869 1.54272 0.601159 0.0481704 -1.68539 0.651472 0.275566 -0.907235 0.382176 -0.258459 0.799906 -0.0420218 0.959746 -0.259852 1.00595 -0.562212 -0.192443 0.643196 0.50303 -0.70118 -0.715047 0.558531 -0.869335 0.904021 0.275483 -0.348143 -0.441027 0.58702 -0.539662 -0.874501 0.0414193 -0.540295 0.355956 -0.253512 0.0406697 -0.0777485 -0.506091 -0.809139 -0.633107 -0.334391 -0.391011 -0.812824 -0.614375 0.753653 0.277113 0.156874 -0.757712 1.36303 0.0532947 0.207145 0.093955 0.490609 -0.0577884 0.480572 -0.432596 -0.496144 -0.574495 0.0693394 -0.569104 -0.633967 -0.701842 0.656054 0.822245 0.842103 1.31602 0.105327 -0.148713 0.823409 -0.903122 -0.350785 0.457055 -0.464124 0.739687 -0.300807 0.0749759 -0.70067 -0.928632 0.209202 -0.347815 0.174696 0.388244 0.745379 -0.761519 0.063733 0.802138 0.46528 -0.924644 0.162907 -0.00805536 0.403972 0.501651 0.167197 -0.474484 -0.498059 0.153321 0.619068 0.272951 0.0310295 0.708648 -0.35017 -1.34625 -0.107471 -0.214868 0.264021 -0.962487 0.843498 -0.469858 -0.27741 -0.739463 -0.251016 0.307286 0.287523 1.08884 0.499937 -0.678319 0.497613 -0.0114356 0.886701 -0.842348 -0.0193157 0.274827 0.030836 0.663725 -0.839285 -0.781542 -0.669608 -0.738038 0.182062 0.701158 0.206313 -1.06658 -0.334414 -0.152036 -0.728236 -0.088375 -0.672194 0.60904 -0.431787 0.962242 0.824215 -0.087297 -0.0938892 -0.848002 -0.475707 0.606748 0.232227 0.515237 0.621419 -0.0349199 -0.976805 0.189715 0.288358 -0.0140761 -0.781763 -0.990085 0.292017 1.12495 -0.523324 0.068793 0.110878 -0.121361 0.799557 0.0851575 -0.17854 0.830012 -0.107757 -0.0307155 -0.431792 0.785391 -0.0834002 -0.51537 -0.0220863 0.0334377 0.675085 0.502795 -0.0523397 0.0784152 0.387362 0.346084 -1.058 -0.755244 -0.342304 0.387713 -0.464022 0.128545 -1.04674 -0.102014 0.761166 0.0535826 -0.266441 0.217181 0.478858 0.660523 0.0237571 0.033911 0.520934 0.804091 -0.682972 0.0615692 0.931495 -0.264022 0.568939 0.926322 0.912981 -0.759842 -0.38696 -0.0767361 -0.3722 -0.0749055 -0.932194 -0.406765 1.03279 -0.673909 1.18242 -0.200319 -0.994744 0.0886707 0.771315 0.756594 0.736328 -0.1681 1.19557 0.393929 0.67942 -0.75299 -0.0426601 0.294193 0.865472 0.983865 0.828638 -0.790919 0.0172402 0.639063 -0.878817 -0.589824 -0.226916 -0.339633 -0.994536 -0.551023 0.320411 0.0666347 -0.0185351 -1.10845 -0.932216 -0.568822 -0.332253 0.143262 -0.182545 -0.492513 -0.885174 0.292984 0.619027 0.438637 -0.150836 0.620079 -0.229388 0.0773881 -1.02243 -0.118565 -0.382288 -0.605828 0.433095 -0.714744 -0.150602 -0.328706 -0.720319 0.00289367 1.17334 0.666346 -0.638398 0.17044 -0.179273 0.998445 -0.75834 0.709559 -0.782523 -0.0603665 0.00362908 -0.103833 -0.614991 0.246012 0.0901793 0.261658 -0.874839 0.450801 0.674951 -0.822972 0.231379 -0.367393 0.22648 0.216976 -0.724855 -0.0680964 0.345839 0.0123846 0.876332 -0.0831191 -0.17568 -0.25972 0.0756978 0.939037 0.904457 0.809024 -0.127145 0.333581 0.0741744 0.669834 0.200823 -0.632503 0.739971 0.642342 0.107636 -0.177333 -0.101461 -0.805251 -0.162479 0.498001 0.785099 -0.168277 -1.2251 -0.644026 1.26164 -0.426276 0.234748 0.761122 -0.2067 0.874638 0.262459 0.460052 -0.78035 0.81048 0.670862 -0.64882 -0.353881 -0.81349 -0.570243 -0.874347 0.423544 0.117463 0.42362 -0.717325 -0.351423 0.0569663 0.571861 -0.12716 0.106568 0.359184 0.539359 0.851906 0.282127 -0.156997 0.076668 0.0502327 0.729533 -0.445835 0.331524 -0.299939 -0.616174 -0.522408 -0.190596 0.523213 0.385241 -0.438038 -0.421682 -0.0341455 -0.241679 -0.155208 0.225867 -0.11591 0.610551 0.118755 0.2073 1.04227 -0.779261 0.129243 0.799371 -0.101352 -0.840678 0.241637 0.517907 -0.926888 0.982045 -0.721712 -0.00181862 -0.856764 0.321657 0.563304 -0.360622 -0.492098 -0.919772 0.82831 0.633194 0.973383 -0.780754 -0.924688 -0.286516 0.343179 0.935318 0.130194 0.414681 -0.939904 -0.734695 -0.302793 0.909455 -0.72567 0.872568 0.534316 -0.569265 -0.933821 0.809921 0.862987 -0.0148071 0.643877 -0.573856 -0.253618 -0.314538 0.23757 -0.211271 0.952977 0.461037 0.286621 -0.83381 0.353206 0.462323 -0.387733 0.813244 0.469317 -0.825543 1.01 0.859646 0.271144 0.402594 0.251117 -0.455229 -0.838755 -0.648312 -0.729627 0.822036 0.548361 0.639904 0.189622 -0.263988 -0.192058 0.254207 0.402677 -0.295667 0.00216665 0.0810546 0.402381 0.819614 1.01694 -0.905022 0.767628 0.131162 -0.488274 -0.231863 -0.0284468 -0.176773 -0.564508 -0.610636 0.398323 0.290873 -0.159101 -0.420195 -0.922255 -0.988313 -0.419961 -0.274091 0.469663 -0.174703 0.601798 0.00264518 -0.418247 0.711639 -0.690569 0.615869 -0.634148 -0.496543 -0.170449 0.355609 -0.167431 0.467588 -0.798649 0.639647 0.730052 -0.1525 0.0835724 -0.498839 0.90302 -0.405813 0.250863 0.54167 0.750976 -0.938186 -0.549897 -0.040584 -0.188742 -0.880001 -0.9255 0.111943 -0.459947 0.148267 0.539716 -0.76252 0.232553 0.560493 -0.774289 -0.521197 0.387098 0.583536 -0.0813977 -0.918213 0.791417 0.132645 -0.811984 -0.454187 0.926276 -0.281211 0.797158 0.835301 0.58614 -0.456839 -0.740093 -0.510726 -0.650208 0.56093 0.475205 0.246722 -0.499088 -0.444816 -0.687942 -0.0770813 -0.789456 -0.606859 0.814575 0.945426 0.0729933 0.960114 0.237773 -0.189706 0.879589 0.030109 -0.482382 -0.193791 0.485905 0.259609 -0.879241 0.253442 0.29127 0.666064 0.62579 -0.538821 0.053727 -0.051407 0.933948 0.649436 -0.346854 -0.335171 0.414625 -0.636143 -0.0586063 0.40387 -0.207899 -0.338226 0.323616 0.0853677 -0.779548 -0.272855 0.219793 0.904394 0.257124 0.947127 -0.17508 0.121484 0.342179 -0.980443 -0.441795 -0.803234 0.568675 -0.280237 0.229938 -0.423213 0.355161 0.550128 -0.0126712 -0.048198 0.0892426 -0.727491 -0.401979 0.519658 0.0226962 -0.403516 0.57996 -0.793532 -0.00328213 0.223761 -0.730601 0.551398 0.530217 -0.638708 0.265677 0.915316 -0.278224 -0.295874 -0.731441 0.792667 -0.956586 -0.0543294 -0.559037 0.330848 0.0830513 0.305767 -0.926776 0.595385 -0.910821 0.422304 0.680841 -0.202509 -0.260671 0.200865 0.880336 0.911996 -0.161473 0.610536 0.661434 -0.983207 0.145353 0.578978 0.174179 -0.304011 0.66414 0.818719 0.793644 -0.502367 -0.674621 -0.583394 0.54685 -0.173316 -0.826754 0.772785 0.5617 0.157889 0.464316 -0.429884 0.67262 0.13139 0.988121 0.929452 -0.97972 0.374893 -0.424886 0.519974 0.973497 -0.948639 0.573074 0.621238 0.433554 0.253833 -0.0176424 -0.743843 0.214535 -0.439596 -0.605342 0.892247 0.110952 -0.423338 -0.255531 -0.0866484 0.118952 0.61487 0.273319 0.726654 -0.507781 0.688882 0.244871 -0.707237 -0.482623 0.771615 -0.203201 -0.4934 -0.728936 0.0618522 -0.825037 -0.021206 0.937179 0.612151 -0.635888 0.155274 -0.0410178 0.399942 -0.272268 0.839324 0.707778 0.92676 0.508579 0.210471 0.832215 0.42888 0.382719 -0.947363 0.932308 0.979201 -0.458043 -0.668602 -0.275981 0.367524 -0.0904248 0.654881 -0.0503176 0.00794509 0.214651 -0.481587 0.66858 -0.139894 -0.572529 -0.0326793 0.0748309 0.313952 -0.29832 -0.60448 0.731805 -0.472669 -0.430033 -0.101039 0.49163 -0.890532 -0.142439 -0.204277 0.672461 -0.201612 0.137595 -0.775751 0.105316 0.323664 -0.744696 -0.340602 0.372033 0.269683 0.260411 0.310226 -0.123903 0.210338 -0.361817 0.926581 -0.291598 0.530266 0.449481 -0.778974 0.137736 -0.0672328 0.769504 0.0254221 0.688243 -0.449173 0.955901 -0.218006 0.1289 0.290709 -0.279303 -0.588494 0.58246 0.885896 0.981183 0.976599 0.914495 0.0870751 -0.122308 0.349058 -0.12711 0.400189 -0.456041 -0.732792 0.28343 -0.770213 -0.368198 -0.715919 0.439946 -1.00466 -0.170321 -0.764406 0.591803 -0.45595 0.323215 0.142195 0.356327 -0.349251 -0.688393 -0.259262 0.701901 -0.96718 -0.8349 -0.247242 0.272 0.818042 0.276506 0.3038 0.827465 0.753658 -0.662334 -0.601295 -0.0951721 -0.649152 0.548118 0.670446 0.159176 1.02963 -0.538897 0.578519 0.546048 0.843155 0.335007 -0.32132 0.103446 -0.681296 -0.786324 1.04915 -0.462045 -0.883822 -0.0649565 0.493765 -0.221028 1.14697 0.536123 0.393661 -0.53976 -0.796086 -0.1436 0.1491 0.904246 -0.00767269 -0.519019 0.406589 -0.143943 -0.276136 0.52893 0.493016 0.811822 -0.956311 -0.259425 -0.71213 -0.00467589 0.244546 -0.095349 -0.876273 0.671882 -0.687022 0.710969 -0.760691 -0.526168 -0.447279 0.514053 -0.716641 0.943543 0.478647 -0.500575 0.923264 0.849024 -0.0148509 0.777438 0.77949 -0.0800879 -0.567817 -0.914756 0.227085 0.658666 0.111123 0.358857 -0.333817 -0.417285 0.247452 0.951151 -0.801992 0.146286 0.973975 -0.339422 0.417821 0.00282045 0.0319664 0.651981 -0.468385 0.972261 1.01452 -0.506668 -0.878147 -0.042713 -0.276626 -0.447098 -0.123395 -0.133659 -0.615956 0.72956 -1.24157 0.420278 0.00229257 -0.0520792 -0.800036 -0.35645 0.32886 -0.779493 0.741523 -1.24876 -0.602687 -0.403359 -0.781762 0.368794 -0.446064 -0.549557 0.0991281 -1.17081 0.281416 0.260373 -0.705125 0.724088 -0.279234 -0.20985 0.013207 -0.350523 -0.43133 -0.472685 0.184822 -0.0809504 -0.209001 -0.971734 -0.306128 -0.181242 0.226854 -1.19976 1.09523 -0.421459 -0.462165 0.0897444 -0.883334 0.954186 0.556814 0.11033 -1.11761 0.67681 -1.06823 -0.452715 -0.153463 0.463868 -0.726317 -0.642052 0.773873 0.656152 -0.61148 0.141416 -0.606819 -0.207521 0.0839306 0.740689 -0.152481 -0.210476 -0.656073 0.17266 -0.477205 0.668436 -0.494916 -1.0284 1.02813 -0.34356 0.0266864 -0.199753 0.193832 -0.428248 -0.587861 0.376747 0.819395 -0.763228 -0.0494996 0.616678 -0.118876 0.877257 -1.0915 1.09088 -1.04417 -0.49673 -0.0145358 0.450824 0.427767 -0.218578 0.213496 0.724274 -1.02363 -0.990367 -0.224708 -0.636092 -0.35106 -1.27726 -0.750819 -0.596815 0.850308 0.0452406 0.371008 0.727352 0.132037 -0.573511 -0.628862 -0.707764 0.429809 0.250204 0.0745415 1.21936 1.07384 0.062145 -0.180464 0.406014 -0.216878 -0.0386042 -0.152706 0.720434 -0.492321 0.8024 0.0613872 0.35165 0.21424 0.37255 0.658206 0.431584 -1.13893 0.907535 -0.38858 0.0618236 -0.96867 -1.09588 0.216186 -0.0477474 0.554072 0.587995 0.808865 -0.40507 -0.12797 -0.23067 -0.111691 0.549771 -0.796803 0.940982 -0.788657 0.465589 -0.501522 -0.47747 -1.03074 -0.5708 0.437831 -0.313635 0.568817 -0.173311 0.393081 -0.353441 -0.899739 0.579712 -0.265725 -0.672119 1.05898 0.00566072 -0.24566 -0.180604 -0.162962 -0.954672 1.32413 -0.318008 -0.228536 -0.718235 -0.683556 0.229458 -0.529214 -0.568848 0.857098 -0.0587827 0.552219 1.09209 -0.58075 0.0810812 0.14324 -0.585089 -0.210178 0.440435 0.763249 -0.511032 -0.057382 0.94197 0.0798936 0.953147 1.01366 -0.354069 0.207931 -0.00686598 -0.0167895 -1.77164 -1.19138 -1.14618 -0.737511 0.305138 -0.727879 -0.216764 -0.134079 -1.41 -0.308441 -0.114159 0.000950244 0.429763 0.452003 0.253029 -0.8147 -0.53047 0.239863 -0.729521 0.383317 0.577044 1.3902 -0.711009 -1.06608 0.7077 -0.419559 0.0612768 1.43699 -0.692615 0.0203053 -0.432055 0.527549 0.0155366 -0.205309 -0.692329 0.489738 -0.299926 -1.01943 -1.40214 -0.359063 0.0346808 0.618504 0.157811 -0.0804529 1.029 0.264603 -0.0303965 -0.068531 0.498529 -0.872441 0.227768 -0.323919 0.569976 -0.251745 0.611755 -1.25891 -0.533538 1.11475 0.372164 0.226859 -0.303635 -1.0236 0.793797 1.62711 -0.856702 -0.412065 0.806968 -0.513291 -0.442669 -0.716819 0.11868 1.38473 -0.017853 0.647703 -0.734235 -1.03043 -0.281472 -0.121442 0.0284588 -1.11578 -0.333506 0.786837 -0.288008 -0.741637 1.29913 -0.791205 0.848461 -0.939522 0.569275 -0.461679 -0.584437 -0.797183 0.135596 1.27285 0.79976 -0.312064 -0.849462 0.715356 -0.724301 0.791534 -0.842212 -0.829614 -0.301169 -0.804126 0.262803 0.0759421 -0.577062 -0.051253 -1.3933 -1.29097 -0.618861 0.223049 -0.337457 1.8507 1.38826 -0.378406 -1.14456 0.946119 0.844946 -0.102432 -0.122637 1.46245 0.955083 -0.801694 -0.825978 -0.305597 -0.786536 0.855802 0.703075 0.145127 -0.423061 -1.01918 0.46447 -0.393116 -0.36533 -0.589034 -0.828165 -0.720823 0.181755 0.724547 0.906181 -0.945808 -0.54635 -0.904974 0.0402783 -0.35521 0.451694 -1.07676 1.44137 0.574249 -0.517596 0.118124 0.886696 0.391438 0.300697 -1.11328 -0.153161 0.0862092 -0.16615 0.594152 -1.33334 -0.401499 -0.831558 -0.119161 -0.615193 0.806535 -0.486401 -0.254129 0.151512 -0.637477 -0.122688 -0.469497 0.641498 -0.70045 0.700874 0.66409 -0.33856 0.0498008 0.428977 -0.47141 -0.151492 1.73056 -0.145739 0.0809297 1.51576 0.0621612 0.0842499 0.408343 -0.584687 -0.46426 -0.950416 0.518607 -0.583151 1.00978 0.0831415 0.676863 -0.563124 0.238806 0.434734 -1.07712 -1.01961 -0.443958 0.169964 0.29646 -0.681774 -0.65453 0.131258 0.823569 -1.37045 -1.37033 -0.230472 0.768051 -0.237697 1.21931 -0.509859 0.393024 -0.817362 1.1105 -0.51944 0.623644 0.755856 0.317126 0.37233 -0.528598 -0.308685 -1.07651 -1.0229 1.39092 0.474722 1.11254 -0.865412 -0.225597 -0.273663 -0.822374 0.709033 1.09787 -0.301891 -0.24269 0.120169 0.43703 -0.761209 0.218739 0.111808 -0.801694 -0.343233 0.406966 1.08305 -0.256621 1.45821 -0.91023 -0.606979 1.20146 -0.407809 -0.574513 -0.537574 -0.0570609 -0.855021 0.957766 -0.655379 -0.403208 0.452523 -0.400857 1.15544 0.502742 -0.317827 1.02657 -0.663573 -0.372589 0.566341 0.385337 -0.482581 -0.777817 0.661219 0.461401 -0.895051 -0.0990021 0.528251 0.522772 -0.932425 0.339493 0.00691469 2.00011 1.04729 -0.961649 1.91729 -1.16766 -0.0819912 -0.197779 -0.311721 -0.486502 -0.365952 -0.181037 -0.43238 0.476982 0.318665 -0.479973 -1.25911 0.722126 0.779933 -0.979192 -1.74412 -0.899833 -0.638746 0.258002 0.849592 0.256707 0.403908 0.394009 -0.6696 -1.75483 -0.384661 0.192429 -0.0381952 -0.0953304 -0.914625 -0.841567 0.64824 1.89372 0.718191 0.979154 0.552778 0.407962 -0.0892244 0.132838 0.735869 0.926852 -0.667202 1.01063 0.466366 0.719989 -0.968172 0.420409 0.164745 0.482884 -0.836413 -0.359971 0.428438 -0.376984 -0.717449 0.630682 0.585448 -0.847425 -0.397235 -1.16005 0.905648 -0.0274913 -0.176907 -1.27187 -0.37606 0.0339693 -0.355237 1.99811 -1.13306 0.226727 0.390824 -0.507534 0.47069 0.724529 1.09654 0.658835 -0.776624 1.18245 1.02324 1.01509 -0.519607 0.0582462 -0.408333 -0.0428135 -0.525416 -0.657274 -0.919652 0.468463 0.0654338 -0.608083 -0.769329 -0.246255 0.95975 0.0689834 -0.563297 -0.347674 0.681798 0.647645 -0.514353 0.23965 1.1767 0.318017 -0.404008 0.159979 -0.674368 0.42947 -0.600164 0.203258 0.153989 1.18734 0.716683 -0.645379 -0.391844 0.851232 -0.75103 -0.179103 -0.248643 -0.236831 -0.175197 -0.183588 0.117956 -0.260046 0.686825 0.929034 0.10154 -2.05404 -1.90707 -1.02156 0.184916 1.11808 1.07343 -0.956075 0.468093 0.563798 0.704572 -0.0786398 1.32365 1.86313 0.478177 0.665047 -0.660604 0.867434 0.269044 1.34615 -0.701976 -0.0529712 -0.826537 0.372336 -0.0847498 -0.315153 0.341989 0.773811 -0.467147 1.26801 -0.407993 0.785847 0.454238 -0.658813 -0.17365 -1.02826 0.582885 -0.460692 0.196113 -0.325386 -0.752753 -0.752983 -1.35668 1.53926 0.0194555 -0.838812 0.454532 0.229702 -1.19201 -0.568632 0.448415 0.820135 -0.607771 0.898275 1.0719 -0.116632 -0.326343 0.230698 -0.399698 -0.595931 0.801566 -0.524115 0.621075 -0.367684 -1.31987 0.562307 0.278987 -1.2283 -0.666145 -0.0344159 0.398143 0.39359 0.958566 0.39486 -0.14822 -0.443402 -0.222548 0.3606 -0.250096 -0.0900727 -0.503974 0.134663 0.14916 1.38913 -0.82473 1.12569 1.16791 -0.0957555 -1.23587 0.980533 -0.89729 -0.926785 0.579111 -0.968728 0.846828 0.518879 0.504625 -0.535581 0.78574 -0.194232 1.68815 -1.55956 -1.49291 -0.356951 0.226764 0.969019 -0.159947 -0.0126166 -1.21026 0.25201 0.670858 1.3801 0.718267 0.0942864 -0.565376 -0.655801 0.426177 -0.68642 0.0471767 -0.0599744 0.754045 1.1082 -0.439975 1.70863 0.556561 -0.364814 0.685334 0.761261 0.472738 1.6574 -0.162684 1.31366 0.707545 -0.400947 0.486306 0.893109 0.613943 -0.0575268 1.42881 0.753558 -0.775423 -0.0944334 -1.23073 0.118327 -0.109241 -0.819077 -1.0529 0.795851 -0.333766 -0.879723 -0.885176 -0.414347 -0.638775 1.83418 -0.577346 1.86523 -0.541726 0.311759 0.703753 -0.155879 0.388337 0.523048 0.526647 -0.267838 -0.329388 0.880968 -1.28126 -0.273956 -0.598823 0.410261 0.782459 0.35611 0.989839 0.405656 -0.624787 -0.92701 -0.94188 -0.616016 0.94941 0.202163 0.576188 0.474044 0.733257 1.71738 -0.0627631 0.189117 -0.0435248 -0.432697 -1.40229 -0.686297 0.785233 -1.8322 0.24376 -1.00241 0.0727208 -0.173598 0.334973 -1.49113 -0.0811502 -0.442656 2.0658 -2.72524 -2.54599 -0.511431 0.977366 1.25572 0.20144 0.664054 -0.220308 0.057449 -0.249937 0.810037 1.81837 1.06698 0.983167 0.802908 0.148951 -0.83621 -1.12004 -0.459703 -0.130282 1.01773 -0.847125 0.565294 -1.39817 0.645475 -1.0833 -0.55293 -1.42959 1.33576 0.484022 0.490673 1.36683 -0.624788 -0.687566 0.228305 0.518835 0.0515636 0.0698516 0.0357934 -0.717791 -1.17373 -1.1481 0.226993 -0.0455411 -0.699174 0.769226 0.17827 0.122411 0.113288 1.18386 0.757642 0.0116732 1.64169 0.491003 1.44542 0.861978 -0.413704 -0.0897588 0.824863 0.132705 -0.102761 -0.651952 -0.556984 -0.707058 -0.248757 -1.43912 -1.44311 0.659497 0.309485 -0.370805 0.375776 1.02515 0.676281 -0.707565 -0.866909 -1.6587 -0.460444 -0.30585 1.75779 -1.06788 0.723873 -0.141938 1.59206 0.289123 0.0276758 -0.448832 -1.01648 -0.472673 -0.416784 -0.393882 -0.948372 1.61737 -1.05159 -0.35457 -0.245329 -0.4466 -0.570588 0.790851 -0.412677 1.93289 -2.23093 -0.760401 -0.632413 1.12034 0.108273 0.805246 0.139508 -0.0588955 0.739998 0.0618711 1.20473 0.968926 1.48928 0.099447 0.426921 0.0979996 -0.0301489 0.625027 -1.51702 0.93057 1.05008 -1.10878 2.00785 -0.939937 -0.127094 -0.79282 -0.5986 -0.116607 1.95124 -0.0260154 0.160527 0.699147 -0.213132 -0.787511 0.330043 0.423043 -1.60971 -0.475366 -0.0936881 -0.17124 -0.575463 -0.559826 0.231004 -1.02054 -1.33872 -0.0720392 1.55996 -0.889392 -1.23577 0.504524 0.891645 1.14027 1.40903 -0.13759 1.33806 -0.15769 0.611934 -0.29379 0.680482 -0.0946596 0.55199 -0.251779 0.68001 -0.562902 0.489648 -2.13738 0.742587 -0.736981 -0.041127 0.246053 0.820224 -0.797034 0.63116 -0.563865 -0.969541 -1.56469 -0.646514 -0.437541 2.07566 0.0562126 -0.847663 0.422996 0.0324988 -0.747422 -1.19456 -0.366965 0.299955 -0.809625 -0.220227 0.110339 -2.19613 2.00664 -1.13547 0.0572125 0.607106 -2.23158 -1.70628 0.701642 -0.264491 2.1491 -1.63734 -1.68091 0.846552 0.185008 0.829349 0.635777 0.51724 -0.671256 -0.327382 -1.13705 -0.774306 0.0641379 0.969015 -0.938474 -0.50958 0.0648753 -0.354104 -0.269494 -1.44536 0.556641 1.00408 -1.93605 1.65862 -0.303067 -0.0421727 -1.23477 -0.451537 -0.498036 1.90864 -0.0340947 2.16698 0.165655 0.34683 -0.322011 0.666974 0.703627 -1.16681 -1.13995 1.03495 -0.446671 -0.884777 1.49365 -1.68343 -0.596223 -2.41921 0.347459 0.103425 -1.10382 -0.74831 0.497582 -1.14559 1.18247 1.3119 -0.378756 0.635839 -0.183604 -1.27589 0.349036 -0.291154 -0.224588 -0.63449 -0.765492 0.0372041 0.309969 -0.516598 -0.850421 -0.249718 -0.721798 0.96525 0.0161238 -0.164095 -0.937925 1.61894 -0.446138 -0.471912 -3.09322 -1.25998 0.265734 0.271693 0.756758 -0.492739 0.182141 0.992386 -0.43207 -0.774352 -0.839244 -0.868019 0.328566 -1.30297 -0.131 -0.796236 0.642855 0.673899 0.106621 0.532174 -2.01616 -1.39577 0.483499 -0.674829 0.366543 -1.98672 -0.683399 -0.523501 0.699368 -0.121977 0.374801 0.699105 0.834638 -0.351741 -0.723341 0.34175 -0.119482 -0.025429 0.315417 -1.00794 -0.129755 -0.768958 -1.15712 -0.168155 0.975449 -0.0686378 -0.872946 0.18006 0.173855 -1.00231 -1.06515 -1.01536 -1.63704 1.04586 0.304452 1.66381 0.359218 -0.0600564 -0.37995 -0.118538 -0.549701 -0.239372 0.010433 0.795829 0.437219 0.0590917 2.51801 -1.7429 -0.450617 -1.10609 -0.0503723 0.151285 0.0419454 -1.06414 0.940598 -1.32656 0.143454 1.25398 0.937085 0.589368 -1.00978 0.239517 0.276692 0.480343 -0.531249 -0.765924 0.37812 0.507641 -0.639919 0.426724 -0.276582 -0.193165 -1.14931 1.54424 1.4034 -0.0239807 0.164049 1.8632 0.484303 0.330077 -2.68395 0.521881 1.58108 0.382553 0.72309 -0.836548 -0.92522 0.421766 -0.549646 0.17816 -0.592623 0.155023 -0.8386 -0.906687 -0.737569 -1.22684 1.14798 -0.386735 -0.416827 0.877666 -0.531741 -0.230921 -0.0509331 -0.705962 0.610261 -0.594304 -0.0578894 0.875398 -0.255237 -0.113894 0.47693 0.194402 0.836774 0.395887 -0.647424 -1.09181 -0.592403 -0.0486597 0.536105 0.190568 -1.29548 -1.23334 -1.06771 -1.77102 1.72216 0.00396753 -2.12222 -0.300972 -0.314544 -0.0389438 -0.023291 -0.546223 -0.142663 1.18512 -0.526514 1.9038 0.982654 -0.15938 -0.722345 1.06075 0.702482 -1.13234 -0.683493 1.89361 -0.109265 -0.61146 1.42622 -2.06849 -1.95938 -2.13493 0.294766 0.00639917 -0.979983 0.593808 1.147 -0.732839 -0.0641778 -0.0926774 -0.0533085 0.896019 -1.42094 -0.726084 -0.222632 -0.421898 -0.243182 -0.252103 -0.77212 0.281866 0.054351 0.637394 -1.81013 -0.811586 -0.699657 2.01364 0.107829 -0.269322 -0.828747 0.539635 -1.09339 -0.830308 -3.02772 -0.306121 -0.157809 0.143206 0.736604 0.246553 0.231295 -0.682835 1.22529 -0.658653 -1.5542 -0.433737 -0.627744 -1.06729 -0.512529 -0.160857 0.755502 0.33999 -1.30643 -0.609267 -1.52323 0.198793 -0.247422 -0.996304 -0.0602152 -0.622439 0.86553 -0.00358824 -1.76103 0.621503 1.28003 -0.274767 0.0735963 -0.275666 0.463557 -0.0433765 0.490936 -0.748578 -0.375258 -0.404117 -1.2162 -0.0457698 -1.10384 0.077925 1.27952 -1.02889 -1.69324 1.14086 -1.6587 -0.756795 -0.729402 -0.520206 1.24095 2.10198 0.574701 0.989147 -0.329819 1.15675 -0.257096 0.916752 -1.14995 -0.588746 -1.03821 0.730966 -0.213416 -0.810649 2.75256 -1.4071 -1.44004 -1.43971 0.42037 0.250627 -1.48286 -0.34206 1.70695 -0.573536 0.291133 -0.657916 0.305186 0.868869 -0.693858 -0.222902 -0.780845 0.762308 -0.593173 -0.621996 -0.251457 0.0790722 0.105646 -0.126411 0.36771 0.179738 -0.456192 1.74617 0.0760029 -0.285004 -1.09766 -0.0918747 -0.984675 0.136789 -1.58562 0.962814 0.614093 0.540917 0.860086 0.126836 -0.437345 -0.75172 0.814251 -0.937433 -0.0320267 0.87814 -0.77421 -0.12543 -1.80697 1.13965 0.788074 -0.440067 -0.254494 0.288617 -0.143682 0.243182 -0.0647873 -2.01706 0.100292 -0.567348 -0.21603 0.790979 -1.82351 -0.143181 -0.0595307 -0.462697 0.615435 -0.0124548 0.144938 -0.134072 -0.301985 -0.750647 0.272854 -0.0955248 -0.916817 0.0947309 0.87334 -1.08238 0.403719 0.279924 0.0570061 -0.892329 -0.985788 0.131002 -1.73537 0.205842 1.7599 1.3678 -0.339883 1.58511 0.138237 -0.536917 0.812004 0.357657 0.558104 -0.176128 0.703289 -0.0514823 -0.0134929 -0.533083 1.98396 -0.0408502 -1.17148 -1.21472 0.636338 0.230348 -0.240933 -0.24271 0.551088 -0.427871 1.39518 -1.11256 -0.956981 0.709084 -1.70335 -0.856839 -0.883974 0.368215 -0.0494348 -0.451682 -0.882663 1.08388 -1.20296 -0.690324 0.11777 -0.760107 -0.562439 1.55417 1.00365 -0.524083 -0.964138 -0.811127 -1.72622 -1.32094 -1.28448 1.53388 0.100806 -1.18281 0.769647 0.150218 -0.702537 0.394609 1.19163 0.365347 -0.351846 -0.468708 -1.60641 0.0124202 -1.90202 0.118529 1.27157 -0.88197 -1.07578 -0.227633 -0.175861 1.43471 -1.37149 -0.331919 -0.537512 -0.0169039 0.630117 1.08348 -1.31142 0.534998 0.532706 -0.0335153 -0.30423 -0.200711 -0.626445 -1.05059 -0.362518 0.307487 0.514836 0.545503 0.689605 -0.901094 0.670756 0.775969 1.83185 -1.32845 -0.237353 -0.970656 -1.22036 -1.40679 -1.40217 0.0285718 2.01784 1.94865 0.0825825 0.584834 -0.746914 0.778347 0.354688 0.381892 -0.235433 -0.809736 -0.789982 1.3028 0.0505157 -0.578284 2.28654 -0.119715 -0.517774 -1.00402 0.371489 0.803546 0.00849744 -1.02391 -0.0874199 -0.0355352 1.10923 0.0165015 0.314074 1.38636 -0.929123 -0.0762582 0.876265 1.08454 -0.889716 0.0839032 -0.586193 0.343744 -1.32995 -0.560741 1.16396 -0.481909 -0.640874 1.41726 1.13812 0.104601 -0.957114 0.296055 0.207052 0.315079 -1.58471 1.29623 -0.69126 -0.713244 0.620712 -0.430022 0.774264 0.165494 1.17839 -0.887871 -1.09442 1.12858 -1.14148 0.631086 -1.49213 0.890387 -0.901054 -1.00734 -1.71912 -0.289399 0.813578 0.566155 -0.495555 -1.0464 0.713242 -0.643795 -0.270472 0.983394 -0.705144 0.596204 0.406311 0.871693 -0.859611 -0.442533 0.753067 -1.15858 -0.71187 -1.29864 -0.434199 0.671495 -0.325428 0.314113 -0.786808 1.31414 -0.0340222 0.499079 -0.369479 -1.24721 0.437101 0.413696 -1.76083 0.778853 1.36979 0.799939 -1.58842 -0.154131 -0.819642 0.430025 -0.0181824 1.35113 0.0201462 -0.040848 0.309158 -0.623835 0.223319 -1.19917 0.349925 -0.274587 -1.80471 -0.0385523 -0.735732 -0.570007 -0.266674 -0.900459 -0.237218 1.66276 2.43011 -1.28993 0.0560249 -0.716095 1.09948 0.492532 0.791422 0.00187348 0.342037 -1.11292 0.935158 -0.430601 0.451425 -0.516294 1.45657 -1.19159 -1.84111 -0.379324 0.506875 -0.350545 -0.987061 -0.59882 -1.06216 -0.672801 -0.0237753 0.0213092 0.531158 0.12873 0.0344985 -0.464138 0.58453 0.993827 1.82216 -0.247911 -1.33708 1.68779 0.0952833 -1.08525 -0.723825 1.34861 -0.848925 -0.587854 -0.553278 -0.311513 0.75067 0.0358169 -1.2369 -0.934138 -0.479396 -1.0419 -0.234988 0.38882 -1.77291 0.0749576 -0.944109 -0.911006 0.327477 0.518875 -0.524133 -1.01206 -0.563529 -1.00046 0.272477 0.149926 0.26177 0.846743 -0.783307 0.590117 1.08838 0.793354 0.212554 -0.727286 -0.557825 -1.10173 -1.38148 0.439531 1.95522 1.41233 0.140661 0.649446 -1.21396 0.435416 -1.22215 0.951585 -0.103831 0.606846 0.787215 -0.0124842 0.29605 -0.753908 0.0915514 0.444655 -1.53288 -0.0409751 -0.685154 0.536072 0.62525 0.533011 0.445417 1.56654 2.03345 -1.85857 -0.569045 0.343535 0.422715 -0.656141 0.244308 0.668757 0.714346 0.0495419 -0.102785 -0.632968 -0.117398 -0.543985 0.725305 -0.560506 -0.784616 0.27004 0.519202 -0.82201 -1.09632 -0.935714 0.227101 -0.383949 0.0453286 -0.00681527 -0.641575 -1.66843 0.989399 -0.287926 -0.750606 -0.556604 1.49035 -0.183485 -1.15291 0.157212 -0.601073 -0.68765 -0.330174 0.251761 -0.836211 0.745186 -0.015181 -0.170607 -0.171824 -0.258692 -1.34301 -1.36138 0.166755 -0.480822 -0.0520093 0.196044 -2.89835 1.8277 -0.575896 0.597795 -1.30957 -0.227266 -0.0735786 0.413362 0.711126 0.359225 0.591552 0.495906 0.23587 0.92376 -0.158865 1.23095 1.0236 -0.263007 0.139494 0.456051 0.495998 -0.525551 -1.34564 -0.43104 0.908325 0.13022 0.111883 -0.879957 -0.342171 -0.892314 0.447964 -0.686446 0.436055 0.0277365 1.07498 -0.618698 0.21686 -0.299807 1.00101 1.97178 -1.05472 -0.263935 -1.52053 -0.640174 -0.621847 0.995736 -1.27624 0.948854 1.39975 -1.03767 -0.255749 0.207104 0.370442 0.293221 -0.0403619 -0.691092 -0.694941 -0.877919 -0.909696 0.2941 0.107718 0.212547 0.502268 0.140656 1.60289 0.774442 -1.51318 -0.458736 